{"learner":{"attributes":{},"feature_names":["day_of_week","hour_of_day"],"feature_types":[],"gradient_booster":{"model":{"cats":{"enc":[],"feature_segments":[],"sorted_idx":[]},"gbtree_model_param":{"num_parallel_tree":"1","num_trees":"50"},"iteration_indptr":[0,1,2,3,4,5,6,7,8,9,10,11,12,13,14,15,16,17,18,19,20,21,22,23,24,25,26,27,28,29,30,31,32,33,34,35,36,37,38,39,40,41,42,43,44,45,46,47,48,49,50],"tree_info":[0,0,0,0,0,0,0,0,0,0,0,0,0,0,0,0,0,0,0,0,0,0,0,0,0,0,0,0,0,0,0,0,0,0,0,0,0,0,0,0,0,0,0,0,0,0,0,0,0,0],"trees":[{"base_weights":[4.3082656E-7,-9.929537E0,1.3838171E0,-1.02761755E1,-6.0589075E0,3.7434769E0,-5.0065517E0,-1.127541E0,-8.425388E0,-3.609808E-1,-8.56657E-1,-9.627294E-1,4.473779E0,-2.4744136E0,-7.563628E0,-7.2560865E-1,-9.007894E-1,2.10797E-1,-6.229346E-1,5.009635E-1,-1.2426343E-2,-5.821663E-1,-1.9545147E-1,-9.579347E-1,-5.557658E-1],"categories":[],"categories_nodes":[],"categories_segments":[],"categories_sizes":[],"default_left":[0,0,0,0,0,0,0,0,0,0,0,0,0,0,0,0,0,0,0,0,0,0,0,0,0],"id":0,"left_children":[1,3,5,7,9,11,13,-1,15,-1,-1,17,19,21,23,-1,-1,-1,-1,-1,-1,-1,-1,-1,-1],"loss_changes":[5.9538277E4,6.4883984E2,5.7364543E4,8.019453E2,2.5158606E2,9.552168E3,6.624502E3,0E0,5.3154297E1,0E0,0E0,6.0615317E3,5.9262695E3,8.8832104E2,2.0089316E3,0E0,0E0,0E0,0E0,0E0,0E0,0E0,0E0,0E0,0E0],"parents":[2147483647,0,0,1,1,2,2,3,3,4,4,5,5,6,6,8,8,11,11,12,12,13,13,14,14],"right_children":[2,4,6,8,10,12,14,-1,16,-1,-1,18,20,22,24,-1,-1,-1,-1,-1,-1,-1,-1,-1,-1],"split_conditions":[4E0,3E0,2E1,5E0,2E0,6E0,2.2E1,-1.127541E0,1E0,-3.609808E-1,-8.56657E-1,5E0,1.9E1,2E0,4E0,-7.2560865E-1,-9.007894E-1,2.10797E-1,-6.229346E-1,5.009635E-1,-1.2426343E-2,-5.821663E-1,-1.9545147E-1,-9.579347E-1,-5.557658E-1],"split_indices":[1,1,1,0,0,1,1,0,1,0,0,0,1,0,0,0,0,0,0,0,0,0,0,0,0],"split_type":[0,0,0,0,0,0,0,0,0,0,0,0,0,0,0,0,0,0,0,0,0,0,0,0,0],"sum_hessian":[4.331E3,5.29E2,3.802E3,4.84E2,4.5E1,2.777E3,1.025E3,3.11E2,1.73E2,2.4E1,2.1E1,3.73E2,2.404E3,5.16E2,5.09E2,6.2E1,1.11E2,2.36E2,1.37E2,2.153E3,2.51E2,6.8E1,4.48E2,2.52E2,2.57E2],"tree_param":{"num_deleted":"0","num_feature":"2","num_nodes":"25","size_leaf_vector":"1"}},{"base_weights":[-1.4277594E-3,-8.9440775E0,1.2448529E0,-9.254236E0,-5.479487E0,3.3691566E0,-4.5081296E0,-1.0151482E0,-7.592196E0,-3.2632664E-1,-7.7488524E-1,-8.6755884E-1,4.0266047E0,-2.228476E0,-6.810233E0,-6.5419954E-1,-8.115147E-1,1.8980621E-1,-5.6109256E-1,4.508904E-1,-1.1188645E-2,-5.247933E-1,-1.7594983E-1,-8.6251986E-1,-5.004046E-1],"categories":[],"categories_nodes":[],"categories_segments":[],"categories_sizes":[],"default_left":[0,0,0,0,0,0,0,0,0,0,0,0,0,0,0,0,0,0,0,0,0,0,0,0,0],"id":1,"left_children":[1,3,5,7,9,11,13,-1,15,-1,-1,17,19,21,23,-1,-1,-1,-1,-1,-1,-1,-1,-1,-1],"loss_changes":[4.8291496E4,5.188164E2,4.649196E4,6.461875E2,2.060664E2,7.7413945E3,5.3692715E3,0E0,4.247168E1,0E0,0E0,4.916914E3,4.8008633E3,7.228684E2,1.6287051E3,0E0,0E0,0E0,0E0,0E0,0E0,0E0,0E0,0E0,0E0],"parents":[2147483647,0,0,1,1,2,2,3,3,4,4,5,5,6,6,8,8,11,11,12,12,13,13,14,14],"right_children":[2,4,6,8,10,12,14,-1,16,-1,-1,18,20,22,24,-1,-1,-1,-1,-1,-1,-1,-1,-1,-1],"split_conditions":[4E0,3E0,2E1,5E0,2E0,6E0,2.2E1,-1.0151482E0,1E0,-3.2632664E-1,-7.7488524E-1,5E0,1.9E1,2E0,4E0,-6.5419954E-1,-8.115147E-1,1.8980621E-1,-5.6109256E-1,4.508904E-1,-1.1188645E-2,-5.247933E-1,-1.7594983E-1,-8.6251986E-1,-5.004046E-1],"split_indices":[1,1,1,0,0,1,1,0,1,0,0,0,1,0,0,0,0,0,0,0,0,0,0,0,0],"split_type":[0,0,0,0,0,0,0,0,0,0,0,0,0,0,0,0,0,0,0,0,0,0,0,0,0],"sum_hessian":[4.331E3,5.29E2,3.802E3,4.84E2,4.5E1,2.777E3,1.025E3,3.11E2,1.73E2,2.4E1,2.1E1,3.73E2,2.404E3,5.16E2,5.09E2,6.2E1,1.11E2,2.36E2,1.37E2,2.153E3,2.51E2,6.8E1,4.48E2,2.52E2,2.57E2],"tree_param":{"num_deleted":"0","num_feature":"2","num_nodes":"25","size_leaf_vector":"1"}},{"base_weights":[-2.5723903E-3,-8.056428E0,1.1198431E0,-8.333927E0,-4.955478E0,3.0322654E0,-4.059328E0,-9.139587E-1,-6.8414E0,-2.9499933E-1,-7.009189E-1,-7.817956E-1,3.624127E0,-2.0069835E0,-6.131882E0,-5.8981794E-1,-7.310878E-1,1.709057E-1,-5.0538987E-1,4.0582228E-1,-1.0074235E-2,-4.7307453E-1,-1.5839401E-1,-8.2479733E-1,-4.8602644E-1],"categories":[],"categories_nodes":[],"categories_segments":[],"categories_sizes":[],"default_left":[0,0,0,0,0,0,0,0,0,0,0,0,0,0,0,0,0,0,0,0,0,0,0,0,0],"id":2,"left_children":[1,3,5,7,9,11,13,-1,15,-1,-1,17,19,21,23,-1,-1,-1,-1,-1,-1,-1,-1,-1,-1],"loss_changes":[3.9169316E4,4.1477344E2,3.7680125E4,5.2066797E2,1.6878247E2,6.273877E3,4.351883E3,0E0,3.3929688E1,0E0,0E0,3.9884385E3,3.8891777E3,5.882302E2,1.33225E3,0E0,0E0,0E0,0E0,0E0,0E0,0E0,0E0,0E0,0E0],"parents":[2147483647,0,0,1,1,2,2,3,3,4,4,5,5,6,6,8,8,11,11,12,12,13,13,14,14],"right_children":[2,4,6,8,10,12,14,-1,16,-1,-1,18,20,22,24,-1,-1,-1,-1,-1,-1,-1,-1,-1,-1],"split_conditions":[4E0,3E0,2E1,5E0,2E0,6E0,2.2E1,-9.139587E-1,1E0,-2.9499933E-1,-7.009189E-1,5E0,1.9E1,2E0,3E0,-5.8981794E-1,-7.310878E-1,1.709057E-1,-5.0538987E-1,4.0582228E-1,-1.0074235E-2,-4.7307453E-1,-1.5839401E-1,-8.2479733E-1,-4.8602644E-1],"split_indices":[1,1,1,0,0,1,1,0,1,0,0,0,1,0,0,0,0,0,0,0,0,0,0,0,0],"split_type":[0,0,0,0,0,0,0,0,0,0,0,0,0,0,0,0,0,0,0,0,0,0,0,0,0],"sum_hessian":[4.331E3,5.29E2,3.802E3,4.84E2,4.5E1,2.777E3,1.025E3,3.11E2,1.73E2,2.4E1,2.1E1,3.73E2,2.404E3,5.16E2,5.09E2,6.2E1,1.11E2,2.36E2,1.37E2,2.153E3,2.51E2,6.8E1,4.48E2,1.89E2,3.2E2],"tree_param":{"num_deleted":"0","num_feature":"2","num_nodes":"25","size_leaf_vector":"1"}},{"base_weights":[-3.495368E-3,-7.256881E0,1.0073639E0,-7.5051427E0,-4.4815807E0,2.7290606E0,-3.6552882E0,-8.228558E-1,-6.1648517E0,-2.6667938E-1,-6.3401306E-1,-7.045105E-1,3.2618785E0,-1.8075067E0,-5.521264E0,-5.317724E-1,-6.5863174E-1,2.4815981E-1,-3.488833E-1,3.6525887E-1,-9.070771E-3,-4.264527E-1,-1.4258991E-1,-7.028908E-1,-4.021438E-1],"categories":[],"categories_nodes":[],"categories_segments":[],"categories_sizes":[],"default_left":[0,0,0,0,0,0,0,0,0,0,0,0,0,0,0,0,0,0,0,0,0,0,0,0,0],"id":3,"left_children":[1,3,5,7,9,11,13,-1,15,-1,-1,17,19,21,23,-1,-1,-1,-1,-1,-1,-1,-1,-1,-1],"loss_changes":[3.1770193E4,3.315371E2,3.0539217E4,4.1952344E2,1.382442E2,5.0845586E3,3.527581E3,0E0,2.7099121E1,0E0,0E0,3.3264692E3,3.1506152E3,4.786676E2,1.1249473E3,0E0,0E0,0E0,0E0,0E0,0E0,0E0,0E0,0E0,0E0],"parents":[2147483647,0,0,1,1,2,2,3,3,4,4,5,5,6,6,8,8,11,11,12,12,13,13,14,14],"right_children":[2,4,6,8,10,12,14,-1,16,-1,-1,18,20,22,24,-1,-1,-1,-1,-1,-1,-1,-1,-1,-1],"split_conditions":[4E0,3E0,2E1,5E0,2E0,6E0,2.2E1,-8.228558E-1,1E0,-2.6667938E-1,-6.3401306E-1,4E0,1.9E1,2E0,4E0,-5.317724E-1,-6.5863174E-1,2.4815981E-1,-3.488833E-1,3.6525887E-1,-9.070771E-3,-4.264527E-1,-1.4258991E-1,-7.028908E-1,-4.021438E-1],"split_indices":[1,1,1,0,0,1,1,0,1,0,0,0,1,0,0,0,0,0,0,0,0,0,0,0,0],"split_type":[0,0,0,0,0,0,0,0,0,0,0,0,0,0,0,0,0,0,0,0,0,0,0,0,0],"sum_hessian":[4.331E3,5.29E2,3.802E3,4.84E2,4.5E1,2.777E3,1.025E3,3.11E2,1.73E2,2.4E1,2.1E1,3.73E2,2.404E3,5.16E2,5.09E2,6.2E1,1.11E2,1.74E2,1.99E2,2.153E3,2.51E2,6.8E1,4.48E2,2.52E2,2.57E2],"tree_param":{"num_deleted":"0","num_feature":"2","num_nodes":"25","size_leaf_vector":"1"}},{"base_weights":[-4.146186E-3,-6.5366907E0,9.0625423E-1,-6.7587795E0,-4.0530024E0,2.4562464E0,-3.2913914E0,-7.4083395E0,-5.5552077E0,-2.4107812E-1,-5.734936E-1,-6.343284E-1,2.9358382E0,-1.627857E0,-4.9713044E0,-6.804525E-1,-7.6990354E-1,-4.7943923E-1,-5.933567E-1,1.447948E-1,-4.2058155E-1,3.4609947E-1,8.280175E-2,-2.727894E-1,-8.604203E-2,-6.7283267E-1,-3.9158362E-1],"categories":[],"categories_nodes":[],"categories_segments":[],"categories_sizes":[],"default_left":[0,0,0,0,0,0,0,0,0,0,0,0,0,0,0,0,0,0,0,0,0,0,0,0,0,0,0],"id":4,"left_children":[1,3,5,7,9,11,13,15,17,-1,-1,19,21,23,25,-1,-1,-1,-1,-1,-1,-1,-1,-1,-1,-1,-1],"loss_changes":[2.5769332E4,2.6495508E2,2.475161E4,3.3801367E2,1.132312E2,4.119455E3,2.8591602E3,2.3769531E0,2.1640137E1,0E0,0E0,2.787462E3,2.6593145E3,4.3410864E2,9.194385E2,0E0,0E0,0E0,0E0,0E0,0E0,0E0,0E0,0E0,0E0,0E0,0E0],"parents":[2147483647,0,0,1,1,2,2,3,3,4,4,5,5,6,6,7,7,8,8,11,11,12,12,13,13,14,14],"right_children":[2,4,6,8,10,12,14,16,18,-1,-1,20,22,24,26,-1,-1,-1,-1,-1,-1,-1,-1,-1,-1,-1,-1],"split_conditions":[4E0,3E0,2E1,5E0,2E0,6E0,2.2E1,2E0,1E0,-2.4107812E-1,-5.734936E-1,5E0,1.8E1,3E0,3E0,-6.804525E-1,-7.6990354E-1,-4.7943923E-1,-5.933567E-1,1.447948E-1,-4.2058155E-1,3.4609947E-1,8.280175E-2,-2.727894E-1,-8.604203E-2,-6.7283267E-1,-3.9158362E-1],"split_indices":[1,1,1,0,0,1,1,0,1,0,0,0,1,0,0,0,0,0,0,0,0,0,0,0,0,0,0],"split_type":[0,0,0,0,0,0,0,0,0,0,0,0,0,0,0,0,0,0,0,0,0,0,0,0,0,0,0],"sum_hessian":[4.331E3,5.29E2,3.802E3,4.84E2,4.5E1,2.777E3,1.025E3,3.11E2,1.73E2,2.4E1,2.1E1,3.73E2,2.404E3,5.16E2,5.09E2,1.09E2,2.02E2,6.2E1,1.11E2,2.36E2,1.37E2,1.924E3,4.8E2,2.11E2,3.05E2,1.89E2,3.2E2],"tree_param":{"num_deleted":"0","num_feature":"2","num_nodes":"27","size_leaf_vector":"1"}},{"base_weights":[-4.7954153E-3,-5.8893194E0,8.152947E-1,-6.0881042E0,-3.66541E0,2.2106767E0,-2.9636393E0,-6.6721544E0,-5.0058527E0,-2.1793461E-1,-5.1875097E-1,-5.716326E-1,2.6424325E0,-1.4657654E0,-4.4762616E0,-6.1302584E-1,-6.932925E-1,-4.322563E-1,-5.345508E-1,2.0908897E-1,-2.8984815E-1,2.969552E-1,-1.641465E-2,-1.19620554E-1,-4.0746686E-1,-5.7286566E-1,-3.2307875E-1],"categories":[],"categories_nodes":[],"categories_segments":[],"categories_sizes":[],"default_left":[0,0,0,0,0,0,0,0,0,0,0,0,0,0,0,0,0,0,0,0,0,0,0,0,0,0,0],"id":5,"left_children":[1,3,5,7,9,11,13,15,17,-1,-1,19,21,23,25,-1,-1,-1,-1,-1,-1,-1,-1,-1,-1,-1,-1],"loss_changes":[2.091034E4,2.1198633E2,2.0059984E4,2.7316602E2,9.274371E1,3.338662E3,2.3180645E3,1.5888672E0,1.7275879E1,0E0,0E0,2.3230977E3,2.2084863E3,3.587091E2,7.770029E2,0E0,0E0,0E0,0E0,0E0,0E0,0E0,0E0,0E0,0E0,0E0,0E0],"parents":[2147483647,0,0,1,1,2,2,3,3,4,4,5,5,6,6,7,7,8,8,11,11,12,12,13,13,14,14],"right_children":[2,4,6,8,10,12,14,16,18,-1,-1,20,22,24,26,-1,-1,-1,-1,-1,-1,-1,-1,-1,-1,-1,-1],"split_conditions":[4E0,3E0,2E1,5E0,2E0,6E0,2.2E1,2E0,1E0,-2.1793461E-1,-5.1875097E-1,4E0,1.9E1,7E0,4E0,-6.1302584E-1,-6.932925E-1,-4.322563E-1,-5.345508E-1,2.0908897E-1,-2.8984815E-1,2.969552E-1,-1.641465E-2,-1.19620554E-1,-4.0746686E-1,-5.7286566E-1,-3.2307875E-1],"split_indices":[1,1,1,0,0,1,1,0,1,0,0,0,1,0,0,0,0,0,0,0,0,0,0,0,0,0,0],"split_type":[0,0,0,0,0,0,0,0,0,0,0,0,0,0,0,0,0,0,0,0,0,0,0,0,0,0,0],"sum_hessian":[4.331E3,5.29E2,3.802E3,4.84E2,4.5E1,2.777E3,1.025E3,3.11E2,1.73E2,2.4E1,2.1E1,3.73E2,2.404E3,5.16E2,5.09E2,1.09E2,2.02E2,6.2E1,1.11E2,1.74E2,1.99E2,2.153E3,2.51E2,4.69E2,4.7E1,2.52E2,2.57E2],"tree_param":{"num_deleted":"0","num_feature":"2","num_nodes":"27","size_leaf_vector":"1"}},{"base_weights":[-5.2929707E-3,-5.3060665E0,7.334436E-1,-5.4839807E0,-3.314884E0,1.7732959E0,-3.3983793E0,-6.0091257E0,-4.5108237E0,-1.9701289E-1,-4.692338E-1,2.2020493E0,-3.4216812E-1,-5.0081577E0,-2.3433115E0,-5.522806E-1,-6.243047E-1,-3.897168E-1,-4.8157296E-1,6.766931E-2,3.3236015E-1,-2.4154162E-1,-4.6545803E-3,-4.1550317E-1,-5.489185E-1,-1.6024862E-1,-6.2893426E-1],"categories":[],"categories_nodes":[],"categories_segments":[],"categories_sizes":[],"default_left":[0,0,0,0,0,0,0,0,0,0,0,0,0,0,0,0,0,0,0,0,0,0,0,0,0,0,0],"id":6,"left_children":[1,3,5,7,9,11,13,15,17,-1,-1,19,21,23,25,-1,-1,-1,-1,-1,-1,-1,-1,-1,-1,-1,-1],"loss_changes":[1.6967463E4,1.6957812E2,1.6345562E4,2.207539E2,7.596307E1,2.757163E3,1.2875596E3,1.0136719E0,1.3788818E1,0E0,0E0,4.3208584E3,3.1430444E2,1.0112695E2,1.3463416E3,0E0,0E0,0E0,0E0,0E0,0E0,0E0,0E0,0E0,0E0,0E0,0E0],"parents":[2147483647,0,0,1,1,2,2,3,3,4,4,5,5,6,6,7,7,8,8,11,11,12,12,13,13,14,14],"right_children":[2,4,6,8,10,12,14,16,18,-1,-1,20,22,24,26,-1,-1,-1,-1,-1,-1,-1,-1,-1,-1,-1,-1],"split_conditions":[4E0,3E0,2.1E1,5E0,2E0,1.9E1,3E0,2E0,1E0,-1.9701289E-1,-4.692338E-1,1.1E1,2E0,2.2E1,7E0,-5.522806E-1,-6.243047E-1,-3.897168E-1,-4.8157296E-1,6.766931E-2,3.3236015E-1,-2.4154162E-1,-4.6545803E-3,-4.1550317E-1,-5.489185E-1,-1.6024862E-1,-6.2893426E-1],"split_indices":[1,1,1,0,0,1,0,0,1,0,0,1,0,1,0,0,0,0,0,0,0,0,0,0,0,0,0],"split_type":[0,0,0,0,0,0,0,0,0,0,0,0,0,0,0,0,0,0,0,0,0,0,0,0,0,0,0],"sum_hessian":[4.331E3,5.29E2,3.802E3,4.84E2,4.5E1,3.038E3,7.64E2,3.11E2,1.73E2,2.4E1,2.1E1,2.526E3,5.12E2,3.01E2,4.63E2,1.09E2,2.02E2,6.2E1,1.11E2,1.071E3,1.455E3,6.3E1,4.49E2,1.12E2,1.89E2,3.91E2,7.2E1],"tree_param":{"num_deleted":"0","num_feature":"2","num_nodes":"27","size_leaf_vector":"1"}},{"base_weights":[-5.7594473E-3,-4.7805805E0,6.5967864E-1,-4.939805E0,-2.9978793E0,1.596017E0,-3.0608337E0,-5.4119844E0,-4.0647483E0,-1.7809965E-1,-4.2444333E-1,2.1633577E0,6.066368E-2,-4.5105352E0,-2.1106813E0,-4.9755463E-1,-5.621818E-1,-3.513637E-1,-4.338456E-1,2.751918E-1,2.7787764E-2,-2.816465E-1,1.4991173E-1,-3.743205E-1,-4.9431548E-1,-1.4426464E-1,-5.669024E-1],"categories":[],"categories_nodes":[],"categories_segments":[],"categories_sizes":[],"default_left":[0,0,0,0,0,0,0,0,0,0,0,0,0,0,0,0,0,0,0,0,0,0,0,0,0,0,0],"id":7,"left_children":[1,3,5,7,9,11,13,15,17,-1,-1,19,21,23,25,-1,-1,-1,-1,-1,-1,-1,-1,-1,-1,-1,-1],"loss_changes":[1.3767425E4,1.3563086E2,1.3253238E4,1.7839551E2,6.2218597E1,2.647045E3,1.0442188E3,6.015625E-1,1.100293E1,0E0,0E0,2.4617031E3,3.4020264E3,8.174951E1,1.0947944E3,0E0,0E0,0E0,0E0,0E0,0E0,0E0,0E0,0E0,0E0,0E0,0E0],"parents":[2147483647,0,0,1,1,2,2,3,3,4,4,5,5,6,6,7,7,8,8,11,11,12,12,13,13,14,14],"right_children":[2,4,6,8,10,12,14,16,18,-1,-1,20,22,24,26,-1,-1,-1,-1,-1,-1,-1,-1,-1,-1,-1,-1],"split_conditions":[4E0,3E0,2.1E1,5E0,2E0,5E0,3E0,2E0,1E0,-1.7809965E-1,-4.2444333E-1,1.8E1,1E1,2.2E1,7E0,-4.9755463E-1,-5.621818E-1,-3.513637E-1,-4.338456E-1,2.751918E-1,2.7787764E-2,-2.816465E-1,1.4991173E-1,-3.743205E-1,-4.9431548E-1,-1.4426464E-1,-5.669024E-1],"split_indices":[1,1,1,0,0,0,0,0,1,0,0,1,1,1,0,0,0,0,0,0,0,0,0,0,0,0,0],"split_type":[0,0,0,0,0,0,0,0,0,0,0,0,0,0,0,0,0,0,0,0,0,0,0,0,0,0,0],"sum_hessian":[4.331E3,5.29E2,3.802E3,4.84E2,4.5E1,3.038E3,7.64E2,3.11E2,1.73E2,2.4E1,2.1E1,2.218E3,8.2E2,3.01E2,4.63E2,1.09E2,2.02E2,6.2E1,1.11E2,1.69E3,5.28E2,2.73E2,5.47E2,1.12E2,1.89E2,3.91E2,7.2E1],"tree_param":{"num_deleted":"0","num_feature":"2","num_nodes":"27","size_leaf_vector":"1"}},{"base_weights":[-6.073532E-3,-4.3071404E0,5.933405E-1,-4.4496284E0,-2.7111902E0,1.802721E0,-1.800315E0,-4.874182E0,-3.6627862E0,-1.6100208E-1,-3.839283E-1,4.8086703E-1,2.7747161E0,-7.563819E-1,-3.3688254E0,-4.482515E-1,-5.0624055E-1,-3.1678498E-1,-3.9084846E-1,1.2782365E-1,-2.9388E-1,3.0961642E-1,1.0477968E-1,-2.940081E-1,-3.9073206E-2,-3.046846E-1,-6.33588E-1],"categories":[],"categories_nodes":[],"categories_segments":[],"categories_sizes":[],"default_left":[0,0,0,0,0,0,0,0,0,0,0,0,0,0,0,0,0,0,0,0,0,0,0,0,0,0,0],"id":8,"left_children":[1,3,5,7,9,11,13,15,17,-1,-1,19,21,23,25,-1,-1,-1,-1,-1,-1,-1,-1,-1,-1,-1,-1],"loss_changes":[1.117097E4,1.0845996E2,1.1012324E4,1.4416504E2,5.0960846E1,3.2454453E3,2.088437E3,3.0859375E-1,8.777832E0,0E0,0E0,2.9268198E3,8.050029E2,6.120757E2,4.6791406E2,0E0,0E0,0E0,0E0,0E0,0E0,0E0,0E0,0E0,0E0,0E0,0E0],"parents":[2147483647,0,0,1,1,2,2,3,3,4,4,5,5,6,6,7,7,8,8,11,11,12,12,13,13,14,14],"right_children":[2,4,6,8,10,12,14,16,18,-1,-1,20,22,24,26,-1,-1,-1,-1,-1,-1,-1,-1,-1,-1,-1,-1],"split_conditions":[4E0,3E0,1.9E1,5E0,2E0,1.1E1,2.2E1,2E0,1E0,-1.6100208E-1,-3.839283E-1,6E0,1.8E1,2E0,7E0,-4.482515E-1,-5.0624055E-1,-3.1678498E-1,-3.9084846E-1,1.2782365E-1,-2.9388E-1,3.0961642E-1,1.0477968E-1,-2.940081E-1,-3.9073206E-2,-3.046846E-1,-6.33588E-1],"split_indices":[1,1,1,0,0,1,1,0,1,0,0,0,1,0,0,0,0,0,0,0,0,0,0,0,0,0,0],"split_type":[0,0,0,0,0,0,0,0,0,0,0,0,0,0,0,0,0,0,0,0,0,0,0,0,0,0,0],"sum_hessian":[4.331E3,5.29E2,3.802E3,4.84E2,4.5E1,2.526E3,1.276E3,3.11E2,1.73E2,2.4E1,2.1E1,1.071E3,1.455E3,7.67E2,5.09E2,1.09E2,2.02E2,6.2E1,1.11E2,8.69E2,2.02E2,1.226E3,2.29E2,1.09E2,6.58E2,4.61E2,4.8E1],"tree_param":{"num_deleted":"0","num_feature":"2","num_nodes":"27","size_leaf_vector":"1"}},{"base_weights":[-6.2116124E-3,-3.8805907E0,5.3373766E-1,-4.0080924E0,-2.4519174E0,1.4679847E0,-1.996352E0,-4.3898234E0,-3.3005743E0,-1.4554587E-1,-3.472806E-1,-7.012074E-1,1.804704E0,-9.691064E-1,-3.0337825E0,-4.0383384E-1,-4.5586586E-1,-2.8560933E-1,-3.5211256E-1,1.415E-1,-2.5493827E-1,2.1534705E-1,4.051609E-2,-1.5554838E-1,-8.344228E-3,-3.9994147E-1,-2.0751055E-1],"categories":[],"categories_nodes":[],"categories_segments":[],"categories_sizes":[],"default_left":[0,0,0,0,0,0,0,0,0,0,0,0,0,0,0,0,0,0,0,0,0,0,0,0,0,0,0],"id":9,"left_children":[1,3,5,7,9,11,13,15,17,-1,-1,19,21,23,25,-1,-1,-1,-1,-1,-1,-1,-1,-1,-1,-1,-1],"loss_changes":[9.064478E3,8.671631E1,8.992191E3,1.1650098E2,4.174005E1,2.0303403E3,1.0904644E3,1.0498047E-1,7.0008545E0,0E0,0E0,1.4663671E3,1.173041E3,2.6836557E2,4.6382227E2,0E0,0E0,0E0,0E0,0E0,0E0,0E0,0E0,0E0,0E0,0E0,0E0],"parents":[2147483647,0,0,1,1,2,2,3,3,4,4,5,5,6,6,7,7,8,8,11,11,12,12,13,13,14,14],"right_children":[2,4,6,8,10,12,14,16,18,-1,-1,20,22,24,26,-1,-1,-1,-1,-1,-1,-1,-1,-1,-1,-1,-1],"split_conditions":[4E0,3E0,2E1,5E0,2E0,6E0,2.2E1,2E0,1E0,-1.4554587E-1,-3.472806E-1,4E0,1.8E1,4E0,4E0,-4.0383384E-1,-4.5586586E-1,-2.8560933E-1,-3.5211256E-1,1.415E-1,-2.5493827E-1,2.1534705E-1,4.051609E-2,-1.5554838E-1,-8.344228E-3,-3.9994147E-1,-2.0751055E-1],"split_indices":[1,1,1,0,0,1,1,0,1,0,0,0,1,0,0,0,0,0,0,0,0,0,0,0,0,0,0],"split_type":[0,0,0,0,0,0,0,0,0,0,0,0,0,0,0,0,0,0,0,0,0,0,0,0,0,0,0],"sum_hessian":[4.331E3,5.29E2,3.802E3,4.84E2,4.5E1,2.777E3,1.025E3,3.11E2,1.73E2,2.4E1,2.1E1,3.73E2,2.404E3,5.16E2,5.09E2,1.09E2,2.02E2,6.2E1,1.11E2,1.74E2,1.99E2,1.924E3,4.8E2,3.1E2,2.06E2,2.52E2,2.57E2],"tree_param":{"num_deleted":"0","num_feature":"2","num_nodes":"27","size_leaf_vector":"1"}},{"base_weights":[-6.195112E-3,-3.4962866E0,4.8019844E-1,-3.7181559E0,-2.8128662E0,1.4652486E0,-1.4694507E0,-3.8692079E0,-1.3157345E-1,-9.6350096E-2,-3.2076052E-1,3.1676704E-1,2.3098276E0,-6.2939453E-1,-2.7315953E0,-4.0194026E-1,-3.5503238E-1,8.2063034E-2,-4.0093884E-1,2.5716287E-1,9.031332E-2,-2.5676903E-1,-3.049E-2,-2.4307969E-1,-5.511946E-1],"categories":[],"categories_nodes":[],"categories_segments":[],"categories_sizes":[],"default_left":[0,0,0,0,0,0,0,0,0,0,0,0,0,0,0,0,0,0,0,0,0,0,0,0,0],"id":10,"left_children":[1,3,5,7,9,11,13,15,-1,-1,-1,17,19,21,23,-1,-1,-1,-1,-1,-1,-1,-1,-1,-1],"loss_changes":[7.355501E3,6.990576E1,7.3058228E3,1.3897607E2,9.473157E1,2.4504165E3,1.3522483E3,3.5947266E0,0E0,0E0,0E0,2.3400261E3,5.3388477E2,4.8226324E2,4.1312695E2,0E0,0E0,0E0,0E0,0E0,0E0,0E0,0E0,0E0,0E0],"parents":[2147483647,0,0,1,1,2,2,3,3,4,4,5,5,6,6,7,7,11,11,12,12,13,13,14,14],"right_children":[2,4,6,8,10,12,14,16,-1,-1,-1,18,20,22,24,-1,-1,-1,-1,-1,-1,-1,-1,-1,-1],"split_conditions":[4E0,6E0,1.9E1,3E0,1E0,1.1E1,2.2E1,4E0,-1.3157345E-1,-9.6350096E-2,-3.2076052E-1,7E0,1.8E1,2E0,7E0,-4.0194026E-1,-3.5503238E-1,8.2063034E-2,-4.0093884E-1,2.5716287E-1,9.031332E-2,-2.5676903E-1,-3.049E-2,-2.4307969E-1,-5.511946E-1],"split_indices":[1,0,1,1,1,1,1,0,0,0,0,0,1,0,0,0,0,0,0,0,0,0,0,0,0],"split_type":[0,0,0,0,0,0,0,0,0,0,0,0,0,0,0,0,0,0,0,0,0,0,0,0,0],"sum_hessian":[4.331E3,5.29E2,3.802E3,3.96E2,1.33E2,2.526E3,1.276E3,3.72E2,2.4E1,2.4E1,1.09E2,1.071E3,1.455E3,7.67E2,5.09E2,2.45E2,1.27E2,9.6E2,1.11E2,1.226E3,2.29E2,1.09E2,6.58E2,4.61E2,4.8E1],"tree_param":{"num_deleted":"0","num_feature":"2","num_nodes":"25","size_leaf_vector":"1"}},{"base_weights":[-6.119857E-3,-3.1491215E0,4.3190196E-1,-3.3485785E0,-2.5346923E0,1.1940565E0,-1.6321303E0,-3.4843163E0,-1.1894238E-1,-8.710053E-2,-2.8897604E-1,1.7674555E-1,1.7320086E0,-8.1231976E-1,-2.459993E0,-3.6190963E-1,-3.1980655E-1,1.15107894E-1,-2.2739568E-1,2.2254121E-1,3.5693035E-2,-5.7990845E-2,-3.0710903E-1,-3.3589348E-1,-1.5689373E-1],"categories":[],"categories_nodes":[],"categories_segments":[],"categories_sizes":[],"default_left":[0,0,0,0,0,0,0,0,0,0,0,0,0,0,0,0,0,0,0,0,0,0,0,0,0],"id":11,"left_children":[1,3,5,7,9,11,13,15,-1,-1,-1,17,19,21,23,-1,-1,-1,-1,-1,-1,-1,-1,-1,-1],"loss_changes":[5.9652393E3,5.6464844E1,5.984491E3,1.1220801E2,7.663977E1,1.5199949E3,6.9433813E2,2.8168945E0,0E0,0E0,0E0,2.299682E3,1.2319829E3,2.696253E2,4.0324365E2,0E0,0E0,0E0,0E0,0E0,0E0,0E0,0E0,0E0,0E0],"parents":[2147483647,0,0,1,1,2,2,3,3,4,4,5,5,6,6,7,7,11,11,12,12,13,13,14,14],"right_children":[2,4,6,8,10,12,14,16,-1,-1,-1,18,20,22,24,-1,-1,-1,-1,-1,-1,-1,-1,-1,-1],"split_conditions":[4E0,6E0,2E1,3E0,1E0,1E1,2.2E1,4E0,-1.1894238E-1,-8.710053E-2,-2.8897604E-1,5E0,1.8E1,7E0,4E0,-3.6190963E-1,-3.1980655E-1,1.15107894E-1,-2.2739568E-1,2.2254121E-1,3.5693035E-2,-5.7990845E-2,-3.0710903E-1,-3.3589348E-1,-1.5689373E-1],"split_indices":[1,0,1,1,1,1,1,0,0,0,0,0,1,0,0,0,0,0,0,0,0,0,0,0,0],"split_type":[0,0,0,0,0,0,0,0,0,0,0,0,0,0,0,0,0,0,0,0,0,0,0,0,0],"sum_hessian":[4.331E3,5.29E2,3.802E3,3.96E2,1.33E2,2.777E3,1.025E3,3.72E2,2.4E1,2.4E1,1.09E2,9.61E2,1.816E3,5.16E2,5.09E2,2.45E2,1.27E2,6.88E2,2.73E2,1.336E3,4.8E2,4.69E2,4.7E1,2.52E2,2.57E2],"tree_param":{"num_deleted":"0","num_feature":"2","num_nodes":"25","size_leaf_vector":"1"}},{"base_weights":[-5.944007E-3,-2.8364296E0,3.8852438E-1,-3.0157373E0,-2.2840295E0,9.580724E-1,-1.8745409E0,-3.1377125E0,-1.0752393E-1,-7.873883E-2,-2.6034114E-1,1.3709826E0,-1.5910901E-1,-2.7761195E0,-8.088364E-1,-3.2110238E-1,-2.7181813E-1,1.7009246E-1,3.136995E-2,-2.0473905E-1,7.853221E-2,-3.0807564E-1,-1.9373892E-1,1.6821474E-3,-3.9646634E-1],"categories":[],"categories_nodes":[],"categories_segments":[],"categories_sizes":[],"default_left":[0,0,0,0,0,0,0,0,0,0,0,0,0,0,0,0,0,0,0,0,0,0,0,0,0],"id":12,"left_children":[1,3,5,7,9,11,13,15,-1,-1,-1,17,19,21,23,-1,-1,-1,-1,-1,-1,-1,-1,-1,-1],"loss_changes":[4.8379404E3,4.56084E1,4.903575E3,9.059326E1,6.2002075E1,1.4020957E3,7.3277905E2,2.7438965E0,0E0,0E0,0E0,7.735469E2,1.4657397E3,9.981152E1,9.172496E2,0E0,0E0,0E0,0E0,0E0,0E0,0E0,0E0,0E0,0E0],"parents":[2147483647,0,0,1,1,2,2,3,3,4,4,5,5,6,6,7,7,11,11,12,12,13,13,14,14],"right_children":[2,4,6,8,10,12,14,16,-1,-1,-1,18,20,22,24,-1,-1,-1,-1,-1,-1,-1,-1,-1,-1],"split_conditions":[4E0,6E0,2.1E1,3E0,1E0,5E0,4E0,5E0,-1.0752393E-1,-7.873883E-2,-2.6034114E-1,1.8E1,1E1,3E0,7E0,-3.2110238E-1,-2.7181813E-1,1.7009246E-1,3.136995E-2,-2.0473905E-1,7.853221E-2,-3.0807564E-1,-1.9373892E-1,1.6821474E-3,-3.9646634E-1],"split_indices":[1,0,1,1,1,0,0,0,0,0,0,1,1,0,0,0,0,0,0,0,0,0,0,0,0],"split_type":[0,0,0,0,0,0,0,0,0,0,0,0,0,0,0,0,0,0,0,0,0,0,0,0,0],"sum_hessian":[4.331E3,5.29E2,3.802E3,3.96E2,1.33E2,3.038E3,7.64E2,3.72E2,2.4E1,2.4E1,1.09E2,2.218E3,8.2E2,4.13E2,3.51E2,3.11E2,6.1E1,1.69E3,5.28E2,2.73E2,5.47E2,3.01E2,1.12E2,2.79E2,7.2E1],"tree_param":{"num_deleted":"0","num_feature":"2","num_nodes":"25","size_leaf_vector":"1"}},{"base_weights":[-5.7788505E-3,-2.554748E0,3.4945634E-1,-2.715928E0,-2.0581567E0,1.0849272E0,-1.1062087E0,-2.825531E0,-9.720163E-2,-7.1179874E-2,-2.3454368E-1,5.0648487E-1,2.1631937E0,-4.845177E-1,-2.0402331E0,-3.0904275E-1,-2.7087912E-1,7.234933E-2,-1.4996089E-1,2.6638734E-1,7.322939E-2,-1.13654666E-1,2.9743848E-2,-1.782364E-1,-4.429934E-1],"categories":[],"categories_nodes":[],"categories_segments":[],"categories_sizes":[],"default_left":[0,0,0,0,0,0,0,0,0,0,0,0,0,0,0,0,0,0,0,0,0,0,0,0,0],"id":13,"left_children":[1,3,5,7,9,11,13,15,-1,-1,-1,17,19,21,23,-1,-1,-1,-1,-1,-1,-1,-1,-1,-1],"loss_changes":[3.9234473E3,3.6831787E1,4.072689E3,7.3135254E1,5.01593E1,1.5750322E3,7.4053296E2,3.16333E0,0E0,0E0,0E0,7.1765344E2,6.299336E2,3.91909E2,3.063816E2,0E0,0E0,0E0,0E0,0E0,0E0,0E0,0E0,0E0,0E0],"parents":[2147483647,0,0,1,1,2,2,3,3,4,4,5,5,6,6,7,7,11,11,12,12,13,13,14,14],"right_children":[2,4,6,8,10,12,14,16,-1,-1,-1,18,20,22,24,-1,-1,-1,-1,-1,-1,-1,-1,-1,-1],"split_conditions":[4E0,6E0,1.9E1,3E0,1E0,1.4E1,2.2E1,1E0,-9.720163E-2,-7.1179874E-2,-2.3454368E-1,7E0,1.8E1,4E0,7E0,-3.0904275E-1,-2.7087912E-1,7.234933E-2,-1.4996089E-1,2.6638734E-1,7.322939E-2,-1.13654666E-1,2.9743848E-2,-1.782364E-1,-4.429934E-1],"split_indices":[1,0,1,1,1,1,1,1,0,0,0,0,1,0,0,0,0,0,0,0,0,0,0,0,0],"split_type":[0,0,0,0,0,0,0,0,0,0,0,0,0,0,0,0,0,0,0,0,0,0,0,0,0],"sum_hessian":[4.331E3,5.29E2,3.802E3,3.96E2,1.33E2,2.526E3,1.276E3,3.72E2,2.4E1,2.4E1,1.09E2,1.645E3,8.81E2,7.67E2,5.09E2,1.06E2,2.66E2,1.485E3,1.6E2,6.52E2,2.29E2,4.18E2,3.49E2,4.61E2,4.8E1],"tree_param":{"num_deleted":"0","num_feature":"2","num_nodes":"25","size_leaf_vector":"1"}},{"base_weights":[-5.5302586E-3,-2.3011274E0,3.1439403E-1,-2.4460409E0,-1.8546225E0,9.765379E-1,-9.9614E-1,-2.5445325E0,-8.78703E-2,-6.434656E-2,-2.1130252E-1,4.4858176E-2,1.5482489E0,-4.3617508E-1,-1.8374281E0,-2.6126224E-1,-2.1608467E-1,7.940482E-2,-1.8392177E-1,1.03222646E-1,1.9472592E-1,-2.0672229E-1,-1.632594E-2,-2.5684506E-1,-1.11345105E-1],"categories":[],"categories_nodes":[],"categories_segments":[],"categories_sizes":[],"default_left":[0,0,0,0,0,0,0,0,0,0,0,0,0,0,0,0,0,0,0,0,0,0,0,0,0],"id":14,"left_children":[1,3,5,7,9,11,13,15,-1,-1,-1,17,19,21,23,-1,-1,-1,-1,-1,-1,-1,-1,-1,-1],"loss_changes":[3.1822192E3,2.975708E1,3.3010718E3,5.904883E1,4.057782E1,1.3459407E3,6.0078284E2,4.099365E0,0E0,0E0,0E0,1.3593531E3,3.204265E2,3.4152887E2,2.670542E2,0E0,0E0,0E0,0E0,0E0,0E0,0E0,0E0,0E0,0E0],"parents":[2147483647,0,0,1,1,2,2,3,3,4,4,5,5,6,6,7,7,11,11,12,12,13,13,14,14],"right_children":[2,4,6,8,10,12,14,16,-1,-1,-1,18,20,22,24,-1,-1,-1,-1,-1,-1,-1,-1,-1,-1],"split_conditions":[4E0,6E0,1.9E1,3E0,1E0,1E1,2.2E1,5E0,-8.78703E-2,-6.434656E-2,-2.1130252E-1,5E0,1.4E1,2E0,4E0,-2.6126224E-1,-2.1608467E-1,7.940482E-2,-1.8392177E-1,1.03222646E-1,1.9472592E-1,-2.0672229E-1,-1.632594E-2,-2.5684506E-1,-1.11345105E-1],"split_indices":[1,0,1,1,1,1,1,0,0,0,0,0,1,0,0,0,0,0,0,0,0,0,0,0,0],"split_type":[0,0,0,0,0,0,0,0,0,0,0,0,0,0,0,0,0,0,0,0,0,0,0,0,0],"sum_hessian":[4.331E3,5.29E2,3.802E3,3.96E2,1.33E2,2.526E3,1.276E3,3.72E2,2.4E1,2.4E1,1.09E2,9.61E2,1.565E3,7.67E2,5.09E2,3.11E2,6.1E1,6.88E2,2.73E2,6.84E2,8.81E2,1.09E2,6.58E2,2.52E2,2.57E2],"tree_param":{"num_deleted":"0","num_feature":"2","num_nodes":"25","size_leaf_vector":"1"}},{"base_weights":[-5.2628685E-3,-2.0726013E0,2.8285035E-1,-2.2028604E0,-1.6712174E0,7.0483804E-1,-1.3938862E0,-2.2913587E0,-7.943473E-2,-5.8169313E-2,-1.9036438E-1,8.961016E-1,-1.0315341E0,-2.163184E0,-4.8512718E-1,-2.5414965E-1,-2.1825345E-1,-3.539988E-2,1.0663866E-1,-3.3510348E-1,3.281258E-3,-2.4242091E-1,-1.4464337E-1,2.2794241E-2,-3.2135433E-1],"categories":[],"categories_nodes":[],"categories_segments":[],"categories_sizes":[],"default_left":[0,0,0,0,0,0,0,0,0,0,0,0,0,0,0,0,0,0,0,0,0,0,0,0,0],"id":15,"left_children":[1,3,5,7,9,11,13,15,-1,-1,-1,17,19,21,23,-1,-1,-1,-1,-1,-1,-1,-1,-1,-1],"loss_changes":[2.5808447E3,2.4028809E1,2.6918418E3,4.7666504E1,3.282605E1,1.0101903E3,5.3376685E2,4.6064453E0,0E0,0E0,0E0,5.8322485E2,7.4567334E2,7.394873E1,6.855662E2,0E0,0E0,0E0,0E0,0E0,0E0,0E0,0E0,0E0,0E0],"parents":[2147483647,0,0,1,1,2,2,3,3,4,4,5,5,6,6,7,7,11,11,12,12,13,13,14,14],"right_children":[2,4,6,8,10,12,14,16,-1,-1,-1,18,20,22,24,-1,-1,-1,-1,-1,-1,-1,-1,-1,-1],"split_conditions":[4E0,6E0,2.1E1,3E0,1E0,7E0,4E0,1E0,-7.943473E-2,-5.8169313E-2,-1.9036438E-1,6E0,1E1,3E0,7E0,-2.5414965E-1,-2.1825345E-1,-3.539988E-2,1.0663866E-1,-3.3510348E-1,3.281258E-3,-2.4242091E-1,-1.4464337E-1,2.2794241E-2,-3.2135433E-1],"split_indices":[1,0,1,1,1,0,0,1,0,0,0,1,1,0,0,0,0,0,0,0,0,0,0,0,0],"split_type":[0,0,0,0,0,0,0,0,0,0,0,0,0,0,0,0,0,0,0,0,0,0,0,0,0],"sum_hessian":[4.331E3,5.29E2,3.802E3,3.96E2,1.33E2,3.038E3,7.64E2,3.72E2,2.4E1,2.4E1,1.09E2,2.737E3,3.01E2,4.13E2,3.51E2,1.06E2,2.66E2,3.28E2,2.409E3,9.4E1,2.07E2,3.01E2,1.12E2,2.79E2,7.2E1],"tree_param":{"num_deleted":"0","num_feature":"2","num_nodes":"25","size_leaf_vector":"1"}},{"base_weights":[-5.139499E-3,-1.8668512E0,2.543168E-1,-2.0283332E0,-1.5790317E0,8.1381863E-1,-8.5305625E-1,-2.1268196E0,-7.180902E-2,-1.3867452E0,-1.71501E-1,8.841799E-2,1.3473458E0,-6.243747E-1,-2.1995206E0,-1.8195133E-1,-2.2828634E-1,-1.7115133E-1,-5.2585054E-2,4.16447E-2,-2.7269775E-1,1.5295129E-1,3.6966637E-2,-1.2733933E-1,1.5937023E-2,-1.9906084E-1,-3.5180303E-1],"categories":[],"categories_nodes":[],"categories_segments":[],"categories_sizes":[],"default_left":[0,0,0,0,0,0,0,0,0,0,0,0,0,0,0,0,0,0,0,0,0,0,0,0,0,0,0],"id":16,"left_children":[1,3,5,7,9,11,13,15,-1,17,-1,19,21,23,25,-1,-1,-1,-1,-1,-1,-1,-1,-1,-1,-1,-1],"loss_changes":[2.092973E3,2.143042E1,2.3569463E3,4.1830566E1,2.720337E0,9.7788293E2,3.918297E2,1.0807617E1,0E0,2.3144821E1,0E0,9.9116125E2,2.587495E2,5.561738E2,4.395575E1,0E0,0E0,0E0,0E0,0E0,0E0,0E0,0E0,0E0,0E0,0E0,0E0],"parents":[2147483647,0,0,1,1,2,2,3,3,4,4,5,5,6,6,7,7,9,9,11,11,12,12,13,13,14,14],"right_children":[2,4,6,8,10,12,14,16,-1,18,-1,20,22,24,26,-1,-1,-1,-1,-1,-1,-1,-1,-1,-1,-1,-1],"split_conditions":[4E0,5E0,1.9E1,3E0,2E0,1.1E1,2.3E1,2E0,-7.180902E-2,6E0,-1.71501E-1,7E0,1.8E1,4E0,7E0,-1.8195133E-1,-2.2828634E-1,-1.7115133E-1,-5.2585054E-2,4.16447E-2,-2.7269775E-1,1.5295129E-1,3.6966637E-2,-1.2733933E-1,1.5937023E-2,-1.9906084E-1,-3.5180303E-1],"split_indices":[1,0,1,1,1,1,1,0,0,0,0,0,1,0,0,0,0,0,0,0,0,0,0,0,0,0,0],"split_type":[0,0,0,0,0,0,0,0,0,0,0,0,0,0,0,0,0,0,0,0,0,0,0,0,0,0,0],"sum_hessian":[4.331E3,5.29E2,3.802E3,3.35E2,1.94E2,2.526E3,1.276E3,3.11E2,2.4E1,8.5E1,1.09E2,1.071E3,1.455E3,1.092E3,1.84E2,1.09E2,2.02E2,6.1E1,2.4E1,9.6E2,1.11E2,1.226E3,2.29E2,5.97E2,4.95E2,1.61E2,2.3E1],"tree_param":{"num_deleted":"0","num_feature":"2","num_nodes":"27","size_leaf_vector":"1"}},{"base_weights":[-4.990722E-3,-1.2510592E0,3.2305732E-1,-1.1407123E-1,-1.5222825E0,9.699008E-1,-7.682691E-1,-1.4667357E0,4.2042885E0,-1.3371047E0,-4.3072724E0,5.7781285E-1,1.5347059E0,-5.954687E-1,-2.4448023E0,-1.6392158E-1,-6.4915374E-2,2.9318798E-1,5.457344E-1,-1.7501833E-1,-7.650311E-2,-6.6588485E-1,-1.546132E-1,-1.5314094E-3,9.214922E-2,1.9556701E-1,3.328608E-2,-1.2427797E-1,2.9398156E-2,-1.9079454E-2,-2.982838E-1],"categories":[],"categories_nodes":[],"categories_segments":[],"categories_sizes":[],"default_left":[0,0,0,0,0,0,0,0,0,0,0,0,0,0,0,0,0,0,0,0,0,0,0,0,0,0,0,0,0,0,0],"id":17,"left_children":[1,3,5,7,9,11,13,15,17,19,21,23,25,27,29,-1,-1,-1,-1,-1,-1,-1,-1,-1,-1,-1,-1,-1,-1,-1,-1],"loss_changes":[1.7711973E3,2.7829126E2,2.422042E3,1.0283927E3,3.701997E2,4.7612354E2,3.684984E2,1.7832123E1,5.0964478E1,1.605343E2,2.81891E2,2.595094E2,4.4558276E2,6.6766064E2,1.4374646E2,0E0,0E0,0E0,0E0,0E0,0E0,0E0,0E0,0E0,0E0,0E0,0E0,0E0,0E0,0E0,0E0],"parents":[2147483647,0,0,1,1,2,2,3,3,4,4,5,5,6,6,7,7,8,8,9,9,10,10,11,11,12,12,13,13,14,14],"right_children":[2,4,6,8,10,12,14,16,18,20,22,24,26,28,30,-1,-1,-1,-1,-1,-1,-1,-1,-1,-1,-1,-1,-1,-1,-1,-1],"split_conditions":[6E0,2E0,1.9E1,4E0,5E0,1.4E1,7E0,3E0,5E0,4E0,5E0,3E0,1.8E1,4E0,2E1,-1.6392158E-1,-6.4915374E-2,2.9318798E-1,5.457344E-1,-1.7501833E-1,-7.650311E-2,-6.6588485E-1,-1.546132E-1,-1.5314094E-3,9.214922E-2,1.9556701E-1,3.328608E-2,-1.2427797E-1,2.9398156E-2,-1.9079454E-2,-2.982838E-1],"split_indices":[1,0,1,1,1,1,0,1,1,1,0,0,1,0,1,0,0,0,0,0,0,0,0,0,0,0,0,0,0,0,0],"split_type":[0,0,0,0,0,0,0,0,0,0,0,0,0,0,0,0,0,0,0,0,0,0,0,0,0,0,0,0,0,0,0],"sum_hessian":[4.331E3,9.02E2,3.429E3,1.74E2,7.28E2,2.153E3,1.276E3,1.33E2,4.1E1,6.84E2,4.4E1,1.272E3,8.81E2,1.158E3,1.18E2,1.09E2,2.4E1,2.2E1,1.9E1,3.96E2,2.88E2,2.3E1,2.1E1,4.67E2,8.05E2,6.52E2,2.29E2,6.7E2,4.88E2,2.3E1,9.5E1],"tree_param":{"num_deleted":"0","num_feature":"2","num_nodes":"31","size_leaf_vector":"1"}},{"base_weights":[-4.6195555E-3,-1.1264648E0,2.9072475E-1,-9.917801E-2,-1.3715249E0,8.730593E-1,-6.9176495E-1,-1.3217701E0,3.803834E0,-1.2037615E0,-3.8947785E0,1.013333E0,-4.2345712E-1,-2.6735166E-1,-1.3295251E0,-1.4767848E-1,-5.8683474E-2,2.6514393E-1,4.9388966E-1,-1.5756057E-1,-6.887929E-2,-6.0207087E-1,-1.3985464E-1,6.094734E-2,1.6062884E-1,-2.918067E-1,3.490981E-2,-1.5727489E-1,-4.9049626E-3,-1.1364392E-1,-3.1229156E-1],"categories":[],"categories_nodes":[],"categories_segments":[],"categories_sizes":[],"default_left":[0,0,0,0,0,0,0,0,0,0,0,0,0,0,0,0,0,0,0,0,0,0,0,0,0,0,0,0,0,0,0],"id":18,"left_children":[1,3,5,7,9,11,13,15,17,19,21,23,25,27,29,-1,-1,-1,-1,-1,-1,-1,-1,-1,-1,-1,-1,-1,-1,-1,-1],"loss_changes":[1.4356519E3,2.271914E2,1.9630363E3,8.4009125E2,3.0390417E2,3.9217078E2,3.452951E2,1.4399414E1,4.184259E1,1.300841E2,2.3038641E2,4.6455212E2,4.0766293E2,2.1878047E2,1.7305292E2,0E0,0E0,0E0,0E0,0E0,0E0,0E0,0E0,0E0,0E0,0E0,0E0,0E0,0E0,0E0,0E0],"parents":[2147483647,0,0,1,1,2,2,3,3,4,4,5,5,6,6,7,7,8,8,9,9,10,10,11,11,12,12,13,13,14,14],"right_children":[2,4,6,8,10,12,14,16,18,20,22,24,26,28,30,-1,-1,-1,-1,-1,-1,-1,-1,-1,-1,-1,-1,-1,-1,-1,-1],"split_conditions":[6E0,2E0,1.9E1,4E0,5E0,7E0,2.2E1,3E0,5E0,4E0,5E0,1.4E1,1E1,2E0,7E0,-1.4767848E-1,-5.8683474E-2,2.6514393E-1,4.9388966E-1,-1.5756057E-1,-6.887929E-2,-6.0207087E-1,-1.3985464E-1,6.094734E-2,1.6062884E-1,-2.918067E-1,3.490981E-2,-1.5727489E-1,-4.9049626E-3,-1.1364392E-1,-3.1229156E-1],"split_indices":[1,0,1,1,1,0,1,1,1,1,0,1,1,0,0,0,0,0,0,0,0,0,0,0,0,0,0,0,0,0,0],"split_type":[0,0,0,0,0,0,0,0,0,0,0,0,0,0,0,0,0,0,0,0,0,0,0,0,0,0,0,0,0,0,0],"sum_hessian":[4.331E3,9.02E2,3.429E3,1.74E2,7.28E2,2.153E3,1.276E3,1.33E2,4.1E1,6.84E2,4.4E1,1.943E3,2.1E2,7.67E2,5.09E2,1.09E2,2.4E1,2.2E1,1.9E1,3.96E2,2.88E2,2.3E1,2.1E1,1.157E3,7.86E2,4.9E1,1.61E2,1.09E2,6.58E2,4.61E2,4.8E1],"tree_param":{"num_deleted":"0","num_feature":"2","num_nodes":"31","size_leaf_vector":"1"}},{"base_weights":[-4.3976284E-3,-1.0142789E0,2.6147035E-1,-8.610212E-2,-1.2357008E0,7.8573674E-1,-6.230491E-1,-1.1911331E0,3.441523E0,-1.083716E0,-3.521788E0,9.1211337E-1,-3.8232914E-1,-4.2789367E-1,-1.7726804E0,-1.3304488E-1,-5.304987E-2,2.3978229E-1,4.4697022E-1,-1.4184421E-1,-6.2015213E-2,-5.4437244E-1,-1.265049E-1,5.485786E-2,1.4458632E-1,-2.6320958E-1,3.144034E-2,-9.5697775E-2,2.1085663E-2,-1.6398016E-1,-2.5957513E-1],"categories":[],"categories_nodes":[],"categories_segments":[],"categories_sizes":[],"default_left":[0,0,0,0,0,0,0,0,0,0,0,0,0,0,0,0,0,0,0,0,0,0,0,0,0,0,0,0,0,0,0],"id":19,"left_children":[1,3,5,7,9,11,13,15,17,19,21,23,25,27,29,-1,-1,-1,-1,-1,-1,-1,-1,-1,-1,-1,-1,-1,-1,-1,-1],"loss_changes":[1.163386E3,1.8547699E2,1.5910621E3,6.86273E2,2.4947485E2,3.183141E2,2.8574506E2,1.1627121E1,3.435309E1,1.0540967E2,1.8829236E2,3.7641394E2,3.3156702E2,3.6958395E2,1.5976685E1,0E0,0E0,0E0,0E0,0E0,0E0,0E0,0E0,0E0,0E0,0E0,0E0,0E0,0E0,0E0,0E0],"parents":[2147483647,0,0,1,1,2,2,3,3,4,4,5,5,6,6,7,7,8,8,9,9,10,10,11,11,12,12,13,13,14,14],"right_children":[2,4,6,8,10,12,14,16,18,20,22,24,26,28,30,-1,-1,-1,-1,-1,-1,-1,-1,-1,-1,-1,-1,-1,-1,-1,-1],"split_conditions":[6E0,2E0,1.9E1,4E0,5E0,7E0,2.3E1,3E0,5E0,4E0,5E0,1.4E1,1E1,4E0,7E0,-1.3304488E-1,-5.304987E-2,2.3978229E-1,4.4697022E-1,-1.4184421E-1,-6.2015213E-2,-5.4437244E-1,-1.265049E-1,5.485786E-2,1.4458632E-1,-2.6320958E-1,3.144034E-2,-9.5697775E-2,2.1085663E-2,-1.6398016E-1,-2.5957513E-1],"split_indices":[1,0,1,1,1,0,1,1,1,1,0,1,1,0,0,0,0,0,0,0,0,0,0,0,0,0,0,0,0,0,0],"split_type":[0,0,0,0,0,0,0,0,0,0,0,0,0,0,0,0,0,0,0,0,0,0,0,0,0,0,0,0,0,0,0],"sum_hessian":[4.331E3,9.02E2,3.429E3,1.74E2,7.28E2,2.153E3,1.276E3,1.33E2,4.1E1,6.84E2,4.4E1,1.943E3,2.1E2,1.092E3,1.84E2,1.09E2,2.4E1,2.2E1,1.9E1,3.96E2,2.88E2,2.3E1,2.1E1,1.157E3,7.86E2,4.9E1,1.61E2,5.97E2,4.95E2,1.61E2,2.3E1],"tree_param":{"num_deleted":"0","num_feature":"2","num_nodes":"31","size_leaf_vector":"1"}},{"base_weights":[-4.166605E-3,-9.132651E-1,2.3516871E-1,-7.4630916E-2,-1.1133306E0,7.889154E-1,-4.7279778E-1,-1.0734085E0,3.113722E0,-9.756419E-1,-3.1845174E0,4.4372416E-1,1.5395153E0,-9.9775267E-1,1.0166371E-1,-1.1986134E-1,-4.7957066E-2,2.1684657E-1,4.0450808E-1,-1.2769552E-1,-5.5835128E-2,-4.9220338E-1,-1.1442943E-1,-1.2934299E-2,7.5761825E-2,2.5930366E-1,9.061235E-2,-4.5171224E-2,-1.4886256E-1,6.268027E-2,-2.0402877E-1],"categories":[],"categories_nodes":[],"categories_segments":[],"categories_sizes":[],"default_left":[0,0,0,0,0,0,0,0,0,0,0,0,0,0,0,0,0,0,0,0,0,0,0,0,0,0,0,0,0,0,0],"id":20,"left_children":[1,3,5,7,9,11,13,15,17,19,21,23,25,27,29,-1,-1,-1,-1,-1,-1,-1,-1,-1,-1,-1,-1,-1,-1,-1,-1],"loss_changes":[9.4276855E2,1.5142389E2,1.3450499E3,5.6062195E2,2.0478845E2,4.9808533E2,4.542604E2,9.388275E0,2.8204071E1,8.541565E1,1.5388919E2,2.3754279E2,4.0202917E2,2.1027222E2,8.111507E2,0E0,0E0,0E0,0E0,0E0,0E0,0E0,0E0,0E0,0E0,0E0,0E0,0E0,0E0,0E0,0E0],"parents":[2147483647,0,0,1,1,2,2,3,3,4,4,5,5,6,6,7,7,8,8,9,9,10,10,11,11,12,12,13,13,14,14],"right_children":[2,4,6,8,10,12,14,16,18,20,22,24,26,28,30,-1,-1,-1,-1,-1,-1,-1,-1,-1,-1,-1,-1,-1,-1,-1,-1],"split_conditions":[6E0,2E0,1.8E1,4E0,5E0,1.5E1,4E0,3E0,5E0,4E0,5E0,3E0,3E0,2.1E1,7E0,-1.1986134E-1,-4.7957066E-2,2.1684657E-1,4.0450808E-1,-1.2769552E-1,-5.5835128E-2,-4.9220338E-1,-1.1442943E-1,-1.2934299E-2,7.5761825E-2,2.5930366E-1,9.061235E-2,-4.5171224E-2,-1.4886256E-1,6.268027E-2,-2.0402877E-1],"split_indices":[1,0,1,1,1,1,0,1,1,1,0,0,0,1,0,0,0,0,0,0,0,0,0,0,0,0,0,0,0,0,0],"split_type":[0,0,0,0,0,0,0,0,0,0,0,0,0,0,0,0,0,0,0,0,0,0,0,0,0,0,0,0,0,0,0],"sum_hessian":[4.331E3,9.02E2,3.429E3,1.74E2,7.28E2,1.924E3,1.505E3,1.33E2,4.1E1,6.84E2,4.4E1,1.319E3,6.05E2,7.86E2,7.19E2,1.09E2,2.4E1,2.2E1,1.9E1,3.96E2,2.88E2,2.3E1,2.1E1,4.67E2,8.52E2,2.26E2,3.79E2,3.73E2,4.13E2,5.78E2,1.41E2],"tree_param":{"num_deleted":"0","num_feature":"2","num_nodes":"31","size_leaf_vector":"1"}},{"base_weights":[-3.8099054E-3,-8.223114E-1,2.1167426E-1,-6.4576164E-2,-1.0030814E0,7.102381E-1,-4.2574078E-1,-9.673199E-1,2.8171437E0,-8.783457E-1,-2.8795462E0,3.9939916E-1,1.3861411E0,-1.5166227E0,-2.0111488E-1,-1.0798416E-1,-4.335315E-2,1.9610474E-1,3.6607978E-1,-1.1495812E-1,-5.0270956E-2,-4.4503385E-1,-1.0350662E-1,-1.1643691E-2,6.819453E-2,1.7630209E-1,-9.304528E-3,-2.1381633E-1,-1.2861943E-1,8.6196343E-4,-1.8376957E-1],"categories":[],"categories_nodes":[],"categories_segments":[],"categories_sizes":[],"default_left":[0,0,0,0,0,0,0,0,0,0,0,0,0,0,0,0,0,0,0,0,0,0,0,0,0,0,0,0,0,0,0],"id":21,"left_children":[1,3,5,7,9,11,13,15,17,19,21,23,25,27,29,-1,-1,-1,-1,-1,-1,-1,-1,-1,-1,-1,-1,-1,-1,-1,-1],"loss_changes":[7.6422675E2,1.2362445E2,1.0903292E3,4.5797964E2,1.6810211E2,4.0388306E2,3.6872574E2,7.5802765E0,2.3155426E1,6.921393E1,1.2577188E2,1.924661E2,3.3799414E2,3.4057617E1,4.2907516E2,0E0,0E0,0E0,0E0,0E0,0E0,0E0,0E0,0E0,0E0,0E0,0E0,0E0,0E0,0E0,0E0],"parents":[2147483647,0,0,1,1,2,2,3,3,4,4,5,5,6,6,7,7,8,8,9,9,10,10,11,11,12,12,13,13,14,14],"right_children":[2,4,6,8,10,12,14,16,18,20,22,24,26,28,30,-1,-1,-1,-1,-1,-1,-1,-1,-1,-1,-1,-1,-1,-1,-1,-1],"split_conditions":[6E0,2E0,1.8E1,4E0,5E0,1.5E1,2E0,3E0,5E0,4E0,5E0,3E0,5E0,2E1,7E0,-1.0798416E-1,-4.335315E-2,1.9610474E-1,3.6607978E-1,-1.1495812E-1,-5.0270956E-2,-4.4503385E-1,-1.0350662E-1,-1.1643691E-2,6.819453E-2,1.7630209E-1,-9.304528E-3,-2.1381633E-1,-1.2861943E-1,8.6196343E-4,-1.8376957E-1],"split_indices":[1,0,1,1,1,1,0,1,1,1,0,0,0,1,0,0,0,0,0,0,0,0,0,0,0,0,0,0,0,0,0],"split_type":[0,0,0,0,0,0,0,0,0,0,0,0,0,0,0,0,0,0,0,0,0,0,0,0,0,0,0,0,0,0,0],"sum_hessian":[4.331E3,9.02E2,3.429E3,1.74E2,7.28E2,1.924E3,1.505E3,1.33E2,4.1E1,6.84E2,4.4E1,1.319E3,6.05E2,2.56E2,1.249E3,1.09E2,2.4E1,2.2E1,1.9E1,3.96E2,2.88E2,2.3E1,2.1E1,4.67E2,8.52E2,4.82E2,1.23E2,6.7E1,1.89E2,1.108E3,1.41E2],"tree_param":{"num_deleted":"0","num_feature":"2","num_nodes":"31","size_leaf_vector":"1"}},{"base_weights":[-3.5686046E-3,-7.404157E-1,1.904187E-1,-5.577077E-2,-9.037524E-1,4.654435E-1,-7.6828253E-1,-8.7171733E-1,2.5488153E0,-7.907523E-1,-2.603781E0,6.3550776E-1,-2.4438928E-1,-1.4979861E0,-2.916904E-1,-9.728392E-2,-3.919125E-2,1.7734696E-1,3.3130223E-1,-5.028808E-2,-1.1353216E-1,-4.0238476E-1,-9.36264E-2,1.6765295E-1,4.9896028E-2,-3.9400697E-1,-6.3982136E-3,-1.4349835E-1,-1.7799218E-1,1.4802654E-2,-1.3643935E-1],"categories":[],"categories_nodes":[],"categories_segments":[],"categories_sizes":[],"default_left":[0,0,0,0,0,0,0,0,0,0,0,0,0,0,0,0,0,0,0,0,0,0,0,0,0,0,0,0,0,0,0],"id":22,"left_children":[1,3,5,7,9,11,13,15,17,19,21,23,25,27,29,-1,-1,-1,-1,-1,-1,-1,-1,-1,-1,-1,-1,-1,-1,-1,-1],"loss_changes":[6.1935266E2,1.0092993E2,9.047339E2,3.741324E2,1.3798444E2,3.2198737E2,2.6560785E2,6.120247E0,1.9010468E1,6.737537E1,1.0279193E2,3.0492578E2,3.437791E2,2.8101807E0,2.1906413E2,0E0,0E0,0E0,0E0,0E0,0E0,0E0,0E0,0E0,0E0,0E0,0E0,0E0,0E0,0E0,0E0],"parents":[2147483647,0,0,1,1,2,2,3,3,4,4,5,5,6,6,7,7,8,8,9,9,10,10,11,11,12,12,13,13,14,14],"right_children":[2,4,6,8,10,12,14,16,18,20,22,24,26,28,30,-1,-1,-1,-1,-1,-1,-1,-1,-1,-1,-1,-1,-1,-1,-1,-1],"split_conditions":[6E0,2E0,2.1E1,4E0,5E0,6E0,3E0,3E0,5E0,5E0,5E0,8E0,7E0,2.3E1,2.3E1,-9.728392E-2,-3.919125E-2,1.7734696E-1,3.3130223E-1,-5.028808E-2,-1.1353216E-1,-4.0238476E-1,-9.36264E-2,1.6765295E-1,4.9896028E-2,-3.9400697E-1,-6.3982136E-3,-1.4349835E-1,-1.7799218E-1,1.4802654E-2,-1.3643935E-1],"split_indices":[1,0,1,1,1,0,0,1,1,0,0,1,1,1,1,0,0,0,0,0,0,0,0,0,0,0,0,0,0,0,0],"split_type":[0,0,0,0,0,0,0,0,0,0,0,0,0,0,0,0,0,0,0,0,0,0,0,0,0,0,0,0,0,0,0],"sum_hessian":[4.331E3,9.02E2,3.429E3,1.74E2,7.28E2,2.665E3,7.64E2,1.33E2,4.1E1,6.84E2,4.4E1,2.15E3,5.15E2,3.01E2,4.63E2,1.09E2,2.4E1,2.2E1,1.9E1,3.74E2,3.1E2,2.3E1,2.1E1,2.48E2,1.902E3,2.3E1,4.92E2,2.51E2,5E1,3.29E2,1.34E2],"tree_param":{"num_deleted":"0","num_feature":"2","num_nodes":"31","size_leaf_vector":"1"}},{"base_weights":[-3.4226559E-3,-6.6669273E-1,1.7119434E-1,-4.806714E-2,-8.142823E-1,5.898871E-1,-3.6410093E-1,-7.8556424E-1,2.306044E0,-7.1191627E-1,-2.3544257E0,3.0612946E-1,1.2069995E0,-8.1397384E-1,1.281408E-1,-8.764398E-2,-3.5428893E-2,1.6038331E-1,2.998285E-1,-9.538462E-2,-3.771132E-2,-3.638229E-1,-8.468937E-2,-1.8278794E-2,5.7401597E-2,2.1096733E-1,6.6459455E-2,-4.1120958E-2,-1.17585756E-1,5.6035995E-2,-1.6351199E-1],"categories":[],"categories_nodes":[],"categories_segments":[],"categories_sizes":[],"default_left":[0,0,0,0,0,0,0,0,0,0,0,0,0,0,0,0,0,0,0,0,0,0,0,0,0,0,0,0,0,0,0],"id":23,"left_children":[1,3,5,7,9,11,13,15,17,19,21,23,25,27,29,-1,-1,-1,-1,-1,-1,-1,-1,-1,-1,-1,-1,-1,-1,-1,-1],"loss_changes":[5.018387E2,8.2407166E1,7.6896094E2,3.0563782E2,1.13256775E2,3.3671796E2,3.336023E2,4.941269E0,1.5607407E1,5.512448E1,8.4010635E1,1.7299112E2,2.9530444E2,1.1422473E2,5.496391E2,0E0,0E0,0E0,0E0,0E0,0E0,0E0,0E0,0E0,0E0,0E0,0E0,0E0,0E0,0E0,0E0],"parents":[2147483647,0,0,1,1,2,2,3,3,4,4,5,5,6,6,7,7,8,8,9,9,10,10,11,11,12,12,13,13,14,14],"right_children":[2,4,6,8,10,12,14,16,18,20,22,24,26,28,30,-1,-1,-1,-1,-1,-1,-1,-1,-1,-1,-1,-1,-1,-1,-1,-1],"split_conditions":[6E0,2E0,1.8E1,4E0,5E0,1.5E1,4E0,3E0,5E0,4E0,5E0,3E0,3E0,2.1E1,7E0,-8.764398E-2,-3.5428893E-2,1.6038331E-1,2.998285E-1,-9.538462E-2,-3.771132E-2,-3.638229E-1,-8.468937E-2,-1.8278794E-2,5.7401597E-2,2.1096733E-1,6.6459455E-2,-4.1120958E-2,-1.17585756E-1,5.6035995E-2,-1.6351199E-1],"split_indices":[1,0,1,1,1,1,0,1,1,1,0,0,0,1,0,0,0,0,0,0,0,0,0,0,0,0,0,0,0,0,0],"split_type":[0,0,0,0,0,0,0,0,0,0,0,0,0,0,0,0,0,0,0,0,0,0,0,0,0,0,0,0,0,0,0],"sum_hessian":[4.331E3,9.02E2,3.429E3,1.74E2,7.28E2,1.924E3,1.505E3,1.33E2,4.1E1,6.84E2,4.4E1,1.319E3,6.05E2,7.86E2,7.19E2,1.09E2,2.4E1,2.2E1,1.9E1,3.96E2,2.88E2,2.3E1,2.1E1,4.67E2,8.52E2,2.26E2,3.79E2,3.73E2,4.13E2,5.78E2,1.41E2],"tree_param":{"num_deleted":"0","num_feature":"2","num_nodes":"31","size_leaf_vector":"1"}},{"base_weights":[-3.1253702E-3,1.10456444E-1,-8.545374E-1,-6.0029423E-1,3.301406E-1,-7.196001E-1,-2.1093643E0,-4.1333705E-2,-7.33652E-1,4.2785662E-1,-5.894259E-1,-1.1454313E0,-2.0314832E-1,-2.4172802E-1,-1.6878985E-1,-7.079261E-2,2.0863977E-1,-6.4091906E-2,-2.1289502E-1,6.2264156E-2,5.28964E-3,-2.565211E-1,-1.610695E-2,-1.2003628E-1,-9.64456E-2,6.2297817E-2,-1.3333088E-1],"categories":[],"categories_nodes":[],"categories_segments":[],"categories_sizes":[],"default_left":[0,0,0,0,0,0,0,0,0,0,0,0,0,0,0,0,0,0,0,0,0,0,0,0,0,0,0],"id":24,"left_children":[1,3,5,7,9,11,13,15,17,19,21,23,25,-1,-1,-1,-1,-1,-1,-1,-1,-1,-1,-1,-1,-1,-1],"loss_changes":[4.1902014E2,5.9712396E2,8.483682E1,6.728079E1,2.627227E2,1.0137094E2,2.2789154E0,2.496847E2,9.296091E1,1.9285678E2,2.3740842E2,1.3574219E0,1.9689827E2,0E0,0E0,0E0,0E0,0E0,0E0,0E0,0E0,0E0,0E0,0E0,0E0,0E0,0E0],"parents":[2147483647,0,0,1,1,2,2,3,3,4,4,5,5,6,6,7,7,8,8,9,9,10,10,11,11,12,12],"right_children":[2,4,6,8,10,12,14,16,18,20,22,24,26,-1,-1,-1,-1,-1,-1,-1,-1,-1,-1,-1,-1,-1,-1],"split_conditions":[2.2E1,6E0,7E0,2E0,7E0,4E0,2.3E1,4E0,5E0,1.8E1,1E1,3E0,2.3E1,-2.4172802E-1,-1.6878985E-1,-7.079261E-2,2.0863977E-1,-6.4091906E-2,-2.1289502E-1,6.2264156E-2,5.28964E-3,-2.565211E-1,-1.610695E-2,-1.2003628E-1,-9.64456E-2,6.2297817E-2,-1.3333088E-1],"split_indices":[1,1,0,0,0,0,1,1,1,1,1,0,1,0,0,0,0,0,0,0,0,0,0,0,0,0,0],"split_type":[0,0,0,0,0,0,0,0,0,0,0,0,0,0,0,0,0,0,0,0,0,0,0,0,0,0,0],"sum_hessian":[4.331E3,3.822E3,5.09E2,9.02E2,2.92E3,4.61E2,4.8E1,1.74E2,7.28E2,2.64E3,2.8E2,2.52E2,2.09E2,2.5E1,2.3E1,1.33E2,4.1E1,6.84E2,4.4E1,1.737E3,9.03E2,4.9E1,2.31E2,1.89E2,6.3E1,1.21E2,8.8E1],"tree_param":{"num_deleted":"0","num_feature":"2","num_nodes":"27","size_leaf_vector":"1"}},{"base_weights":[-3.0532144E-3,-7.5654894E-1,1.01957515E-1,-9.390838E-1,-4.3814757E-1,2.3699912E-1,-7.704524E-1,-6.376618E-1,-1.1334261E0,-2.7209988E-1,-5.639835E-2,4.3691468E-1,-3.2225442E-1,-6.4826244E-1,-1.9068058E0,-7.194434E-2,-2.5231658E-2,-1.2907526E-1,-7.948118E-2,-5.690067E-2,4.751129E-2,2.1377847E-2,1.05698384E-1,-1.8033418E-1,1.5001687E-3,-8.6802594E-2,1.9862808E-2,-2.1848495E-1,-1.5261416E-1],"categories":[],"categories_nodes":[],"categories_segments":[],"categories_sizes":[],"default_left":[0,0,0,0,0,0,0,0,0,0,0,0,0,0,0,0,0,0,0,0,0,0,0,0,0,0,0,0,0],"id":25,"left_children":[1,3,5,7,9,11,13,15,17,19,-1,21,23,25,27,-1,-1,-1,-1,-1,-1,-1,-1,-1,-1,-1,-1,-1,-1],"loss_changes":[3.4284723E2,3.0391785E1,4.4822028E2,1.8959808E1,3.9210243E0,3.6842145E2,6.957791E1,4.0413666E0,9.788513E0,1.934966E1,0E0,3.355735E2,4.3359805E2,8.615787E1,1.8518372E0,0E0,0E0,0E0,0E0,0E0,0E0,0E0,0E0,0E0,0E0,0E0,0E0,0E0,0E0],"parents":[2147483647,0,0,1,1,2,2,3,3,4,4,5,5,6,6,7,7,8,8,9,9,11,11,12,12,13,13,14,14],"right_children":[2,4,6,8,10,12,14,16,18,20,-1,22,24,26,28,-1,-1,-1,-1,-1,-1,-1,-1,-1,-1,-1,-1,-1,-1],"split_conditions":[4E0,5E0,2.2E1,2E0,2E0,5E0,7E0,3E0,4E0,6E0,-5.639835E-2,4E0,7E0,5E0,2.3E1,-7.194434E-2,-2.5231658E-2,-1.2907526E-1,-7.948118E-2,-5.690067E-2,4.751129E-2,2.1377847E-2,1.05698384E-1,-1.8033418E-1,1.5001687E-3,-8.6802594E-2,1.9862808E-2,-2.1848495E-1,-1.5261416E-1],"split_indices":[1,0,1,0,1,0,0,1,0,0,0,0,1,0,1,0,0,0,0,0,0,0,0,0,0,0,0,0,0],"split_type":[0,0,0,0,0,0,0,0,0,0,0,0,0,0,0,0,0,0,0,0,0,0,0,0,0,0,0,0,0],"sum_hessian":[4.331E3,5.29E2,3.802E3,3.35E2,1.94E2,3.293E3,5.09E2,1.33E2,2.02E2,8.5E1,1.09E2,2.426E3,8.67E2,4.61E2,4.8E1,1.09E2,2.4E1,1.36E2,6.6E1,6.1E1,2.4E1,1.785E3,6.41E2,1.6E2,7.07E2,3.66E2,9.5E1,2.5E1,2.3E1],"tree_param":{"num_deleted":"0","num_feature":"2","num_nodes":"29","size_leaf_vector":"1"}},{"base_weights":[-2.9466408E-3,9.266136E-2,-7.2443235E-1,-8.3214426E-1,1.9250497E-1,-4.9384183E-1,-1.7065037E0,-9.372996E-1,-6.235478E-1,3.533415E-1,-4.4879803E-1,-1.0960385E0,3.8730124E-1,-2.6066756E-1,-1.3871801E0,-6.481532E-2,-1.1626194E-1,-7.16517E-2,-5.1302385E-2,4.641048E-2,-1.2511112E-2,-9.466147E-2,2.8886223E-2,-3.3696424E-2,-1.9944307E-1,2.1127763E-1,-3.4094296E-2,-6.721164E-2,-1.7236988E-1],"categories":[],"categories_nodes":[],"categories_segments":[],"categories_sizes":[],"default_left":[0,0,0,0,0,0,0,0,0,0,0,0,0,0,0,0,0,0,0,0,0,0,0,0,0,0,0,0,0],"id":26,"left_children":[1,3,5,7,9,11,13,15,17,19,21,23,25,-1,27,-1,-1,-1,-1,-1,-1,-1,-1,-1,-1,-1,-1,-1,-1],"loss_changes":[2.988876E2,3.5343747E2,1.1397064E2,7.5973206E0,3.564212E2,2.1904053E2,2.3978943E1,1.5273453E1,9.476547E-1,1.464302E2,2.5475653E2,1.6640482E2,2.1182362E2,0E0,1.6407623E1,0E0,0E0,0E0,0E0,0E0,0E0,0E0,0E0,0E0,0E0,0E0,0E0,0E0,0E0],"parents":[2147483647,0,0,1,1,2,2,3,3,4,4,5,5,6,6,7,7,8,8,9,9,10,10,11,11,12,12,14,14],"right_children":[2,4,6,8,10,12,14,16,18,20,22,24,26,-1,28,-1,-1,-1,-1,-1,-1,-1,-1,-1,-1,-1,-1,-1,-1],"split_conditions":[7E0,3E0,2E1,4E0,2.1E1,1.1E1,2.1E1,2E0,5E0,5E0,4E0,4E0,1.4E1,-2.6066756E-1,2.2E1,-6.481532E-2,-1.1626194E-1,-7.16517E-2,-5.1302385E-2,4.641048E-2,-1.2511112E-2,-9.466147E-2,2.8886223E-2,-3.3696424E-2,-1.9944307E-1,2.1127763E-1,-3.4094296E-2,-6.721164E-2,-1.7236988E-1],"split_indices":[0,1,1,0,1,1,1,0,0,0,0,1,1,0,1,0,0,0,0,0,0,0,0,0,0,0,0,0,0],"split_type":[0,0,0,0,0,0,0,0,0,0,0,0,0,0,0,0,0,0,0,0,0,0,0,0,0,0,0,0,0],"sum_hessian":[4.331E3,3.825E3,5.06E2,3.72E2,3.453E3,4.11E2,9.5E1,2.45E2,1.27E2,2.761E3,6.92E2,2.44E2,1.67E2,2.3E1,7.2E1,1.09E2,1.36E2,6.6E1,6.1E1,2.242E3,5.19E2,4.13E2,2.79E2,1.33E2,1.11E2,4.9E1,1.18E2,2.4E1,4.8E1],"tree_param":{"num_deleted":"0","num_feature":"2","num_nodes":"29","size_leaf_vector":"1"}},{"base_weights":[-2.8576101E-3,8.3307765E-2,-6.530861E-1,-7.215896E-1,1.7644507E-1,-4.445935E-1,-1.5410641E0,-9.488784E-1,-6.3553643E-1,3.910523E-1,-2.4440402E-1,-9.873862E-1,3.4962562E-1,-2.3568693E-1,-1.2517438E0,-1.1190664E-1,-6.234465E-2,-6.737965E-2,-1.8181738E-2,1.5789831E-2,8.3079286E-2,-5.495544E-2,1.7481957E-2,-3.0351905E-2,-1.7967685E-1,1.9057249E-1,-3.0713558E-2,-6.0759276E-2,-1.5548466E-1],"categories":[],"categories_nodes":[],"categories_segments":[],"categories_sizes":[],"default_left":[0,0,0,0,0,0,0,0,0,0,0,0,0,0,0,0,0,0,0,0,0,0,0,0,0,0,0,0,0],"id":27,"left_children":[1,3,5,7,9,11,13,15,17,19,21,23,25,-1,27,-1,-1,-1,-1,-1,-1,-1,-1,-1,-1,-1,-1,-1,-1],"loss_changes":[2.4276419E2,2.8694714E2,9.3179245E1,7.16185E0,3.098838E2,1.7795691E2,1.9708572E1,5.22847E0,4.929062E0,2.3281082E2,1.483626E2,1.3506459E2,1.722789E2,0E0,1.3308098E1,0E0,0E0,0E0,0E0,0E0,0E0,0E0,0E0,0E0,0E0,0E0,0E0,0E0,0E0],"parents":[2147483647,0,0,1,1,2,2,3,3,4,4,5,5,6,6,7,7,8,8,9,9,10,10,11,11,12,12,14,14],"right_children":[2,4,6,8,10,12,14,16,18,20,22,24,26,-1,28,-1,-1,-1,-1,-1,-1,-1,-1,-1,-1,-1,-1,-1,-1],"split_conditions":[7E0,4E0,2E1,1E0,1.9E1,1.1E1,2.1E1,4E0,5E0,1.4E1,4E0,4E0,1.4E1,-2.3568693E-1,2.2E1,-1.1190664E-1,-6.234465E-2,-6.737965E-2,-1.8181738E-2,1.5789831E-2,8.3079286E-2,-5.495544E-2,1.7481957E-2,-3.0351905E-2,-1.7967685E-1,1.9057249E-1,-3.0713558E-2,-6.0759276E-2,-1.5548466E-1],"split_indices":[0,1,1,1,1,1,1,0,0,1,0,1,1,0,1,0,0,0,0,0,0,0,0,0,0,0,0,0,0],"split_type":[0,0,0,0,0,0,0,0,0,0,0,0,0,0,0,0,0,0,0,0,0,0,0,0,0,0,0,0,0],"sum_hessian":[4.331E3,3.825E3,5.06E2,3.96E2,3.429E3,4.11E2,9.5E1,1.06E2,2.9E2,2.271E3,1.158E3,2.44E2,1.67E2,2.3E1,7.2E1,6.8E1,3.8E1,2.67E2,2.3E1,1.485E3,7.86E2,6.7E2,4.88E2,1.33E2,1.11E2,4.9E1,1.18E2,2.4E1,4.8E1],"tree_param":{"num_deleted":"0","num_feature":"2","num_nodes":"29","size_leaf_vector":"1"}},{"base_weights":[-2.7331568E-3,7.807641E-2,-6.0848266E-1,-4.044669E-1,2.2722346E-1,-3.7072384E-1,-1.0241631E0,7.749247E-2,-5.196088E-1,3.8916677E-1,-8.568332E-2,-8.096278E-1,1.6923152E-1,-7.529805E-1,-1.1941931E0,-4.633335E-2,1.8011397E-1,-4.265926E-2,-1.923975E-1,1.5872143E-2,8.904847E-2,-5.4182995E-2,4.415826E-2,-4.8412304E-2,-1.0172123E-1,5.57579E-2,-1.6595231E-1,-1.1406731E-1,1.0224056E-2,-1.343105E-1,-9.596745E-2],"categories":[],"categories_nodes":[],"categories_segments":[],"categories_sizes":[],"default_left":[0,0,0,0,0,0,0,0,0,0,0,0,0,0,0,0,0,0,0,0,0,0,0,0,0,0,0,0,0,0,0],"id":28,"left_children":[1,3,5,7,9,11,13,15,17,19,21,23,25,27,29,-1,-1,-1,-1,-1,-1,-1,-1,-1,-1,-1,-1,-1,-1,-1,-1],"loss_changes":[2.1210043E2,2.7523288E2,5.0024475E1,5.0151077E1,1.4804964E2,7.739528E1,7.6309967E0,1.6396834E2,9.440762E1,2.2224695E2,2.4002829E2,1.1670105E1,1.0532357E2,2.4652279E1,2.6223907E0,0E0,0E0,0E0,0E0,0E0,0E0,0E0,0E0,0E0,0E0,0E0,0E0,0E0,0E0,0E0,0E0],"parents":[2147483647,0,0,1,1,2,2,3,3,4,4,5,5,6,6,7,7,8,8,9,9,10,10,11,11,12,12,13,13,14,14],"right_children":[2,4,6,8,10,12,14,16,18,20,22,24,26,28,30,-1,-1,-1,-1,-1,-1,-1,-1,-1,-1,-1,-1,-1,-1,-1,-1],"split_conditions":[2.2E1,6E0,2.3E1,2E0,1.8E1,4E0,4E0,4E0,5E0,1.5E1,4E0,2E0,7E0,2E0,6E0,-4.633335E-2,1.8011397E-1,-4.265926E-2,-1.923975E-1,1.5872143E-2,8.904847E-2,-5.4182995E-2,4.415826E-2,-4.8412304E-2,-1.0172123E-1,5.57579E-2,-1.6595231E-1,-1.1406731E-1,1.0224056E-2,-1.343105E-1,-9.596745E-2],"split_indices":[1,1,1,0,1,0,0,1,1,1,0,0,0,0,0,0,0,0,0,0,0,0,0,0,0,0,0,0,0,0,0],"split_type":[0,0,0,0,0,0,0,0,0,0,0,0,0,0,0,0,0,0,0,0,0,0,0,0,0,0,0,0,0,0,0],"sum_hessian":[4.331E3,3.822E3,5.09E2,9.02E2,2.92E3,3.25E2,1.84E2,1.74E2,7.28E2,1.924E3,9.96E2,1.79E2,1.46E2,7.3E1,1.11E2,1.33E2,4.1E1,6.84E2,4.4E1,1.319E3,6.05E2,5.34E2,4.62E2,7.1E1,1.08E2,1.21E2,2.5E1,5E1,2.3E1,6.5E1,4.6E1],"tree_param":{"num_deleted":"0","num_feature":"2","num_nodes":"31","size_leaf_vector":"1"}},{"base_weights":[-2.5987807E-3,7.4198954E-2,-5.8213633E-1,-6.3435644E-1,1.5069489E-1,-4.0248516E-1,-1.3470752E0,-7.2077787E-1,-4.6330935E-1,2.46582E-1,-4.7082198E-1,-8.627871E-1,2.711843E-1,-2.1733204E-1,-1.05698E0,-4.7124784E-2,-9.158694E-2,-5.3753812E-2,-3.7562165E-2,3.46345E-2,1.5662473E-3,-2.3266396E-2,-9.1041915E-2,-2.3105253E-2,-1.6109091E-1,1.703408E-1,-3.3286925E-2,-5.9165526E-2,-1.2728195E-1],"categories":[],"categories_nodes":[],"categories_segments":[],"categories_sizes":[],"default_left":[0,0,0,0,0,0,0,0,0,0,0,0,0,0,0,0,0,0,0,0,0,0,0,0,0,0,0,0,0],"id":29,"left_children":[1,3,5,7,9,11,13,15,17,19,21,23,25,-1,27,-1,-1,-1,-1,-1,-1,-1,-1,-1,-1,-1,-1,-1,-1],"loss_changes":[1.9284827E2,2.0747096E2,6.913083E1,5.1797943E0,2.059588E2,1.2799164E2,2.0713074E1,1.1543976E1,6.312332E-1,6.894499E1,4.8156624E1,1.15418335E2,1.459105E2,0E0,6.57872E0,0E0,0E0,0E0,0E0,0E0,0E0,0E0,0E0,0E0,0E0,0E0,0E0,0E0,0E0],"parents":[2147483647,0,0,1,1,2,2,3,3,4,4,5,5,6,6,7,7,8,8,9,9,10,10,11,11,12,12,14,14],"right_children":[2,4,6,8,10,12,14,16,18,20,22,24,26,-1,28,-1,-1,-1,-1,-1,-1,-1,-1,-1,-1,-1,-1,-1,-1],"split_conditions":[7E0,3E0,2E1,4E0,2.2E1,1.1E1,2.1E1,2E0,5E0,1.8E1,2.3E1,4E0,1.4E1,-2.1733204E-1,2.2E1,-4.7124784E-2,-9.158694E-2,-5.3753812E-2,-3.7562165E-2,3.46345E-2,1.5662473E-3,-2.3266396E-2,-9.1041915E-2,-2.3105253E-2,-1.6109091E-1,1.703408E-1,-3.3286925E-2,-5.9165526E-2,-1.2728195E-1],"split_indices":[0,1,1,0,1,1,1,0,0,1,1,1,1,0,1,0,0,0,0,0,0,0,0,0,0,0,0,0,0],"split_type":[0,0,0,0,0,0,0,0,0,0,0,0,0,0,0,0,0,0,0,0,0,0,0,0,0,0,0,0,0],"sum_hessian":[4.331E3,3.825E3,5.06E2,3.72E2,3.453E3,4.11E2,9.5E1,2.45E2,1.27E2,2.992E3,4.61E2,2.44E2,1.67E2,2.3E1,7.2E1,1.09E2,1.36E2,6.6E1,6.1E1,2.089E3,9.03E2,3E2,1.61E2,1.33E2,1.11E2,4.9E1,1.18E2,2.4E1,4.8E1],"tree_param":{"num_deleted":"0","num_feature":"2","num_nodes":"29","size_leaf_vector":"1"}},{"base_weights":[-2.5137207E-3,6.669898E-2,-5.2481216E-1,-5.7153744E-1,1.356033E-1,-3.6235118E-1,-1.2165736E0,-6.49264E-1,-4.1769165E-1,2.4603371E-1,-3.0472052E-1,-7.772603E-1,2.4488154E-1,-1.9650438E-1,-9.5383584E-1,-4.2455137E-2,-8.249511E-2,-4.845865E-2,-3.386651E-2,3.471436E-2,-1.9057307E-2,-8.649122E-2,1.2763308E-2,-4.8232477E-2,-2.2329806E-1,1.5364735E-1,-2.9986193E-2,-5.34856E-2,-1.1481351E-1],"categories":[],"categories_nodes":[],"categories_segments":[],"categories_sizes":[],"default_left":[0,0,0,0,0,0,0,0,0,0,0,0,0,0,0,0,0,0,0,0,0,0,0,0,0,0,0,0,0],"id":30,"left_children":[1,3,5,7,9,11,13,15,17,19,21,23,25,-1,27,-1,-1,-1,-1,-1,-1,-1,-1,-1,-1,-1,-1,-1,-1],"loss_changes":[1.5663545E2,1.6833443E2,5.653798E1,4.18911E0,1.6802621E2,1.0399226E2,1.7004196E1,9.36161E0,5.1255417E-1,1.2199536E2,1.679556E2,1.0411217E2,1.1866322E2,0E0,5.3286514E0,0E0,0E0,0E0,0E0,0E0,0E0,0E0,0E0,0E0,0E0,0E0,0E0,0E0,0E0],"parents":[2147483647,0,0,1,1,2,2,3,3,4,4,5,5,6,6,7,7,8,8,9,9,10,10,11,11,12,12,14,14],"right_children":[2,4,6,8,10,12,14,16,18,20,22,24,26,-1,28,-1,-1,-1,-1,-1,-1,-1,-1,-1,-1,-1,-1,-1,-1],"split_conditions":[7E0,3E0,2E1,4E0,2.1E1,1.1E1,2.1E1,2E0,5E0,5E0,3E0,8E0,1.4E1,-1.9650438E-1,2.2E1,-4.2455137E-2,-8.249511E-2,-4.845865E-2,-3.386651E-2,3.471436E-2,-1.9057307E-2,-8.649122E-2,1.2763308E-2,-4.8232477E-2,-2.2329806E-1,1.5364735E-1,-2.9986193E-2,-5.34856E-2,-1.1481351E-1],"split_indices":[0,1,1,0,1,1,1,0,0,0,0,1,1,0,1,0,0,0,0,0,0,0,0,0,0,0,0,0,0],"split_type":[0,0,0,0,0,0,0,0,0,0,0,0,0,0,0,0,0,0,0,0,0,0,0,0,0,0,0,0,0],"sum_hessian":[4.331E3,3.825E3,5.06E2,3.72E2,3.453E3,4.11E2,9.5E1,2.45E2,1.27E2,2.761E3,6.92E2,2.44E2,1.67E2,2.3E1,7.2E1,1.09E2,1.36E2,6.6E1,6.1E1,2.242E3,5.19E2,3.01E2,3.91E2,2.04E2,4E1,4.9E1,1.18E2,2.4E1,4.8E1],"tree_param":{"num_deleted":"0","num_feature":"2","num_nodes":"29","size_leaf_vector":"1"}},{"base_weights":[-2.4416957E-3,5.9960015E-2,-4.733421E-1,-4.9829692E-1,1.2455711E-1,-3.2647496E-1,-1.0987163E0,-6.7735976E-1,-4.3074358E-1,2.9279265E-1,-1.3016754E-1,-7.006425E-1,2.2112942E-1,-1.776727E-1,-8.607577E-1,-7.951815E-2,-4.515378E-2,-4.6277974E-2,-5.505872E-3,7.818642E-3,8.411782E-2,-5.3478677E-2,4.2003192E-2,-4.3432754E-2,-2.0151289E-1,1.3858998E-1,-2.7012814E-2,-4.8350953E-2,-1.0356648E-1],"categories":[],"categories_nodes":[],"categories_segments":[],"categories_sizes":[],"default_left":[0,0,0,0,0,0,0,0,0,0,0,0,0,0,0,0,0,0,0,0,0,0,0,0,0,0,0,0,0],"id":31,"left_children":[1,3,5,7,9,11,13,15,17,19,21,23,25,-1,27,-1,-1,-1,-1,-1,-1,-1,-1,-1,-1,-1,-1,-1,-1],"loss_changes":[1.2732416E2,1.3803442E2,4.6207695E1,4.5104523E0,1.4702644E2,8.457201E1,1.395916E1,2.4878654E0,3.4768524E0,2.4307552E2,3.0410266E2,8.489128E1,9.650435E1,0E0,4.3160286E0,0E0,0E0,0E0,0E0,0E0,0E0,0E0,0E0,0E0,0E0,0E0,0E0,0E0,0E0],"parents":[2147483647,0,0,1,1,2,2,3,3,4,4,5,5,6,6,7,7,8,8,9,9,10,10,11,11,12,12,14,14],"right_children":[2,4,6,8,10,12,14,16,18,20,22,24,26,-1,28,-1,-1,-1,-1,-1,-1,-1,-1,-1,-1,-1,-1,-1,-1],"split_conditions":[7E0,4E0,2E1,1E0,1.8E1,1.1E1,2.1E1,4E0,5E0,1.4E1,4E0,8E0,1.4E1,-1.776727E-1,2.2E1,-7.951815E-2,-4.515378E-2,-4.6277974E-2,-5.505872E-3,7.818642E-3,8.411782E-2,-5.3478677E-2,4.2003192E-2,-4.3432754E-2,-2.0151289E-1,1.3858998E-1,-2.7012814E-2,-4.8350953E-2,-1.0356648E-1],"split_indices":[0,1,1,1,1,1,1,0,0,1,0,1,1,0,1,0,0,0,0,0,0,0,0,0,0,0,0,0,0],"split_type":[0,0,0,0,0,0,0,0,0,0,0,0,0,0,0,0,0,0,0,0,0,0,0,0,0,0,0,0,0],"sum_hessian":[4.331E3,3.825E3,5.06E2,3.96E2,3.429E3,4.11E2,9.5E1,1.06E2,2.9E2,2.065E3,1.364E3,2.44E2,1.67E2,2.3E1,7.2E1,6.8E1,3.8E1,2.67E2,2.3E1,1.485E3,5.8E2,7.86E2,5.78E2,2.04E2,4E1,4.9E1,1.18E2,2.4E1,4.8E1],"tree_param":{"num_deleted":"0","num_feature":"2","num_nodes":"29","size_leaf_vector":"1"}},{"base_weights":[-2.3265309E-3,3.255914E-2,-7.8450733E-1,-2.8798774E-1,1.2172158E-1,-4.8204514E-1,-9.773439E-1,9.270393E-3,-4.418781E-1,7.2938764E-1,6.0274914E-2,-8.023604E-2,2.1871002E-2,-1.175104E-1,-6.788437E-2,-4.528219E-2,8.734682E-2,-3.3128478E-2,-1.7862125E-1,1.2424113E-1,-1.8400578E-1,-7.330611E-2,1.4740579E-2],"categories":[],"categories_nodes":[],"categories_segments":[],"categories_sizes":[],"default_left":[0,0,0,0,0,0,0,0,0,0,0,0,0,0,0,0,0,0,0,0,0,0,0],"id":32,"left_children":[1,3,5,7,9,11,13,15,17,19,21,-1,-1,-1,-1,-1,-1,-1,-1,-1,-1,-1,-1],"loss_changes":[1.18232414E2,1.1858796E2,1.0319145E1,4.1311974E1,1.211586E2,1.6785719E1,5.8138046E0,1.2379131E2,8.7869514E1,3.9510565E2,2.0395491E2,0E0,0E0,0E0,0E0,0E0,0E0,0E0,0E0,0E0,0E0,0E0,0E0],"parents":[2147483647,0,0,1,1,2,2,3,3,4,4,5,5,6,6,7,7,8,8,9,9,10,10],"right_children":[2,4,6,8,10,12,14,16,18,20,22,-1,-1,-1,-1,-1,-1,-1,-1,-1,-1,-1,-1],"split_conditions":[2.3E1,6E0,4E0,3E0,8E0,2E0,6E0,4E0,5E0,6E0,1E1,-8.023604E-2,2.1871002E-2,-1.175104E-1,-6.788437E-2,-4.528219E-2,8.734682E-2,-3.3128478E-2,-1.7862125E-1,1.2424113E-1,-1.8400578E-1,-7.330611E-2,1.4740579E-2],"split_indices":[1,1,0,0,1,0,0,1,1,0,1,0,0,0,0,0,0,0,0,0,0,0,0],"split_type":[0,0,0,0,0,0,0,0,0,0,0,0,0,0,0,0,0,0,0,0,0,0,0],"sum_hessian":[4.331E3,4.147E3,1.84E2,9.02E2,3.245E3,7.3E1,1.11E2,3.08E2,5.94E2,2.97E2,2.948E3,5E1,2.3E1,6.5E1,4.6E1,2.01E2,1.07E2,5.5E2,4.4E1,2.48E2,4.9E1,2.91E2,2.657E3],"tree_param":{"num_deleted":"0","num_feature":"2","num_nodes":"23","size_leaf_vector":"1"}},{"base_weights":[-2.2164292E-3,5.3624075E-2,-4.2079687E-1,-2.593769E-1,1.5036705E-1,-2.568779E-1,-7.073741E-1,1.4783503E-1,-3.567743E-1,6.5624857E-1,9.285827E-2,-6.0388494E-1,1.6977611E-1,-4.346294E-1,-8.8126457E-1,-2.6602251E-2,1.4647178E-1,-2.7382229E-2,-1.6115604E-1,1.1186694E-1,-1.6597323E-1,-6.600054E-2,1.8704746E-2,-2.8994987E-2,-8.0571465E-2,4.5641672E-2,-1.1817598E-1,-7.236978E-2,1.9775031E-2,-1.0593736E-1,-6.1240364E-2],"categories":[],"categories_nodes":[],"categories_segments":[],"categories_sizes":[],"default_left":[0,0,0,0,0,0,0,0,0,0,0,0,0,0,0,0,0,0,0,0,0,0,0,0,0,0,0,0,0,0,0],"id":33,"left_children":[1,3,5,7,9,11,13,15,17,19,21,23,25,27,29,-1,-1,-1,-1,-1,-1,-1,-1,-1,-1,-1,-1,-1,-1,-1,-1],"loss_changes":[1.01277626E2,1.15801926E2,2.3775764E1,3.5866978E1,8.491863E1,4.8367455E1,8.39109E0,9.576498E1,7.543821E1,3.2100208E2,1.8619553E2,1.117144E1,5.7487923E1,1.3670381E1,4.714531E0,0E0,0E0,0E0,0E0,0E0,0E0,0E0,0E0,0E0,0E0,0E0,0E0,0E0,0E0,0E0,0E0],"parents":[2147483647,0,0,1,1,2,2,3,3,4,4,5,5,6,6,7,7,8,8,9,9,10,10,11,11,12,12,13,13,14,14],"right_children":[2,4,6,8,10,12,14,16,18,20,22,24,26,28,30,-1,-1,-1,-1,-1,-1,-1,-1,-1,-1,-1,-1,-1,-1,-1,-1],"split_conditions":[2.2E1,6E0,2.3E1,2E0,8E0,4E0,4E0,4E0,5E0,6E0,1E1,2E0,7E0,2E0,6E0,-2.6602251E-2,1.4647178E-1,-2.7382229E-2,-1.6115604E-1,1.1186694E-1,-1.6597323E-1,-6.600054E-2,1.8704746E-2,-2.8994987E-2,-8.0571465E-2,4.5641672E-2,-1.1817598E-1,-7.236978E-2,1.9775031E-2,-1.0593736E-1,-6.1240364E-2],"split_indices":[1,1,1,0,1,0,0,1,1,0,1,0,0,0,0,0,0,0,0,0,0,0,0,0,0,0,0,0,0,0,0],"split_type":[0,0,0,0,0,0,0,0,0,0,0,0,0,0,0,0,0,0,0,0,0,0,0,0,0,0,0,0,0,0,0],"sum_hessian":[4.331E3,3.822E3,5.09E2,9.02E2,2.92E3,3.25E2,1.84E2,1.74E2,7.28E2,2.97E2,2.623E3,1.79E2,1.46E2,7.3E1,1.11E2,1.33E2,4.1E1,6.84E2,4.4E1,2.48E2,4.9E1,2.91E2,2.332E3,7.1E1,1.08E2,1.21E2,2.5E1,5E1,2.3E1,6.5E1,4.6E1],"tree_param":{"num_deleted":"0","num_feature":"2","num_nodes":"31","size_leaf_vector":"1"}},{"base_weights":[-2.1269582E-3,4.870118E-2,-3.856897E-1,-7.7742636E-2,2.405809E-1,-2.5308216E-1,-9.507796E-1,1.3317318E-1,-4.852715E-1,-5.441637E-1,4.3721455E-1,-5.397174E-1,1.66434E-1,-1.6385095E-1,-7.116523E-1,-1.0354442E-2,8.831707E-2,-1.3247968E-1,-3.3816315E-2,-1.6438184E-2,-2.5249752E-1,5.391864E-2,-8.601057E-2,-2.9417804E-2,-1.7542502E-1,1.2173053E-1,-2.7650718E-2,-4.6919983E-2,-8.20829E-2],"categories":[],"categories_nodes":[],"categories_segments":[],"categories_sizes":[],"default_left":[0,0,0,0,0,0,0,0,0,0,0,0,0,0,0,0,0,0,0,0,0,0,0,0,0,0,0,0,0],"id":34,"left_children":[1,3,5,7,9,11,13,15,17,19,21,23,25,-1,27,-1,-1,-1,-1,-1,-1,-1,-1,-1,-1,-1,-1,-1,-1],"loss_changes":[8.4474495E1,9.284513E1,3.7751526E1,1.9836119E2,2.3478487E2,4.9632046E1,1.4621628E1,2.7012616E2,9.674745E1,2.2902919E2,1.613286E2,7.254675E1,7.8536255E1,0E0,1.5471916E0,0E0,0E0,0E0,0E0,0E0,0E0,0E0,0E0,0E0,0E0,0E0,0E0,0E0,0E0],"parents":[2147483647,0,0,1,1,2,2,3,3,4,4,5,5,6,6,7,7,8,8,9,9,10,10,11,11,12,12,14,14],"right_children":[2,4,6,8,10,12,14,16,18,20,22,24,26,-1,28,-1,-1,-1,-1,-1,-1,-1,-1,-1,-1,-1,-1,-1,-1],"split_conditions":[7E0,4E0,2E1,1.8E1,7E0,1.1E1,2.1E1,1.4E1,1.9E1,6E0,2.3E1,8E0,1.4E1,-1.6385095E-1,2.2E1,-1.0354442E-2,8.831707E-2,-1.3247968E-1,-3.3816315E-2,-1.6438184E-2,-2.5249752E-1,5.391864E-2,-8.601057E-2,-2.9417804E-2,-1.7542502E-1,1.2173053E-1,-2.7650718E-2,-4.6919983E-2,-8.20829E-2],"split_indices":[0,0,1,1,1,1,1,1,1,0,1,1,1,0,1,0,0,0,0,0,0,0,0,0,0,0,0,0,0],"split_type":[0,0,0,0,0,0,0,0,0,0,0,0,0,0,0,0,0,0,0,0,0,0,0,0,0,0,0,0,0],"sum_hessian":[4.331E3,3.825E3,5.06E2,2.306E3,1.519E3,4.11E2,9.5E1,1.52E3,7.86E2,3.04E2,1.215E3,2.44E2,1.67E2,2.3E1,7.2E1,1.156E3,3.64E2,1.16E2,6.7E2,2.56E2,4.8E1,1.127E3,8.8E1,2.04E2,4E1,4.9E1,1.18E2,2.4E1,4.8E1],"tree_param":{"num_deleted":"0","num_feature":"2","num_nodes":"29","size_leaf_vector":"1"}},{"base_weights":[-2.0972965E-3,4.4717684E-2,-3.5302195E-1,1.3871466E-1,-1.9978736E-1,-2.2689901E-1,-5.7336277E-1,-2.0967914E-2,6.020042E-1,-5.8274907E-1,-7.4834246E-3,-5.104766E-1,1.218824E-1,-3.5851777E-1,-7.1019465E-1,1.5192677E-2,-3.8018476E-2,1.7941333E-2,1.2787329E-1,-4.0858485E-2,-2.9677397E-1,4.777593E-2,-4.8321728E-2,-2.2801084E-2,-6.923763E-2,3.576721E-2,-9.892031E-2,-6.1959364E-2,2.1120667E-2,-8.7033406E-2,-4.7020756E-2],"categories":[],"categories_nodes":[],"categories_segments":[],"categories_sizes":[],"default_left":[0,0,0,0,0,0,0,0,0,0,0,0,0,0,0,0,0,0,0,0,0,0,0,0,0,0,0,0,0,0,0],"id":35,"left_children":[1,3,5,7,9,11,13,15,17,19,21,23,25,27,29,-1,-1,-1,-1,-1,-1,-1,-1,-1,-1,-1,-1,-1,-1,-1,-1],"loss_changes":[7.118417E1,8.78907E1,1.4042828E1,2.0434332E2,7.8206665E1,3.2305763E1,5.1839485E0,1.2768698E2,2.0224393E2,1.4624734E2,1.636701E2,9.090607E0,3.8865234E1,1.1137718E1,3.8950768E0,0E0,0E0,0E0,0E0,0E0,0E0,0E0,0E0,0E0,0E0,0E0,0E0,0E0,0E0,0E0,0E0],"parents":[2147483647,0,0,1,1,2,2,3,3,4,4,5,5,6,6,7,7,8,8,9,9,10,10,11,11,12,12,13,13,14,14],"right_children":[2,4,6,8,10,12,14,16,18,20,22,24,26,28,30,-1,-1,-1,-1,-1,-1,-1,-1,-1,-1,-1,-1,-1,-1,-1,-1],"split_conditions":[2.2E1,5E0,2.3E1,4E0,7E0,4E0,4E0,1.7E1,1.6E1,6E0,1.6E1,2E0,7E0,2E0,6E0,1.5192677E-2,-3.8018476E-2,1.7941333E-2,1.2787329E-1,-4.0858485E-2,-2.9677397E-1,4.777593E-2,-4.8321728E-2,-2.2801084E-2,-6.923763E-2,3.576721E-2,-9.892031E-2,-6.1959364E-2,2.1120667E-2,-8.7033406E-2,-4.7020756E-2],"split_indices":[1,0,1,0,1,0,0,1,1,1,1,0,0,0,0,0,0,0,0,0,0,0,0,0,0,0,0,0,0,0,0],"split_type":[0,0,0,0,0,0,0,0,0,0,0,0,0,0,0,0,0,0,0,0,0,0,0,0,0,0,0,0,0,0,0],"sum_hessian":[4.331E3,3.822E3,5.09E2,2.761E3,1.061E3,3.25E2,1.84E2,2.054E3,7.07E2,3.54E2,7.07E2,1.79E2,1.46E2,7.3E1,1.11E2,1.387E3,6.67E2,4.36E2,2.71E2,3.31E2,2.3E1,3.5E2,3.57E2,7.1E1,1.08E2,1.21E2,2.5E1,5E1,2.3E1,6.5E1,4.6E1],"tree_param":{"num_deleted":"0","num_feature":"2","num_nodes":"31","size_leaf_vector":"1"}},{"base_weights":[-2.0131783E-3,4.160257E-2,-3.3114895E-1,-3.9354014E-1,8.8581905E-2,7.6767705E-2,-3.873384E-1,-4.387429E-1,-1.5972076E-1,2.2749695E-1,-8.260644E-2,-6.48649E-1,-1.9557163E-1,-2.7018819E-2,-5.2791666E-2,-2.9275576E-2,6.3116155E-3,4.2487234E-3,9.288466E-2,-8.8503174E-2,1.1179215E-2,-3.727435E-2,-2.7024093E-1,7.552085E-2,-4.923319E-2],"categories":[],"categories_nodes":[],"categories_segments":[],"categories_sizes":[],"default_left":[0,0,0,0,0,0,0,0,0,0,0,0,0,0,0,0,0,0,0,0,0,0,0,0,0],"id":36,"left_children":[1,3,5,7,9,-1,11,13,15,17,19,21,23,-1,-1,-1,-1,-1,-1,-1,-1,-1,-1,-1,-1],"loss_changes":[6.220182E1,7.8248695E1,3.1600754E1,3.8722649E0,8.2157104E1,0E0,2.40766E1,4.546932E0,1.8564745E0,2.4740617E2,2.4157199E2,1.1458803E2,7.937487E1,0E0,0E0,0E0,0E0,0E0,0E0,0E0,0E0,0E0,0E0,0E0,0E0],"parents":[2147483647,0,0,1,1,2,2,3,3,4,4,6,6,7,7,8,8,9,9,10,10,11,11,12,12],"right_children":[2,4,6,8,10,-1,12,14,16,18,20,22,24,-1,-1,-1,-1,-1,-1,-1,-1,-1,-1,-1,-1],"split_conditions":[7E0,3E0,1E0,5E0,1.7E1,7.6767705E-2,1E1,2E0,1E0,1.4E1,2E0,8E0,1.4E1,-2.7018819E-2,-5.2791666E-2,-2.9275576E-2,6.3116155E-3,4.2487234E-3,9.288466E-2,-8.8503174E-2,1.1179215E-2,-3.727435E-2,-2.7024093E-1,7.552085E-2,-4.923319E-2],"split_indices":[0,1,1,0,1,0,1,0,1,1,0,1,1,0,0,0,0,0,0,0,0,0,0,0,0],"split_type":[0,0,0,0,0,0,0,0,0,0,0,0,0,0,0,0,0,0,0,0,0,0,0,0,0],"sum_hessian":[4.331E3,3.825E3,5.06E2,3.72E2,3.453E3,2.4E1,4.82E2,3.11E2,6.1E1,1.906E3,1.547E3,2.03E2,2.79E2,1.09E2,2.02E2,3.8E1,2.3E1,1.509E3,3.97E2,3.01E2,1.246E3,1.8E2,2.3E1,6.6E1,2.13E2],"tree_param":{"num_deleted":"0","num_feature":"2","num_nodes":"25","size_leaf_vector":"1"}},{"base_weights":[-1.8783414E-3,3.791762E-2,-3.0018833E-1,1.1990183E-1,-1.7533877E-1,-3.9271936E-1,-6.2278047E-2,-2.1176975E-2,5.292197E-1,-5.1309717E-1,-5.734872E-3,-2.6713395E-1,-4.5340514E-1,6.1460793E-1,-4.071232E-1,1.2579246E-2,-3.265249E-2,1.559504E-2,1.12697504E-1,-3.5437297E-2,-2.6874027E-1,4.3535393E-2,-4.3818302E-2,-1.1825255E-2,-4.7208153E-2,-5.6415327E-2,-4.079275E-2,1.7342936E-1,-7.265278E-2,-1.8168477E-2,-6.1965223E-2],"categories":[],"categories_nodes":[],"categories_segments":[],"categories_sizes":[],"default_left":[0,0,0,0,0,0,0,0,0,0,0,0,0,0,0,0,0,0,0,0,0,0,0,0,0,0,0,0,0,0,0],"id":37,"left_children":[1,3,5,7,9,11,13,15,17,19,21,23,25,27,29,-1,-1,-1,-1,-1,-1,-1,-1,-1,-1,-1,-1,-1,-1,-1,-1],"loss_changes":[5.143886E1,6.686104E1,1.1202724E1,1.5950587E2,6.0833878E1,2.6758804E0,3.3862823E1,9.226292E1,1.577958E2,1.2156343E2,1.3524039E2,3.666747E0,1.0088615E0,7.484088E1,4.486992E0,0E0,0E0,0E0,0E0,0E0,0E0,0E0,0E0,0E0,0E0,0E0,0E0,0E0,0E0,0E0,0E0],"parents":[2147483647,0,0,1,1,2,2,3,3,4,4,5,5,6,6,7,7,8,8,9,9,10,10,11,11,12,12,13,13,14,14],"right_children":[2,4,6,8,10,12,14,16,18,20,22,24,26,28,30,-1,-1,-1,-1,-1,-1,-1,-1,-1,-1,-1,-1,-1,-1,-1,-1],"split_conditions":[2.2E1,5E0,5E0,4E0,7E0,2E0,6E0,1.7E1,1.6E1,6E0,1.6E1,2.3E1,3E0,2.3E1,7E0,1.2579246E-2,-3.265249E-2,1.559504E-2,1.12697504E-1,-3.5437297E-2,-2.6874027E-1,4.3535393E-2,-4.3818302E-2,-1.1825255E-2,-4.7208153E-2,-5.6415327E-2,-4.079275E-2,1.7342936E-1,-7.265278E-2,-1.8168477E-2,-6.1965223E-2],"split_indices":[1,0,0,0,1,0,0,1,1,1,1,1,0,1,0,0,0,0,0,0,0,0,0,0,0,0,0,0,0,0,0],"split_type":[0,0,0,0,0,0,0,0,0,0,0,0,0,0,0,0,0,0,0,0,0,0,0,0,0,0,0,0,0,0,0],"sum_hessian":[4.331E3,3.822E3,5.09E2,2.761E3,1.061E3,3.66E2,1.43E2,2.054E3,7.07E2,3.54E2,7.07E2,1.21E2,2.45E2,4.8E1,9.5E1,1.387E3,6.67E2,4.36E2,2.71E2,3.31E2,2.3E1,3.5E2,3.57E2,7.1E1,5E1,6.8E1,1.77E2,2.6E1,2.2E1,4.7E1,4.8E1],"tree_param":{"num_deleted":"0","num_feature":"2","num_nodes":"31","size_leaf_vector":"1"}},{"base_weights":[-1.7670117E-3,3.568091E-2,-2.8435868E-1,-3.4659773E-1,7.991675E-2,7.279995E-2,-3.3616945E-1,-3.8936186E-1,-1.0925356E-1,1.7577252E-1,-1.08059265E-1,-5.6899697E-1,-1.6533737E-1,-2.3568934E-2,-4.8888285E-2,-2.2970254E-2,9.102825E-3,3.1697396E-3,4.475894E-2,-4.367764E-2,-2.6205962E-3,-3.1177783E-2,-2.48515E-1,6.379291E-2,-4.1605473E-2],"categories":[],"categories_nodes":[],"categories_segments":[],"categories_sizes":[],"default_left":[0,0,0,0,0,0,0,0,0,0,0,0,0,0,0,0,0,0,0,0,0,0,0,0,0],"id":38,"left_children":[1,3,5,7,9,-1,11,13,15,17,19,21,23,-1,-1,-1,-1,-1,-1,-1,-1,-1,-1,-1,-1],"loss_changes":[4.5853413E1,6.472696E1,2.6837414E1,3.9869385E0,6.182274E1,0E0,1.9116962E1,5.0234337E0,1.516581E0,8.8961975E1,3.1173286E1,9.9770905E1,5.6655403E1,0E0,0E0,0E0,0E0,0E0,0E0,0E0,0E0,0E0,0E0,0E0,0E0],"parents":[2147483647,0,0,1,1,2,2,3,3,4,4,6,6,7,7,8,8,9,9,10,10,11,11,12,12],"right_children":[2,4,6,8,10,-1,12,14,16,18,20,22,24,-1,-1,-1,-1,-1,-1,-1,-1,-1,-1,-1,-1],"split_conditions":[7E0,4E0,1E0,5E0,1.9E1,7.279995E-2,1E1,2E0,1E0,1.4E1,2E0,8E0,1.4E1,-2.3568934E-2,-4.8888285E-2,-2.2970254E-2,9.102825E-3,3.1697396E-3,4.475894E-2,-4.367764E-2,-2.6205962E-3,-3.1177783E-2,-2.48515E-1,6.379291E-2,-4.1605473E-2],"split_indices":[0,1,1,0,1,0,1,0,1,1,0,1,1,0,0,0,0,0,0,0,0,0,0,0,0],"split_type":[0,0,0,0,0,0,0,0,0,0,0,0,0,0,0,0,0,0,0,0,0,0,0,0,0],"sum_hessian":[4.331E3,3.825E3,5.06E2,3.96E2,3.429E3,2.4E1,4.82E2,3.35E2,6.1E1,2.271E3,1.158E3,2.03E2,2.79E2,1.33E2,2.02E2,3.8E1,2.3E1,1.485E3,7.86E2,2.3E2,9.28E2,1.8E2,2.3E1,6.6E1,2.13E2],"tree_param":{"num_deleted":"0","num_feature":"2","num_nodes":"25","size_leaf_vector":"1"}},{"base_weights":[-1.65273E-3,3.2090433E-2,-2.5628722E-1,-3.2454634E-1,7.059461E-2,6.581112E-2,-3.030857E-1,-3.996219E-1,-1.7772499E-1,1.8202533E-1,-6.672385E-2,-5.1346815E-1,-1.4872462E-1,-2.325253E-2,-5.3087015E-2,-2.4833703E-2,-9.855189E-3,2.6175461E-3,7.728577E-2,-7.4402265E-2,9.735871E-3,-2.8077215E-2,-2.2469895E-1,5.7508793E-2,-3.7464384E-2],"categories":[],"categories_nodes":[],"categories_segments":[],"categories_sizes":[],"default_left":[0,0,0,0,0,0,0,0,0,0,0,0,0,0,0,0,0,0,0,0,0,0,0,0,0],"id":39,"left_children":[1,3,5,7,9,-1,11,13,15,17,19,21,23,-1,-1,-1,-1,-1,-1,-1,-1,-1,-1,-1,-1],"loss_changes":[3.722951E1,5.2561565E1,2.1895248E1,4.0404434E0,5.286351E1,0E0,1.5608997E1,5.271618E0,6.911192E-1,1.7557849E2,1.7210619E2,8.165933E1,4.6001945E1,0E0,0E0,0E0,0E0,0E0,0E0,0E0,0E0,0E0,0E0,0E0,0E0],"parents":[2147483647,0,0,1,1,2,2,3,3,4,4,6,6,7,7,8,8,9,9,10,10,11,11,12,12],"right_children":[2,4,6,8,10,-1,12,14,16,18,20,22,24,-1,-1,-1,-1,-1,-1,-1,-1,-1,-1,-1,-1],"split_conditions":[7E0,3E0,1E0,4E0,1.7E1,6.581112E-2,1E1,2E0,5E0,1.4E1,2E0,8E0,1.4E1,-2.325253E-2,-5.3087015E-2,-2.4833703E-2,-9.855189E-3,2.6175461E-3,7.728577E-2,-7.4402265E-2,9.735871E-3,-2.8077215E-2,-2.2469895E-1,5.7508793E-2,-3.7464384E-2],"split_indices":[0,1,1,0,1,0,1,0,0,1,0,1,1,0,0,0,0,0,0,0,0,0,0,0,0],"split_type":[0,0,0,0,0,0,0,0,0,0,0,0,0,0,0,0,0,0,0,0,0,0,0,0,0],"sum_hessian":[4.331E3,3.825E3,5.06E2,3.72E2,3.453E3,2.4E1,4.82E2,2.45E2,1.27E2,1.906E3,1.547E3,2.03E2,2.79E2,1.09E2,1.36E2,6.6E1,6.1E1,1.509E3,3.97E2,3.01E2,1.246E3,1.8E2,2.3E1,6.6E1,2.13E2],"tree_param":{"num_deleted":"0","num_feature":"2","num_nodes":"25","size_leaf_vector":"1"}},{"base_weights":[-1.5479518E-3,3.0225608E-2,-2.3972201E-1,9.926139E-2,-1.4934789E-1,-1.4221478E-1,-4.102498E-1,-2.431174E-2,4.5779744E-1,-1.9744995E-1,8.709219E-1,-2.87899E-1,3.407978E-1,-1.4474478E-1,-5.8200985E-1,1.0324369E-2,-2.8931567E-2,1.3358994E-2,9.769919E-2,-2.2186679E-3,-5.9411604E-2,1.9632311E-1,-2.1253174E-2,9.848488E-4,-4.0539857E-2,1.5604356E-1,-3.246225E-2,-3.100345E-2,2.1252686E-2,-7.518421E-2,-3.311388E-2],"categories":[],"categories_nodes":[],"categories_segments":[],"categories_sizes":[],"default_left":[0,0,0,0,0,0,0,0,0,0,0,0,0,0,0,0,0,0,0,0,0,0,0,0,0,0,0,0,0,0,0],"id":40,"left_children":[1,3,5,7,9,11,13,15,17,19,21,23,25,27,29,-1,-1,-1,-1,-1,-1,-1,-1,-1,-1,-1,-1,-1,-1,-1,-1],"loss_changes":[3.2790257E1,4.740854E1,8.42178E0,1.2238269E2,5.2291836E1,2.303786E1,8.352335E0,6.94944E1,1.1904483E2,7.055064E1,5.7223633E1,8.785278E0,6.2186005E1,4.4358363E0,4.522911E0,0E0,0E0,0E0,0E0,0E0,0E0,0E0,0E0,0E0,0E0,0E0,0E0,0E0,0E0,0E0,0E0],"parents":[2147483647,0,0,1,1,2,2,3,3,4,4,5,5,6,6,7,7,8,8,9,9,10,10,11,11,12,12,13,13,14,14],"right_children":[2,4,6,8,10,12,14,16,18,20,22,24,26,28,30,-1,-1,-1,-1,-1,-1,-1,-1,-1,-1,-1,-1,-1,-1,-1,-1],"split_conditions":[2.2E1,5E0,2.3E1,4E0,2.1E1,5E0,4E0,1.7E1,1.6E1,1.6E1,7E0,2E0,6E0,2E0,6E0,1.0324369E-2,-2.8931567E-2,1.3358994E-2,9.769919E-2,-2.2186679E-3,-5.9411604E-2,1.9632311E-1,-2.1253174E-2,9.848488E-4,-4.0539857E-2,1.5604356E-1,-3.246225E-2,-3.100345E-2,2.1252686E-2,-7.518421E-2,-3.311388E-2],"split_indices":[1,0,1,0,1,0,0,1,1,1,0,0,0,0,0,0,0,0,0,0,0,0,0,0,0,0,0,0,0,0,0],"split_type":[0,0,0,0,0,0,0,0,0,0,0,0,0,0,0,0,0,0,0,0,0,0,0,0,0,0,0,0,0,0,0],"sum_hessian":[4.331E3,3.822E3,5.09E2,2.761E3,1.061E3,3.25E2,1.84E2,2.054E3,7.07E2,1.014E3,4.7E1,2.5E2,7.5E1,7.3E1,1.11E2,1.387E3,6.67E2,4.36E2,2.71E2,7.04E2,3.1E2,2.3E1,2.4E1,7.1E1,1.79E2,2.6E1,4.9E1,5E1,2.3E1,6.5E1,4.6E1],"tree_param":{"num_deleted":"0","num_feature":"2","num_nodes":"31","size_leaf_vector":"1"}},{"base_weights":[-1.353613E-3,-1.5606569E-1,3.93771E-2,1.5208463E-1,-2.2982459E-1,6.041229E-1,-1.4352107E-2,-7.726561E-2,1.9334124E-1,-1.5031336E-1,-1.4350549E0,1.0574285E0,-8.600717E-1,-5.972849E-1,4.5546107E-2,-2.040983E-2,6.6503204E-2,-1.3449333E-4,-3.2945435E-2,-2.8492025E-1,1.7288122E-2,1.8087964E-1,7.335128E-2,-2.4332805E-1,-5.5549205E-3,-2.5360358E-1,5.7134833E-2,2.36124E-2,-8.469216E-3],"categories":[],"categories_nodes":[],"categories_segments":[],"categories_sizes":[],"default_left":[0,0,0,0,0,0,0,0,0,0,0,0,0,0,0,0,0,0,0,0,0,0,0,0,0,0,0,0,0],"id":41,"left_children":[1,3,5,7,9,11,13,15,-1,17,19,21,23,25,27,-1,-1,-1,-1,-1,-1,-1,-1,-1,-1,-1,-1,-1,-1],"loss_changes":[2.7304388E1,2.0559086E1,1.0408634E2,7.164528E1,6.964389E1,1.9870032E2,1.0942101E2,1.4822758E1,0E0,1.8279709E1,1.0281622E2,5.416385E1,8.972825E1,6.6303E2,7.0559944E1,0E0,0E0,0E0,0E0,0E0,0E0,0E0,0E0,0E0,0E0,0E0,0E0,0E0,0E0],"parents":[2147483647,0,0,1,1,2,2,3,3,4,4,5,5,6,6,7,7,9,9,10,10,11,11,12,12,13,13,14,14],"right_children":[2,4,6,8,10,12,14,16,-1,18,20,22,24,26,28,-1,-1,-1,-1,-1,-1,-1,-1,-1,-1,-1,-1,-1,-1],"split_conditions":[6E0,2E0,8E0,5E0,5E0,5E0,1E1,4E0,1.9334124E-1,5E0,5E0,7E0,7E0,3E0,1.7E1,-2.040983E-2,6.6503204E-2,-1.3449333E-4,-3.2945435E-2,-2.8492025E-1,1.7288122E-2,1.8087964E-1,7.335128E-2,-2.4332805E-1,-5.5549205E-3,-2.5360358E-1,5.7134833E-2,2.36124E-2,-8.469216E-3],"split_indices":[1,0,1,1,1,0,1,1,0,0,0,1,1,0,1,0,0,0,0,0,0,0,0,0,0,0,0,0,0],"split_type":[0,0,0,0,0,0,0,0,0,0,0,0,0,0,0,0,0,0,0,0,0,0,0,0,0,0,0,0,0],"sum_hessian":[4.331E3,9.02E2,3.429E3,1.74E2,7.28E2,2.97E2,3.132E3,1.55E2,1.9E1,6.84E2,4.4E1,2.27E2,7E1,2.91E2,2.841E3,1.33E2,2.2E1,3.74E2,3.1E2,2.3E1,2.1E1,6.7E1,1.6E2,2.3E1,4.7E1,1.09E2,1.82E2,1.153E3,1.688E3],"tree_param":{"num_deleted":"0","num_feature":"2","num_nodes":"29","size_leaf_vector":"1"}},{"base_weights":[-1.2731432E-3,1.47905145E-2,-3.614395E-1,4.4593066E-2,-2.1091433E-1,-1.2204738E-1,-5.1638216E-1,-4.895309E-2,1.9049916E-1,1.2269174E-1,-3.37673E-1,-2.7133588E-2,2.0027598E-2,-6.6945605E-2,-2.9044047E-1,8.423728E-3,-2.6715769E-2,-3.462915E-2,3.3547316E-2,6.286904E-2,6.576664E-4,-9.567856E-2,-1.0750424E-2,-3.9597508E-2,-1.728042E-2],"categories":[],"categories_nodes":[],"categories_segments":[],"categories_sizes":[],"default_left":[0,0,0,0,0,0,0,0,0,0,0,0,0,0,0,0,0,0,0,0,0,0,0,0,0],"id":42,"left_children":[1,3,5,7,9,11,13,15,17,19,21,-1,-1,-1,23,-1,-1,-1,-1,-1,-1,-1,-1,-1,-1],"loss_changes":[2.506852E1,2.7911259E1,6.7990074E0,5.003274E1,2.0508562E1,3.6151605E0,3.6791706E0,6.4948685E1,1.1155539E2,7.868911E0,4.991478E1,0E0,0E0,0E0,5.150647E-1,0E0,0E0,0E0,0E0,0E0,0E0,0E0,0E0,0E0,0E0],"parents":[2147483647,0,0,1,1,2,2,3,3,4,4,5,5,6,6,7,7,8,8,9,9,10,10,14,14],"right_children":[2,4,6,8,10,12,14,16,18,20,22,-1,-1,-1,24,-1,-1,-1,-1,-1,-1,-1,-1,-1,-1],"split_conditions":[2.3E1,7E0,4E0,4E0,4E0,2E0,6E0,1.7E1,7E0,1E0,1E1,-2.7133588E-2,2.0027598E-2,-6.6945605E-2,7E0,8.423728E-3,-2.6715769E-2,-3.462915E-2,3.3547316E-2,6.286904E-2,6.576664E-4,-9.567856E-2,-1.0750424E-2,-3.9597508E-2,-1.728042E-2],"split_indices":[1,0,0,0,1,0,0,1,1,1,1,0,0,0,0,0,0,0,0,0,0,0,0,0,0],"split_type":[0,0,0,0,0,0,0,0,0,0,0,0,0,0,0,0,0,0,0,0,0,0,0,0,0],"sum_hessian":[4.331E3,4.147E3,1.84E2,3.664E3,4.83E2,7.3E1,1.11E2,2.233E3,1.431E3,1.33E2,3.5E2,5E1,2.3E1,6.5E1,4.6E1,1.387E3,8.46E2,3.04E2,1.127E3,2.4E1,1.09E2,9.4E1,2.56E2,2.3E1,2.3E1],"tree_param":{"num_deleted":"0","num_feature":"2","num_nodes":"25","size_leaf_vector":"1"}},{"base_weights":[-1.1900538E-3,2.4340298E-2,-1.9256525E-1,-6.537514E-2,1.4265852E-1,-2.6313722E-1,-1.1367434E-2,-2.7710617E-1,5.2031033E-2,7.7417177E-1,8.455737E-3,-7.659147E-2,-3.5458213E-1,5.19744E-1,-2.8233713E-1,3.9644223E-2,-1.0728555E-1,-2.8860236E-2,3.20817E-2,2.0656803E-1,1.4100516E-2,1.4564755E-2,-3.7631813E-2,4.357341E-3,-2.447342E-2,-4.4094034E-2,-3.1911414E-2,1.386022E-1,-5.1978856E-2,-1.2827081E-2,-4.274973E-2],"categories":[],"categories_nodes":[],"categories_segments":[],"categories_sizes":[],"default_left":[0,0,0,0,0,0,0,0,0,0,0,0,0,0,0,0,0,0,0,0,0,0,0,0,0,0,0,0,0,0,0],"id":43,"left_children":[1,3,5,7,9,11,13,15,17,19,21,23,25,27,29,-1,-1,-1,-1,-1,-1,-1,-1,-1,-1,-1,-1,-1,-1,-1,-1],"loss_changes":[2.1170301E1,4.0590363E1,6.518629E0,5.408172E1,1.3974756E2,6.233368E0,2.0870518E1,4.1634244E2,1.2827304E2,2.3603561E2,7.189903E1,2.4756556E0,6.127758E-1,4.484612E1,2.0921369E0,0E0,0E0,0E0,0E0,0E0,0E0,0E0,0E0,0E0,0E0,0E0,0E0,0E0,0E0,0E0,0E0],"parents":[2147483647,0,0,1,1,2,2,3,3,4,4,5,5,6,6,7,7,8,8,9,9,10,10,11,11,12,12,13,13,14,14],"right_children":[2,4,6,8,10,12,14,16,18,20,22,24,26,28,30,-1,-1,-1,-1,-1,-1,-1,-1,-1,-1,-1,-1,-1,-1,-1,-1],"split_conditions":[2.2E1,1.4E1,5E0,3E0,1.6E1,2E0,6E0,8E0,7E0,3E0,5E0,2.3E1,3E0,2.3E1,7E0,3.9644223E-2,-1.0728555E-1,-2.8860236E-2,3.20817E-2,2.0656803E-1,1.4100516E-2,1.4564755E-2,-3.7631813E-2,4.357341E-3,-2.447342E-2,-4.4094034E-2,-3.1911414E-2,1.386022E-1,-5.1978856E-2,-1.2827081E-2,-4.274973E-2],"split_indices":[1,1,0,0,1,0,0,1,1,0,0,1,0,1,0,0,0,0,0,0,0,0,0,0,0,0,0,0,0,0,0],"split_type":[0,0,0,0,0,0,0,0,0,0,0,0,0,0,0,0,0,0,0,0,0,0,0,0,0,0,0,0,0,0,0],"sum_hessian":[4.331E3,3.822E3,5.09E2,2.174E3,1.648E3,3.66E2,1.43E2,7.75E2,1.399E3,2.88E2,1.36E3,1.21E2,2.45E2,4.8E1,9.5E1,4.2E2,3.55E2,6.17E2,7.82E2,9.4E1,1.94E2,1.003E3,3.57E2,7.1E1,5E1,6.8E1,1.77E2,2.6E1,2.2E1,4.7E1,4.8E1],"tree_param":{"num_deleted":"0","num_feature":"2","num_nodes":"31","size_leaf_vector":"1"}},{"base_weights":[-1.0551959E-3,-2.2616862E-1,1.7563894E-2,-3.6695808E-1,1.7918462E-1,7.19112E-2,-1.2234757E-1,-4.3660894E-1,-1.743594E-2,8.207029E-3,5.9604164E-2,4.5880708E-1,-2.0111218E-2,-5.1104707E-1,1.1203536E-3,-2.230786E-2,-5.0200112E-2,-1.0159453E-2,1.862926E-2,1.4759431E-2,9.031394E-2,-7.006451E-2,7.812003E-3,-3.5077233E-2,-2.1392475E-1,3.5237283E-2,-2.4496896E-2],"categories":[],"categories_nodes":[],"categories_segments":[],"categories_sizes":[],"default_left":[0,0,0,0,0,0,0,0,0,0,0,0,0,0,0,0,0,0,0,0,0,0,0,0,0,0,0],"id":44,"left_children":[1,3,5,7,9,11,13,15,-1,17,-1,19,21,23,25,-1,-1,-1,-1,-1,-1,-1,-1,-1,-1,-1,-1],"loss_changes":[1.8161148E1,1.8955746E1,3.0439249E1,3.2238808E0,6.1246047E0,1.02652954E2,5.3751526E1,2.401394E0,0E0,1.231279E0,0E0,7.6474884E1,1.558145E2,6.970865E1,7.364632E1,0E0,0E0,0E0,0E0,0E0,0E0,0E0,0E0,0E0,0E0,0E0,0E0],"parents":[2147483647,0,0,1,1,2,2,3,3,4,4,5,5,6,6,7,7,9,9,11,11,12,12,13,13,14,14],"right_children":[2,4,6,8,10,12,14,16,-1,18,-1,20,22,24,26,-1,-1,-1,-1,-1,-1,-1,-1,-1,-1,-1,-1],"split_conditions":[2E0,5E0,5E0,4E0,6E0,8E0,7E0,2E0,-1.743594E-2,1E0,5.9604164E-2,6E0,1.1E1,6E0,1.6E1,-2.230786E-2,-5.0200112E-2,-1.0159453E-2,1.862926E-2,1.4759431E-2,9.031394E-2,-7.006451E-2,7.812003E-3,-3.5077233E-2,-2.1392475E-1,3.5237283E-2,-2.4496896E-2],"split_indices":[1,0,0,0,0,1,1,0,0,1,0,1,1,1,1,0,0,0,0,0,0,0,0,0,0,0,0],"split_type":[0,0,0,0,0,0,0,0,0,0,0,0,0,0,0,0,0,0,0,0,0,0,0,0,0,0,0],"sum_hessian":[4.331E3,3.3E2,4.001E3,2.45E2,8.5E1,2.882E3,1.119E3,1.79E2,6.6E1,6.1E1,2.4E1,5.53E2,2.329E3,2.69E2,8.5E2,4.3E1,1.36E2,3.8E1,2.3E1,3.26E2,2.27E2,2.93E2,2.036E3,2.46E2,2.3E1,3.5E2,5E2],"tree_param":{"num_deleted":"0","num_feature":"2","num_nodes":"27","size_leaf_vector":"1"}},{"base_weights":[-9.999048E-4,2.183547E-2,-1.7217371E-1,-5.7516444E-2,1.2648591E-1,-2.4487595E-1,1.4311697E-2,-2.509561E-1,4.974547E-2,6.828053E-1,8.261969E-3,-7.684513E-2,-3.2721287E-1,4.935346E-1,-2.3044074E-1,3.3634584E-2,-9.447852E-2,-2.35943E-2,2.7516786E-2,1.8535568E-1,1.0893765E-2,-5.0902933E-2,9.885893E-3,3.1573132E-3,-2.2839945E-2,-4.051841E-2,-2.9514981E-2,1.2761429E-1,-4.4663746E-2,-9.172442E-3,-3.6162324E-2],"categories":[],"categories_nodes":[],"categories_segments":[],"categories_sizes":[],"default_left":[0,0,0,0,0,0,0,0,0,0,0,0,0,0,0,0,0,0,0,0,0,0,0,0,0,0,0,0,0,0,0],"id":45,"left_children":[1,3,5,7,9,11,13,15,17,19,21,23,25,27,29,-1,-1,-1,-1,-1,-1,-1,-1,-1,-1,-1,-1,-1,-1,-1,-1],"loss_changes":[1.6936758E1,3.1754282E1,6.9180384E0,4.514092E1,1.08449524E2,5.052349E0,1.7003628E1,3.165278E2,9.022573E1,1.9396457E2,6.3833614E1,2.0118241E0,4.9541283E-1,3.6623512E1,1.7137566E0,0E0,0E0,0E0,0E0,0E0,0E0,0E0,0E0,0E0,0E0,0E0,0E0,0E0,0E0,0E0,0E0],"parents":[2147483647,0,0,1,1,2,2,3,3,4,4,5,5,6,6,7,7,8,8,9,9,10,10,11,11,12,12,13,13,14,14],"right_children":[2,4,6,8,10,12,14,16,18,20,22,24,26,28,30,-1,-1,-1,-1,-1,-1,-1,-1,-1,-1,-1,-1,-1,-1,-1,-1],"split_conditions":[2.2E1,1.4E1,5E0,3E0,1.6E1,2E0,6E0,8E0,7E0,3E0,2E0,2.3E1,3E0,2.3E1,7E0,3.3634584E-2,-9.447852E-2,-2.35943E-2,2.7516786E-2,1.8535568E-1,1.0893765E-2,-5.0902933E-2,9.885893E-3,3.1573132E-3,-2.2839945E-2,-4.051841E-2,-2.9514981E-2,1.2761429E-1,-4.4663746E-2,-9.172442E-3,-3.6162324E-2],"split_indices":[1,1,0,0,1,0,0,1,1,0,0,1,0,1,0,0,0,0,0,0,0,0,0,0,0,0,0,0,0,0,0],"split_type":[0,0,0,0,0,0,0,0,0,0,0,0,0,0,0,0,0,0,0,0,0,0,0,0,0,0,0,0,0,0,0],"sum_hessian":[4.331E3,3.822E3,5.09E2,2.174E3,1.648E3,3.66E2,1.43E2,7.75E2,1.399E3,2.88E2,1.36E3,1.21E2,2.45E2,4.8E1,9.5E1,4.2E2,3.55E2,6.17E2,7.82E2,9.4E1,1.94E2,2.02E2,1.158E3,7.1E1,5E1,6.8E1,1.77E2,2.6E1,2.2E1,4.7E1,4.8E1],"tree_param":{"num_deleted":"0","num_feature":"2","num_nodes":"31","size_leaf_vector":"1"}},{"base_weights":[-8.892314E-4,2.1289244E-2,-1.6825403E-1,-2.659151E-1,5.4525055E-2,1.8081723E-1,-2.928725E-1,-3.6481446E-1,-5.5221774E-2,2.3861136E-1,1.5490683E-2,5.6147244E-2,9.266091E-2,-8.0757666E-1,-7.256928E-2,-2.6768824E-2,-4.5715094E-2,-1.3394137E-2,3.0736846E-3,4.054971E-2,-1.6462773E-1,-9.939256E-3,1.8499017E-2,1.0516985E-2,3.7844703E-3,-4.528545E-2,-1.4108065E-1,7.122677E-2,-2.5560329E-2],"categories":[],"categories_nodes":[],"categories_segments":[],"categories_sizes":[],"default_left":[0,0,0,0,0,0,0,0,0,0,0,0,0,0,0,0,0,0,0,0,0,0,0,0,0,0,0,0,0],"id":46,"left_children":[1,3,5,7,9,11,13,15,17,19,21,-1,23,25,27,-1,-1,-1,-1,-1,-1,-1,-1,-1,-1,-1,-1,-1,-1],"loss_changes":[1.6083515E1,3.653546E1,2.2107826E1,8.2523155E0,2.464323E1,4.4446325E0,4.234962E1,2.2990646E0,8.7024534E-1,1.894042E2,5.514546E1,0E0,7.144606E-2,2.3326752E1,3.796249E1,0E0,0E0,0E0,0E0,0E0,0E0,0E0,0E0,0E0,0E0,0E0,0E0,0E0,0E0],"parents":[2147483647,0,0,1,1,2,2,3,3,4,4,5,5,6,6,7,7,8,8,9,9,10,10,12,12,13,13,14,14],"right_children":[2,4,6,8,10,12,14,16,18,20,22,-1,24,26,28,-1,-1,-1,-1,-1,-1,-1,-1,-1,-1,-1,-1,-1,-1],"split_conditions":[7E0,4E0,4E0,4E0,8E0,1E0,1.1E1,2E0,5E0,6E0,4E0,5.6147244E-2,3E0,8E0,1.4E1,-2.6768824E-2,-4.5715094E-2,-1.3394137E-2,3.0736846E-3,4.054971E-2,-1.6462773E-1,-9.939256E-3,1.8499017E-2,1.0516985E-2,3.7844703E-3,-4.528545E-2,-1.4108065E-1,7.122677E-2,-2.5560329E-2],"split_indices":[0,1,1,0,1,1,1,0,0,0,0,0,1,1,1,0,0,0,0,0,0,0,0,0,0,0,0,0,0],"split_type":[0,0,0,0,0,0,0,0,0,0,0,0,0,0,0,0,0,0,0,0,0,0,0,0,0,0,0,0,0],"sum_hessian":[4.331E3,3.825E3,5.06E2,3.96E2,3.429E3,1.33E2,3.73E2,2.69E2,1.27E2,5.99E2,2.83E3,2.4E1,1.09E2,1.11E2,2.62E2,1.33E2,1.36E2,6.6E1,6.1E1,5.51E2,4.8E1,1.687E3,1.143E3,8.8E1,2.1E1,7.1E1,4E1,4.9E1,2.13E2],"tree_param":{"num_deleted":"0","num_feature":"2","num_nodes":"29","size_leaf_vector":"1"}},{"base_weights":[-8.624144E-4,1.9743292E-2,-1.5532272E-1,-5.274272E-2,1.15339E-1,-2.1955444E-1,9.457601E-3,-2.2424172E-1,4.2354397E-2,6.207267E-1,7.938284E-3,-5.946427E-2,-2.9805624E-1,4.277526E-1,-2.0414567E-1,2.9753832E-2,-8.406607E-2,-2.0681266E-2,2.3896089E-2,1.6799864E-1,1.0149392E-2,1.2790099E-2,-3.2851562E-2,3.8260724E-3,-1.96263E-2,-3.554577E-2,-2.7413065E-2,1.1354411E-1,-4.2161006E-2,-1.0085705E-2,-3.0116012E-2],"categories":[],"categories_nodes":[],"categories_segments":[],"categories_sizes":[],"default_left":[0,0,0,0,0,0,0,0,0,0,0,0,0,0,0,0,0,0,0,0,0,0,0,0,0,0,0,0,0,0,0],"id":47,"left_children":[1,3,5,7,9,11,13,15,17,19,21,23,25,27,29,-1,-1,-1,-1,-1,-1,-1,-1,-1,-1,-1,-1,-1,-1,-1,-1],"loss_changes":[1.3790798E1,2.6496996E1,5.3999805E0,3.54817E1,8.9501144E1,4.5945015E0,1.2953606E1,2.4983896E2,6.863242E1,1.5878018E2,5.4974583E1,1.638485E0,2.4040413E-1,2.993184E1,9.3159246E-1,0E0,0E0,0E0,0E0,0E0,0E0,0E0,0E0,0E0,0E0,0E0,0E0,0E0,0E0,0E0,0E0],"parents":[2147483647,0,0,1,1,2,2,3,3,4,4,5,5,6,6,7,7,8,8,9,9,10,10,11,11,12,12,13,13,14,14],"right_children":[2,4,6,8,10,12,14,16,18,20,22,24,26,28,30,-1,-1,-1,-1,-1,-1,-1,-1,-1,-1,-1,-1,-1,-1,-1,-1],"split_conditions":[2.2E1,1.4E1,5E0,3E0,1.6E1,2E0,6E0,8E0,7E0,3E0,5E0,2.3E1,3E0,2.3E1,7E0,2.9753832E-2,-8.406607E-2,-2.0681266E-2,2.3896089E-2,1.6799864E-1,1.0149392E-2,1.2790099E-2,-3.2851562E-2,3.8260724E-3,-1.96263E-2,-3.554577E-2,-2.7413065E-2,1.1354411E-1,-4.2161006E-2,-1.0085705E-2,-3.0116012E-2],"split_indices":[1,1,0,0,1,0,0,1,1,0,0,1,0,1,0,0,0,0,0,0,0,0,0,0,0,0,0,0,0,0,0],"split_type":[0,0,0,0,0,0,0,0,0,0,0,0,0,0,0,0,0,0,0,0,0,0,0,0,0,0,0,0,0,0,0],"sum_hessian":[4.331E3,3.822E3,5.09E2,2.174E3,1.648E3,3.66E2,1.43E2,7.75E2,1.399E3,2.88E2,1.36E3,1.21E2,2.45E2,4.8E1,9.5E1,4.2E2,3.55E2,6.17E2,7.82E2,9.4E1,1.94E2,1.003E3,3.57E2,7.1E1,5E1,6.8E1,1.77E2,2.6E1,2.2E1,4.7E1,4.8E1],"tree_param":{"num_deleted":"0","num_feature":"2","num_nodes":"31","size_leaf_vector":"1"}},{"base_weights":[-7.623314E-4,-1.03203565E-1,2.6207114E-2,-8.3317064E-2,-3.6260128E-1,3.8826808E-1,-8.239225E-3,-2.2864164E-1,6.5351844E-2,1.5913121E-1,-1.2229494E0,1.1728034E0,-9.0445645E-2,-4.376865E-1,3.588704E-2,-3.4554295E-2,-2.4846855E-3,7.669597E-2,-1.7399153E-2,-2.5258833E-1,2.5402162E-2,1.3918193E-1,8.235451E-2,-1.7340377E-1,1.521105E-2,-1.930575E-1,4.6206992E-2,1.6931476E-2,-5.5297967E-3],"categories":[],"categories_nodes":[],"categories_segments":[],"categories_sizes":[],"default_left":[0,0,0,0,0,0,0,0,0,0,0,0,0,0,0,0,0,0,0,0,0,0,0,0,0,0,0,0,0],"id":48,"left_children":[1,3,5,7,9,11,13,15,17,-1,19,21,23,25,27,-1,-1,-1,-1,-1,-1,-1,-1,-1,-1,-1,-1,-1,-1],"loss_changes":[1.1971081E1,4.627926E0,4.2781044E1,1.816335E1,1.0953302E2,1.1202529E2,5.9385754E1,1.0116558E1,6.999032E1,0E0,8.723942E1,7.4974976E0,7.4415146E1,3.93117E2,3.458686E1,0E0,0E0,0E0,0E0,0E0,0E0,0E0,0E0,0E0,0E0,0E0,0E0,0E0,0E0],"parents":[2147483647,0,0,1,1,2,2,3,3,4,4,5,5,6,6,7,7,8,8,10,10,11,11,12,12,13,13,14,14],"right_children":[2,4,6,8,10,12,14,16,18,-1,20,22,24,26,28,-1,-1,-1,-1,-1,-1,-1,-1,-1,-1,-1,-1,-1,-1],"split_conditions":[6E0,5E0,8E0,4E0,2E0,3E0,1E1,4E0,5E0,1.5913121E-1,5E0,7E0,7E0,3E0,1.7E1,-3.4554295E-2,-2.4846855E-3,7.669597E-2,-1.7399153E-2,-2.5258833E-1,2.5402162E-2,1.3918193E-1,8.235451E-2,-1.7340377E-1,1.521105E-2,-1.930575E-1,4.6206992E-2,1.6931476E-2,-5.5297967E-3],"split_indices":[1,1,1,0,0,0,1,1,0,0,0,1,1,0,1,0,0,0,0,0,0,0,0,0,0,0,0,0,0],"split_type":[0,0,0,0,0,0,0,0,0,0,0,0,0,0,0,0,0,0,0,0,0,0,0,0,0,0,0,0,0],"sum_hessian":[4.331E3,9.02E2,3.429E3,8.39E2,6.3E1,2.97E2,3.132E3,4.24E2,4.15E2,1.9E1,4.4E1,1.12E2,1.85E2,2.91E2,2.841E3,2.69E2,1.55E2,1.05E2,3.1E2,2.3E1,2.1E1,6.7E1,4.5E1,2.3E1,1.62E2,1.09E2,1.82E2,1.153E3,1.688E3],"tree_param":{"num_deleted":"0","num_feature":"2","num_nodes":"29","size_leaf_vector":"1"}},{"base_weights":[-7.1343366E-4,1.7779069E-2,-1.4026295E-1,-2.3110178E-1,4.658021E-2,2.0105769E-1,-2.6217926E-1,-2.8508487E-1,6.517919E-2,9.7612694E-2,-5.349949E-2,5.4412868E-2,1.2125922E-1,-8.112033E-1,-7.496689E-2,-4.4885557E-2,-2.4185628E-2,-3.4596808E-3,2.2459941E-2,9.022262E-4,2.6476359E-2,-2.3428593E-2,-8.48855E-4,1.3242376E-2,7.0581823E-3,-3.985199E-2,-2.0154534E-1,1.0601771E-2,-4.229584E-2],"categories":[],"categories_nodes":[],"categories_segments":[],"categories_sizes":[],"default_left":[0,0,0,0,0,0,0,0,0,0,0,0,0,0,0,0,0,0,0,0,0,0,0,0,0,0,0,0,0],"id":49,"left_children":[1,3,5,7,9,11,13,15,17,19,21,-1,23,25,27,-1,-1,-1,-1,-1,-1,-1,-1,-1,-1,-1,-1,-1,-1],"loss_changes":[1.1181738E1,2.7435734E1,2.1150276E1,6.368265E0,1.7523314E1,3.6024752E0,3.8380432E1,2.2701797E0,9.939618E-1,3.3641323E1,9.429219E0,0E0,5.2890062E-2,4.6409332E1,1.767955E1,0E0,0E0,0E0,0E0,0E0,0E0,0E0,0E0,0E0,0E0,0E0,0E0,0E0,0E0],"parents":[2147483647,0,0,1,1,2,2,3,3,4,4,5,5,6,6,7,7,8,8,9,9,10,10,12,12,13,13,14,14],"right_children":[2,4,6,8,10,12,14,16,18,20,22,-1,24,26,28,-1,-1,-1,-1,-1,-1,-1,-1,-1,-1,-1,-1,-1,-1],"split_conditions":[7E0,4E0,4E0,5E0,1.9E1,1E0,1E1,1E0,1E0,1.4E1,2E0,5.4412868E-2,3E0,8E0,2E1,-4.4885557E-2,-2.4185628E-2,-3.4596808E-3,2.2459941E-2,9.022262E-4,2.6476359E-2,-2.3428593E-2,-8.48855E-4,1.3242376E-2,7.0581823E-3,-3.985199E-2,-2.0154534E-1,1.0601771E-2,-4.229584E-2],"split_indices":[0,1,1,0,1,1,1,1,1,1,0,0,1,1,1,0,0,0,0,0,0,0,0,0,0,0,0,0,0],"split_type":[0,0,0,0,0,0,0,0,0,0,0,0,0,0,0,0,0,0,0,0,0,0,0,0,0,0,0,0,0],"sum_hessian":[4.331E3,3.825E3,5.06E2,3.96E2,3.429E3,1.33E2,3.73E2,3.35E2,6.1E1,2.271E3,1.158E3,2.4E1,1.09E2,9.4E1,2.79E2,6.8E1,2.67E2,3.8E1,2.3E1,1.485E3,7.86E2,2.3E2,9.28E2,8.8E1,2.1E1,7.1E1,2.3E1,1.84E2,9.5E1],"tree_param":{"num_deleted":"0","num_feature":"2","num_nodes":"29","size_leaf_vector":"1"}}]},"name":"gbtree"},"learner_model_param":{"base_score":"[1.3260217E1]","boost_from_average":"1","num_class":"0","num_feature":"2","num_target":"1"},"objective":{"name":"reg:squarederror","reg_loss_param":{"scale_pos_weight":"1"}}},"version":[3,2,0]}