{"learner":{"attributes":{},"feature_names":["day_of_week","hour_of_day"],"feature_types":[],"gradient_booster":{"model":{"cats":{"enc":[],"feature_segments":[],"sorted_idx":[]},"gbtree_model_param":{"num_parallel_tree":"1","num_trees":"50"},"iteration_indptr":[0,1,2,3,4,5,6,7,8,9,10,11,12,13,14,15,16,17,18,19,20,21,22,23,24,25,26,27,28,29,30,31,32,33,34,35,36,37,38,39,40,41,42,43,44,45,46,47,48,49,50],"tree_info":[0,0,0,0,0,0,0,0,0,0,0,0,0,0,0,0,0,0,0,0,0,0,0,0,0,0,0,0,0,0,0,0,0,0,0,0,0,0,0,0,0,0,0,0,0,0,0,0,0,0],"trees":[{"base_weights":[-2.927095E-7,-1.0312637E1,1.1616783E0,-1.0681406E1,-6.779292E0,4.2821302E0,-4.277812E0,-1.1404396E0,-8.660102E0,-2.7151477E-1,-7.5143647E0,-1.2251844E0,4.6813E0,-1.8950139E0,-7.5973315E0,-6.9681185E-1,-9.17108E-1,-6.5135264E-1,-9.015457E-1,1.2522087E-1,-7.759946E-1,5.6556445E-1,2.8522512E-1,-3.2461885E-1,-9.7830035E-2,-9.685276E-1,-6.192446E-1],"categories":[],"categories_nodes":[],"categories_segments":[],"categories_sizes":[],"default_left":[0,0,0,0,0,0,0,0,0,0,0,0,0,0,0,0,0,0,0,0,0,0,0,0,0,0,0],"id":0,"left_children":[1,3,5,7,9,11,13,-1,15,-1,17,19,21,23,25,-1,-1,-1,-1,-1,-1,-1,-1,-1,-1,-1,-1],"loss_changes":[1.8814542E5,1.9993438E3,2.3960164E5,2.0027188E3,4.3667627E2,1.9724984E4,4.0689156E4,0E0,2.6722266E2,0E0,1.3508057E2,9.836546E3,1.4889547E4,3.7090273E3,6.246672E3,0E0,0E0,0E0,0E0,0E0,0E0,0E0,0E0,0E0,0E0,0E0,0E0],"parents":[2147483647,0,0,1,1,2,2,3,3,4,4,5,5,6,6,8,8,10,10,11,11,12,12,13,13,14,14],"right_children":[2,4,6,8,10,12,14,-1,16,-1,18,20,22,24,26,-1,-1,-1,-1,-1,-1,-1,-1,-1,-1,-1,-1],"split_conditions":[4E0,3E0,1.9E1,6E0,2E0,5E0,2.2E1,-1.1404396E0,1E0,-2.7151477E-1,4E0,6E0,6E0,4E0,4E0,-6.9681185E-1,-9.17108E-1,-6.5135264E-1,-9.015457E-1,1.2522087E-1,-7.759946E-1,5.6556445E-1,2.8522512E-1,-3.2461885E-1,-9.7830035E-2,-9.685276E-1,-6.192446E-1],"split_indices":[1,1,1,0,0,1,1,0,1,0,0,0,0,0,0,0,0,0,0,0,0,0,0,0,0,0,0],"split_type":[0,0,0,0,0,0,0,0,0,0,0,0,0,0,0,0,0,0,0,0,0,0,0,0,0,0,0],"sum_hessian":[1.5703E4,1.589E3,1.4114E4,1.437E3,1.52E2,8.969E3,5.145E3,1.055E3,3.82E2,2.4E1,1.28E2,6.06E2,8.363E3,2.996E3,2.149E3,9.2E1,2.9E2,8E1,4.8E1,4.4E2,1.66E2,5.455E3,2.908E3,1.21E3,1.786E3,8.62E2,1.287E3],"tree_param":{"num_deleted":"0","num_feature":"2","num_nodes":"27","size_leaf_vector":"1"}},{"base_weights":[-4.068703E-4,-9.284253E0,1.0453824E0,-9.615181E0,-6.1132874E0,3.4919388E0,-4.5792546E0,-1.0265037E1,-7.7983065E0,-2.4544935E-1,-6.774966E0,4.1444535E0,6.9126505E-1,-2.2968104E0,-6.838337E0,-1.0442379E0,-9.69061E-1,-6.278799E-1,-8.257124E-1,-5.870215E-1,-8.13231E-1,7.784976E-2,4.9014544E-1,1.5160026E-1,-2.5303856E-2,-3.349925E-1,-8.866748E-2,-8.717871E-1,-5.573682E-1],"categories":[],"categories_nodes":[],"categories_segments":[],"categories_sizes":[],"default_left":[0,0,0,0,0,0,0,0,0,0,0,0,0,0,0,0,0,0,0,0,0,0,0,0,0,0,0,0,0],"id":1,"left_children":[1,3,5,7,9,11,13,15,17,-1,19,21,23,25,27,-1,-1,-1,-1,-1,-1,-1,-1,-1,-1,-1,-1,-1,-1],"loss_changes":[1.5247902E5,1.6096875E3,1.942524E5,1.6178125E3,3.537754E2,1.7974055E4,2.2047805E4,6.3828125E0,2.1517578E2,0E0,1.1068115E2,2.032439E4,1.4489563E3,3.1601523E3,5.061867E3,0E0,0E0,0E0,0E0,0E0,0E0,0E0,0E0,0E0,0E0,0E0,0E0,0E0,0E0],"parents":[2147483647,0,0,1,1,2,2,3,3,4,4,5,5,6,6,7,7,8,8,10,10,11,11,12,12,13,13,14,14],"right_children":[2,4,6,8,10,12,14,16,18,-1,20,22,24,26,28,-1,-1,-1,-1,-1,-1,-1,-1,-1,-1,-1,-1,-1,-1],"split_conditions":[4E0,3E0,2E1,6E0,2E0,1.8E1,2.2E1,5E0,1E0,-2.4544935E-1,4E0,7E0,1.9E1,5E0,4E0,-1.0442379E0,-9.69061E-1,-6.278799E-1,-8.257124E-1,-5.870215E-1,-8.13231E-1,7.784976E-2,4.9014544E-1,1.5160026E-1,-2.5303856E-2,-3.349925E-1,-8.866748E-2,-8.717871E-1,-5.573682E-1],"split_indices":[1,1,1,0,0,1,1,0,1,0,0,1,1,0,0,0,0,0,0,0,0,0,0,0,0,0,0,0,0],"split_type":[0,0,0,0,0,0,0,0,0,0,0,0,0,0,0,0,0,0,0,0,0,0,0,0,0,0,0,0,0],"sum_hessian":[1.5703E4,1.589E3,1.4114E4,1.437E3,1.52E2,9.836E3,4.278E3,1.055E3,3.82E2,2.4E1,1.28E2,7.977E3,1.859E3,2.129E3,2.149E3,7.93E2,2.62E2,9.2E1,2.9E2,8E1,4.8E1,1.465E3,6.512E3,9.92E2,8.67E2,1.218E3,9.11E2,8.62E2,1.287E3],"tree_param":{"num_deleted":"0","num_feature":"2","num_nodes":"29","size_leaf_vector":"1"}},{"base_weights":[-7.656052E-4,-8.359043E0,9.40762E-1,-8.656074E0,-5.5127144E0,3.1428154E0,-4.121762E0,-9.240439E0,-7.022271E0,-2.2188623E-1,-6.1083236E0,3.7300792E0,6.222066E-1,-2.067328E0,-6.1551676E0,-9.399455E-1,-8.725234E-1,-6.3057864E-1,-7.901667E-1,-5.2904403E-1,-7.3356754E-1,1.8326382E-1,4.8221603E-1,1.3645552E-1,-2.2776386E-2,-3.0152074E-1,-7.9810426E-2,-7.847094E-1,-5.016746E-1],"categories":[],"categories_nodes":[],"categories_segments":[],"categories_sizes":[],"default_left":[0,0,0,0,0,0,0,0,0,0,0,0,0,0,0,0,0,0,0,0,0,0,0,0,0,0,0,0,0],"id":2,"left_children":[1,3,5,7,9,11,13,15,17,-1,19,21,23,25,27,-1,-1,-1,-1,-1,-1,-1,-1,-1,-1,-1,-1,-1,-1],"loss_changes":[1.23591266E5,1.2965312E3,1.5736625E5,1.3080312E3,2.8660938E2,1.4559016E4,1.786279E4,4.5E0,1.9149219E2,0E0,9.068506E1,1.6522852E4,1.1739233E3,2.5601348E3,4.1018047E3,0E0,0E0,0E0,0E0,0E0,0E0,0E0,0E0,0E0,0E0,0E0,0E0,0E0,0E0],"parents":[2147483647,0,0,1,1,2,2,3,3,4,4,5,5,6,6,7,7,8,8,10,10,11,11,12,12,13,13,14,14],"right_children":[2,4,6,8,10,12,14,16,18,-1,20,22,24,26,28,-1,-1,-1,-1,-1,-1,-1,-1,-1,-1,-1,-1,-1,-1],"split_conditions":[4E0,3E0,2E1,6E0,2E0,1.8E1,2.2E1,5E0,2E0,-2.2188623E-1,4E0,1E1,1.9E1,5E0,4E0,-9.399455E-1,-8.725234E-1,-6.3057864E-1,-7.901667E-1,-5.2904403E-1,-7.3356754E-1,1.8326382E-1,4.8221603E-1,1.3645552E-1,-2.2776386E-2,-3.0152074E-1,-7.9810426E-2,-7.847094E-1,-5.016746E-1],"split_indices":[1,1,1,0,0,1,1,0,1,0,0,1,1,0,0,0,0,0,0,0,0,0,0,0,0,0,0,0,0],"split_type":[0,0,0,0,0,0,0,0,0,0,0,0,0,0,0,0,0,0,0,0,0,0,0,0,0,0,0,0,0],"sum_hessian":[1.5703E4,1.589E3,1.4114E4,1.437E3,1.52E2,9.836E3,4.278E3,1.055E3,3.82E2,2.4E1,1.28E2,7.977E3,1.859E3,2.129E3,2.149E3,7.93E2,2.62E2,2.15E2,1.67E2,8E1,4.8E1,2.915E3,5.062E3,9.92E2,8.67E2,1.218E3,9.11E2,8.62E2,1.287E3],"tree_param":{"num_deleted":"0","num_feature":"2","num_nodes":"29","size_leaf_vector":"1"}},{"base_weights":[-1.0460283E-3,-7.526106E0,8.466229E-1,-7.7927146E0,-4.9711456E0,2.8286133E0,-3.7099757E0,-8.318111E0,-6.3237534E0,-2.0058513E-1,-5.507279E0,3.3795934E0,2.6629147E-1,-1.8607746E0,-5.5402493E0,-8.4606934E-1,-7.856028E-1,-5.0338715E-1,-6.714252E-1,-4.7679278E-1,-6.617079E-1,4.0094167E-1,5.3794798E-2,-7.465875E-1,1.3598618E-1,-3.0203298E-1,-9.9338494E-2,-6.6549736E-1,-4.1090927E-1],"categories":[],"categories_nodes":[],"categories_segments":[],"categories_sizes":[],"default_left":[0,0,0,0,0,0,0,0,0,0,0,0,0,0,0,0,0,0,0,0,0,0,0,0,0,0,0,0,0],"id":3,"left_children":[1,3,5,7,9,11,13,15,17,-1,19,21,23,25,27,-1,-1,-1,-1,-1,-1,-1,-1,-1,-1,-1,-1,-1,-1],"loss_changes":[1.0017841E5,1.0443281E3,1.2748496E5,1.0572188E3,2.3219165E2,1.3886859E4,1.4472156E4,3.109375E0,1.5911816E2,0E0,7.429907E1,1.4487531E4,1.4739925E4,2.1393242E3,3.4026484E3,0E0,0E0,0E0,0E0,0E0,0E0,0E0,0E0,0E0,0E0,0E0,0E0,0E0,0E0],"parents":[2147483647,0,0,1,1,2,2,3,3,4,4,5,5,6,6,7,7,8,8,10,10,11,11,12,12,13,13,14,14],"right_children":[2,4,6,8,10,12,14,16,18,-1,20,22,24,26,28,-1,-1,-1,-1,-1,-1,-1,-1,-1,-1,-1,-1,-1,-1],"split_conditions":[4E0,3E0,2E1,6E0,2E0,7E0,2.2E1,5E0,1E0,-2.0058513E-1,4E0,1.8E1,7E0,4E0,5E0,-8.4606934E-1,-7.856028E-1,-5.0338715E-1,-6.714252E-1,-4.7679278E-1,-6.617079E-1,4.0094167E-1,5.3794798E-2,-7.465875E-1,1.3598618E-1,-3.0203298E-1,-9.9338494E-2,-6.6549736E-1,-4.1090927E-1],"split_indices":[1,1,1,0,0,0,1,0,1,0,0,1,1,0,0,0,0,0,0,0,0,0,0,0,0,0,0,0,0],"split_type":[0,0,0,0,0,0,0,0,0,0,0,0,0,0,0,0,0,0,0,0,0,0,0,0,0,0,0,0,0],"sum_hessian":[1.5703E4,1.589E3,1.4114E4,1.437E3,1.52E2,9.836E3,4.278E3,1.055E3,3.82E2,2.4E1,1.28E2,8.095E3,1.741E3,2.129E3,2.149E3,7.93E2,2.62E2,9.2E1,2.9E2,8E1,4.8E1,6.626E3,1.469E3,2.15E2,1.526E3,9.1E2,1.219E3,1.206E3,9.43E2],"tree_param":{"num_deleted":"0","num_feature":"2","num_nodes":"29","size_leaf_vector":"1"}},{"base_weights":[-1.3094485E-3,-6.776103E0,7.618448E-1,-7.0153947E0,-4.4827833E0,2.818391E0,-2.823072E0,-7.487846E0,-5.6944456E0,-1.8132892E-1,-4.965377E0,3.70824E0,1.1112798E0,-1.26996E0,-4.986725E0,-7.6156896E-1,-7.0734125E-1,-5.081382E-1,-6.448775E-1,-4.2970213E-1,-5.968875E-1,4.6671737E-2,3.9695677E-1,-5.408124E-1,2.3073721E-1,-6.532205E-2,-2.3768356E-1,-6.3985676E-1,-4.0368748E-1],"categories":[],"categories_nodes":[],"categories_segments":[],"categories_sizes":[],"default_left":[0,0,0,0,0,0,0,0,0,0,0,0,0,0,0,0,0,0,0,0,0,0,0,0,0,0,0,0,0],"id":4,"left_children":[1,3,5,7,9,11,13,15,17,-1,19,21,23,25,27,-1,-1,-1,-1,-1,-1,-1,-1,-1,-1,-1,-1,-1,-1],"loss_changes":[8.119819E4,8.4109375E2,1.0407146E5,8.547969E2,1.8810327E2,1.3621953E4,1.7286262E4,2.0820312E0,1.4435059E2,0E0,6.087085E1,4.9926484E3,2.3990738E4,2.0443613E3,2.8573984E3,0E0,0E0,0E0,0E0,0E0,0E0,0E0,0E0,0E0,0E0,0E0,0E0,0E0,0E0],"parents":[2147483647,0,0,1,1,2,2,3,3,4,4,5,5,6,6,7,7,8,8,10,10,11,11,12,12,13,13,14,14],"right_children":[2,4,6,8,10,12,14,16,18,-1,20,22,24,26,28,-1,-1,-1,-1,-1,-1,-1,-1,-1,-1,-1,-1,-1,-1],"split_conditions":[4E0,3E0,1.9E1,6E0,2E0,6E0,2.2E1,5E0,2E0,-1.8132892E-1,4E0,5E0,8E0,2.1E1,4E0,-7.6156896E-1,-7.0734125E-1,-5.081382E-1,-6.448775E-1,-4.2970213E-1,-5.968875E-1,4.6671737E-2,3.9695677E-1,-5.408124E-1,2.3073721E-1,-6.532205E-2,-2.3768356E-1,-6.3985676E-1,-4.0368748E-1],"split_indices":[1,1,1,0,0,0,1,0,1,0,0,1,1,1,0,0,0,0,0,0,0,0,0,0,0,0,0,0,0],"split_type":[0,0,0,0,0,0,0,0,0,0,0,0,0,0,0,0,0,0,0,0,0,0,0,0,0,0,0,0,0],"sum_hessian":[1.5703E4,1.589E3,1.4114E4,1.437E3,1.52E2,8.969E3,5.145E3,1.055E3,3.82E2,2.4E1,1.28E2,5.895E3,3.074E3,2.996E3,2.149E3,7.93E2,2.62E2,2.15E2,1.67E2,8E1,4.8E1,4.4E2,5.455E3,4.76E2,2.598E3,1.925E3,1.071E3,8.62E2,1.287E3],"tree_param":{"num_deleted":"0","num_feature":"2","num_nodes":"29","size_leaf_vector":"1"}},{"base_weights":[-1.4994818E-3,-6.100901E0,6.855746E-1,-6.3156786E0,-4.0424004E0,2.5365672E0,-2.5410266E0,-6.7404523E0,-5.128011E0,-1.6392136E-1,-4.4767976E0,3.3374915E0,1.0000513E0,-1.1430653E0,-4.488538E0,-6.8550795E-1,-6.368761E-1,-4.0332222E-1,-5.4602706E-1,-3.8726246E-1,-5.384169E-1,4.2015146E-2,3.5726842E-1,-5.5229026E-1,1.9775109E-1,-2.0855391E-1,-5.0373744E-2,-3.5619453E-1,-5.7258326E-1],"categories":[],"categories_nodes":[],"categories_segments":[],"categories_sizes":[],"default_left":[0,0,0,0,0,0,0,0,0,0,0,0,0,0,0,0,0,0,0,0,0,0,0,0,0,0,0,0,0],"id":5,"left_children":[1,3,5,7,9,11,13,15,17,-1,19,21,23,25,27,-1,-1,-1,-1,-1,-1,-1,-1,-1,-1,-1,-1,-1,-1],"loss_changes":[6.581557E4,6.774375E2,8.4307086E4,6.908906E2,1.5238403E2,1.1035434E4,1.4005086E4,1.3359375E0,1.172959E2,0E0,4.9868164E1,4.043961E3,1.9616887E4,1.8047908E3,2.4445117E3,0E0,0E0,0E0,0E0,0E0,0E0,0E0,0E0,0E0,0E0,0E0,0E0,0E0,0E0],"parents":[2147483647,0,0,1,1,2,2,3,3,4,4,5,5,6,6,7,7,8,8,10,10,11,11,12,12,13,13,14,14],"right_children":[2,4,6,8,10,12,14,16,18,-1,20,22,24,26,28,-1,-1,-1,-1,-1,-1,-1,-1,-1,-1,-1,-1,-1,-1],"split_conditions":[4E0,3E0,1.9E1,6E0,2E0,6E0,2.2E1,5E0,1E0,-1.6392136E-1,4E0,5E0,7E0,4E0,2.3E1,-6.8550795E-1,-6.368761E-1,-4.0332222E-1,-5.4602706E-1,-3.8726246E-1,-5.384169E-1,4.2015146E-2,3.5726842E-1,-5.5229026E-1,1.9775109E-1,-2.0855391E-1,-5.0373744E-2,-3.5619453E-1,-5.7258326E-1],"split_indices":[1,1,1,0,0,0,1,0,1,0,0,1,1,0,1,0,0,0,0,0,0,0,0,0,0,0,0,0,0],"split_type":[0,0,0,0,0,0,0,0,0,0,0,0,0,0,0,0,0,0,0,0,0,0,0,0,0,0,0,0,0],"sum_hessian":[1.5703E4,1.589E3,1.4114E4,1.437E3,1.52E2,8.969E3,5.145E3,1.055E3,3.82E2,2.4E1,1.28E2,5.895E3,3.074E3,2.996E3,2.149E3,7.93E2,2.62E2,9.2E1,2.9E2,8E1,4.8E1,4.4E2,5.455E3,4E2,2.674E3,1.21E3,1.786E3,1.231E3,9.18E2],"tree_param":{"num_deleted":"0","num_feature":"2","num_nodes":"29","size_leaf_vector":"1"}},{"base_weights":[-1.6363113E-3,-5.492925E0,6.169362E-1,-5.6856904E0,-3.6452818E0,2.0724764E0,-2.7293515E0,-6.0676594E0,-4.617689E0,-1.4818491E-1,-4.0362935E0,2.5020125E0,7.50043E-2,-1.4049982E0,-4.040116E0,-6.1704355E-1,-5.7343066E-1,-4.0928784E-1,-5.264959E-1,-3.4901434E-1,-4.85674E-1,3.0088642E-1,2.1533981E-2,-3.889114E-1,1.35321E-1,-2.1397506E-1,-4.2137098E-2,-4.9679896E-1,-2.8494558E-1],"categories":[],"categories_nodes":[],"categories_segments":[],"categories_sizes":[],"default_left":[0,0,0,0,0,0,0,0,0,0,0,0,0,0,0,0,0,0,0,0,0,0,0,0,0,0,0,0,0],"id":6,"left_children":[1,3,5,7,9,11,13,15,17,-1,19,21,23,25,27,-1,-1,-1,-1,-1,-1,-1,-1,-1,-1,-1,-1,-1,-1],"loss_changes":[5.3346113E4,5.455742E2,6.875498E4,5.5860156E2,1.234458E2,8.43982E3,7.4223027E3,7.96875E-1,1.0855469E2,0E0,4.085254E1,9.382648E3,8.831905E3,1.5384966E3,2.361129E3,0E0,0E0,0E0,0E0,0E0,0E0,0E0,0E0,0E0,0E0,0E0,0E0,0E0,0E0],"parents":[2147483647,0,0,1,1,2,2,3,3,4,4,5,5,6,6,7,7,8,8,10,10,11,11,12,12,13,13,14,14],"right_children":[2,4,6,8,10,12,14,16,18,-1,20,22,24,26,28,-1,-1,-1,-1,-1,-1,-1,-1,-1,-1,-1,-1,-1,-1],"split_conditions":[4E0,3E0,2E1,6E0,2E0,7E0,2.2E1,5E0,2E0,-1.4818491E-1,4E0,1.8E1,1E1,5E0,5E0,-6.1704355E-1,-5.7343066E-1,-4.0928784E-1,-5.264959E-1,-3.4901434E-1,-4.85674E-1,3.0088642E-1,2.1533981E-2,-3.889114E-1,1.35321E-1,-2.1397506E-1,-4.2137098E-2,-4.9679896E-1,-2.8494558E-1],"split_indices":[1,1,1,0,0,0,1,0,1,0,0,1,1,0,0,0,0,0,0,0,0,0,0,0,0,0,0,0,0],"split_type":[0,0,0,0,0,0,0,0,0,0,0,0,0,0,0,0,0,0,0,0,0,0,0,0,0,0,0,0,0],"sum_hessian":[1.5703E4,1.589E3,1.4114E4,1.437E3,1.52E2,9.836E3,4.278E3,1.055E3,3.82E2,2.4E1,1.28E2,8.095E3,1.741E3,2.129E3,2.149E3,7.93E2,2.62E2,2.15E2,1.67E2,8E1,4.8E1,6.626E3,1.469E3,4.24E2,1.317E3,1.218E3,9.11E2,1.206E3,9.43E2],"tree_param":{"num_deleted":"0","num_feature":"2","num_nodes":"29","size_leaf_vector":"1"}},{"base_weights":[-1.7323394E-3,-4.945588E0,5.55174E-1,-5.1186004E0,-3.2871778E0,2.059882E0,-2.0677924E0,-5.462021E0,-4.1583633E0,-1.3395916E-1,-3.639135E0,-1.5277532E0,2.320001E0,-9.417595E-1,-3.6364684E0,-5.5541694E-1,-5.163056E-1,-3.685486E-1,-4.7415972E-1,-3.145438E-1,-4.380978E-1,9.373417E-2,-4.4099793E-1,2.7186224E-1,4.5178294E-2,-2.8045627E-1,-6.758944E-2,-4.8156768E-1,-2.8435388E-1],"categories":[],"categories_nodes":[],"categories_segments":[],"categories_sizes":[],"default_left":[0,0,0,0,0,0,0,0,0,0,0,0,0,0,0,0,0,0,0,0,0,0,0,0,0,0,0,0,0],"id":7,"left_children":[1,3,5,7,9,11,13,15,17,-1,19,21,23,25,27,-1,-1,-1,-1,-1,-1,-1,-1,-1,-1,-1,-1,-1,-1],"loss_changes":[4.324001E4,4.3938672E2,5.571332E4,4.5148828E2,1.00001465E2,8.374453E3,9.086371E3,4.1601562E-1,8.815527E1,0E0,3.3465576E1,4.3168457E3,6.227539E3,1.4823823E3,1.9966191E3,0E0,0E0,0E0,0E0,0E0,0E0,0E0,0E0,0E0,0E0,0E0,0E0,0E0,0E0],"parents":[2147483647,0,0,1,1,2,2,3,3,4,4,5,5,6,6,7,7,8,8,10,10,11,11,12,12,13,13,14,14],"right_children":[2,4,6,8,10,12,14,16,18,-1,20,22,24,26,28,-1,-1,-1,-1,-1,-1,-1,-1,-1,-1,-1,-1,-1,-1],"split_conditions":[4E0,3E0,1.9E1,6E0,2E0,5E0,2.2E1,5E0,2E0,-1.3395916E-1,4E0,5E0,7E0,2E0,4E0,-5.5541694E-1,-5.163056E-1,-3.685486E-1,-4.7415972E-1,-3.145438E-1,-4.380978E-1,9.373417E-2,-4.4099793E-1,2.7186224E-1,4.5178294E-2,-2.8045627E-1,-6.758944E-2,-4.8156768E-1,-2.8435388E-1],"split_indices":[1,1,1,0,0,1,1,0,1,0,0,0,0,0,0,0,0,0,0,0,0,0,0,0,0,0,0,0,0],"split_type":[0,0,0,0,0,0,0,0,0,0,0,0,0,0,0,0,0,0,0,0,0,0,0,0,0,0,0,0,0],"sum_hessian":[1.5703E4,1.589E3,1.4114E4,1.437E3,1.52E2,8.969E3,5.145E3,1.055E3,3.82E2,2.4E1,1.28E2,6.06E2,8.363E3,2.996E3,2.149E3,7.93E2,2.62E2,2.15E2,1.67E2,8E1,4.8E1,3.27E2,2.79E2,6.892E3,1.471E3,3.73E2,2.623E3,8.62E2,1.287E3],"tree_param":{"num_deleted":"0","num_feature":"2","num_nodes":"29","size_leaf_vector":"1"}},{"base_weights":[-1.810188E-3,-4.452791E0,4.9957567E-1,-4.608072E0,-2.9642549E0,1.6853694E0,-2.2265642E0,-4.9168334E0,-3.7447278E0,-1.2109913E-1,-3.2810557E0,2.2528198E0,5.888561E-1,-1.6355488E0,-4.385624E0,-4.9994516E-1,-4.648714E-1,-2.864765E-1,-4.0130845E-1,-2.8347775E-1,-3.951821E-1,2.7234358E-1,1.3153814E-2,-4.8133603E-1,1.3215016E-1,-2.3899417E-1,-6.5402925E-2,-5.976434E-1,-4.0575704E-1],"categories":[],"categories_nodes":[],"categories_segments":[],"categories_sizes":[],"default_left":[0,0,0,0,0,0,0,0,0,0,0,0,0,0,0,0,0,0,0,0,0,0,0,0,0,0,0,0,0],"id":8,"left_children":[1,3,5,7,9,11,13,15,17,-1,19,21,23,25,27,-1,-1,-1,-1,-1,-1,-1,-1,-1,-1,-1,-1,-1,-1],"loss_changes":[3.5048195E4,3.5385352E2,4.5632465E4,3.6491406E2,8.10083E1,6.11942E3,5.45299E3,1.5039062E-1,7.894678E1,0E0,2.7413452E1,6.4706836E3,1.3289103E4,2.4870947E3,4.553496E2,0E0,0E0,0E0,0E0,0E0,0E0,0E0,0E0,0E0,0E0,0E0,0E0,0E0,0E0],"parents":[2147483647,0,0,1,1,2,2,3,3,4,4,5,5,6,6,7,7,8,8,10,10,11,11,12,12,13,13,14,14],"right_children":[2,4,6,8,10,12,14,16,18,-1,20,22,24,26,28,-1,-1,-1,-1,-1,-1,-1,-1,-1,-1,-1,-1,-1,-1],"split_conditions":[4E0,3E0,2E1,6E0,2E0,6E0,2.3E1,5E0,1E0,-1.2109913E-1,4E0,1.8E1,7E0,5E0,2E0,-4.9994516E-1,-4.648714E-1,-2.864765E-1,-4.0130845E-1,-2.8347775E-1,-3.951821E-1,2.7234358E-1,1.3153814E-2,-4.8133603E-1,1.3215016E-1,-2.3899417E-1,-6.5402925E-2,-5.976434E-1,-4.0575704E-1],"split_indices":[1,1,1,0,0,0,1,0,1,0,0,1,1,0,0,0,0,0,0,0,0,0,0,0,0,0,0,0,0],"split_type":[0,0,0,0,0,0,0,0,0,0,0,0,0,0,0,0,0,0,0,0,0,0,0,0,0,0,0,0,0],"sum_hessian":[1.5703E4,1.589E3,1.4114E4,1.437E3,1.52E2,9.836E3,4.278E3,1.055E3,3.82E2,2.4E1,1.28E2,6.481E3,3.355E3,3.36E3,9.18E2,7.93E2,2.62E2,9.2E1,2.9E2,8E1,4.8E1,5.304E3,1.177E3,4E2,2.955E3,1.899E3,1.461E3,1.54E2,7.64E2],"tree_param":{"num_deleted":"0","num_feature":"2","num_nodes":"29","size_leaf_vector":"1"}},{"base_weights":[-1.87231E-3,-4.009054E0,4.4952133E-1,-4.1484137E0,-2.6730566E0,1.3313097E0,-2.5332584E0,-4.4260636E-1,-3.372051E0,-1.0947358E-1,-2.9582112E0,1.8566858E0,-1.0555856E-1,-3.7549114E0,-1.6676303E0,-2.9681036E-1,-3.8713405E-1,-2.5547993E-1,-3.5647044E-1,6.352402E-2,2.7217624E-1,-1.5160851E-1,7.4271234E-3,-3.4438905E-1,-4.565877E-1,-8.061995E-2,-4.5411736E-1],"categories":[],"categories_nodes":[],"categories_segments":[],"categories_sizes":[],"default_left":[0,0,0,0,0,0,0,0,0,0,0,0,0,0,0,0,0,0,0,0,0,0,0,0,0,0,0],"id":9,"left_children":[1,3,5,7,9,11,13,-1,15,-1,17,19,21,23,25,-1,-1,-1,-1,-1,-1,-1,-1,-1,-1,-1,-1],"loss_changes":[2.8407457E4,2.849453E2,3.7128367E4,2.9504492E2,6.5621704E1,8.224791E3,3.3999355E3,0E0,6.575537E1,0E0,2.2454834E1,8.42817E3,7.40277E2,3.21E2,4.667342E3,0E0,0E0,0E0,0E0,0E0,0E0,0E0,0E0,0E0,0E0,0E0,0E0],"parents":[2147483647,0,0,1,1,2,2,3,3,4,4,5,5,6,6,8,8,10,10,11,11,12,12,13,13,14,14],"right_children":[2,4,6,8,10,12,14,-1,16,-1,18,20,22,24,26,-1,-1,-1,-1,-1,-1,-1,-1,-1,-1,-1,-1],"split_conditions":[4E0,3E0,2.1E1,6E0,2E0,1.8E1,4E0,-4.4260636E-1,2E0,-1.0947358E-1,4E0,1.1E1,2E0,2.3E1,7E0,-2.9681036E-1,-3.8713405E-1,-2.5547993E-1,-3.5647044E-1,6.352402E-2,2.7217624E-1,-1.5160851E-1,7.4271234E-3,-3.4438905E-1,-4.565877E-1,-8.061995E-2,-4.5411736E-1],"split_indices":[1,1,1,0,0,1,0,0,1,0,0,1,0,1,0,0,0,0,0,0,0,0,0,0,0,0,0],"split_type":[0,0,0,0,0,0,0,0,0,0,0,0,0,0,0,0,0,0,0,0,0,0,0,0,0,0,0],"sum_hessian":[1.5703E4,1.589E3,1.4114E4,1.437E3,1.52E2,1.0894E4,3.22E3,1.055E3,3.82E2,2.4E1,1.28E2,7.977E3,2.917E3,1.334E3,1.886E3,2.15E2,1.67E2,8E1,4.8E1,3.308E3,4.669E3,3.29E2,2.588E3,9.68E2,3.66E2,1.452E3,4.34E2],"tree_param":{"num_deleted":"0","num_feature":"2","num_nodes":"27","size_leaf_vector":"1"}},{"base_weights":[-1.8758038E-3,-3.0292299E0,4.9024585E-1,-3.7343557E0,-1.6893085E0,1.9323239E0,-1.2418313E0,-3.9838765E0,-3.0366316E0,-1.02483965E-1,-3.7741222E0,2.295152E0,1.5692216E-1,-4.37298E-1,-2.7339437E0,-4.058087E-1,-3.7446865E-1,-2.2877505E-1,-3.2655296E-1,-7.570099E-2,2.3585089E-1,-2.2908607E-1,-4.543042E-1,1.7870338E-1,2.9382947E-1,-2.8917357E-1,1.2244403E-1,-2.0392902E-1,-2.1184992E-2,-2.0374735E-1,-3.6646482E-1],"categories":[],"categories_nodes":[],"categories_segments":[],"categories_sizes":[],"default_left":[0,0,0,0,0,0,0,0,0,0,0,0,0,0,0,0,0,0,0,0,0,0,0,0,0,0,0,0,0,0,0],"id":10,"left_children":[1,3,5,7,9,11,13,15,17,19,21,23,25,27,29,-1,-1,-1,-1,-1,-1,-1,-1,-1,-1,-1,-1,-1,-1,-1,-1],"loss_changes":[2.3397719E4,2.068502E3,3.374505E4,2.3825195E2,2.5105625E3,4.7484297E3,7.3671924E3,3.5488281E0,5.818213E1,6.976439E2,3.636792E2,1.995043E3,4.0781714E3,1.4402595E3,1.3861807E3,0E0,0E0,0E0,0E0,0E0,0E0,0E0,0E0,0E0,0E0,0E0,0E0,0E0,0E0,0E0,0E0],"parents":[2147483647,0,0,1,1,2,2,3,3,4,4,5,5,6,6,7,7,8,8,9,9,10,10,11,11,12,12,13,13,14,14],"right_children":[2,4,6,8,10,12,14,16,18,20,22,24,26,28,30,-1,-1,-1,-1,-1,-1,-1,-1,-1,-1,-1,-1,-1,-1,-1,-1],"split_conditions":[5E0,3E0,1.8E1,6E0,5E0,7E0,2.2E1,5E0,1E0,4E0,6E0,1.3E1,1E1,2E0,2.3E1,-4.058087E-1,-3.7446865E-1,-2.2877505E-1,-3.2655296E-1,-7.570099E-2,2.3585089E-1,-2.2908607E-1,-4.543042E-1,1.7870338E-1,2.9382947E-1,-2.8917357E-1,1.2244403E-1,-2.0392902E-1,-2.1184992E-2,-2.0374735E-1,-3.6646482E-1],"split_indices":[1,1,1,0,0,0,1,0,1,0,0,1,1,0,1,0,0,0,0,0,0,0,0,0,0,0,0,0,0,0,0],"split_type":[0,0,0,0,0,0,0,0,0,0,0,0,0,0,0,0,0,0,0,0,0,0,0,0,0,0,0,0,0,0,0],"sum_hessian":[1.5703E4,2.195E3,1.3508E4,1.437E3,7.58E2,7.371E3,6.137E3,1.055E3,3.82E2,4.31E2,3.27E2,6.12E3,1.251E3,3.988E3,2.149E3,7.93E2,2.62E2,9.2E1,2.9E2,3.41E2,9E1,1.13E2,2.14E2,3.421E3,2.699E3,3.24E2,9.27E2,4.91E2,3.497E3,1.231E3,9.18E2],"tree_param":{"num_deleted":"0","num_feature":"2","num_nodes":"31","size_leaf_vector":"1"}},{"base_weights":[-1.837723E-3,-2.7271535E0,4.411851E-1,-3.361849E0,-1.5210673E0,1.563667E0,-1.3833157E0,-3.586228E0,-2.7344186E0,-9.186512E-2,-3.3987937E0,2.0680594E0,6.171122E-1,-6.098736E-1,-2.4608145E0,-3.3267733E-1,-3.656441E-1,-2.3892725E-1,-3.1619015E-1,-6.8153046E-2,2.1252494E-1,-2.0637842E-1,-4.090851E-1,2.2718313E-1,3.8998846E-2,-3.3904752E-1,1.0964284E-1,-2.144679E-2,-1.319707E-1,-3.133521E-1,-1.598084E-1],"categories":[],"categories_nodes":[],"categories_segments":[],"categories_sizes":[],"default_left":[0,0,0,0,0,0,0,0,0,0,0,0,0,0,0,0,0,0,0,0,0,0,0,0,0,0,0,0,0,0,0],"id":11,"left_children":[1,3,5,7,9,11,13,15,17,19,21,23,25,27,29,-1,-1,-1,-1,-1,-1,-1,-1,-1,-1,-1,-1,-1,-1,-1,-1],"loss_changes":[1.8961852E4,1.6759199E3,2.766818E4,1.9263965E2,2.0365786E3,3.9919902E3,4.287089E3,7.0722656E0,4.8954346E1,5.662261E2,2.945974E2,1.8647559E3,5.591619E3,8.408916E2,1.2427764E3,0E0,0E0,0E0,0E0,0E0,0E0,0E0,0E0,0E0,0E0,0E0,0E0,0E0,0E0,0E0,0E0],"parents":[2147483647,0,0,1,1,2,2,3,3,4,4,5,5,6,6,7,7,8,8,9,9,10,10,11,11,12,12,13,13,14,14],"right_children":[2,4,6,8,10,12,14,16,18,20,22,24,26,28,30,-1,-1,-1,-1,-1,-1,-1,-1,-1,-1,-1,-1,-1,-1,-1,-1],"split_conditions":[5E0,3E0,1.9E1,6E0,5E0,6E0,2.2E1,2E0,2E0,4E0,6E0,1.8E1,8E0,2.1E1,5E0,-3.3267733E-1,-3.656441E-1,-2.3892725E-1,-3.1619015E-1,-6.8153046E-2,2.1252494E-1,-2.0637842E-1,-4.090851E-1,2.2718313E-1,3.8998846E-2,-3.3904752E-1,1.0964284E-1,-2.144679E-2,-1.319707E-1,-3.133521E-1,-1.598084E-1],"split_indices":[1,1,1,0,0,0,1,0,1,0,0,1,1,1,0,0,0,0,0,0,0,0,0,0,0,0,0,0,0,0,0],"split_type":[0,0,0,0,0,0,0,0,0,0,0,0,0,0,0,0,0,0,0,0,0,0,0,0,0,0,0,0,0,0,0],"sum_hessian":[1.5703E4,2.195E3,1.3508E4,1.437E3,7.58E2,8.363E3,5.145E3,1.055E3,3.82E2,4.31E2,3.27E2,5.455E3,2.908E3,2.996E3,2.149E3,2.35E2,8.2E2,2.15E2,1.67E2,3.41E2,9E1,1.13E2,2.14E2,4.864E3,5.91E2,3.1E2,2.598E3,1.925E3,1.071E3,1.206E3,9.43E2],"tree_param":{"num_deleted":"0","num_feature":"2","num_nodes":"31","size_leaf_vector":"1"}},{"base_weights":[-1.8009688E-3,-2.4552236E0,3.9702335E-1,-3.026536E0,-1.3695812E0,1.4073054E0,-1.2451057E0,-3.2282665E0,-2.4624262E0,-8.234427E-2,-3.0607908E0,1.861303E0,5.5532265E-1,-8.522308E-1,-3.0512323E0,-3.2973632E-1,-3.0073878E-1,-1.8250777E-1,-2.6576528E-1,-6.1357643E-2,1.9150594E-1,-1.8592165E-1,-3.6836684E-1,2.0446956E-1,3.5105567E-2,-3.052518E-1,9.868283E-2,-1.9303186E-2,-1.4031492E-1,-4.2535734E-1,-2.8036323E-1],"categories":[],"categories_nodes":[],"categories_segments":[],"categories_sizes":[],"default_left":[0,0,0,0,0,0,0,0,0,0,0,0,0,0,0,0,0,0,0,0,0,0,0,0,0,0,0,0,0,0,0],"id":12,"left_children":[1,3,5,7,9,11,13,15,17,19,21,23,25,27,29,-1,-1,-1,-1,-1,-1,-1,-1,-1,-1,-1,-1,-1,-1,-1,-1],"loss_changes":[1.5367096E4,1.3579043E3,2.2413367E4,1.5569336E2,1.6520817E3,3.2341445E3,3.6489087E3,6.1992188E0,4.2805176E1,4.5956375E2,2.3863745E2,1.5104199E3,4.5317534E3,1.5351897E3,2.6166113E2,0E0,0E0,0E0,0E0,0E0,0E0,0E0,0E0,0E0,0E0,0E0,0E0,0E0,0E0,0E0,0E0],"parents":[2147483647,0,0,1,1,2,2,3,3,4,4,5,5,6,6,7,7,8,8,9,9,10,10,11,11,12,12,13,13,14,14],"right_children":[2,4,6,8,10,12,14,16,18,20,22,24,26,28,30,-1,-1,-1,-1,-1,-1,-1,-1,-1,-1,-1,-1,-1,-1,-1,-1],"split_conditions":[5E0,3E0,1.9E1,6E0,5E0,6E0,2.3E1,5E0,1E0,4E0,6E0,1.8E1,8E0,2.1E1,2E0,-3.2973632E-1,-3.0073878E-1,-1.8250777E-1,-2.6576528E-1,-6.1357643E-2,1.9150594E-1,-1.8592165E-1,-3.6836684E-1,2.0446956E-1,3.5105567E-2,-3.052518E-1,9.868283E-2,-1.9303186E-2,-1.4031492E-1,-4.2535734E-1,-2.8036323E-1],"split_indices":[1,1,1,0,0,0,1,0,1,0,0,1,1,1,0,0,0,0,0,0,0,0,0,0,0,0,0,0,0,0,0],"split_type":[0,0,0,0,0,0,0,0,0,0,0,0,0,0,0,0,0,0,0,0,0,0,0,0,0,0,0,0,0,0,0],"sum_hessian":[1.5703E4,2.195E3,1.3508E4,1.437E3,7.58E2,8.363E3,5.145E3,1.055E3,3.82E2,4.31E2,3.27E2,5.455E3,2.908E3,4.227E3,9.18E2,7.93E2,2.62E2,9.2E1,2.9E2,3.41E2,9E1,1.13E2,2.14E2,4.864E3,5.91E2,3.1E2,2.598E3,1.925E3,2.302E3,1.54E2,7.64E2],"tree_param":{"num_deleted":"0","num_feature":"2","num_nodes":"31","size_leaf_vector":"1"}},{"base_weights":[-1.7695157E-3,-2.2103856E0,3.5725948E-1,-2.7246325E0,-1.233182E0,1.4193405E0,-9.184033E-1,-2.9060369E0,-2.217354E0,-7.380877E-2,-2.7564015E0,8.410608E-1,2.1322563E0,-7.0024855E-2,-1.6866896E0,-2.667167E-1,-2.9711616E-1,-1.9223784E-1,-2.58341E-1,-1.8085657E-1,4.8175003E-2,-1.6749257E-1,-3.317015E-1,1.2514482E-1,-1.3174437E-1,2.4841724E-1,1.5609697E-1,-1.1620674E-1,6.9196485E-3,-2.7298668E-1,-9.47777E-2],"categories":[],"categories_nodes":[],"categories_segments":[],"categories_sizes":[],"default_left":[0,0,0,0,0,0,0,0,0,0,0,0,0,0,0,0,0,0,0,0,0,0,0,0,0,0,0,0,0,0,0],"id":13,"left_children":[1,3,5,7,9,11,13,15,17,19,21,23,25,27,29,-1,-1,-1,-1,-1,-1,-1,-1,-1,-1,-1,-1,-1,-1,-1,-1],"loss_changes":[1.2453389E4,1.1001836E3,1.8304068E4,1.25884766E2,1.3401754E3,3.0374238E3,4.0006152E3,8.50293E0,3.638916E1,4.1721533E2,1.9330688E2,3.6087192E3,6.597705E2,4.437204E2,2.480213E3,0E0,0E0,0E0,0E0,0E0,0E0,0E0,0E0,0E0,0E0,0E0,0E0,0E0,0E0,0E0,0E0],"parents":[2147483647,0,0,1,1,2,2,3,3,4,4,5,5,6,6,7,7,8,8,9,9,10,10,11,11,12,12,13,13,14,14],"right_children":[2,4,6,8,10,12,14,16,18,20,22,24,26,28,30,-1,-1,-1,-1,-1,-1,-1,-1,-1,-1,-1,-1,-1,-1,-1,-1],"split_conditions":[5E0,3E0,1.8E1,6E0,5E0,1.3E1,2.1E1,2E0,2E0,4E0,6E0,7E0,6E0,2E0,4E0,-2.667167E-1,-2.9711616E-1,-1.9223784E-1,-2.58341E-1,-1.8085657E-1,4.8175003E-2,-1.6749257E-1,-3.317015E-1,1.2514482E-1,-1.3174437E-1,2.4841724E-1,1.5609697E-1,-1.1620674E-1,6.9196485E-3,-2.7298668E-1,-9.47777E-2],"split_indices":[1,1,1,0,0,1,1,0,1,1,0,0,0,0,0,0,0,0,0,0,0,0,0,0,0,0,0,0,0,0,0],"split_type":[0,0,0,0,0,0,0,0,0,0,0,0,0,0,0,0,0,0,0,0,0,0,0,0,0,0,0,0,0,0,0],"sum_hessian":[1.5703E4,2.195E3,1.3508E4,1.437E3,7.58E2,7.371E3,6.137E3,1.055E3,3.82E2,4.31E2,3.27E2,4.071E3,3.3E3,2.917E3,3.22E3,2.35E2,8.2E2,2.15E2,1.67E2,1.04E2,3.27E2,1.13E2,2.14E2,3.421E3,6.5E2,2.04E3,1.26E3,3.29E2,2.588E3,1.334E3,1.886E3],"tree_param":{"num_deleted":"0","num_feature":"2","num_nodes":"31","size_leaf_vector":"1"}},{"base_weights":[-1.7024411E-3,-1.9900966E0,3.2152766E-1,-2.4528747E0,-1.1106962E0,1.2774603E0,-8.2664067E-1,-2.615967E0,-1.9967952E0,-6.673484E-2,-2.4822834E0,7.56953E-1,1.9191532E0,-2.8114703E-1,-1.8383372E0,-2.7237508E-1,-2.4799366E-1,-1.4543618E-1,-2.1632884E-1,-5.307852E-2,1.6780119E-1,-1.5089022E-1,-2.9868564E-1,1.1263398E-1,-1.1859017E-1,2.154244E-1,1.1514234E-1,-1.578824E-1,-9.8546045E-3,-1.5377884E-1,-3.590789E-1],"categories":[],"categories_nodes":[],"categories_segments":[],"categories_sizes":[],"default_left":[0,0,0,0,0,0,0,0,0,0,0,0,0,0,0,0,0,0,0,0,0,0,0,0,0,0,0,0,0,0,0],"id":14,"left_children":[1,3,5,7,9,11,13,15,17,19,21,23,25,27,29,-1,-1,-1,-1,-1,-1,-1,-1,-1,-1,-1,-1,-1,-1,-1,-1],"loss_changes":[1.0093738E4,8.909756E2,1.482815E4,1.0173926E2,1.0866342E3,2.4608398E3,3.3868862E3,8.727539E0,3.1443115E1,3.5065964E2,1.5658777E2,2.9236665E3,5.933037E2,9.450662E2,1.1268774E3,0E0,0E0,0E0,0E0,0E0,0E0,0E0,0E0,0E0,0E0,0E0,0E0,0E0,0E0,0E0,0E0],"parents":[2147483647,0,0,1,1,2,2,3,3,4,4,5,5,6,6,7,7,8,8,9,9,10,10,11,11,12,12,13,13,14,14],"right_children":[2,4,6,8,10,12,14,16,18,20,22,24,26,28,30,-1,-1,-1,-1,-1,-1,-1,-1,-1,-1,-1,-1,-1,-1,-1,-1],"split_conditions":[5E0,3E0,1.8E1,6E0,5E0,1.3E1,2.2E1,4E0,1E0,4E0,6E0,7E0,1.7E1,2E0,7E0,-2.7237508E-1,-2.4799366E-1,-1.4543618E-1,-2.1632884E-1,-5.307852E-2,1.6780119E-1,-1.5089022E-1,-2.9868564E-1,1.1263398E-1,-1.1859017E-1,2.154244E-1,1.1514234E-1,-1.578824E-1,-9.8546045E-3,-1.5377884E-1,-3.590789E-1],"split_indices":[1,1,1,0,0,1,1,0,1,0,0,0,1,0,0,0,0,0,0,0,0,0,0,0,0,0,0,0,0,0,0],"split_type":[0,0,0,0,0,0,0,0,0,0,0,0,0,0,0,0,0,0,0,0,0,0,0,0,0,0,0,0,0,0,0],"sum_hessian":[1.5703E4,2.195E3,1.3508E4,1.437E3,7.58E2,7.371E3,6.137E3,1.055E3,3.82E2,4.31E2,3.27E2,4.071E3,3.3E3,3.988E3,2.149E3,5.78E2,4.77E2,9.2E1,2.9E2,3.41E2,9E1,1.13E2,2.14E2,3.421E3,6.5E2,2.525E3,7.75E2,4.91E2,3.497E3,1.836E3,3.13E2],"tree_param":{"num_deleted":"0","num_feature":"2","num_nodes":"31","size_leaf_vector":"1"}},{"base_weights":[-1.632428E-3,-1.7916411E0,2.8934845E-1,-2.2082007E0,-1.0000676E0,9.373587E-1,-1.1086584E0,-2.3153224E0,-1.6471328E0,-5.9795856E-2,-2.2354255E0,1.2670065E0,3.1269732E-1,-8.3199257E-1,-2.8036947E0,-2.4148677E-1,-2.117861E-1,-5.1992632E-2,-2.096252E-1,-1.5768583E-1,4.2603143E-2,-1.3593355E-1,-2.6895595E-1,1.51834E-1,2.2795405E-2,-3.3216622E-1,6.0152065E-2,-1.619833E-1,6.8977885E-2,-1.7559944E-1,-3.1970617E-1],"categories":[],"categories_nodes":[],"categories_segments":[],"categories_sizes":[],"default_left":[0,0,0,0,0,0,0,0,0,0,0,0,0,0,0,0,0,0,0,0,0,0,0,0,0,0,0,0,0,0,0],"id":15,"left_children":[1,3,5,7,9,11,13,15,17,19,21,23,25,27,29,-1,-1,-1,-1,-1,-1,-1,-1,-1,-1,-1,-1,-1,-1,-1,-1],"loss_changes":[8.1800776E3,7.218955E2,1.2239148E4,8.261377E1,8.814995E2,1.9004355E3,2.0043423E3,1.857129E1,1.1737256E2,3.1906885E2,1.2684265E2,1.5775137E3,3.3505024E3,4.413117E3,2.4166455E2,0E0,0E0,0E0,0E0,0E0,0E0,0E0,0E0,0E0,0E0,0E0,0E0,0E0,0E0,0E0,0E0],"parents":[2147483647,0,0,1,1,2,2,3,3,4,4,5,5,6,6,7,7,8,8,9,9,10,10,11,11,12,12,13,13,14,14],"right_children":[2,4,6,8,10,12,14,16,18,20,22,24,26,28,30,-1,-1,-1,-1,-1,-1,-1,-1,-1,-1,-1,-1,-1,-1,-1,-1],"split_conditions":[5E0,3E0,2E1,7E0,5E0,6E0,7E0,5E0,1E0,4E0,6E0,1.8E1,7E0,5E0,2.1E1,-2.4148677E-1,-2.117861E-1,-5.1992632E-2,-2.096252E-1,-1.5768583E-1,4.2603143E-2,-1.3593355E-1,-2.6895595E-1,1.51834E-1,2.2795405E-2,-3.3216622E-1,6.0152065E-2,-1.619833E-1,6.8977885E-2,-1.7559944E-1,-3.1970617E-1],"split_indices":[1,1,1,0,0,0,0,0,1,1,0,1,1,0,1,0,0,0,0,0,0,0,0,0,0,0,0,0,0,0,0],"split_type":[0,0,0,0,0,0,0,0,0,0,0,0,0,0,0,0,0,0,0,0,0,0,0,0,0,0,0,0,0,0,0],"sum_hessian":[1.5703E4,2.195E3,1.3508E4,1.437E3,7.58E2,9.23E3,4.278E3,1.204E3,2.33E2,4.31E2,3.27E2,6.041E3,3.189E3,3.679E3,5.99E2,7.93E2,4.11E2,6.7E1,1.66E2,1.04E2,3.27E2,1.13E2,2.14E2,4.864E3,1.177E3,2.34E2,2.955E3,2.424E3,1.255E3,1.65E2,4.34E2],"tree_param":{"num_deleted":"0","num_feature":"2","num_nodes":"31","size_leaf_vector":"1"}},{"base_weights":[-1.5916621E-3,-1.6130394E0,2.6036265E-1,-1.9878778E0,-9.007458E-1,9.332973E-1,-8.3343554E-1,-2.120974E0,-1.6157172E0,-5.4082584E-2,-2.013117E0,1.1400417E0,-3.5468485E-2,-5.188325E-1,-2.2799082E0,-1.8898961E-1,-2.1848153E-1,-1.3851283E-1,-1.9025712E-1,-4.5943387E-2,1.4699198E-1,-1.22459404E-1,-2.4218543E-1,1.2577742E-1,2.0630239E-2,-2.0446007E-1,5.333498E-2,-3.1032482E-2,-1.6894485E-1,-3.246009E-1,-2.0811819E-1],"categories":[],"categories_nodes":[],"categories_segments":[],"categories_sizes":[],"default_left":[0,0,0,0,0,0,0,0,0,0,0,0,0,0,0,0,0,0,0,0,0,0,0,0,0,0,0,0,0,0,0],"id":16,"left_children":[1,3,5,7,9,11,13,15,17,19,21,23,25,27,29,-1,-1,-1,-1,-1,-1,-1,-1,-1,-1,-1,-1,-1,-1,-1,-1],"loss_changes":[6.629482E3,5.845303E2,9.944141E3,6.780176E1,7.147201E2,1.6752412E3,2.3405796E3,1.1449219E1,2.2698364E1,2.6754605E2,1.0274829E2,7.574971E2,1.6833379E3,1.0314562E3,1.696831E2,0E0,0E0,0E0,0E0,0E0,0E0,0E0,0E0,0E0,0E0,0E0,0E0,0E0,0E0,0E0,0E0],"parents":[2147483647,0,0,1,1,2,2,3,3,4,4,5,5,6,6,7,7,8,8,9,9,10,10,11,11,12,12,13,13,14,14],"right_children":[2,4,6,8,10,12,14,16,18,20,22,24,26,28,30,-1,-1,-1,-1,-1,-1,-1,-1,-1,-1,-1,-1,-1,-1,-1,-1],"split_conditions":[5E0,3E0,1.9E1,6E0,5E0,7E0,2.3E1,2E0,2E0,4E0,6E0,1.8E1,1E1,7E0,2E0,-1.8898961E-1,-2.1848153E-1,-1.3851283E-1,-1.9025712E-1,-4.5943387E-2,1.4699198E-1,-1.22459404E-1,-2.4218543E-1,1.2577742E-1,2.0630239E-2,-2.0446007E-1,5.333498E-2,-3.1032482E-2,-1.6894485E-1,-3.246009E-1,-2.0811819E-1],"split_indices":[1,1,1,0,0,0,1,0,1,0,0,1,1,0,0,0,0,0,0,0,0,0,0,0,0,0,0,0,0,0,0],"split_type":[0,0,0,0,0,0,0,0,0,0,0,0,0,0,0,0,0,0,0,0,0,0,0,0,0,0,0,0,0,0,0],"sum_hessian":[1.5703E4,2.195E3,1.3508E4,1.437E3,7.58E2,8.363E3,5.145E3,1.055E3,3.82E2,4.31E2,3.27E2,6.892E3,1.471E3,4.227E3,9.18E2,2.35E2,8.2E2,2.15E2,1.67E2,3.41E2,9E1,1.13E2,2.14E2,6.12E3,7.72E2,3.24E2,1.147E3,3.589E3,6.38E2,1.54E2,7.64E2],"tree_param":{"num_deleted":"0","num_feature":"2","num_nodes":"31","size_leaf_vector":"1"}},{"base_weights":[-1.5433696E-3,2.997584E-1,-1.1693329E0,-1.4521908E0,6.73651E-1,-1.8413559E0,-2.7034232E-1,-1.789602E0,-8.110185E-1,9.3943805E-1,1.9388712E-3,-2.3419466E0,-1.348466E0,8.473159E-1,-2.697737E0,-1.8794449E-1,-1.3193025E-1,-4.8440504E-3,-1.8129168E-1,4.8640873E-2,1.4979948E-1,-8.32997E-2,1.08361E-2,-2.236971E-1,-2.656728E-1,-1.04385875E-1,-1.9732848E-1,1.5863605E-1,-1.0751736E-1,-2.5077972E-1,-3.1147367E-1],"categories":[],"categories_nodes":[],"categories_segments":[],"categories_sizes":[],"default_left":[0,0,0,0,0,0,0,0,0,0,0,0,0,0,0,0,0,0,0,0,0,0,0,0,0,0,0,0,0,0,0],"id":17,"left_children":[1,3,5,7,9,11,13,15,17,19,21,23,25,27,29,-1,-1,-1,-1,-1,-1,-1,-1,-1,-1,-1,-1,-1,-1,-1,-1],"loss_changes":[5.525913E3,8.178507E3,1.9454448E3,4.7362842E2,1.8369175E3,4.5157715E2,3.7435093E3,5.828125E1,5.7980774E2,1.8647012E3,2.5937103E2,2.4226074E1,1.7513208E2,1.3443667E3,2.6643066E1,0E0,0E0,0E0,0E0,0E0,0E0,0E0,0E0,0E0,0E0,0E0,0E0,0E0,0E0,0E0,0E0],"parents":[2147483647,0,0,1,1,2,2,3,3,4,4,5,5,6,6,7,7,8,8,9,9,10,10,11,11,12,12,13,13,14,14],"right_children":[2,4,6,8,10,12,14,16,18,20,22,24,26,28,30,-1,-1,-1,-1,-1,-1,-1,-1,-1,-1,-1,-1,-1,-1,-1,-1],"split_conditions":[2.1E1,5E0,5E0,3E0,1.8E1,3E0,7E0,7E0,5E0,1.3E1,2E0,2.3E1,2.3E1,2.3E1,2.3E1,-1.8794449E-1,-1.3193025E-1,-4.8440504E-3,-1.8129168E-1,4.8640873E-2,1.4979948E-1,-8.32997E-2,1.08361E-2,-2.236971E-1,-2.656728E-1,-1.04385875E-1,-1.9732848E-1,1.5863605E-1,-1.0751736E-1,-2.5077972E-1,-3.1147367E-1],"split_indices":[1,1,0,1,1,0,0,0,0,1,0,1,1,1,1,0,0,0,0,0,0,0,0,0,0,0,0,0,0,0,0],"split_type":[0,0,0,0,0,0,0,0,0,0,0,0,0,0,0,0,0,0,0,0,0,0,0,0,0,0,0,0,0,0,0],"sum_hessian":[1.5703E4,1.2483E4,3.22E3,2.195E3,1.0288E4,1.842E3,1.378E3,1.437E3,7.58E2,7.371E3,2.917E3,9.12E2,9.3E2,9.44E2,4.34E2,1.204E3,2.33E2,4.31E2,3.27E2,4.071E3,3.3E3,3.29E2,2.588E3,6.9E2,2.22E2,6.27E2,3.03E2,6.82E2,2.62E2,3.03E2,1.31E2],"tree_param":{"num_deleted":"0","num_feature":"2","num_nodes":"31","size_leaf_vector":"1"}},{"base_weights":[-1.4961472E-3,2.6975214E-1,-1.0528039E0,-1.3072022E0,6.0629815E-1,-1.6576495E0,-2.4367882E-1,-1.569341E0,-6.183918E-1,8.4552103E-1,1.7205484E-3,-2.108288E0,-1.2139432E0,7.626382E-1,-2.4292557E0,-1.6911973E-1,-1.2377339E-1,3.8125094E-2,-1.7871933E-1,4.377795E-2,1.3482408E-1,-7.4994974E-2,9.752953E-3,-2.0135975E-1,-2.3922466E-1,-9.3963884E-2,-1.7766054E-1,1.4279565E-1,-9.680652E-2,-2.2578423E-1,-2.8056225E-1],"categories":[],"categories_nodes":[],"categories_segments":[],"categories_sizes":[],"default_left":[0,0,0,0,0,0,0,0,0,0,0,0,0,0,0,0,0,0,0,0,0,0,0,0,0,0,0,0,0,0,0],"id":18,"left_children":[1,3,5,7,9,11,13,15,17,19,21,23,25,27,29,-1,-1,-1,-1,-1,-1,-1,-1,-1,-1,-1,-1,-1,-1,-1,-1],"loss_changes":[4.478522E3,6.626272E3,1.57594E3,3.955481E2,1.4880847E3,3.659502E2,3.034802E3,6.215625E1,7.098904E2,1.5105205E3,2.1021805E2,1.973169E1,1.4202185E2,1.08952E3,2.1729004E1,0E0,0E0,0E0,0E0,0E0,0E0,0E0,0E0,0E0,0E0,0E0,0E0,0E0,0E0,0E0,0E0],"parents":[2147483647,0,0,1,1,2,2,3,3,4,4,5,5,6,6,7,7,8,8,9,9,10,10,11,11,12,12,13,13,14,14],"right_children":[2,4,6,8,10,12,14,16,18,20,22,24,26,28,30,-1,-1,-1,-1,-1,-1,-1,-1,-1,-1,-1,-1,-1,-1,-1,-1],"split_conditions":[2.1E1,5E0,5E0,4E0,1.8E1,3E0,7E0,6E0,5E0,1.3E1,2E0,2.3E1,2.3E1,2.3E1,2.3E1,-1.6911973E-1,-1.2377339E-1,3.8125094E-2,-1.7871933E-1,4.377795E-2,1.3482408E-1,-7.4994974E-2,9.752953E-3,-2.0135975E-1,-2.3922466E-1,-9.3963884E-2,-1.7766054E-1,1.4279565E-1,-9.680652E-2,-2.2578423E-1,-2.8056225E-1],"split_indices":[1,1,0,1,1,0,0,0,0,1,0,1,1,1,1,0,0,0,0,0,0,0,0,0,0,0,0,0,0,0,0],"split_type":[0,0,0,0,0,0,0,0,0,0,0,0,0,0,0,0,0,0,0,0,0,0,0,0,0,0,0,0,0,0,0],"sum_hessian":[1.5703E4,1.2483E4,3.22E3,2.195E3,1.0288E4,1.842E3,1.378E3,1.589E3,6.06E2,7.371E3,2.917E3,9.12E2,9.3E2,9.44E2,4.34E2,1.159E3,4.3E2,3.27E2,2.79E2,4.071E3,3.3E3,3.29E2,2.588E3,6.9E2,2.22E2,6.27E2,3.03E2,6.82E2,2.62E2,3.03E2,1.31E2],"tree_param":{"num_deleted":"0","num_feature":"2","num_nodes":"31","size_leaf_vector":"1"}},{"base_weights":[-1.4416544E-3,2.427512E-1,-9.4788754E-1,-1.1766793E0,5.456792E-1,-1.4922712E0,-2.196447E-1,-1.412591E0,-5.567843E-1,7.206875E-1,-2.7620277E-1,-1.8979418E0,-1.0928408E0,6.864231E-1,-2.187494E0,-1.5222232E-1,-1.11424744E-1,6.235558E-3,-2.1884243E-1,9.548618E-2,1.1378887E-2,-1.9329049E-1,8.705036E-3,-1.8125294E-1,-2.154095E-1,-8.458247E-2,-1.5995292E-1,1.2853698E-1,-8.716267E-2,-2.0328008E-1,-2.5271854E-1],"categories":[],"categories_nodes":[],"categories_segments":[],"categories_sizes":[],"default_left":[0,0,0,0,0,0,0,0,0,0,0,0,0,0,0,0,0,0,0,0,0,0,0,0,0,0,0,0,0,0,0],"id":19,"left_children":[1,3,5,7,9,11,13,15,17,19,21,23,25,27,29,-1,-1,-1,-1,-1,-1,-1,-1,-1,-1,-1,-1,-1,-1,-1,-1],"loss_changes":[3.629665E3,5.368578E3,1.276617E3,3.2035767E2,1.4801294E3,2.9656006E2,2.4602654E3,5.030957E1,6.1333594E2,1.2054956E3,1.0876248E3,1.6071045E1,1.15171265E2,8.82984E2,1.7720947E1,0E0,0E0,0E0,0E0,0E0,0E0,0E0,0E0,0E0,0E0,0E0,0E0,0E0,0E0,0E0,0E0],"parents":[2147483647,0,0,1,1,2,2,3,3,4,4,5,5,6,6,7,7,8,8,9,9,10,10,11,11,12,12,13,13,14,14],"right_children":[2,4,6,8,10,12,14,16,18,20,22,24,26,28,30,-1,-1,-1,-1,-1,-1,-1,-1,-1,-1,-1,-1,-1,-1,-1,-1],"split_conditions":[2.1E1,5E0,5E0,4E0,7E0,3E0,7E0,6E0,6E0,1.8E1,1E1,2.3E1,2.3E1,2.3E1,2.3E1,-1.5222232E-1,-1.11424744E-1,6.235558E-3,-2.1884243E-1,9.548618E-2,1.1378887E-2,-1.9329049E-1,8.705036E-3,-1.8125294E-1,-2.154095E-1,-8.458247E-2,-1.5995292E-1,1.2853698E-1,-8.716267E-2,-2.0328008E-1,-2.5271854E-1],"split_indices":[1,1,0,1,0,0,0,0,0,1,1,1,1,1,1,0,0,0,0,0,0,0,0,0,0,0,0,0,0,0,0],"split_type":[0,0,0,0,0,0,0,0,0,0,0,0,0,0,0,0,0,0,0,0,0,0,0,0,0,0,0,0,0,0,0],"sum_hessian":[1.5703E4,1.2483E4,3.22E3,2.195E3,1.0288E4,1.842E3,1.378E3,1.589E3,6.06E2,8.482E3,1.806E3,9.12E2,9.3E2,9.44E2,4.34E2,1.159E3,4.3E2,4.4E2,1.66E2,6.12E3,2.362E3,3.24E2,1.482E3,6.9E2,2.22E2,6.27E2,3.03E2,6.82E2,2.62E2,3.03E2,1.31E2],"tree_param":{"num_deleted":"0","num_feature":"2","num_nodes":"31","size_leaf_vector":"1"}},{"base_weights":[-1.3998679E-3,2.1843188E-1,-8.5342664E-1,-1.0592281E0,4.9110395E-1,-1.5317116E0,-3.7310663E-1,-1.3126295E0,-5.7773864E-1,6.486316E-1,-2.4868469E-1,-1.7085823E0,-1.146334E-1,1.0516702E-1,-1.9697928E0,-1.4555624E-1,-1.1346429E-1,-1.5727326E-2,-1.6408823E-1,9.04974E-2,1.8438524E-2,-1.7402089E-1,7.835109E-3,-1.6315389E-1,-1.9396517E-1,6.2137883E-2,-1.15747705E-1,-1.8301891E-1,-2.2763816E-1],"categories":[],"categories_nodes":[],"categories_segments":[],"categories_sizes":[],"default_left":[0,0,0,0,0,0,0,0,0,0,0,0,0,0,0,0,0,0,0,0,0,0,0,0,0,0,0,0,0],"id":20,"left_children":[1,3,5,7,9,11,13,15,17,19,21,23,-1,25,27,-1,-1,-1,-1,-1,-1,-1,-1,-1,-1,-1,-1,-1,-1],"loss_changes":[2.9415854E3,4.3497227E3,1.0488105E3,2.6717603E2,1.1992119E3,8.903784E1,1.4412201E3,3.4931396E1,3.390265E2,1.0093611E3,8.81558E2,1.3088867E1,0E0,9.4777264E2,1.4452393E1,0E0,0E0,0E0,0E0,0E0,0E0,0E0,0E0,0E0,0E0,0E0,0E0,0E0,0E0],"parents":[2147483647,0,0,1,1,2,2,3,3,4,4,5,5,6,6,7,7,8,8,9,9,10,10,11,11,13,13,14,14],"right_children":[2,4,6,8,10,12,14,16,18,20,22,24,-1,26,28,-1,-1,-1,-1,-1,-1,-1,-1,-1,-1,-1,-1,-1,-1],"split_conditions":[2.1E1,5E0,4E0,3E0,7E0,3E0,7E0,5E0,6E0,1.7E1,1E1,2.3E1,-1.146334E-1,2.3E1,2.3E1,-1.4555624E-1,-1.1346429E-1,-1.5727326E-2,-1.6408823E-1,9.04974E-2,1.8438524E-2,-1.7402089E-1,7.835109E-3,-1.6315389E-1,-1.9396517E-1,6.2137883E-2,-1.15747705E-1,-1.8301891E-1,-2.2763816E-1],"split_indices":[1,1,0,1,0,0,0,0,0,1,1,1,0,1,1,0,0,0,0,0,0,0,0,0,0,0,0,0,0],"split_type":[0,0,0,0,0,0,0,0,0,0,0,0,0,0,0,0,0,0,0,0,0,0,0,0,0,0,0,0,0],"sum_hessian":[1.5703E4,1.2483E4,3.22E3,2.195E3,1.0288E4,1.334E3,1.886E3,1.437E3,7.58E2,8.482E3,1.806E3,9.12E2,4.22E2,1.452E3,4.34E2,7.93E2,6.44E2,5.44E2,2.14E2,5.464E3,3.018E3,3.24E2,1.482E3,6.9E2,2.22E2,1.031E3,4.21E2,3.03E2,1.31E2],"tree_param":{"num_deleted":"0","num_feature":"2","num_nodes":"29","size_leaf_vector":"1"}},{"base_weights":[-1.3512516E-3,1.9654872E-1,-7.6837444E-1,-9.535051E-1,4.419877E-1,-1.2344774E0,-1.44882E-1,-1.1815466E0,-5.2020186E-1,5.8378094E-1,-2.2390844E-1,-1.5381153E0,-9.353841E-1,6.0507125E-1,-1.7737577E0,-1.2467431E-1,-8.407631E-2,1.5864822E-3,-1.2246549E-1,8.144926E-2,1.6595295E-2,-2.6337773E-1,-5.8560516E-3,-1.468621E-1,-1.7465565E-1,-7.451635E-2,-1.3252631E-1,1.0949744E-1,-6.694874E-2,-1.6477725E-1,-2.050468E-1],"categories":[],"categories_nodes":[],"categories_segments":[],"categories_sizes":[],"default_left":[0,0,0,0,0,0,0,0,0,0,0,0,0,0,0,0,0,0,0,0,0,0,0,0,0,0,0,0,0,0,0],"id":21,"left_children":[1,3,5,7,9,11,13,15,17,19,21,23,25,27,29,-1,-1,-1,-1,-1,-1,-1,-1,-1,-1,-1,-1,-1,-1,-1,-1],"loss_changes":[2.3839219E3,3.5242554E3,9.358815E2,2.1637463E2,9.716139E2,1.6593506E2,1.6856329E3,3.0901123E1,2.8664346E2,8.1760693E2,7.1987524E2,1.0660156E1,6.805829E1,5.908008E2,1.1786011E1,0E0,0E0,0E0,0E0,0E0,0E0,0E0,0E0,0E0,0E0,0E0,0E0,0E0,0E0,0E0,0E0],"parents":[2147483647,0,0,1,1,2,2,3,3,4,4,5,5,6,6,7,7,8,8,9,9,10,10,11,11,12,12,13,13,14,14],"right_children":[2,4,6,8,10,12,14,16,18,20,22,24,26,28,30,-1,-1,-1,-1,-1,-1,-1,-1,-1,-1,-1,-1,-1,-1,-1,-1],"split_conditions":[2.1E1,5E0,5E0,3E0,7E0,3E0,7E0,7E0,5E0,1.7E1,7E0,2.3E1,2.3E1,2.3E1,2.3E1,-1.2467431E-1,-8.407631E-2,1.5864822E-3,-1.2246549E-1,8.144926E-2,1.6595295E-2,-2.6337773E-1,-5.8560516E-3,-1.468621E-1,-1.7465565E-1,-7.451635E-2,-1.3252631E-1,1.0949744E-1,-6.694874E-2,-1.6477725E-1,-2.050468E-1],"split_indices":[1,1,0,1,0,0,0,0,0,1,1,1,1,1,1,0,0,0,0,0,0,0,0,0,0,0,0,0,0,0,0],"split_type":[0,0,0,0,0,0,0,0,0,0,0,0,0,0,0,0,0,0,0,0,0,0,0,0,0,0,0,0,0,0,0],"sum_hessian":[1.5703E4,1.2483E4,3.22E3,2.195E3,1.0288E4,1.842E3,1.378E3,1.437E3,7.58E2,8.482E3,1.806E3,9.12E2,9.3E2,9.44E2,4.34E2,1.204E3,2.33E2,4.31E2,3.27E2,5.464E3,3.018E3,1.15E2,1.691E3,6.9E2,2.22E2,6.27E2,3.03E2,6.82E2,2.62E2,3.03E2,1.31E2],"tree_param":{"num_deleted":"0","num_feature":"2","num_nodes":"31","size_leaf_vector":"1"}},{"base_weights":[-1.3025586E-3,1.7685366E-1,-6.918027E-1,-8.5830474E-1,3.977722E-1,-1.1113164E0,-1.3063094E-1,-1.0366422E0,-3.897465E-1,6.0045844E-1,1.28417825E-2,-1.384656E0,-8.420681E-1,5.446095E-1,-1.5972322E0,-1.1303426E-1,-7.8205034E-2,3.5112303E-2,-1.2562303E-1,8.148758E-2,4.409348E-3,-2.8733602E-1,2.1737877E-2,-1.3219716E-1,-1.572684E-1,-4.9143516E-2,-1.01546705E-1,9.856377E-2,-6.02793E-2,-1.4835374E-1,-1.8469746E-1],"categories":[],"categories_nodes":[],"categories_segments":[],"categories_sizes":[],"default_left":[0,0,0,0,0,0,0,0,0,0,0,0,0,0,0,0,0,0,0,0,0,0,0,0,0,0,0,0,0,0,0],"id":22,"left_children":[1,3,5,7,9,11,13,15,17,19,21,23,25,27,29,-1,-1,-1,-1,-1,-1,-1,-1,-1,-1,-1,-1,-1,-1,-1,-1],"loss_changes":[1.9319794E3,2.8552534E3,7.581404E2,1.8309705E2,8.027412E2,1.3447217E2,1.3665052E3,3.704602E1,3.9010562E2,8.0400757E2,2.096314E3,8.681885E0,5.6105103E1,4.7879895E2,9.611572E0,0E0,0E0,0E0,0E0,0E0,0E0,0E0,0E0,0E0,0E0,0E0,0E0,0E0,0E0,0E0,0E0],"parents":[2147483647,0,0,1,1,2,2,3,3,4,4,5,5,6,6,7,7,8,8,9,9,10,10,11,11,12,12,13,13,14,14],"right_children":[2,4,6,8,10,12,14,16,18,20,22,24,26,28,30,-1,-1,-1,-1,-1,-1,-1,-1,-1,-1,-1,-1,-1,-1,-1,-1],"split_conditions":[2.1E1,5E0,5E0,4E0,6E0,3E0,7E0,6E0,5E0,1.8E1,7E0,2.3E1,2.2E1,2.3E1,2.3E1,-1.1303426E-1,-7.8205034E-2,3.5112303E-2,-1.2562303E-1,8.148758E-2,4.409348E-3,-2.8733602E-1,2.1737877E-2,-1.3219716E-1,-1.572684E-1,-4.9143516E-2,-1.01546705E-1,9.856377E-2,-6.02793E-2,-1.4835374E-1,-1.8469746E-1],"split_indices":[1,1,0,1,0,0,0,0,0,1,1,1,1,1,1,0,0,0,0,0,0,0,0,0,0,0,0,0,0,0,0],"split_type":[0,0,0,0,0,0,0,0,0,0,0,0,0,0,0,0,0,0,0,0,0,0,0,0,0,0,0,0,0,0,0],"sum_hessian":[1.5703E4,1.2483E4,3.22E3,2.195E3,1.0288E4,1.842E3,1.378E3,1.589E3,6.06E2,6.739E3,3.549E3,9.12E2,9.3E2,9.44E2,4.34E2,1.159E3,4.3E2,3.27E2,2.79E2,4.864E3,1.875E3,2.34E2,3.315E3,6.9E2,2.22E2,3.09E2,6.21E2,6.82E2,2.62E2,3.03E2,1.31E2],"tree_param":{"num_deleted":"0","num_feature":"2","num_nodes":"31","size_leaf_vector":"1"}},{"base_weights":[-1.248601E-3,1.5913118E-1,-6.2285054E-1,-7.726026E-1,3.5797736E-1,-1.0004236E0,-1.1778181E-1,-9.3309826E-1,-3.50921E-1,4.775853E-1,-2.0372273E-1,-1.2465073E0,-7.58023E-1,4.9018878E-1,-1.4382747E0,-1.0568269E-1,-7.714222E-2,1.0818282E-2,-1.5611838E-1,6.389403E-2,5.941684E-3,-1.3820684E-1,5.464953E-3,-1.1899655E-1,-1.416121E-1,-5.9516508E-2,-1.09195985E-1,8.872178E-2,-5.4274287E-2,-1.335672E-1,-1.6636764E-1],"categories":[],"categories_nodes":[],"categories_segments":[],"categories_sizes":[],"default_left":[0,0,0,0,0,0,0,0,0,0,0,0,0,0,0,0,0,0,0,0,0,0,0,0,0,0,0,0,0,0,0],"id":23,"left_children":[1,3,5,7,9,11,13,15,17,19,21,23,25,27,29,-1,-1,-1,-1,-1,-1,-1,-1,-1,-1,-1,-1,-1,-1,-1,-1],"loss_changes":[1.5656683E3,2.3132085E3,6.141278E2,1.4829358E2,6.913513E2,1.0899158E2,1.107795E3,3.099121E1,3.3744006E2,5.723408E2,5.5022003E2,7.0706787E0,4.998181E1,3.8802963E2,7.8380737E0,0E0,0E0,0E0,0E0,0E0,0E0,0E0,0E0,0E0,0E0,0E0,0E0,0E0,0E0,0E0,0E0],"parents":[2147483647,0,0,1,1,2,2,3,3,4,4,5,5,6,6,7,7,8,8,9,9,10,10,11,11,12,12,13,13,14,14],"right_children":[2,4,6,8,10,12,14,16,18,20,22,24,26,28,30,-1,-1,-1,-1,-1,-1,-1,-1,-1,-1,-1,-1,-1,-1,-1,-1],"split_conditions":[2.1E1,5E0,5E0,4E0,7E0,3E0,7E0,5E0,6E0,1.8E1,1E1,2.3E1,2.3E1,2.3E1,2.3E1,-1.0568269E-1,-7.714222E-2,1.0818282E-2,-1.5611838E-1,6.389403E-2,5.941684E-3,-1.3820684E-1,5.464953E-3,-1.1899655E-1,-1.416121E-1,-5.9516508E-2,-1.09195985E-1,8.872178E-2,-5.4274287E-2,-1.335672E-1,-1.6636764E-1],"split_indices":[1,1,0,1,0,0,0,0,0,1,1,1,1,1,1,0,0,0,0,0,0,0,0,0,0,0,0,0,0,0,0],"split_type":[0,0,0,0,0,0,0,0,0,0,0,0,0,0,0,0,0,0,0,0,0,0,0,0,0,0,0,0,0,0,0],"sum_hessian":[1.5703E4,1.2483E4,3.22E3,2.195E3,1.0288E4,1.842E3,1.378E3,1.589E3,6.06E2,8.482E3,1.806E3,9.12E2,9.3E2,9.44E2,4.34E2,8.97E2,6.92E2,4.4E2,1.66E2,6.12E3,2.362E3,3.24E2,1.482E3,6.9E2,2.22E2,6.27E2,3.03E2,6.82E2,2.62E2,3.03E2,1.31E2],"tree_param":{"num_deleted":"0","num_feature":"2","num_nodes":"31","size_leaf_vector":"1"}},{"base_weights":[-1.192928E-3,1.728038E-1,-4.6580744E-1,-3.8252053E-1,5.34197E-1,-3.2214996E-1,-1.3461304E0,-3.0406723E-2,-8.80483E-1,8.035955E-1,9.559539E-2,-5.942698E-1,7.24145E-1,-1.3003563E0,-1.4985691E-1,-9.512621E-2,4.4403877E-2,-1.2041211E-1,3.5544798E-2,4.339447E-2,1.2330514E-1,-1.1216109E-1,2.8746251E-2,-4.70509E-2,-1.0518855E-1,1.2883905E-1,5.9490697E-3,-1.4017975E-1,-1.1341596E-1],"categories":[],"categories_nodes":[],"categories_segments":[],"categories_sizes":[],"default_left":[0,0,0,0,0,0,0,0,0,0,0,0,0,0,0,0,0,0,0,0,0,0,0,0,0,0,0,0,0],"id":24,"left_children":[1,3,5,7,9,11,13,15,17,19,21,23,25,27,-1,-1,-1,-1,-1,-1,-1,-1,-1,-1,-1,-1,-1,-1,-1],"loss_changes":[1.269614E3,2.293293E3,5.4070996E2,7.8987744E2,8.1781714E2,1.048191E3,2.237915E0,1.1538269E3,7.468176E2,6.8017944E2,6.1570526E2,1.6493567E2,2.8494473E2,6.3170776E0,0E0,0E0,0E0,0E0,0E0,0E0,0E0,0E0,0E0,0E0,0E0,0E0,0E0,0E0,0E0],"parents":[2147483647,0,0,1,1,2,2,3,3,4,4,5,5,6,6,7,7,8,8,9,9,10,10,11,11,12,12,13,13],"right_children":[2,4,6,8,10,12,14,16,18,20,22,24,26,28,-1,-1,-1,-1,-1,-1,-1,-1,-1,-1,-1,-1,-1,-1,-1],"split_conditions":[2E1,1E1,7E0,5E0,1.7E1,6E0,2.3E1,4E0,8E0,1.4E1,2E0,2.3E1,2.2E1,2.2E1,-1.4985691E-1,-9.512621E-2,4.4403877E-2,-1.2041211E-1,3.5544798E-2,4.339447E-2,1.2330514E-1,-1.1216109E-1,2.8746251E-2,-4.70509E-2,-1.0518855E-1,1.2883905E-1,5.9490697E-3,-1.4017975E-1,-1.1341596E-1],"split_indices":[1,1,0,0,1,0,1,1,1,1,0,1,1,1,0,0,0,0,0,0,0,0,0,0,0,0,0,0,0],"split_type":[0,0,0,0,0,0,0,0,0,0,0,0,0,0,0,0,0,0,0,0,0,0,0,0,0,0,0,0,0],"sum_hessian":[1.5703E4,1.1425E4,4.278E3,4.504E3,6.921E3,3.679E3,5.99E2,2.639E3,1.865E3,4.287E3,2.634E3,2.92E3,7.59E2,4.68E2,1.31E2,8.97E2,1.742E3,1.478E3,3.87E2,2.305E3,1.982E3,3.58E2,2.276E3,2.3E3,6.2E2,4.1E2,3.49E2,2.86E2,1.82E2],"tree_param":{"num_deleted":"0","num_feature":"2","num_nodes":"29","size_leaf_vector":"1"}},{"base_weights":[-1.1036083E-3,1.2983783E-1,-5.0860804E-1,-3.4429833E-1,3.9748865E-1,-8.370276E-1,-6.9314435E-2,-2.7384847E-2,-7.924802E-1,7.2327536E-1,1.9104935E-2,-1.0610063E0,-6.164803E-1,4.3446058E-1,-1.1635629E0,-8.562419E-2,3.9966103E-2,-1.0837903E-1,3.1999465E-2,3.9056942E-2,1.1098093E-1,3.4774493E-2,-3.6848824E-2,-1.17410265E-1,-9.958925E-2,-3.3622634E-2,-7.551656E-2,7.761162E-2,-4.5445677E-2,-1.0788488E-1,-1.3498472E-1],"categories":[],"categories_nodes":[],"categories_segments":[],"categories_sizes":[],"default_left":[0,0,0,0,0,0,0,0,0,0,0,0,0,0,0,0,0,0,0,0,0,0,0,0,0,0,0,0,0,0,0],"id":25,"left_children":[1,3,5,7,9,11,13,15,17,19,21,23,25,27,29,-1,-1,-1,-1,-1,-1,-1,-1,-1,-1,-1,-1,-1,-1,-1,-1],"loss_changes":[1.0436495E3,1.584393E3,4.646441E2,6.398454E2,9.836998E2,9.038623E1,7.606862E2,9.347966E2,6.0507104E2,5.510127E2,4.7053735E2,5.554199E0,3.5931366E1,2.8735266E2,5.408386E0,0E0,0E0,0E0,0E0,0E0,0E0,0E0,0E0,0E0,0E0,0E0,0E0,0E0,0E0,0E0,0E0],"parents":[2147483647,0,0,1,1,2,2,3,3,4,4,5,5,6,6,7,7,8,8,9,9,10,10,11,11,12,12,13,13,14,14],"right_children":[2,4,6,8,10,12,14,16,18,20,22,24,26,28,30,-1,-1,-1,-1,-1,-1,-1,-1,-1,-1,-1,-1,-1,-1,-1,-1],"split_conditions":[2.1E1,1E1,5E0,5E0,1.7E1,3E0,7E0,4E0,8E0,1.4E1,5E0,2.2E1,2.2E1,2.3E1,2.3E1,-8.562419E-2,3.9966103E-2,-1.0837903E-1,3.1999465E-2,3.9056942E-2,1.1098093E-1,3.4774493E-2,-3.6848824E-2,-1.17410265E-1,-9.958925E-2,-3.3622634E-2,-7.551656E-2,7.761162E-2,-4.5445677E-2,-1.0788488E-1,-1.3498472E-1],"split_indices":[1,1,0,0,1,0,0,1,1,1,0,1,1,1,1,0,0,0,0,0,0,0,0,0,0,0,0,0,0,0,0],"split_type":[0,0,0,0,0,0,0,0,0,0,0,0,0,0,0,0,0,0,0,0,0,0,0,0,0,0,0,0,0,0,0],"sum_hessian":[1.5703E4,1.2483E4,3.22E3,4.504E3,7.979E3,1.842E3,1.378E3,2.639E3,1.865E3,4.287E3,3.692E3,9.12E2,9.3E2,9.44E2,4.34E2,8.97E2,1.742E3,1.478E3,3.87E2,2.305E3,1.982E3,1.998E3,1.694E3,3.27E2,5.85E2,3.09E2,6.21E2,6.82E2,2.62E2,3.03E2,1.31E2],"tree_param":{"num_deleted":"0","num_feature":"2","num_nodes":"31","size_leaf_vector":"1"}},{"base_weights":[-1.0258348E-3,1.4157152E-1,-3.817962E-1,-3.0989566E-1,4.3537652E-1,-2.6164243E-1,-1.118103E0,-2.4663871E-2,-7.13273E-1,6.509829E-1,8.434975E-2,-4.9375454E-1,6.308063E-1,-1.2956865E-1,-1.0477651E0,-7.70713E-2,3.5971757E-2,-9.754845E-2,2.8807754E-2,3.5152957E-2,9.988843E-2,-1.0444402E-1,2.6228178E-2,-3.9268173E-2,-8.6746596E-2,1.1367476E-1,3.4884363E-3,-9.71319E-2,-1.2158854E-1],"categories":[],"categories_nodes":[],"categories_segments":[],"categories_sizes":[],"default_left":[0,0,0,0,0,0,0,0,0,0,0,0,0,0,0,0,0,0,0,0,0,0,0,0,0,0,0,0,0],"id":26,"left_children":[1,3,5,7,9,11,13,15,17,19,21,23,25,-1,27,-1,-1,-1,-1,-1,-1,-1,-1,-1,-1,-1,-1,-1,-1],"loss_changes":[8.5273175E2,1.5157175E3,3.782707E2,5.1830994E2,5.238269E2,7.6261664E2,6.136963E0,7.5734326E2,4.9022827E2,4.4637366E2,5.2950806E2,1.0999164E2,2.291015E2,0E0,4.4096375E0,0E0,0E0,0E0,0E0,0E0,0E0,0E0,0E0,0E0,0E0,0E0,0E0,0E0,0E0],"parents":[2147483647,0,0,1,1,2,2,3,3,4,4,5,5,6,6,7,7,8,8,9,9,10,10,11,11,12,12,14,14],"right_children":[2,4,6,8,10,12,14,16,18,20,22,24,26,-1,28,-1,-1,-1,-1,-1,-1,-1,-1,-1,-1,-1,-1,-1,-1],"split_conditions":[2E1,1E1,7E0,5E0,1.7E1,6E0,2.1E1,4E0,8E0,1.4E1,2E0,2.3E1,2.2E1,-1.2956865E-1,2.3E1,-7.70713E-2,3.5971757E-2,-9.754845E-2,2.8807754E-2,3.5152957E-2,9.988843E-2,-1.0444402E-1,2.6228178E-2,-3.9268173E-2,-8.6746596E-2,1.1367476E-1,3.4884363E-3,-9.71319E-2,-1.2158854E-1],"split_indices":[1,1,0,0,1,0,1,1,1,1,0,1,1,0,1,0,0,0,0,0,0,0,0,0,0,0,0,0,0],"split_type":[0,0,0,0,0,0,0,0,0,0,0,0,0,0,0,0,0,0,0,0,0,0,0,0,0,0,0,0,0],"sum_hessian":[1.5703E4,1.1425E4,4.278E3,4.504E3,6.921E3,3.679E3,5.99E2,2.639E3,1.865E3,4.287E3,2.634E3,2.92E3,7.59E2,1.65E2,4.34E2,8.97E2,1.742E3,1.478E3,3.87E2,2.305E3,1.982E3,3.58E2,2.276E3,2.3E3,6.2E2,4.1E2,3.49E2,3.03E2,1.31E2],"tree_param":{"num_deleted":"0","num_feature":"2","num_nodes":"29","size_leaf_vector":"1"}},{"base_weights":[-9.492793E-4,1.0602701E-1,-4.1556928E-1,-2.7893087E-1,3.2333642E-1,-7.007299E-1,-3.415763E-2,-2.2213573E-2,-6.419827E-1,5.3930134E-1,-5.1493526E-2,-9.043733E-1,-5.0027114E-1,3.8446075E-1,-9.4349146E-1,-6.9372766E-2,3.237657E-2,-8.7800205E-2,2.5934357E-2,7.174099E-2,2.4366666E-2,1.874225E-2,-3.234525E-2,-1.0179012E-1,-8.392854E-2,-2.6357025E-2,-6.1743677E-2,6.7829065E-2,-3.8006507E-2,-8.7450676E-2,-1.09521784E-1],"categories":[],"categories_nodes":[],"categories_segments":[],"categories_sizes":[],"default_left":[0,0,0,0,0,0,0,0,0,0,0,0,0,0,0,0,0,0,0,0,0,0,0,0,0,0,0,0,0,0,0],"id":27,"left_children":[1,3,5,7,9,11,13,15,17,19,21,23,25,27,29,-1,-1,-1,-1,-1,-1,-1,-1,-1,-1,-1,-1,-1,-1,-1,-1],"loss_changes":[6.9658716E2,1.0444388E3,3.5030365E2,4.1985928E2,6.4600964E2,7.4782715E1,5.252982E2,6.135757E2,3.9718274E2,2.6641797E2,1.896587E2,5.89209E0,2.565686E1,2.125431E2,3.5952759E0,0E0,0E0,0E0,0E0,0E0,0E0,0E0,0E0,0E0,0E0,0E0,0E0,0E0,0E0,0E0,0E0],"parents":[2147483647,0,0,1,1,2,2,3,3,4,4,5,5,6,6,7,7,8,8,9,9,10,10,11,11,12,12,13,13,14,14],"right_children":[2,4,6,8,10,12,14,16,18,20,22,24,26,28,30,-1,-1,-1,-1,-1,-1,-1,-1,-1,-1,-1,-1,-1,-1,-1,-1],"split_conditions":[2.1E1,1E1,5E0,5E0,1.8E1,3E0,7E0,4E0,8E0,6E0,5E0,2.2E1,2.2E1,2.3E1,2.3E1,-6.9372766E-2,3.237657E-2,-8.7800205E-2,2.5934357E-2,7.174099E-2,2.4366666E-2,1.874225E-2,-3.234525E-2,-1.0179012E-1,-8.392854E-2,-2.6357025E-2,-6.1743677E-2,6.7829065E-2,-3.8006507E-2,-8.7450676E-2,-1.09521784E-1],"split_indices":[1,1,0,0,1,0,0,1,1,0,0,1,1,1,1,0,0,0,0,0,0,0,0,0,0,0,0,0,0,0,0],"split_type":[0,0,0,0,0,0,0,0,0,0,0,0,0,0,0,0,0,0,0,0,0,0,0,0,0,0,0,0,0,0,0],"sum_hessian":[1.5703E4,1.2483E4,3.22E3,4.504E3,7.979E3,1.842E3,1.378E3,2.639E3,1.865E3,5.062E3,2.917E3,9.12E2,9.3E2,9.44E2,4.34E2,8.97E2,1.742E3,1.478E3,3.87E2,3.158E3,1.904E3,1.553E3,1.364E3,3.27E2,5.85E2,3.09E2,6.21E2,6.82E2,2.62E2,3.03E2,1.31E2],"tree_param":{"num_deleted":"0","num_feature":"2","num_nodes":"31","size_leaf_vector":"1"}},{"base_weights":[-8.8359235E-4,1.1543097E-1,-3.1147236E-1,-2.5105995E-1,3.5393518E-1,-2.1055658E-1,-9.299034E-1,-2.0006608E-2,-5.7781756E-1,5.3234446E-1,6.347106E-2,-4.081352E-1,5.4909825E-1,-1.134748E-1,-8.4959507E-1,-6.2443227E-2,2.9140716E-2,-7.9026125E-2,2.3347618E-2,2.6130259E-2,8.472665E-2,-9.806789E-2,2.280676E-2,-3.2516327E-2,-7.149152E-2,1.00321285E-1,1.4269132E-3,-7.873436E-2,-9.8652564E-2],"categories":[],"categories_nodes":[],"categories_segments":[],"categories_sizes":[],"default_left":[0,0,0,0,0,0,0,0,0,0,0,0,0,0,0,0,0,0,0,0,0,0,0,0,0,0,0,0,0],"id":28,"left_children":[1,3,5,7,9,11,13,15,17,19,21,23,25,-1,27,-1,-1,-1,-1,-1,-1,-1,-1,-1,-1,-1,-1,-1,-1],"loss_changes":[5.6735864E2,9.988313E2,2.6685428E2,3.4010895E2,3.5867456E2,5.52561E2,8.906311E0,4.9709988E2,3.2179742E2,3.6578955E2,4.5308386E2,7.411911E1,1.8456967E2,0E0,2.9312744E0,0E0,0E0,0E0,0E0,0E0,0E0,0E0,0E0,0E0,0E0,0E0,0E0,0E0,0E0],"parents":[2147483647,0,0,1,1,2,2,3,3,4,4,5,5,6,6,7,7,8,8,9,9,10,10,11,11,12,12,14,14],"right_children":[2,4,6,8,10,12,14,16,18,20,22,24,26,-1,28,-1,-1,-1,-1,-1,-1,-1,-1,-1,-1,-1,-1,-1,-1],"split_conditions":[2E1,1E1,7E0,5E0,1.7E1,6E0,2.1E1,4E0,8E0,1.4E1,2E0,2.3E1,2.2E1,-1.134748E-1,2.3E1,-6.2443227E-2,2.9140716E-2,-7.9026125E-2,2.3347618E-2,2.6130259E-2,8.472665E-2,-9.806789E-2,2.280676E-2,-3.2516327E-2,-7.149152E-2,1.00321285E-1,1.4269132E-3,-7.873436E-2,-9.8652564E-2],"split_indices":[1,1,0,0,1,0,1,1,1,1,0,1,1,0,1,0,0,0,0,0,0,0,0,0,0,0,0,0,0],"split_type":[0,0,0,0,0,0,0,0,0,0,0,0,0,0,0,0,0,0,0,0,0,0,0,0,0,0,0,0,0],"sum_hessian":[1.5703E4,1.1425E4,4.278E3,4.504E3,6.921E3,3.679E3,5.99E2,2.639E3,1.865E3,4.287E3,2.634E3,2.92E3,7.59E2,1.65E2,4.34E2,8.97E2,1.742E3,1.478E3,3.87E2,2.305E3,1.982E3,3.58E2,2.276E3,2.3E3,6.2E2,4.1E2,3.49E2,3.03E2,1.31E2],"tree_param":{"num_deleted":"0","num_feature":"2","num_nodes":"29","size_leaf_vector":"1"}},{"base_weights":[-8.1726274E-4,8.660455E-2,-3.3964777E-1,-2.2597362E-1,2.6305544E-1,-6.865275E-1,-9.406002E-2,-1.8018397E-2,-5.200657E-1,4.403448E-1,-4.464818E-2,-7.7218145E-1,-5.000297E-1,1.0688412E-1,-7.650434E-1,-5.6205858E-2,2.6228342E-2,-7.112885E-2,2.1018852E-2,6.0444076E-2,1.6799867E-2,1.8303147E-2,-3.0381998E-2,-8.8400386E-2,-7.082737E-2,-6.430559E-2,-2.2137916E-2,3.7219938E-2,-5.42197E-2,-7.088683E-2,-8.886207E-2],"categories":[],"categories_nodes":[],"categories_segments":[],"categories_sizes":[],"default_left":[0,0,0,0,0,0,0,0,0,0,0,0,0,0,0,0,0,0,0,0,0,0,0,0,0,0,0,0,0,0,0],"id":29,"left_children":[1,3,5,7,9,11,13,15,17,19,21,23,25,27,29,-1,-1,-1,-1,-1,-1,-1,-1,-1,-1,-1,-1,-1,-1,-1,-1],"loss_changes":[4.6520038E2,6.8861066E2,2.743305E2,2.7550735E2,4.3534924E2,2.0939514E1,2.5450632E2,4.0273538E2,2.607201E2,2.2616846E2,1.7224138E2,5.8984375E0,1.6716026E1,2.5042455E2,2.3898468E0,0E0,0E0,0E0,0E0,0E0,0E0,0E0,0E0,0E0,0E0,0E0,0E0,0E0,0E0,0E0,0E0],"parents":[2147483647,0,0,1,1,2,2,3,3,4,4,5,5,6,6,7,7,8,8,9,9,10,10,11,11,12,12,13,13,14,14],"right_children":[2,4,6,8,10,12,14,16,18,20,22,24,26,28,30,-1,-1,-1,-1,-1,-1,-1,-1,-1,-1,-1,-1,-1,-1,-1,-1],"split_conditions":[2.1E1,1E1,4E0,5E0,1.8E1,3E0,7E0,4E0,8E0,6E0,5E0,2.2E1,2.3E1,2.3E1,2.3E1,-5.6205858E-2,2.6228342E-2,-7.112885E-2,2.1018852E-2,6.0444076E-2,1.6799867E-2,1.8303147E-2,-3.0381998E-2,-8.8400386E-2,-7.082737E-2,-6.430559E-2,-2.2137916E-2,3.7219938E-2,-5.42197E-2,-7.088683E-2,-8.886207E-2],"split_indices":[1,1,0,0,1,0,0,1,1,0,0,1,1,1,1,0,0,0,0,0,0,0,0,0,0,0,0,0,0,0,0],"split_type":[0,0,0,0,0,0,0,0,0,0,0,0,0,0,0,0,0,0,0,0,0,0,0,0,0,0,0,0,0,0,0],"sum_hessian":[1.5703E4,1.2483E4,3.22E3,4.504E3,7.979E3,1.334E3,1.886E3,2.639E3,1.865E3,5.062E3,2.917E3,9.12E2,4.22E2,1.452E3,4.34E2,8.97E2,1.742E3,1.478E3,3.87E2,3.158E3,1.904E3,1.553E3,1.364E3,3.27E2,5.85E2,2.78E2,1.44E2,1.031E3,4.21E2,3.03E2,1.31E2],"tree_param":{"num_deleted":"0","num_feature":"2","num_nodes":"31","size_leaf_vector":"1"}},{"base_weights":[-7.63283E-4,6.138803E-2,-3.9260527E-1,-2.0339394E-1,1.9317251E-1,-5.5827594E-1,-1.8036257E-1,-1.6227704E-2,-4.6808603E-1,4.3542874E-1,-2.4918988E-2,-6.375671E-1,-4.826765E-1,6.631419E-2,-6.754985E-1,-5.059154E-2,2.3607051E-2,-6.4020775E-2,1.892237E-2,1.9007692E-2,7.20525E-2,-7.167398E-2,8.223041E-3,-5.6099623E-2,-7.596937E-2,-3.6996096E-2,-5.7210326E-2,3.010425E-2,-2.6327161E-2,-5.8169127E-2,-8.00432E-2],"categories":[],"categories_nodes":[],"categories_segments":[],"categories_sizes":[],"default_left":[0,0,0,0,0,0,0,0,0,0,0,0,0,0,0,0,0,0,0,0,0,0,0,0,0,0,0,0,0,0,0],"id":30,"left_children":[1,3,5,7,9,11,13,15,17,19,21,23,25,27,29,-1,-1,-1,-1,-1,-1,-1,-1,-1,-1,-1,-1,-1,-1,-1,-1],"loss_changes":[3.8247137E2,4.7302957E2,7.549844E1,2.231765E2,4.7821164E2,6.92749E0,1.1534357E2,3.2628433E2,2.1123538E2,2.9980383E2,3.5320563E2,5.0536804E0,6.057968E0,4.8895382E1,3.2143555E0,0E0,0E0,0E0,0E0,0E0,0E0,0E0,0E0,0E0,0E0,0E0,0E0,0E0,0E0,0E0,0E0],"parents":[2147483647,0,0,1,1,2,2,3,3,4,4,5,5,6,6,7,7,8,8,9,9,10,10,11,11,12,12,13,13,14,14],"right_children":[2,4,6,8,10,12,14,16,18,20,22,24,26,28,30,-1,-1,-1,-1,-1,-1,-1,-1,-1,-1,-1,-1,-1,-1,-1,-1],"split_conditions":[2.2E1,1E1,5E0,5E0,1.7E1,3E0,7E0,4E0,8E0,1.4E1,2E0,2.3E1,4E0,2.3E1,2.3E1,-5.059154E-2,2.3607051E-2,-6.4020775E-2,1.892237E-2,1.9007692E-2,7.20525E-2,-7.167398E-2,8.223041E-3,-5.6099623E-2,-7.596937E-2,-3.6996096E-2,-5.7210326E-2,3.010425E-2,-2.6327161E-2,-5.8169127E-2,-8.00432E-2],"split_indices":[1,1,0,0,1,0,0,1,1,1,0,1,0,1,1,0,0,0,0,0,0,0,0,0,0,0,0,0,0,0,0],"split_type":[0,0,0,0,0,0,0,0,0,0,0,0,0,0,0,0,0,0,0,0,0,0,0,0,0,0,0,0,0,0,0],"sum_hessian":[1.5703E4,1.3554E4,2.149E3,4.504E3,9.05E3,1.206E3,9.43E2,2.639E3,1.865E3,4.287E3,4.763E3,5.85E2,6.21E2,6.3E2,3.13E2,8.97E2,1.742E3,1.478E3,3.87E2,2.305E3,1.982E3,6.38E2,4.125E3,3.63E2,2.22E2,2.77E2,3.44E2,3.68E2,2.62E2,1.82E2,1.31E2],"tree_param":{"num_deleted":"0","num_feature":"2","num_nodes":"31","size_leaf_vector":"1"}},{"base_weights":[-7.127323E-4,8.637393E-2,-2.3325573E-1,-1.6964042E-1,2.7842048E-1,-1.5014023E-1,-7.426421E-1,-2.5580782E-2,-5.56091E-1,4.3303257E-1,4.9770564E-2,-3.1631306E-1,4.8872954E-1,-9.999307E-2,-6.4275116E-1,-3.9246686E-2,1.510223E-2,-2.0571928E-5,-8.2168035E-2,2.094448E-2,6.4850934E-2,3.1809386E-2,-4.312175E-2,-1.0685928E-2,-3.8203143E-2,8.898782E-2,1.6270021E-3,-7.259241E-2,-6.083886E-2],"categories":[],"categories_nodes":[],"categories_segments":[],"categories_sizes":[],"default_left":[0,0,0,0,0,0,0,0,0,0,0,0,0,0,0,0,0,0,0,0,0,0,0,0,0,0,0,0,0],"id":31,"left_children":[1,3,5,7,9,11,13,15,17,19,21,23,25,-1,27,-1,-1,-1,-1,-1,-1,-1,-1,-1,-1,-1,-1,-1,-1],"loss_changes":[3.1804807E2,5.618257E2,1.8105238E2,2.7266687E2,2.3079193E2,3.9083374E2,1.47777405E1,2.3130624E2,1.9635733E2,1.875174E2,3.4021103E2,4.0166595E1,1.4402567E2,0E0,8.016052E-1,0E0,0E0,0E0,0E0,0E0,0E0,0E0,0E0,0E0,0E0,0E0,0E0,0E0,0E0],"parents":[2147483647,0,0,1,1,2,2,3,3,4,4,5,5,6,6,7,7,8,8,9,9,10,10,11,11,12,12,14,14],"right_children":[2,4,6,8,10,12,14,16,18,20,22,24,26,-1,28,-1,-1,-1,-1,-1,-1,-1,-1,-1,-1,-1,-1,-1,-1],"split_conditions":[2E1,1.1E1,7E0,6E0,1.7E1,6E0,2.1E1,4E0,4E0,1.4E1,6E0,2.1E1,2.2E1,-9.999307E-2,2.2E1,-3.9246686E-2,1.510223E-2,-2.0571928E-5,-8.2168035E-2,2.094448E-2,6.4850934E-2,3.1809386E-2,-4.312175E-2,-1.0685928E-2,-3.8203143E-2,8.898782E-2,1.6270021E-3,-7.259241E-2,-6.083886E-2],"split_indices":[1,1,0,0,1,0,1,1,1,1,0,1,1,0,1,0,0,0,0,0,0,0,0,0,0,0,0,0,0],"split_type":[0,0,0,0,0,0,0,0,0,0,0,0,0,0,0,0,0,0,0,0,0,0,0,0,0,0,0,0,0],"sum_hessian":[1.5703E4,1.1425E4,4.278E3,4.897E3,6.528E3,3.679E3,5.99E2,3.568E3,1.329E3,3.894E3,2.634E3,2.92E3,7.59E2,1.65E2,4.34E2,1.159E3,2.409E3,4.3E2,8.99E2,1.912E3,1.982E3,1.691E3,9.43E2,6.98E2,2.222E3,4.1E2,3.49E2,1.21E2,3.13E2],"tree_param":{"num_deleted":"0","num_feature":"2","num_nodes":"29","size_leaf_vector":"1"}},{"base_weights":[-6.558612E-4,7.77335E-2,-2.099749E-1,-1.5269816E-1,2.5058946E-1,-1.3511479E-1,-6.6876704E-1,-2.3029543E-2,-5.005437E-1,3.8975087E-1,4.4788968E-2,-2.8469843E-1,4.3997592E-1,-9.005403E-2,-5.787828E-1,-3.532539E-2,1.3592618E-2,-1.8526616E-5,-7.396037E-2,1.8851114E-2,5.836903E-2,-8.786373E-2,1.9036E-2,-2.2691272E-2,-4.9835414E-2,8.0110714E-2,1.4647663E-3,-5.4134555E-2,-6.606173E-2],"categories":[],"categories_nodes":[],"categories_segments":[],"categories_sizes":[],"default_left":[0,0,0,0,0,0,0,0,0,0,0,0,0,0,0,0,0,0,0,0,0,0,0,0,0,0,0,0,0],"id":32,"left_children":[1,3,5,7,9,11,13,15,17,19,21,23,25,-1,27,-1,-1,-1,-1,-1,-1,-1,-1,-1,-1,-1,-1,-1,-1],"loss_changes":[2.5769363E2,4.5515283E2,1.4687288E2,2.2091109E2,1.8696976E2,3.1669418E2,1.199234E1,1.8738857E2,1.5908868E2,1.5190527E2,3.5437476E2,3.5950287E1,1.16723724E2,0E0,9.7506714E-1,0E0,0E0,0E0,0E0,0E0,0E0,0E0,0E0,0E0,0E0,0E0,0E0,0E0,0E0],"parents":[2147483647,0,0,1,1,2,2,3,3,4,4,5,5,6,6,7,7,8,8,9,9,10,10,11,11,12,12,14,14],"right_children":[2,4,6,8,10,12,14,16,18,20,22,24,26,-1,28,-1,-1,-1,-1,-1,-1,-1,-1,-1,-1,-1,-1,-1,-1],"split_conditions":[2E1,1.1E1,7E0,6E0,1.7E1,6E0,2.1E1,4E0,4E0,1.4E1,2E0,2.3E1,2.2E1,-9.005403E-2,2.3E1,-3.532539E-2,1.3592618E-2,-1.8526616E-5,-7.396037E-2,1.8851114E-2,5.836903E-2,-8.786373E-2,1.9036E-2,-2.2691272E-2,-4.9835414E-2,8.0110714E-2,1.4647663E-3,-5.4134555E-2,-6.606173E-2],"split_indices":[1,1,0,0,1,0,1,1,1,1,0,1,1,0,1,0,0,0,0,0,0,0,0,0,0,0,0,0,0],"split_type":[0,0,0,0,0,0,0,0,0,0,0,0,0,0,0,0,0,0,0,0,0,0,0,0,0,0,0,0,0],"sum_hessian":[1.5703E4,1.1425E4,4.278E3,4.897E3,6.528E3,3.679E3,5.99E2,3.568E3,1.329E3,3.894E3,2.634E3,2.92E3,7.59E2,1.65E2,4.34E2,1.159E3,2.409E3,4.3E2,8.99E2,1.912E3,1.982E3,3.58E2,2.276E3,2.3E3,6.2E2,4.1E2,3.49E2,3.03E2,1.31E2],"tree_param":{"num_deleted":"0","num_feature":"2","num_nodes":"29","size_leaf_vector":"1"}},{"base_weights":[-6.08347E-4,8.0948696E-2,-1.679539E-1,-1.0897801E-1,2.9940012E-1,-1.12037204E-1,-4.250244E-1,3.1824553E-1,-1.7075448E-1,4.6416825E-1,4.248052E-2,-5.9220605E-2,-4.0859362E-1,-8.672672E-2,-3.3486408E-1,-2.6568307E-2,8.0130085E-2,-4.968929E-2,-1.0849055E-2,-1.65347E-2,6.1496574E-2,3.458953E-2,-5.3329367E-2,-1.7132252E-2,4.0057693E-2,1.26934815E-2,-6.0297906E-2,-4.451907E-3,-4.4609126E-2],"categories":[],"categories_nodes":[],"categories_segments":[],"categories_sizes":[],"default_left":[0,0,0,0,0,0,0,0,0,0,0,0,0,0,0,0,0,0,0,0,0,0,0,0,0,0,0,0,0],"id":33,"left_children":[1,3,5,7,9,11,13,15,17,19,21,23,25,-1,27,-1,-1,-1,-1,-1,-1,-1,-1,-1,-1,-1,-1,-1,-1],"loss_changes":[2.1434503E2,4.38123E2,7.392372E1,1.491448E2,2.0787354E2,6.6199394E1,3.635266E1,2.0161072E2,1.0017975E2,2.841303E2,3.3560538E2,1.8511224E2,6.6595764E1,0E0,2.468525E1,0E0,0E0,0E0,0E0,0E0,0E0,0E0,0E0,0E0,0E0,0E0,0E0,0E0,0E0],"parents":[2147483647,0,0,1,1,2,2,3,3,4,4,5,5,6,6,7,7,8,8,9,9,10,10,11,11,12,12,14,14],"right_children":[2,4,6,8,10,12,14,16,18,20,22,24,26,-1,28,-1,-1,-1,-1,-1,-1,-1,-1,-1,-1,-1,-1,-1,-1],"split_conditions":[1.9E1,1.2E1,2.3E1,2E0,6E0,7E0,2E0,5E0,3E0,2E0,1.7E1,6E0,2E1,-8.672672E-2,4E0,-2.6568307E-2,8.0130085E-2,-4.968929E-2,-1.0849055E-2,-1.65347E-2,6.1496574E-2,3.458953E-2,-5.3329367E-2,-1.7132252E-2,4.0057693E-2,1.26934815E-2,-6.0297906E-2,-4.451907E-3,-4.4609126E-2],"split_indices":[1,1,1,0,0,0,0,1,0,0,1,0,1,0,0,0,0,0,0,0,0,0,0,0,0,0,0,0,0],"split_type":[0,0,0,0,0,0,0,0,0,0,0,0,0,0,0,0,0,0,0,0,0,0,0,0,0,0,0,0,0],"sum_hessian":[1.5703E4,1.0558E4,5.145E3,5.648E3,4.91E3,4.227E3,9.18E2,7.13E2,4.935E3,2.991E3,1.919E3,3.589E3,6.38E2,1.54E2,7.64E2,3.23E2,3.9E2,7.9E2,4.145E3,5.78E2,2.413E3,1.257E3,6.62E2,2.886E3,7.03E2,1.7E2,4.68E2,2.12E2,5.52E2],"tree_param":{"num_deleted":"0","num_feature":"2","num_nodes":"29","size_leaf_vector":"1"}},{"base_weights":[-5.566283E-4,4.823606E-2,-2.4694446E-1,9.353331E-2,-2.2976288E-1,1.00700915E-1,-2.8056324E-1,-1.9060998E-1,1.6128916E-1,-4.0259522E-1,1.0120131E-1,-5.358912E-1,-1.2969369E-1,-5.0022467E-3,-4.9229126E-2,2.5295189E-2,1.0174253E-4,-4.6904106E-2,-3.3934787E-2,2.8906738E-2,-1.6276743E-2,-2.7996525E-2,-6.4868174E-2,6.203149E-2,-3.503225E-2],"categories":[],"categories_nodes":[],"categories_segments":[],"categories_sizes":[],"default_left":[0,0,0,0,0,0,0,0,0,0,0,0,0,0,0,0,0,0,0,0,0,0,0,0,0],"id":34,"left_children":[1,3,5,7,9,-1,11,13,15,17,19,21,23,-1,-1,-1,-1,-1,-1,-1,-1,-1,-1,-1,-1],"loss_changes":[1.8880421E2,1.6509769E2,1.0972055E2,2.1706271E2,1.0511957E2,0E0,9.735065E1,9.205318E1,1.337314E2,4.913269E0,3.1338825E1,2.6923615E1,2.6348566E2,0E0,0E0,0E0,0E0,0E0,0E0,0E0,0E0,0E0,0E0,0E0,0E0],"parents":[2147483647,0,0,1,1,2,2,3,3,4,4,6,6,7,7,8,8,9,9,10,10,11,11,12,12],"right_children":[2,4,6,8,10,-1,12,14,16,18,20,22,24,-1,-1,-1,-1,-1,-1,-1,-1,-1,-1,-1,-1],"split_conditions":[7E0,2.2E1,1E0,6E0,5E0,1.00700915E-1,1.3E1,5E0,1.8E1,3E0,2.3E1,5E0,1.6E1,-5.0022467E-3,-4.9229126E-2,2.5295189E-2,1.0174253E-4,-4.6904106E-2,-3.3934787E-2,2.8906738E-2,-1.6276743E-2,-2.7996525E-2,-6.4868174E-2,6.203149E-2,-3.503225E-2],"split_indices":[0,1,1,1,0,0,1,0,1,0,1,1,1,0,0,0,0,0,0,0,0,0,0,0,0],"split_type":[0,0,0,0,0,0,0,0,0,0,0,0,0,0,0,0,0,0,0,0,0,0,0,0,0],"sum_hessian":[1.5703E4,1.3108E4,2.595E3,1.1272E4,1.836E3,6.7E1,2.528E3,2.17E3,9.102E3,1.206E3,6.3E2,9.38E2,1.59E3,1.481E3,6.89E2,5.79E3,3.312E3,5.85E2,6.21E2,3.68E2,2.62E2,2.88E2,6.5E2,3.61E2,1.229E3],"tree_param":{"num_deleted":"0","num_feature":"2","num_nodes":"25","size_leaf_vector":"1"}},{"base_weights":[-5.04953E-4,4.340498E-2,-2.2223641E-1,8.4177345E-2,-2.0682378E-1,9.0778925E-2,-2.5253278E-1,-1.7157389E-1,1.4516293E-1,-3.6240277E-1,9.110121E-2,-4.8240075E-1,-1.1670715E-1,-4.5023463E-3,-4.4313356E-2,2.587085E-3,2.5385529E-2,-4.2221703E-2,-3.0546784E-2,2.6023889E-2,-1.4655242E-2,-2.5206557E-2,-5.83913E-2,5.5845547E-2,-3.1531867E-2],"categories":[],"categories_nodes":[],"categories_segments":[],"categories_sizes":[],"default_left":[0,0,0,0,0,0,0,0,0,0,0,0,0,0,0,0,0,0,0,0,0,0,0,0,0],"id":35,"left_children":[1,3,5,7,9,-1,11,13,15,17,19,21,23,-1,-1,-1,-1,-1,-1,-1,-1,-1,-1,-1,-1],"loss_changes":[1.5290717E2,1.337609E2,8.910504E1,1.7585144E2,8.517956E1,0E0,7.890401E1,7.4588615E1,1.180242E2,3.981491E0,2.5401928E1,2.180838E1,2.1352136E2,0E0,0E0,0E0,0E0,0E0,0E0,0E0,0E0,0E0,0E0,0E0,0E0],"parents":[2147483647,0,0,1,1,2,2,3,3,4,4,6,6,7,7,8,8,9,9,10,10,11,11,12,12],"right_children":[2,4,6,8,10,-1,12,14,16,18,20,22,24,-1,-1,-1,-1,-1,-1,-1,-1,-1,-1,-1,-1],"split_conditions":[7E0,2.2E1,1E0,6E0,5E0,9.0778925E-2,1.3E1,5E0,4E0,3E0,2.3E1,5E0,1.6E1,-4.5023463E-3,-4.4313356E-2,2.587085E-3,2.5385529E-2,-4.2221703E-2,-3.0546784E-2,2.6023889E-2,-1.4655242E-2,-2.5206557E-2,-5.83913E-2,5.5845547E-2,-3.1531867E-2],"split_indices":[0,1,1,1,0,0,1,0,0,0,1,1,1,0,0,0,0,0,0,0,0,0,0,0,0],"split_type":[0,0,0,0,0,0,0,0,0,0,0,0,0,0,0,0,0,0,0,0,0,0,0,0,0],"sum_hessian":[1.5703E4,1.3108E4,2.595E3,1.1272E4,1.836E3,6.7E1,2.528E3,2.17E3,9.102E3,1.206E3,6.3E2,9.38E2,1.59E3,1.481E3,6.89E2,4.34E3,4.762E3,5.85E2,6.21E2,3.68E2,2.62E2,2.88E2,6.5E2,3.61E2,1.229E3],"tree_param":{"num_deleted":"0","num_feature":"2","num_nodes":"25","size_leaf_vector":"1"}},{"base_weights":[-4.5744044E-4,6.4090684E-2,-1.3290268E-1,-1.1551886E-1,2.1945336E-1,-9.186178E-2,-3.21573E-1,-1.1314876E-2,-3.950591E-1,3.3902416E-1,2.7742505E-2,-5.454873E-2,-3.0134845E-1,-6.925493E-2,-2.4598753E-1,-2.69842E-2,1.13126105E-2,4.2079384E-3,-6.0396094E-2,9.708126E-3,7.114715E-2,2.4298662E-2,-4.638221E-2,-1.4769606E-2,3.275122E-2,1.8049095E-2,-4.763872E-2,3.195862E-3,-3.5259973E-2],"categories":[],"categories_nodes":[],"categories_segments":[],"categories_sizes":[],"default_left":[0,0,0,0,0,0,0,0,0,0,0,0,0,0,0,0,0,0,0,0,0,0,0,0,0,0,0,0,0],"id":36,"left_children":[1,3,5,7,9,11,13,15,17,19,21,23,25,-1,27,-1,-1,-1,-1,-1,-1,-1,-1,-1,-1,-1,-1,-1,-1],"loss_changes":[1.3426344E2,2.9467023E2,3.981698E1,1.4267038E2,1.297807E2,3.3032085E1,2.5598778E1,1.1485013E2,1.21479706E2,3.1414795E2,2.303474E2,1.2780915E2,5.3979614E1,0E0,2.2680092E1,0E0,0E0,0E0,0E0,0E0,0E0,0E0,0E0,0E0,0E0,0E0,0E0,0E0,0E0],"parents":[2147483647,0,0,1,1,2,2,3,3,4,4,5,5,6,6,7,7,8,8,9,9,10,10,11,11,12,12,14,14],"right_children":[2,4,6,8,10,12,14,16,18,20,22,24,26,-1,28,-1,-1,-1,-1,-1,-1,-1,-1,-1,-1,-1,-1,-1,-1],"split_conditions":[1.9E1,1.1E1,2.3E1,6E0,6E0,7E0,2E0,4E0,4E0,4E0,1.7E1,6E0,2E1,-6.925493E-2,4E0,-2.69842E-2,1.13126105E-2,4.2079384E-3,-6.0396094E-2,9.708126E-3,7.114715E-2,2.4298662E-2,-4.638221E-2,-1.4769606E-2,3.275122E-2,1.8049095E-2,-4.763872E-2,3.195862E-3,-3.5259973E-2],"split_indices":[1,1,1,0,0,0,0,1,1,0,1,0,1,0,0,0,0,0,0,0,0,0,0,0,0,0,0,0,0],"split_type":[0,0,0,0,0,0,0,0,0,0,0,0,0,0,0,0,0,0,0,0,0,0,0,0,0,0,0,0,0],"sum_hessian":[1.5703E4,1.0558E4,5.145E3,4.897E3,5.661E3,4.227E3,9.18E2,3.568E3,1.329E3,3.486E3,2.175E3,3.589E3,6.38E2,1.54E2,7.64E2,1.159E3,2.409E3,4.3E2,8.99E2,2.114E3,1.372E3,1.513E3,6.62E2,2.886E3,7.03E2,1.7E2,4.68E2,2.12E2,5.52E2],"tree_param":{"num_deleted":"0","num_feature":"2","num_nodes":"29","size_leaf_vector":"1"}},{"base_weights":[-4.1968748E-4,5.7680402E-2,-1.1963431E-1,-8.364153E-2,2.2022772E-1,-3.2305294E-1,-8.742842E-2,2.80724E-1,-1.3633062E-1,3.5202765E-1,1.4724816E-2,-2.3757076E-1,-6.2374115E-2,-4.2403333E-2,-3.0220735E-1,-2.1038538E-2,6.8696104E-2,-4.659469E-2,-7.341146E-3,-1.8123168E-2,4.7978453E-2,2.425124E-2,-4.175097E-2,-3.079625E-2,-8.663843E-3,-1.2421061E-2,2.2110047E-2,1.625474E-2,-4.3415878E-2],"categories":[],"categories_nodes":[],"categories_segments":[],"categories_sizes":[],"default_left":[0,0,0,0,0,0,0,0,0,0,0,0,0,0,0,0,0,0,0,0,0,0,0,0,0,0,0,0,0],"id":37,"left_children":[1,3,5,7,9,11,13,15,17,19,21,23,-1,25,27,-1,-1,-1,-1,-1,-1,-1,-1,-1,-1,-1,-1,-1,-1],"loss_changes":[1.0877877E2,2.425745E2,3.3684616E1,1.08488266E2,1.3301054E2,1.7921364E1,4.296262E1,1.4259239E2,1.0233436E2,2.0392456E2,1.8913995E2,5.8061104E0,0E0,7.9247696E1,4.7290863E1,0E0,0E0,0E0,0E0,0E0,0E0,0E0,0E0,0E0,0E0,0E0,0E0,0E0,0E0],"parents":[2147483647,0,0,1,1,2,2,3,3,4,4,5,5,6,6,7,7,8,8,9,9,10,10,11,11,13,13,14,14],"right_children":[2,4,6,8,10,12,14,16,18,20,22,24,-1,26,28,-1,-1,-1,-1,-1,-1,-1,-1,-1,-1,-1,-1,-1,-1],"split_conditions":[1.9E1,1.2E1,2E0,2E0,6E0,2.3E1,7E0,5E0,3E0,2E0,1.7E1,2.2E1,-6.2374115E-2,6E0,2E1,-2.1038538E-2,6.8696104E-2,-4.659469E-2,-7.341146E-3,-1.8123168E-2,4.7978453E-2,2.425124E-2,-4.175097E-2,-3.079625E-2,-8.663843E-3,-1.2421061E-2,2.2110047E-2,1.625474E-2,-4.3415878E-2],"split_indices":[1,1,0,0,0,1,0,1,0,0,1,1,0,0,1,0,0,0,0,0,0,0,0,0,0,0,0,0,0],"split_type":[0,0,0,0,0,0,0,0,0,0,0,0,0,0,0,0,0,0,0,0,0,0,0,0,0,0,0,0,0],"sum_hessian":[1.5703E4,1.0558E4,5.145E3,5.648E3,4.91E3,7.02E2,4.443E3,7.13E2,4.935E3,2.991E3,1.919E3,5.48E2,1.54E2,3.674E3,7.69E2,3.23E2,3.9E2,7.9E2,4.145E3,5.78E2,2.413E3,1.257E3,6.62E2,3.73E2,1.75E2,2.804E3,8.7E2,1.7E2,5.99E2],"tree_param":{"num_deleted":"0","num_feature":"2","num_nodes":"29","size_leaf_vector":"1"}},{"base_weights":[-3.8512523E-4,5.19127E-2,-1.0769417E-1,-6.2875144E-2,2.1947E-1,-7.225851E-2,-2.7060416E-1,-1.3314952E-2,-3.22043E-1,4.2414767E-1,2.3120649E-3,-1.663606E-1,-8.537439E-3,-5.617694E-2,-2.1125615E-1,-1.9204883E-2,6.4829844E-3,8.214321E-2,-4.0450763E-2,7.5044795E-3,6.612472E-2,3.4773685E-2,-2.4115358E-2,2.2277564E-2,-4.6296053E-2,-2.1240935E-2,1.7289205E-2,4.1140686E-3,-3.0809028E-2],"categories":[],"categories_nodes":[],"categories_segments":[],"categories_sizes":[],"default_left":[0,0,0,0,0,0,0,0,0,0,0,0,0,0,0,0,0,0,0,0,0,0,0,0,0,0,0,0,0],"id":38,"left_children":[1,3,5,7,9,11,13,15,17,19,21,23,25,-1,27,-1,-1,-1,-1,-1,-1,-1,-1,-1,-1,-1,-1,-1,-1],"loss_changes":[8.81369E1,2.0310074E2,2.9687393E1,8.0491615E1,1.9081163E2,2.5350876E1,1.5761719E1,7.350743E1,9.5194275E1,1.828768E2,1.7534631E2,1.9712128E2,9.33214E1,0E0,1.8709755E1,0E0,0E0,0E0,0E0,0E0,0E0,0E0,0E0,0E0,0E0,0E0,0E0,0E0,0E0],"parents":[2147483647,0,0,1,1,2,2,3,3,4,4,5,5,6,6,7,7,8,8,9,9,10,10,11,11,12,12,14,14],"right_children":[2,4,6,8,10,12,14,16,18,20,22,24,26,-1,28,-1,-1,-1,-1,-1,-1,-1,-1,-1,-1,-1,-1,-1,-1],"split_conditions":[1.9E1,1.3E1,2.3E1,7E0,5E0,4E0,2E0,3E0,1E0,1.6E1,1.6E1,2.1E1,2.1E1,-5.617694E-2,4E0,-1.9204883E-2,6.4829844E-3,8.214321E-2,-4.0450763E-2,7.5044795E-3,6.612472E-2,3.4773685E-2,-2.4115358E-2,2.2277564E-2,-4.6296053E-2,-2.1240935E-2,1.7289205E-2,4.1140686E-3,-3.0809028E-2],"split_indices":[1,1,1,0,0,0,0,0,1,1,1,1,1,0,0,0,0,0,0,0,0,0,0,0,0,0,0,0,0],"split_type":[0,0,0,0,0,0,0,0,0,0,0,0,0,0,0,0,0,0,0,0,0,0,0,0,0,0,0,0,0],"sum_hessian":[1.5703E4,1.0558E4,5.145E3,6.266E3,4.292E3,4.227E3,9.18E2,5.261E3,1.005E3,2.209E3,2.083E3,1.706E3,2.521E3,1.54E2,7.64E2,1.6E3,3.661E3,6.7E1,9.38E2,8.94E2,1.315E3,8.61E2,1.222E3,7.38E2,9.68E2,1.187E3,1.334E3,2.12E2,5.52E2],"tree_param":{"num_deleted":"0","num_feature":"2","num_nodes":"29","size_leaf_vector":"1"}},{"base_weights":[-3.464355E-4,3.014461E-2,-1.5431668E-1,-2.1406254E-1,5.486023E-2,7.4049674E-2,-1.7831549E-1,-3.1184685E-1,-2.509461E-2,1.4202018E-1,-5.9529874E-2,-3.6409983E-1,-6.855445E-2,-8.815403E-3,-5.308571E-2,-3.073046E-2,1.6852323E-2,6.8455483E-3,4.4901308E-2,-3.707483E-2,-4.9318194E-5,-1.6115915E-2,-4.536325E-2,4.1967213E-2,-2.1218818E-2],"categories":[],"categories_nodes":[],"categories_segments":[],"categories_sizes":[],"default_left":[0,0,0,0,0,0,0,0,0,0,0,0,0,0,0,0,0,0,0,0,0,0,0,0,0],"id":39,"left_children":[1,3,5,7,9,-1,11,13,15,17,19,21,23,-1,-1,-1,-1,-1,-1,-1,-1,-1,-1,-1,-1],"loss_changes":[7.373044E1,7.913415E1,5.587973E1,2.2258282E1,1.1870412E2,0E0,5.1546112E1,3.885208E1,2.2563833E1,1.5256828E2,9.460397E1,1.6988358E1,1.116592E2,0E0,0E0,0E0,0E0,0E0,0E0,0E0,0E0,0E0,0E0,0E0,0E0],"parents":[2147483647,0,0,1,1,2,2,3,3,4,4,6,6,7,7,8,8,9,9,10,10,11,11,12,12],"right_children":[2,4,6,8,10,-1,12,14,16,18,20,22,24,-1,-1,-1,-1,-1,-1,-1,-1,-1,-1,-1,-1],"split_conditions":[7E0,3E0,1E0,5E0,1.8E1,7.4049674E-2,1.3E1,3E0,1E0,1.6E1,2E0,5E0,1.6E1,-8.815403E-3,-5.308571E-2,-3.073046E-2,1.6852323E-2,6.8455483E-3,4.4901308E-2,-3.707483E-2,-4.9318194E-5,-1.6115915E-2,-4.536325E-2,4.1967213E-2,-2.1218818E-2],"split_indices":[0,1,1,0,1,0,1,0,1,1,0,1,1,0,0,0,0,0,0,0,0,0,0,0,0],"split_type":[0,0,0,0,0,0,0,0,0,0,0,0,0,0,0,0,0,0,0,0,0,0,0,0,0],"sum_hessian":[1.5703E4,1.3108E4,2.595E3,1.204E3,1.1904E4,6.7E1,2.528E3,7.93E2,4.11E2,6.756E3,5.148E3,9.38E2,1.59E3,3.93E2,4E2,1.67E2,2.44E2,5.451E3,1.305E3,8.2E2,4.328E3,2.88E2,6.5E2,3.61E2,1.229E3],"tree_param":{"num_deleted":"0","num_feature":"2","num_nodes":"25","size_leaf_vector":"1"}},{"base_weights":[-3.1343492E-4,3.1039596E-2,-1.2183189E-1,-9.711025E-2,1.03380956E-1,-2.8515273E-1,9.653082E-2,-2.68938E-2,-5.7412255E-1,1.7711492E-1,-2.2604851E-2,-3.815514E-1,-1.9031155E-1,2.761103E-1,-2.93812E-1,1.762915E-2,-3.0287305E-2,-2.1660824E-1,6.1741006E-3,-1.3253364E-2,2.426537E-2,1.22597525E-2,-2.0564942E-2,-5.888262E-2,-2.6488304E-2,-1.0000203E-2,-2.3501515E-2,6.52817E-2,8.761786E-3,-3.802066E-2,-2.5930896E-2],"categories":[],"categories_nodes":[],"categories_segments":[],"categories_sizes":[],"default_left":[0,0,0,0,0,0,0,0,0,0,0,0,0,0,0,0,0,0,0,0,0,0,0,0,0,0,0,0,0,0,0],"id":40,"left_children":[1,3,5,7,9,11,13,15,17,19,21,23,25,27,29,-1,-1,-1,-1,-1,-1,-1,-1,-1,-1,-1,-1,-1,-1,-1,-1],"loss_changes":[5.9835587E1,1.1574338E2,1.1489864E2,1.5087552E2,7.413368E1,1.6777115E1,9.674565E1,2.2031569E2,5.852254E2,1.0219211E2,7.835206E1,2.1922577E1,3.7350922E0,6.704381E1,1.1980896E0,0E0,0E0,0E0,0E0,0E0,0E0,0E0,0E0,0E0,0E0,0E0,0E0,0E0,0E0,0E0,0E0],"parents":[2147483647,0,0,1,1,2,2,3,3,4,4,5,5,6,6,7,7,8,8,9,9,10,10,11,11,12,12,13,13,14,14],"right_children":[2,4,6,8,10,12,14,16,18,20,22,24,26,28,30,-1,-1,-1,-1,-1,-1,-1,-1,-1,-1,-1,-1,-1,-1,-1,-1],"split_conditions":[2.1E1,1E1,5E0,9E0,6E0,3E0,7E0,5E0,3E0,2E0,1.7E1,2.2E1,2.2E1,2.2E1,2.2E1,1.762915E-2,-3.0287305E-2,-2.1660824E-1,6.1741006E-3,-1.3253364E-2,2.426537E-2,1.22597525E-2,-2.0564942E-2,-5.888262E-2,-2.6488304E-2,-1.0000203E-2,-2.3501515E-2,6.52817E-2,8.761786E-3,-3.802066E-2,-2.5930896E-2],"split_indices":[1,1,0,1,0,0,0,0,0,0,1,1,1,1,1,0,0,0,0,0,0,0,0,0,0,0,0,0,0,0,0],"split_type":[0,0,0,0,0,0,0,0,0,0,0,0,0,0,0,0,0,0,0,0,0,0,0,0,0,0,0,0,0,0,0],"sum_hessian":[1.5703E4,1.2483E4,3.22E3,4.504E3,7.979E3,1.842E3,1.378E3,3.927E3,5.77E2,5.033E3,2.946E3,9.12E2,9.3E2,9.44E2,4.34E2,2.262E3,1.665E3,1.64E2,4.13E2,8.79E2,4.154E3,1.643E3,1.303E3,3.27E2,5.85E2,3.09E2,6.21E2,3.14E2,6.3E2,1.21E2,3.13E2],"tree_param":{"num_deleted":"0","num_feature":"2","num_nodes":"31","size_leaf_vector":"1"}},{"base_weights":[-3.0311465E-4,4.0015563E-2,-8.303235E-2,-8.744892E-2,1.3484421E-1,-5.345502E-2,-2.19017E-1,-2.4207834E-2,-5.170744E-1,2.2769071E-1,-1.620054E-2,-9.8436914E-2,4.3352865E-2,-4.4280194E-2,-1.7338866E-1,1.5866984E-2,-2.7260397E-2,-1.9507872E-1,5.558183E-3,4.811372E-3,4.9792375E-2,1.1034459E-2,-3.2996222E-2,-3.9993487E-3,-1.4522505E-2,2.5899842E-2,-1.9429632E-2,6.143972E-3,-2.635244E-2],"categories":[],"categories_nodes":[],"categories_segments":[],"categories_sizes":[],"default_left":[0,0,0,0,0,0,0,0,0,0,0,0,0,0,0,0,0,0,0,0,0,0,0,0,0,0,0,0,0],"id":41,"left_children":[1,3,5,7,9,11,13,15,17,19,21,23,25,-1,27,-1,-1,-1,-1,-1,-1,-1,-1,-1,-1,-1,-1,-1,-1],"loss_changes":[5.2384537E1,1.2764143E2,2.0685822E1,1.2238825E2,8.491888E1,1.8415527E1,9.307072E0,1.7847697E2,4.7466064E2,1.8195467E2,9.159617E1,7.8885746E0,6.882513E1,0E0,1.6208502E1,0E0,0E0,0E0,0E0,0E0,0E0,0E0,0E0,0E0,0E0,0E0,0E0,0E0,0E0],"parents":[2147483647,0,0,1,1,2,2,3,3,4,4,5,5,6,6,7,7,8,8,9,9,10,10,11,11,12,12,14,14],"right_children":[2,4,6,8,10,12,14,16,18,20,22,24,26,-1,28,-1,-1,-1,-1,-1,-1,-1,-1,-1,-1,-1,-1,-1,-1],"split_conditions":[1.9E1,1E1,2.3E1,9E0,6E0,6E0,2E0,5E0,3E0,4E0,1.7E1,2.1E1,7E0,-4.4280194E-2,4E0,1.5866984E-2,-2.7260397E-2,-1.9507872E-1,5.558183E-3,4.811372E-3,4.9792375E-2,1.1034459E-2,-3.2996222E-2,-3.9993487E-3,-1.4522505E-2,2.5899842E-2,-1.9429632E-2,6.143972E-3,-2.635244E-2],"split_indices":[1,1,1,1,0,0,0,0,0,0,1,1,0,0,0,0,0,0,0,0,0,0,0,0,0,0,0,0,0],"split_type":[0,0,0,0,0,0,0,0,0,0,0,0,0,0,0,0,0,0,0,0,0,0,0,0,0,0,0,0,0],"sum_hessian":[1.5703E4,1.0558E4,5.145E3,4.504E3,6.054E3,4.227E3,9.18E2,3.927E3,5.77E2,3.749E3,2.305E3,2.886E3,1.341E3,1.54E2,7.64E2,2.262E3,1.665E3,1.64E2,4.13E2,2.253E3,1.496E3,1.643E3,6.62E2,1.284E3,1.602E3,7.03E2,6.38E2,2.12E2,5.52E2],"tree_param":{"num_deleted":"0","num_feature":"2","num_nodes":"29","size_leaf_vector":"1"}},{"base_weights":[-2.8853913E-4,3.5997815E-2,-7.4743904E-2,-4.9201295E-2,1.6036464E-1,-4.8112266E-2,-1.9718552E-1,-1.36270365E-2,-2.3522767E-1,3.3213085E-1,-2.1863602E-2,-8.8599436E-2,3.9022293E-2,-3.9880734E-2,-1.5607628E-1,-1.8407293E-2,4.430547E-3,7.2423756E-2,-3.0445922E-2,-2.8323561E-2,4.4925936E-2,7.552628E-2,-1.002212E-2,-3.5996854E-3,-1.3071156E-2,2.331354E-2,-1.7489735E-2,5.532454E-3,-2.3721969E-2],"categories":[],"categories_nodes":[],"categories_segments":[],"categories_sizes":[],"default_left":[0,0,0,0,0,0,0,0,0,0,0,0,0,0,0,0,0,0,0,0,0,0,0,0,0,0,0,0,0],"id":42,"left_children":[1,3,5,7,9,11,13,15,17,19,21,23,25,-1,27,-1,-1,-1,-1,-1,-1,-1,-1,-1,-1,-1,-1,-1,-1],"loss_changes":[4.2430405E1,1.11890465E2,1.6770697E1,4.147024E1,1.3438098E2,1.491913E1,7.554901E0,5.1967022E1,6.7044304E1,1.5941727E2,1.2697827E2,6.3905945E0,5.576679E1,0E0,1.3135767E1,0E0,0E0,0E0,0E0,0E0,0E0,0E0,0E0,0E0,0E0,0E0,0E0,0E0,0E0],"parents":[2147483647,0,0,1,1,2,2,3,3,4,4,5,5,6,6,7,7,8,8,9,9,10,10,11,11,12,12,14,14],"right_children":[2,4,6,8,10,12,14,16,18,20,22,24,26,-1,28,-1,-1,-1,-1,-1,-1,-1,-1,-1,-1,-1,-1,-1,-1],"split_conditions":[1.9E1,1.3E1,2.3E1,7E0,5E0,6E0,2E0,4E0,1E0,1.4E1,1.4E1,2.1E1,7E0,-3.9880734E-2,4E0,-1.8407293E-2,4.430547E-3,7.2423756E-2,-3.0445922E-2,-2.8323561E-2,4.4925936E-2,7.552628E-2,-1.002212E-2,-3.5996854E-3,-1.3071156E-2,2.331354E-2,-1.7489735E-2,5.532454E-3,-2.3721969E-2],"split_indices":[1,1,1,0,0,0,0,1,1,1,1,1,0,0,0,0,0,0,0,0,0,0,0,0,0,0,0,0,0],"split_type":[0,0,0,0,0,0,0,0,0,0,0,0,0,0,0,0,0,0,0,0,0,0,0,0,0,0,0,0,0],"sum_hessian":[1.5703E4,1.0558E4,5.145E3,6.266E3,4.292E3,4.227E3,9.18E2,5.261E3,1.005E3,2.209E3,2.083E3,2.886E3,1.341E3,1.54E2,7.64E2,1.334E3,3.927E3,6.7E1,9.38E2,3.53E2,1.856E3,1.9E2,1.893E3,1.284E3,1.602E3,7.03E2,6.38E2,2.12E2,5.52E2],"tree_param":{"num_deleted":"0","num_feature":"2","num_nodes":"29","size_leaf_vector":"1"}},{"base_weights":[-2.571523E-4,3.770883E-2,-5.9432827E-2,-3.4925833E-2,2.1704325E-1,-2.8425628E-1,-2.47131E-2,-2.624451E-1,4.4298492E-2,1.0695125E0,-4.6851844E-2,-1.0031046E-1,-1.6216923E-1,1.15209445E-1,-5.2257545E-2,2.5292357E-2,-9.9781625E-2,-1.1098111E-2,4.227492E-2,3.1733143E-1,6.961033E-2,-2.8862167E-2,1.5459368E-2,-1.0625041E-2,-3.591839E-2,4.8898973E-2,-1.7675566E-2,-2.5775966E-3,-1.7857905E-2],"categories":[],"categories_nodes":[],"categories_segments":[],"categories_sizes":[],"default_left":[0,0,0,0,0,0,0,0,0,0,0,0,0,0,0,0,0,0,0,0,0,0,0,0,0,0,0,0,0],"id":43,"left_children":[1,3,5,7,9,11,13,15,17,19,21,-1,23,25,27,-1,-1,-1,-1,-1,-1,-1,-1,-1,-1,-1,-1,-1,-1],"loss_changes":[3.528383E1,1.2462631E2,4.790503E1,1.2276228E2,6.204966E2,7.188999E1,2.0502064E1,6.66891E2,2.969311E2,5.0998846E2,1.0266278E2,0E0,7.706665E0,9.557587E1,1.4861433E1,0E0,0E0,0E0,0E0,0E0,0E0,0E0,0E0,0E0,0E0,0E0,0E0,0E0,0E0],"parents":[2147483647,0,0,1,1,2,2,3,3,4,4,5,5,6,6,7,7,8,8,9,9,10,10,12,12,13,13,14,14],"right_children":[2,4,6,8,10,12,14,16,18,20,22,-1,24,26,28,-1,-1,-1,-1,-1,-1,-1,-1,-1,-1,-1,-1,-1,-1],"split_conditions":[1.8E1,1.4E1,2E0,3E0,3E0,1.9E1,1.9E1,9E0,1.1E1,1.5E1,1.6E1,-1.0031046E-1,2.3E1,5E0,7E0,2.5292357E-2,-9.9781625E-2,-1.1098111E-2,4.227492E-2,3.1733143E-1,6.961033E-2,-2.8862167E-2,1.5459368E-2,-1.0625041E-2,-3.591839E-2,4.8898973E-2,-1.7675566E-2,-2.5775966E-3,-1.7857905E-2],"split_indices":[1,1,0,0,0,1,1,1,1,1,1,0,1,0,0,0,0,0,0,0,0,0,0,0,0,0,0,0,0],"split_type":[0,0,0,0,0,0,0,0,0,0,0,0,0,0,0,0,0,0,0,0,0,0,0,0,0,0,0,0,0],"sum_hessian":[1.5703E4,9.566E3,6.137E3,6.809E3,2.757E3,8.2E2,5.317E3,1.758E3,5.051E3,6.51E2,2.106E3,1.18E2,7.02E2,8.74E2,4.443E3,1.034E3,7.24E2,3.582E3,1.469E3,9.7E1,5.54E2,9.57E2,1.149E3,5.48E2,1.54E2,3.83E2,4.91E2,3.674E3,7.69E2],"tree_param":{"num_deleted":"0","num_feature":"2","num_nodes":"29","size_leaf_vector":"1"}},{"base_weights":[-2.1894187E-4,-1.02647536E-1,1.962681E-2,1.9351255E-2,-1.8979082E-1,4.054039E-1,4.1636773E-3,-3.2272622E-1,2.204712E0,7.683483E-2,-1.8025451E0,1.768645E0,-1.4999015E0,-9.909809E-2,7.162335E-2,-2.093085E-2,-5.0100323E-2,1.1327735E-1,3.2609174E-1,6.6354964E-4,2.2108026E-2,-9.088047E-2,-2.8435513E-1,3.4460267E-1,1.4854346E-1,-2.2557937E-1,-5.084291E-2,-4.670402E-2,6.5774643E-3,2.5543788E-2,-3.0233056E-4],"categories":[],"categories_nodes":[],"categories_segments":[],"categories_sizes":[],"default_left":[0,0,0,0,0,0,0,0,0,0,0,0,0,0,0,0,0,0,0,0,0,0,0,0,0,0,0,0,0,0,0],"id":44,"left_children":[1,3,5,7,9,11,13,15,17,19,21,23,25,27,29,-1,-1,-1,-1,-1,-1,-1,-1,-1,-1,-1,-1,-1,-1,-1,-1],"loss_changes":[3.192467E1,2.710305E1,7.847809E1,7.953706E2,6.3955096E2,1.3195298E3,8.812706E1,1.849733E1,1.5934106E2,1.2929346E1,1.9372797E2,1.3549652E2,1.5773572E2,3.0328815E2,1.0499492E2,0E0,0E0,0E0,0E0,0E0,0E0,0E0,0E0,0E0,0E0,0E0,0E0,0E0,0E0,0E0,0E0],"parents":[2147483647,0,0,1,1,2,2,3,3,4,4,5,5,6,6,7,7,8,8,9,9,10,10,11,11,12,12,13,13,14,14],"right_children":[2,4,6,8,10,12,14,16,18,20,22,24,26,28,30,-1,-1,-1,-1,-1,-1,-1,-1,-1,-1,-1,-1,-1,-1,-1,-1],"split_conditions":[6E0,4E0,7E0,5E0,5E0,6E0,4E0,3E0,3E0,3E0,5E0,2E0,7E0,1.4E1,1.4E1,-2.093085E-2,-5.0100323E-2,1.1327735E-1,3.2609174E-1,6.6354964E-4,2.2108026E-2,-9.088047E-2,-2.8435513E-1,3.4460267E-1,1.4854346E-1,-2.2557937E-1,-5.084291E-2,-4.670402E-2,6.5774643E-3,2.5543788E-2,-3.0233056E-4],"split_indices":[1,0,1,1,1,0,0,0,0,1,0,0,0,1,1,0,0,0,0,0,0,0,0,0,0,0,0,0,0,0,0],"split_type":[0,0,0,0,0,0,0,0,0,0,0,0,0,0,0,0,0,0,0,0,0,0,0,0,0,0,0,0,0,0,0],"sum_hessian":[1.5703E4,2.548E3,1.3155E4,1.062E3,1.486E3,5.06E2,1.2649E4,9.19E2,1.43E2,1.276E3,2.1E2,2.95E2,2.11E2,4.998E3,7.651E3,5.63E2,3.56E2,7.2E1,7.1E1,8.59E2,4.17E2,1.14E2,9.6E1,4.1E1,2.54E2,1.19E2,9.2E1,1.546E3,3.452E3,2.209E3,5.442E3],"tree_param":{"num_deleted":"0","num_feature":"2","num_nodes":"31","size_leaf_vector":"1"}},{"base_weights":[-1.8302191E-4,3.5585076E-2,-5.5932976E-2,-3.7602652E-2,1.7452234E-1,-2.6257914E-1,-2.4020147E-2,-3.0064478E-3,-2.1852474E-1,5.39503E-1,5.5818945E-2,-9.101595E-2,-1.5258676E-1,1.0213967E-1,-4.8854936E-2,-1.905665E-2,3.7830435E-3,6.631594E-2,-2.8214132E-2,-1.174201E-1,9.56588E-2,5.955257E-2,-4.3081203E-3,-1.0221039E-2,-3.300322E-2,4.3622095E-2,-1.5881432E-2,-2.546138E-3,-1.6044257E-2],"categories":[],"categories_nodes":[],"categories_segments":[],"categories_sizes":[],"default_left":[0,0,0,0,0,0,0,0,0,0,0,0,0,0,0,0,0,0,0,0,0,0,0,0,0,0,0,0,0],"id":45,"left_children":[1,3,5,7,9,11,13,15,17,19,21,-1,23,25,27,-1,-1,-1,-1,-1,-1,-1,-1,-1,-1,-1,-1,-1,-1],"loss_changes":[3.1316862E1,9.728863E1,4.047174E1,3.9225853E1,1.4298386E2,5.8340046E1,1.6667095E1,4.03108E1,5.6613396E1,5.8007904E2,1.330413E2,0E0,6.2504215E0,7.635164E1,1.1596673E1,0E0,0E0,0E0,0E0,0E0,0E0,0E0,0E0,0E0,0E0,0E0,0E0,0E0,0E0],"parents":[2147483647,0,0,1,1,2,2,3,3,4,4,5,5,6,6,7,7,8,8,9,9,10,10,12,12,13,13,14,14],"right_children":[2,4,6,8,10,12,14,16,18,20,22,-1,24,26,28,-1,-1,-1,-1,-1,-1,-1,-1,-1,-1,-1,-1,-1,-1],"split_conditions":[1.8E1,1.3E1,2E0,7E0,3E0,1.9E1,1.9E1,2E0,1E0,1.4E1,1.4E1,-9.101595E-2,2.3E1,5E0,7E0,-1.905665E-2,3.7830435E-3,6.631594E-2,-2.8214132E-2,-1.174201E-1,9.56588E-2,5.955257E-2,-4.3081203E-3,-1.0221039E-2,-3.300322E-2,4.3622095E-2,-1.5881432E-2,-2.546138E-3,-1.6044257E-2],"split_indices":[1,1,0,0,0,1,1,1,1,1,1,0,1,0,0,0,0,0,0,0,0,0,0,0,0,0,0,0,0],"split_type":[0,0,0,0,0,0,0,0,0,0,0,0,0,0,0,0,0,0,0,0,0,0,0,0,0,0,0,0,0],"sum_hessian":[1.5703E4,9.566E3,6.137E3,6.266E3,3.3E3,8.2E2,5.317E3,5.261E3,1.005E3,8.09E2,2.491E3,1.18E2,7.02E2,8.74E2,4.443E3,9.4E2,4.321E3,6.7E1,9.38E2,1.58E2,6.51E2,3.85E2,2.106E3,5.48E2,1.54E2,3.83E2,4.91E2,3.674E3,7.69E2],"tree_param":{"num_deleted":"0","num_feature":"2","num_nodes":"29","size_leaf_vector":"1"}},{"base_weights":[-1.6887934E-4,3.580884E-2,-4.592556E-2,-2.887613E-3,4.3838617E-1,-3.9213845E-1,1.044511E-2,2.244252E-1,-3.392978E-2,1.3249104E0,2.7772397E-4,-1.0639294E0,-1.3738945E-1,1.713404E-1,-4.3973453E-2,-1.8205527E-2,4.295348E-2,-1.9508546E-2,4.2300937E-3,2.1439171E-1,1.0450077E-1,2.521658E-2,-8.173285E-2,-1.2529469E-1,-8.1990846E-2,-9.200786E-3,-2.9724175E-2,6.931504E-2,-2.6180524E-2,-8.202077E-3,2.1128186E-3],"categories":[],"categories_nodes":[],"categories_segments":[],"categories_sizes":[],"default_left":[0,0,0,0,0,0,0,0,0,0,0,0,0,0,0,0,0,0,0,0,0,0,0,0,0,0,0,0,0,0,0],"id":46,"left_children":[1,3,5,7,9,11,13,15,17,19,21,23,25,27,29,-1,-1,-1,-1,-1,-1,-1,-1,-1,-1,-1,-1,-1,-1,-1,-1],"loss_changes":[2.5853899E1,1.3696582E2,1.3491995E2,5.6613113E1,2.9945123E2,1.655155E2,5.2068867E1,8.0449814E1,8.672815E1,5.621634E1,1.066798E2,1.124176E1,5.07246E0,3.3988904E2,1.1009265E1,0E0,0E0,0E0,0E0,0E0,0E0,0E0,0E0,0E0,0E0,0E0,0E0,0E0,0E0,0E0,0E0],"parents":[2147483647,0,0,1,1,2,2,3,3,4,4,5,5,6,6,7,7,8,8,9,9,10,10,11,11,12,12,13,13,14,14],"right_children":[2,4,6,8,10,12,14,16,18,20,22,24,26,28,30,-1,-1,-1,-1,-1,-1,-1,-1,-1,-1,-1,-1,-1,-1,-1,-1],"split_conditions":[1.7E1,1.6E1,2E0,2E0,4E0,1.9E1,1.9E1,5E0,4E0,2E0,7E0,1.8E1,2.3E1,5E0,6E0,-1.8205527E-2,4.295348E-2,-1.9508546E-2,4.2300937E-3,2.1439171E-1,1.0450077E-1,2.521658E-2,-8.173285E-2,-1.2529469E-1,-8.1990846E-2,-9.200786E-3,-2.9724175E-2,6.931504E-2,-2.6180524E-2,-8.202077E-3,2.1128186E-3],"split_indices":[1,1,0,0,0,1,1,1,0,0,0,1,1,0,0,0,0,0,0,0,0,0,0,0,0,0,0,0,0,0,0],"split_type":[0,0,0,0,0,0,0,0,0,0,0,0,0,0,0,0,0,0,0,0,0,0,0,0,0,0,0,0,0,0,0],"sum_hessian":[1.5703E4,8.791E3,6.912E3,8.021E3,7.7E2,9.67E2,5.945E3,9.63E2,7.058E3,2.54E2,5.16E2,2.65E2,7.02E2,1.502E3,4.443E3,3.23E2,6.4E2,2.266E3,4.792E3,6.3E1,1.91E2,3.95E2,1.21E2,1.47E2,1.18E2,5.48E2,1.54E2,6.81E2,8.21E2,2.804E3,1.639E3],"tree_param":{"num_deleted":"0","num_feature":"2","num_nodes":"31","size_leaf_vector":"1"}},{"base_weights":[-1.4804347E-4,9.265321E-3,-1.5160164E-1,-5.671307E-2,3.817248E-2,-8.025368E-2,-1.9867778E-1,-2.5995122E-3,-4.2436245E-1,1.2572543E-1,-2.4457252E-2,-2.677094E-2,5.6534536E-2,-4.3716874E-2,-1.0132442E-1,1.4182541E-2,-1.987766E-2,-1.6360311E-1,5.9573962E-3,6.6700443E-3,3.948878E-2,-3.6902014E-2,2.9672165E-3,1.3920045E-2,1.680707E-3,-2.7456365E-3,-2.477333E-2],"categories":[],"categories_nodes":[],"categories_segments":[],"categories_sizes":[],"default_left":[0,0,0,0,0,0,0,0,0,0,0,0,0,0,0,0,0,0,0,0,0,0,0,0,0,0,0],"id":47,"left_children":[1,3,5,7,9,11,13,15,17,19,21,-1,23,-1,25,-1,-1,-1,-1,-1,-1,-1,-1,-1,-1,-1,-1],"loss_changes":[2.239041E1,2.8202732E1,3.0707817E0,8.9625046E1,5.638357E1,9.425651E0,1.2795198E1,1.11319664E2,3.3901962E2,6.809843E1,1.11823616E2,0E0,6.971754E-1,0E0,4.2542844E0,0E0,0E0,0E0,0E0,0E0,0E0,0E0,0E0,0E0,0E0,0E0,0E0],"parents":[2147483647,0,0,1,1,2,2,3,3,4,4,5,5,6,6,7,7,8,8,9,9,10,10,12,12,14,14],"right_children":[2,4,6,8,10,12,14,16,18,20,22,-1,24,-1,26,-1,-1,-1,-1,-1,-1,-1,-1,-1,-1,-1,-1],"split_conditions":[2.3E1,1E1,4E0,9E0,1.7E1,2E0,5E0,5E0,3E0,1.6E1,2E0,-2.677094E-2,3E0,-4.3716874E-2,7E0,1.4182541E-2,-1.987766E-2,-1.6360311E-1,5.9573962E-3,6.6700443E-3,3.948878E-2,-3.6902014E-2,2.9672165E-3,1.3920045E-2,1.680707E-3,-2.7456365E-3,-2.477333E-2],"split_indices":[1,1,0,1,1,0,0,0,0,1,0,0,0,0,0,0,0,0,0,0,0,0,0,0,0,0,0],"split_type":[0,0,0,0,0,0,0,0,0,0,0,0,0,0,0,0,0,0,0,0,0,0,0,0,0,0,0],"sum_hessian":[1.5703E4,1.4785E4,9.18E2,4.504E3,1.0281E4,3.66E2,5.52E2,3.927E3,5.77E2,4.287E3,5.994E3,1.54E2,2.12E2,1.59E2,3.93E2,2.262E3,1.665E3,1.64E2,4.13E2,3.517E3,7.7E2,8.13E2,5.181E3,6.8E1,1.44E2,2.62E2,1.31E2],"tree_param":{"num_deleted":"0","num_feature":"2","num_nodes":"27","size_leaf_vector":"1"}},{"base_weights":[-1.4804183E-4,-8.104971E-2,1.5526822E-2,2.5535937E-2,-1.5718925E-1,3.7044168E-1,1.3009437E-3,-2.7859813E-1,1.9684373E0,8.582095E-2,-1.6271743E0,1.5838667E0,-1.3255218E0,-9.308753E-2,6.2964134E-2,-1.7648427E-2,-4.3914046E-2,9.823545E-2,2.9408762E-1,2.3971226E-3,2.1286627E-2,-8.4071636E-2,-2.542798E-1,3.0501607E-1,1.3361482E-1,-2.0203292E-1,-4.147432E-2,-4.0380236E-2,4.6144705E-3,2.1937568E-2,-5.546012E-5],"categories":[],"categories_nodes":[],"categories_segments":[],"categories_sizes":[],"default_left":[0,0,0,0,0,0,0,0,0,0,0,0,0,0,0,0,0,0,0,0,0,0,0,0,0,0,0,0,0,0,0],"id":48,"left_children":[1,3,5,7,9,11,13,15,17,19,21,23,25,27,29,-1,-1,-1,-1,-1,-1,-1,-1,-1,-1,-1,-1,-1,-1,-1,-1],"loss_changes":[1.9915855E1,2.0690125E1,6.642384E1,6.286777E2,5.313278E2,1.0454673E3,7.363258E1,1.5004601E1,1.3519336E2,1.0029203E1,1.4980316E2,1.0344E2,1.33319E2,2.1628299E2,7.602322E1,0E0,0E0,0E0,0E0,0E0,0E0,0E0,0E0,0E0,0E0,0E0,0E0,0E0,0E0,0E0,0E0],"parents":[2147483647,0,0,1,1,2,2,3,3,4,4,5,5,6,6,7,7,8,8,9,9,10,10,11,11,12,12,13,13,14,14],"right_children":[2,4,6,8,10,12,14,16,18,20,22,24,26,28,30,-1,-1,-1,-1,-1,-1,-1,-1,-1,-1,-1,-1,-1,-1,-1,-1],"split_conditions":[6E0,4E0,7E0,5E0,5E0,6E0,4E0,3E0,3E0,3E0,5E0,2E0,7E0,1.4E1,1.4E1,-1.7648427E-2,-4.3914046E-2,9.823545E-2,2.9408762E-1,2.3971226E-3,2.1286627E-2,-8.4071636E-2,-2.542798E-1,3.0501607E-1,1.3361482E-1,-2.0203292E-1,-4.147432E-2,-4.0380236E-2,4.6144705E-3,2.1937568E-2,-5.546012E-5],"split_indices":[1,0,1,1,1,0,0,0,0,1,0,0,0,1,1,0,0,0,0,0,0,0,0,0,0,0,0,0,0,0,0],"split_type":[0,0,0,0,0,0,0,0,0,0,0,0,0,0,0,0,0,0,0,0,0,0,0,0,0,0,0,0,0,0,0],"sum_hessian":[1.5703E4,2.548E3,1.3155E4,1.062E3,1.486E3,5.06E2,1.2649E4,9.19E2,1.43E2,1.276E3,2.1E2,2.95E2,2.11E2,4.998E3,7.651E3,5.63E2,3.56E2,7.2E1,7.1E1,8.59E2,4.17E2,1.14E2,9.6E1,4.1E1,2.54E2,1.19E2,9.2E1,1.546E3,3.452E3,2.209E3,5.442E3],"tree_param":{"num_deleted":"0","num_feature":"2","num_nodes":"31","size_leaf_vector":"1"}},{"base_weights":[-1.20759454E-4,2.803024E-2,-4.3998323E-2,8.4708616E-2,-9.001004E-2,-1.3791151E-1,1.7583923E-2,1.8807454E-2,4.4307667E-1,-3.3713482E-2,-7.0054865E-1,5.2806884E-3,-2.554725E-1,2.1450227E-1,-2.3099467E-2,5.8818567E-3,-4.518345E-2,-1.9595293E-2,6.1233636E-2,-3.497235E-2,9.675749E-3,-1.6373476E-1,4.216413E-2,-2.713036E-2,4.2046007E-2,-4.6054095E-2,-1.4278094E-2,1.3550201E-1,-1.197438E-2,-1.70738E-2,6.9861673E-3],"categories":[],"categories_nodes":[],"categories_segments":[],"categories_sizes":[],"default_left":[0,0,0,0,0,0,0,0,0,0,0,0,0,0,0,0,0,0,0,0,0,0,0,0,0,0,0,0,0,0,0],"id":49,"left_children":[1,3,5,7,9,11,13,15,17,19,21,23,25,27,29,-1,-1,-1,-1,-1,-1,-1,-1,-1,-1,-1,-1,-1,-1,-1,-1],"loss_changes":[1.9398771E1,6.401402E1,3.5500843E1,1.5265112E2,1.0666466E2,4.0924366E1,2.9710878E1,1.0286217E2,1.0871454E2,1.1725111E2,2.7612213E2,1.26084885E2,3.0785408E1,2.4223288E2,4.2201492E1,0E0,0E0,0E0,0E0,0E0,0E0,0E0,0E0,0E0,0E0,0E0,0E0,0E0,0E0,0E0,0E0],"parents":[2147483647,0,0,1,1,2,2,3,3,4,4,5,5,6,6,7,7,8,8,9,9,10,10,11,11,12,12,13,13,14,14],"right_children":[2,4,6,8,10,12,14,16,18,20,22,24,26,28,30,-1,-1,-1,-1,-1,-1,-1,-1,-1,-1,-1,-1,-1,-1,-1,-1],"split_conditions":[1.8E1,6E0,4E0,1.6E1,1.7E1,2.1E1,1.9E1,1.5E1,2E0,7E0,7E0,2E1,2.2E1,5E0,2.1E1,5.8818567E-3,-4.518345E-2,-1.9595293E-2,6.1233636E-2,-3.497235E-2,9.675749E-3,-1.6373476E-1,4.216413E-2,-2.713036E-2,4.2046007E-2,-4.6054095E-2,-1.4278094E-2,1.3550201E-1,-1.197438E-2,-1.70738E-2,6.9861673E-3],"split_indices":[1,0,0,1,1,1,1,1,0,1,0,1,1,0,1,0,0,0,0,0,0,0,0,0,0,0,0,0,0,0,0],"split_type":[0,0,0,0,0,0,0,0,0,0,0,0,0,0,0,0,0,0,0,0,0,0,0,0,0,0,0,0,0,0,0],"sum_hessian":[1.5703E4,9.566E3,6.137E3,6.463E3,3.103E3,2.43E3,3.707E3,5.46E3,1.003E3,2.842E3,2.61E2,1.096E3,1.334E3,6.34E2,3.073E3,5.033E3,4.27E2,2.1E2,7.93E2,8.3E2,2.012E3,1.42E2,1.19E2,6.58E2,4.38E2,4.72E2,8.62E2,1.43E2,4.91E2,1.187E3,1.886E3],"tree_param":{"num_deleted":"0","num_feature":"2","num_nodes":"31","size_leaf_vector":"1"}}]},"name":"gbtree"},"learner_model_param":{"base_score":"[1.3619946E1]","boost_from_average":"1","num_class":"0","num_feature":"2","num_target":"1"},"objective":{"name":"reg:squarederror","reg_loss_param":{"scale_pos_weight":"1"}}},"version":[3,2,0]}