{"learner":{"attributes":{},"feature_names":["day_of_week","hour_of_day"],"feature_types":[],"gradient_booster":{"model":{"cats":{"enc":[],"feature_segments":[],"sorted_idx":[]},"gbtree_model_param":{"num_parallel_tree":"1","num_trees":"50"},"iteration_indptr":[0,1,2,3,4,5,6,7,8,9,10,11,12,13,14,15,16,17,18,19,20,21,22,23,24,25,26,27,28,29,30,31,32,33,34,35,36,37,38,39,40,41,42,43,44,45,46,47,48,49,50],"tree_info":[0,0,0,0,0,0,0,0,0,0,0,0,0,0,0,0,0,0,0,0,0,0,0,0,0,0,0,0,0,0,0,0,0,0,0,0,0,0,0,0,0,0,0,0,0,0,0,0,0,0],"trees":[{"base_weights":[-3.1157228E-7,-9.957766E0,1.2442292E0,-1.0249973E1,-5.953744E0,4.225814E0,-4.1499577E0,-1.0991931E1,-8.356032E-1,-2.7666792E-1,-7.4503833E-1,6.01E-1,5.03631E0,-1.6015096E0,-7.6093903E0,-1.1263794E0,-1.0026764E0,2.5955734E-1,-5.652045E-1,5.453269E-1,2.6630655E-1,-3.4981227E-1,-6.498396E-2,-9.6845114E-1,-5.964568E-1],"categories":[],"categories_nodes":[],"categories_segments":[],"categories_sizes":[],"default_left":[0,0,0,0,0,0,0,0,0,0,0,0,0,0,0,0,0,0,0,0,0,0,0,0,0],"id":0,"left_children":[1,3,5,7,9,11,13,15,-1,-1,-1,17,19,21,23,-1,-1,-1,-1,-1,-1,-1,-1,-1,-1],"loss_changes":[1.0596949E5,1.0504766E3,1.2229828E5,1.150375E3,2.9896948E2,1.4383859E4,2.3853227E4,5.2890625E1,0E0,0E0,0E0,1.1189722E4,3.9456328E3,2.8134485E3,3.8605938E3,0E0,0E0,0E0,0E0,0E0,0E0,0E0,0E0,0E0,0E0],"parents":[2147483647,0,0,1,1,2,2,3,3,4,4,5,5,6,6,7,7,11,11,12,12,13,13,14,14],"right_children":[2,4,6,8,10,12,14,16,-1,-1,-1,18,20,22,24,-1,-1,-1,-1,-1,-1,-1,-1,-1,-1],"split_conditions":[4E0,3E0,1.9E1,6E0,2E0,7E0,2.2E1,5E0,-8.356032E-1,-2.7666792E-1,-7.4503833E-1,6E0,7E0,3E0,4E0,-1.1263794E0,-1.0026764E0,2.5955734E-1,-5.652045E-1,5.453269E-1,2.6630655E-1,-3.4981227E-1,-6.498396E-2,-9.6845114E-1,-5.964568E-1],"split_indices":[1,1,1,0,0,1,1,0,0,0,0,0,0,0,0,0,0,0,0,0,0,0,0,0,0],"split_type":[0,0,0,0,0,0,0,0,0,0,0,0,0,0,0,0,0,0,0,0,0,0,0,0,0],"sum_hessian":[8.551E3,9.49E2,7.602E3,8.83E2,6.6E1,4.896E3,2.706E3,6.31E2,2.52E2,2.2E1,4.4E1,8.95E2,4.001E3,1.559E3,1.147E3,4.84E2,1.47E2,6.79E2,2.16E2,3.402E3,5.99E2,5.2E2,1.039E3,5.05E2,6.42E2],"tree_param":{"num_deleted":"0","num_feature":"2","num_nodes":"25","size_leaf_vector":"1"}},{"base_weights":[-6.389535E-4,-8.966186E0,1.1196122E0,-9.228331E0,-5.373619E0,3.4193206E0,-4.562469E0,-9.896108E0,-7.5237316E-1,-2.5020406E-1,-6.721901E-1,-8.1990737E-1,3.8094573E0,-2.0428956E0,-6.8498144E0,-1.0139736E0,-9.030862E-1,5.997963E-2,-6.308761E-1,4.5375434E-1,8.3502226E-2,-4.001647E-1,-1.0278616E-1,-8.717974E-1,-5.36904E-1],"categories":[],"categories_nodes":[],"categories_segments":[],"categories_sizes":[],"default_left":[0,0,0,0,0,0,0,0,0,0,0,0,0,0,0,0,0,0,0,0,0,0,0,0,0],"id":1,"left_children":[1,3,5,7,9,11,13,15,-1,-1,-1,17,19,21,23,-1,-1,-1,-1,-1,-1,-1,-1,-1,-1],"loss_changes":[8.590346E4,8.4509375E2,9.9364984E4,9.3178906E2,2.4258533E2,8.955566E3,1.2613035E4,4.165625E1,0E0,0E0,0E0,3.5649775E3,1.073132E4,2.071567E3,3.1289297E3,0E0,0E0,0E0,0E0,0E0,0E0,0E0,0E0,0E0,0E0],"parents":[2147483647,0,0,1,1,2,2,3,3,4,4,5,5,6,6,7,7,11,11,12,12,13,13,14,14],"right_children":[2,4,6,8,10,12,14,16,-1,-1,-1,18,20,22,24,-1,-1,-1,-1,-1,-1,-1,-1,-1,-1],"split_conditions":[4E0,3E0,2E1,6E0,2E0,5E0,2.2E1,5E0,-7.5237316E-1,-2.5020406E-1,-6.721901E-1,6E0,1.8E1,3E0,4E0,-1.0139736E0,-9.030862E-1,5.997963E-2,-6.308761E-1,4.5375434E-1,8.3502226E-2,-4.001647E-1,-1.0278616E-1,-8.717974E-1,-5.36904E-1],"split_indices":[1,1,1,0,0,1,1,0,0,0,0,0,1,0,0,0,0,0,0,0,0,0,0,0,0],"split_type":[0,0,0,0,0,0,0,0,0,0,0,0,0,0,0,0,0,0,0,0,0,0,0,0,0],"sum_hessian":[8.551E3,9.49E2,7.602E3,8.83E2,6.6E1,5.412E3,2.19E3,6.31E2,2.52E2,2.2E1,4.4E1,4.56E2,4.956E3,1.043E3,1.147E3,4.84E2,1.47E2,3.63E2,9.3E1,3.981E3,9.75E2,3.55E2,6.88E2,5.05E2,6.42E2],"tree_param":{"num_deleted":"0","num_feature":"2","num_nodes":"25","size_leaf_vector":"1"}},{"base_weights":[-1.2225107E-3,-8.073348E0,1.0073953E0,-8.308517E0,-4.8500247E0,3.4341655E0,-3.3830373E0,-8.909531E0,-6.7743325E-1,-2.262715E-1,-6.064649E-1,3.5942116E-1,4.121706E0,-1.3328496E0,-6.1660595E0,-9.1278535E-1,-8.133879E-1,2.0935164E-1,-5.0762665E-1,4.4946286E-1,1.9997422E-1,-4.0588146E-1,-8.144822E-2,-7.847899E-1,-4.8329702E-1],"categories":[],"categories_nodes":[],"categories_segments":[],"categories_sizes":[],"default_left":[0,0,0,0,0,0,0,0,0,0,0,0,0,0,0,0,0,0,0,0,0,0,0,0,0],"id":2,"left_children":[1,3,5,7,9,11,13,15,-1,-1,-1,17,19,21,23,-1,-1,-1,-1,-1,-1,-1,-1,-1,-1],"loss_changes":[6.963586E4,6.798281E2,8.101832E4,7.5475E2,1.9683228E2,1.0350828E4,1.5437162E4,3.278125E1,0E0,0E0,0E0,8.456323E3,3.1579062E3,2.2010544E3,2.5359336E3,0E0,0E0,0E0,0E0,0E0,0E0,0E0,0E0,0E0,0E0],"parents":[2147483647,0,0,1,1,2,2,3,3,4,4,5,5,6,6,7,7,11,11,12,12,13,13,14,14],"right_children":[2,4,6,8,10,12,14,16,-1,-1,-1,18,20,22,24,-1,-1,-1,-1,-1,-1,-1,-1,-1,-1],"split_conditions":[4E0,3E0,1.9E1,6E0,2E0,7E0,2.2E1,5E0,-6.7743325E-1,-2.262715E-1,-6.064649E-1,6E0,7E0,2E0,4E0,-9.1278535E-1,-8.133879E-1,2.0935164E-1,-5.0762665E-1,4.4946286E-1,1.9997422E-1,-4.0588146E-1,-8.144822E-2,-7.847899E-1,-4.8329702E-1],"split_indices":[1,1,1,0,0,1,1,0,0,0,0,0,0,0,0,0,0,0,0,0,0,0,0,0,0],"split_type":[0,0,0,0,0,0,0,0,0,0,0,0,0,0,0,0,0,0,0,0,0,0,0,0,0],"sum_hessian":[8.551E3,9.49E2,7.602E3,8.83E2,6.6E1,4.896E3,2.706E3,6.31E2,2.52E2,2.2E1,4.4E1,8.95E2,4.001E3,1.559E3,1.147E3,4.84E2,1.47E2,6.79E2,2.16E2,3.402E3,5.99E2,2.48E2,1.311E3,5.05E2,6.42E2],"tree_param":{"num_deleted":"0","num_feature":"2","num_nodes":"25","size_leaf_vector":"1"}},{"base_weights":[-1.6427737E-3,-7.26942E0,9.0647113E-1,-7.4803843E0,-4.377451E0,2.778547E0,-3.719021E0,-8.021308E0,-6.0995774E0,-2.0462811E-1,-5.471661E-1,3.231462E-1,3.2648818E0,-1.7014697E0,-5.550558E0,-8.21695E-1,-7.3259866E-1,-5.691786E-1,-6.477911E-1,1.8844728E-1,-4.5709792E-1,3.990193E-1,6.2856816E-2,-3.3564362E-1,-8.438943E-2,-7.0646596E-1,-4.3504244E-1],"categories":[],"categories_nodes":[],"categories_segments":[],"categories_sizes":[],"default_left":[0,0,0,0,0,0,0,0,0,0,0,0,0,0,0,0,0,0,0,0,0,0,0,0,0,0,0],"id":3,"left_children":[1,3,5,7,9,11,13,15,17,-1,-1,19,21,23,25,-1,-1,-1,-1,-1,-1,-1,-1,-1,-1,-1,-1],"loss_changes":[5.644953E4,5.4685156E2,6.584678E4,6.1134375E2,1.5970642E2,6.462867E3,8.0867793E3,2.5777344E1,2.1621094E0,0E0,0E0,6.855243E3,8.63657E3,1.4788733E3,2.0553281E3,0E0,0E0,0E0,0E0,0E0,0E0,0E0,0E0,0E0,0E0,0E0,0E0],"parents":[2147483647,0,0,1,1,2,2,3,3,4,4,5,5,6,6,7,7,8,8,11,11,12,12,13,13,14,14],"right_children":[2,4,6,8,10,12,14,16,18,-1,-1,20,22,24,26,-1,-1,-1,-1,-1,-1,-1,-1,-1,-1,-1,-1],"split_conditions":[4E0,3E0,2E1,6E0,2E0,7E0,2.2E1,5E0,2E0,-2.0462811E-1,-5.471661E-1,6E0,1.8E1,3E0,4E0,-8.21695E-1,-7.3259866E-1,-5.691786E-1,-6.477911E-1,1.8844728E-1,-4.5709792E-1,3.990193E-1,6.2856816E-2,-3.3564362E-1,-8.438943E-2,-7.0646596E-1,-4.3504244E-1],"split_indices":[1,1,1,0,0,1,1,0,1,0,0,0,1,0,0,0,0,0,0,0,0,0,0,0,0,0,0],"split_type":[0,0,0,0,0,0,0,0,0,0,0,0,0,0,0,0,0,0,0,0,0,0,0,0,0,0,0],"sum_hessian":[8.551E3,9.49E2,7.602E3,8.83E2,6.6E1,5.412E3,2.19E3,6.31E2,2.52E2,2.2E1,4.4E1,8.95E2,4.517E3,1.043E3,1.147E3,4.84E2,1.47E2,1.29E2,1.23E2,6.79E2,2.16E2,3.542E3,9.75E2,3.55E2,6.88E2,5.05E2,6.42E2],"tree_param":{"num_deleted":"0","num_feature":"2","num_nodes":"27","size_leaf_vector":"1"}},{"base_weights":[-2.050293E-3,-6.5461864E0,8.156442E-1,-6.735481E0,-3.9509268E0,2.2265675E0,-4.198269E0,-7.221637E0,-5.4944296E0,-1.85055E-1,-4.9366543E-1,2.7903512E0,-4.3535414E-1,-5.208317E0,-2.5437682E0,-7.3969495E-1,-6.5983385E-1,-5.126986E-1,-5.8353436E-1,1.0518854E-1,3.7253198E-1,-2.2667734E-1,-1.6370162E-2,-4.590099E-1,-6.8450046E-1,-1.1637105E-1,-5.432846E-1],"categories":[],"categories_nodes":[],"categories_segments":[],"categories_sizes":[],"default_left":[0,0,0,0,0,0,0,0,0,0,0,0,0,0,0,0,0,0,0,0,0,0,0,0,0,0,0],"id":4,"left_children":[1,3,5,7,9,11,13,15,17,-1,-1,19,21,23,25,-1,-1,-1,-1,-1,-1,-1,-1,-1,-1,-1,-1],"loss_changes":[4.5767984E4,4.4009766E2,5.3794844E4,4.9367578E2,1.295813E2,8.90665E3,2.7775293E3,2.025E1,1.7744141E0,0E0,0E0,7.9557188E3,5.1604395E2,1.01683594E3,2.525483E3,0E0,0E0,0E0,0E0,0E0,0E0,0E0,0E0,0E0,0E0,0E0,0E0],"parents":[2147483647,0,0,1,1,2,2,3,3,4,4,5,5,6,6,7,7,8,8,11,11,12,12,13,13,14,14],"right_children":[2,4,6,8,10,12,14,16,18,-1,-1,20,22,24,26,-1,-1,-1,-1,-1,-1,-1,-1,-1,-1,-1,-1],"split_conditions":[4E0,3E0,2.1E1,6E0,2E0,1.9E1,5E0,5E0,2E0,-1.85055E-1,-4.9366543E-1,1E1,2E0,2.3E1,7E0,-7.3969495E-1,-6.5983385E-1,-5.126986E-1,-5.8353436E-1,1.0518854E-1,3.7253198E-1,-2.2667734E-1,-1.6370162E-2,-4.590099E-1,-6.8450046E-1,-1.1637105E-1,-5.432846E-1],"split_indices":[1,1,1,0,0,1,0,0,1,0,0,1,0,1,0,0,0,0,0,0,0,0,0,0,0,0,0],"split_type":[0,0,0,0,0,0,0,0,0,0,0,0,0,0,0,0,0,0,0,0,0,0,0,0,0,0,0],"sum_hessian":[8.551E3,9.49E2,7.602E3,8.83E2,6.6E1,5.933E3,1.669E3,6.31E2,2.52E2,2.2E1,4.4E1,4.896E3,1.037E3,1.035E3,6.34E2,4.84E2,1.47E2,1.29E2,1.23E2,1.713E3,3.183E3,1.33E2,9.04E2,7.54E2,2.81E2,4.3E2,2.04E2],"tree_param":{"num_deleted":"0","num_feature":"2","num_nodes":"27","size_leaf_vector":"1"}},{"base_weights":[-2.3998623E-3,-5.89491E0,7.3387355E-1,-6.0647564E0,-3.565964E0,2.0039504E0,-3.7795215E0,-6.5016875E0,-4.94932E0,-1.673541E-1,-4.4539592E-1,2.65644E0,6.824385E-2,-5.092194E0,-2.680278E0,-6.65878E-1,-5.942963E-1,-4.6182314E-1,-5.256516E-1,9.467583E-2,3.7308392E-1,-1.8191707E-1,3.6912557E-2,-3.6255026E-1,-5.8212733E-1,-5.6931354E-2,-3.559235E-1],"categories":[],"categories_nodes":[],"categories_segments":[],"categories_sizes":[],"default_left":[0,0,0,0,0,0,0,0,0,0,0,0,0,0,0,0,0,0,0,0,0,0,0,0,0,0,0],"id":5,"left_children":[1,3,5,7,9,11,13,15,17,-1,-1,19,21,23,25,-1,-1,-1,-1,-1,-1,-1,-1,-1,-1,-1,-1],"loss_changes":[3.710716E4,3.5416016E2,4.3590695E4,3.986543E2,1.05137085E2,7.494629E3,2.3960723E3,1.58984375E1,1.456543E0,0E0,0E0,8.148543E3,8.508006E2,7.915918E2,1.6882856E3,0E0,0E0,0E0,0E0,0E0,0E0,0E0,0E0,0E0,0E0,0E0,0E0],"parents":[2147483647,0,0,1,1,2,2,3,3,4,4,5,5,6,6,7,7,8,8,11,11,12,12,13,13,14,14],"right_children":[2,4,6,8,10,12,14,16,18,-1,-1,20,22,24,26,-1,-1,-1,-1,-1,-1,-1,-1,-1,-1,-1,-1],"split_conditions":[4E0,3E0,2.1E1,6E0,2E0,1.8E1,4E0,5E0,2E0,-1.673541E-1,-4.4539592E-1,1E1,2E0,2.2E1,2.2E1,-6.65878E-1,-5.942963E-1,-4.6182314E-1,-5.256516E-1,9.467583E-2,3.7308392E-1,-1.8191707E-1,3.6912557E-2,-3.6255026E-1,-5.8212733E-1,-5.6931354E-2,-3.559235E-1],"split_indices":[1,1,1,0,0,1,0,0,1,0,0,1,0,1,1,0,0,0,0,0,0,0,0,0,0,0,0],"split_type":[0,0,0,0,0,0,0,0,0,0,0,0,0,0,0,0,0,0,0,0,0,0,0,0,0,0,0],"sum_hessian":[8.551E3,9.49E2,7.602E3,8.83E2,6.6E1,5.933E3,1.669E3,6.31E2,2.52E2,2.2E1,4.4E1,4.437E3,1.496E3,7.59E2,9.1E2,4.84E2,1.47E2,1.29E2,1.23E2,1.713E3,2.724E3,2.05E2,1.291E3,2.54E2,5.05E2,2.68E2,6.42E2],"tree_param":{"num_deleted":"0","num_feature":"2","num_nodes":"27","size_leaf_vector":"1"}},{"base_weights":[-2.6154742E-3,-5.3084297E0,6.6034997E-1,-5.460823E0,-3.2185133E0,2.2705216E0,-2.2527165E0,-5.853513E0,-4.4582906E0,-1.5134628E-1,-4.018461E0,-1.0582458E0,2.6125562E0,-8.887363E-1,-4.1042466E0,-5.994275E-1,-5.352682E-1,-4.1599604E-1,-4.7351027E-1,-3.259758E-1,-4.546503E-1,-5.6039337E-3,-4.9278727E-1,3.0544314E-1,1.4700186E-2,-2.8298137E-1,-5.1966846E-2,-5.677356E-1,-3.4297046E-1],"categories":[],"categories_nodes":[],"categories_segments":[],"categories_sizes":[],"default_left":[0,0,0,0,0,0,0,0,0,0,0,0,0,0,0,0,0,0,0,0,0,0,0,0,0,0,0,0,0],"id":6,"left_children":[1,3,5,7,9,11,13,15,17,-1,19,21,23,25,27,-1,-1,-1,-1,-1,-1,-1,-1,-1,-1,-1,-1,-1,-1],"loss_changes":[3.0085773E4,2.8499023E2,3.566727E4,3.2191797E2,8.530298E1,5.5782656E3,6.832746E3,1.246875E1,1.1953125E0,0E0,3.2077026E0,1.7720452E3,4.837877E3,1.1160967E3,1.1987031E3,0E0,0E0,0E0,0E0,0E0,0E0,0E0,0E0,0E0,0E0,0E0,0E0,0E0,0E0],"parents":[2147483647,0,0,1,1,2,2,3,3,4,4,5,5,6,6,7,7,8,8,10,10,11,11,12,12,13,13,14,14],"right_children":[2,4,6,8,10,12,14,16,18,-1,20,22,24,26,28,-1,-1,-1,-1,-1,-1,-1,-1,-1,-1,-1,-1,-1,-1],"split_conditions":[4E0,3E0,1.9E1,6E0,2E0,5E0,2.2E1,5E0,2E0,-1.5134628E-1,4E0,6E0,7E0,2E0,3E0,-5.994275E-1,-5.352682E-1,-4.1599604E-1,-4.7351027E-1,-3.259758E-1,-4.546503E-1,-5.6039337E-3,-4.9278727E-1,3.0544314E-1,1.4700186E-2,-2.8298137E-1,-5.1966846E-2,-5.677356E-1,-3.4297046E-1],"split_indices":[1,1,1,0,0,1,1,0,1,0,0,0,0,0,0,0,0,0,0,0,0,0,0,0,0,0,0,0,0],"split_type":[0,0,0,0,0,0,0,0,0,0,0,0,0,0,0,0,0,0,0,0,0,0,0,0,0,0,0,0,0],"sum_hessian":[8.551E3,9.49E2,7.602E3,8.83E2,6.6E1,4.896E3,2.706E3,6.31E2,2.52E2,2.2E1,4.4E1,4.56E2,4.44E3,1.559E3,1.147E3,4.84E2,1.47E2,1.29E2,1.23E2,2.1E1,2.3E1,3.63E2,9.3E1,3.765E3,6.75E2,2.48E2,1.311E3,3.42E2,8.05E2],"tree_param":{"num_deleted":"0","num_feature":"2","num_nodes":"29","size_leaf_vector":"1"}},{"base_weights":[-2.865934E-3,-4.7806983E0,5.9412783E-1,-4.917031E0,-2.9105723E0,1.6304654E0,-3.0886393E0,-5.269957E0,-4.015978E0,-1.3686968E-1,-3.6339626E0,2.1660206E0,4.1671705E-2,-3.9006703E0,-1.7589501E0,-5.396083E-1,-4.8210302E-1,-3.7471646E-1,-4.2654115E-1,-2.9485998E-1,-4.110797E-1,6.850657E-2,3.0967328E-1,-1.5621921E-1,2.9736385E-2,-3.3979172E-1,-5.2328616E-1,-5.3376913E-2,-4.3262383E-1],"categories":[],"categories_nodes":[],"categories_segments":[],"categories_sizes":[],"default_left":[0,0,0,0,0,0,0,0,0,0,0,0,0,0,0,0,0,0,0,0,0,0,0,0,0,0,0,0,0],"id":7,"left_children":[1,3,5,7,9,11,13,15,17,-1,19,21,23,25,27,-1,-1,-1,-1,-1,-1,-1,-1,-1,-1,-1,-1,-1,-1],"loss_changes":[2.4396021E4,2.2789844E2,2.9022568E4,2.5995312E2,6.975653E1,5.0490713E3,1.7963184E3,9.769531E0,9.807129E-1,0E0,2.585144E0,6.114965E3,6.1437726E2,6.760947E2,1.9950149E3,0E0,0E0,0E0,0E0,0E0,0E0,0E0,0E0,0E0,0E0,0E0,0E0,0E0,0E0],"parents":[2147483647,0,0,1,1,2,2,3,3,4,4,5,5,6,6,7,7,8,8,10,10,11,11,12,12,13,13,14,14],"right_children":[2,4,6,8,10,12,14,16,18,-1,20,22,24,26,28,-1,-1,-1,-1,-1,-1,-1,-1,-1,-1,-1,-1,-1,-1],"split_conditions":[4E0,3E0,2.1E1,6E0,2E0,1.8E1,5E0,5E0,2E0,-1.3686968E-1,4E0,1E1,2E0,2.3E1,7E0,-5.396083E-1,-4.8210302E-1,-3.7471646E-1,-4.2654115E-1,-2.9485998E-1,-4.110797E-1,6.850657E-2,3.0967328E-1,-1.5621921E-1,2.9736385E-2,-3.3979172E-1,-5.2328616E-1,-5.3376913E-2,-4.3262383E-1],"split_indices":[1,1,1,0,0,1,0,0,1,0,0,1,0,1,0,0,0,0,0,0,0,0,0,0,0,0,0,0,0],"split_type":[0,0,0,0,0,0,0,0,0,0,0,0,0,0,0,0,0,0,0,0,0,0,0,0,0,0,0,0,0],"sum_hessian":[8.551E3,9.49E2,7.602E3,8.83E2,6.6E1,5.933E3,1.669E3,6.31E2,2.52E2,2.2E1,4.4E1,4.437E3,1.496E3,1.035E3,6.34E2,4.84E2,1.47E2,1.29E2,1.23E2,2.1E1,2.3E1,1.713E3,2.724E3,2.05E2,1.291E3,7.54E2,2.81E2,4.3E2,2.04E2],"tree_param":{"num_deleted":"0","num_feature":"2","num_nodes":"29","size_leaf_vector":"1"}},{"base_weights":[-3.0193275E-3,-4.3054347E0,5.3457075E-1,-4.4273896E0,-2.6320946E0,1.6580794E0,-2.2413702E0,-4.744578E0,-3.6175468E0,-1.2377782E-1,-3.2862542E0,-1.0218682E0,1.904817E0,-9.968478E-1,-3.3711963E0,-4.8575875E-1,-4.3421847E-1,-3.3753303E-1,-3.8423097E-1,-2.6671425E-1,-3.7168458E-1,-1.1876896E-2,-4.5081052E-1,2.236348E-1,2.7441669E-3,-1.615757E-1,4.942796E-3,-4.7125575E-1,-2.796186E-1],"categories":[],"categories_nodes":[],"categories_segments":[],"categories_sizes":[],"default_left":[0,0,0,0,0,0,0,0,0,0,0,0,0,0,0,0,0,0,0,0,0,0,0,0,0,0,0,0,0],"id":8,"left_children":[1,3,5,7,9,11,13,15,17,-1,19,21,23,25,27,-1,-1,-1,-1,-1,-1,-1,-1,-1,-1,-1,-1,-1,-1],"loss_changes":[1.9782527E4,1.8221484E2,2.3715906E4,2.0991211E2,5.7043365E1,3.5812598E3,3.0773916E3,7.645508E0,8.046875E-1,0E0,2.0829468E0,1.4382916E3,3.085213E3,6.761218E2,8.7226953E2,0E0,0E0,0E0,0E0,0E0,0E0,0E0,0E0,0E0,0E0,0E0,0E0,0E0,0E0],"parents":[2147483647,0,0,1,1,2,2,3,3,4,4,5,5,6,6,7,7,8,8,10,10,11,11,12,12,13,13,14,14],"right_children":[2,4,6,8,10,12,14,16,18,-1,20,22,24,26,28,-1,-1,-1,-1,-1,-1,-1,-1,-1,-1,-1,-1,-1,-1],"split_conditions":[4E0,3E0,2E1,6E0,2E0,5E0,2.2E1,5E0,2E0,-1.2377782E-1,4E0,6E0,7E0,5E0,3E0,-4.8575875E-1,-4.3421847E-1,-3.3753303E-1,-3.8423097E-1,-2.6671425E-1,-3.7168458E-1,-1.1876896E-2,-4.5081052E-1,2.236348E-1,2.7441669E-3,-1.615757E-1,4.942796E-3,-4.7125575E-1,-2.796186E-1],"split_indices":[1,1,1,0,0,1,1,0,1,0,0,0,0,0,0,0,0,0,0,0,0,0,0,0,0,0,0,0,0],"split_type":[0,0,0,0,0,0,0,0,0,0,0,0,0,0,0,0,0,0,0,0,0,0,0,0,0,0,0,0,0],"sum_hessian":[8.551E3,9.49E2,7.602E3,8.83E2,6.6E1,5.412E3,2.19E3,6.31E2,2.52E2,2.2E1,4.4E1,4.56E2,4.956E3,1.043E3,1.147E3,4.84E2,1.47E2,1.29E2,1.23E2,2.1E1,2.3E1,3.63E2,9.3E1,4.212E3,7.44E2,6.55E2,3.88E2,3.42E2,8.05E2],"tree_param":{"num_deleted":"0","num_feature":"2","num_nodes":"29","size_leaf_vector":"1"}},{"base_weights":[-3.1322008E-3,-3.8774214E0,4.809633E-1,-3.986508E0,-2.380261E0,1.6842825E0,-1.6960354E0,-4.2715755E0,-3.2586448E0,-1.1193825E-1,-2.971815E0,5.016054E-1,2.3204083E0,-7.098056E-1,-3.0347307E0,-4.3497172E-1,-3.8123643E-1,-3.0403936E-1,-3.4611773E-1,-2.4125516E-1,-3.360648E-1,1.4963934E-1,-2.9710487E-1,2.5971797E-1,6.7579426E-2,-1.6805348E-1,-2.228251E-2,-3.9331004E-1,-2.3230515E-1],"categories":[],"categories_nodes":[],"categories_segments":[],"categories_sizes":[],"default_left":[0,0,0,0,0,0,0,0,0,0,0,0,0,0,0,0,0,0,0,0,0,0,0,0,0,0,0,0,0],"id":9,"left_children":[1,3,5,7,9,11,13,15,17,-1,19,21,23,25,27,-1,-1,-1,-1,-1,-1,-1,-1,-1,-1,-1,-1,-1,-1],"loss_changes":[1.6041363E4,1.4566406E2,1.991986E4,1.6950195E2,4.6647217E1,3.683002E3,3.571794E3,6.095703E0,6.6015625E-1,0E0,1.678009E0,5.925552E3,1.447543E3,7.370783E2,7.248379E2,0E0,0E0,0E0,0E0,0E0,0E0,0E0,0E0,0E0,0E0,0E0,0E0,0E0,0E0],"parents":[2147483647,0,0,1,1,2,2,3,3,4,4,5,5,6,6,7,7,8,8,10,10,11,11,12,12,13,13,14,14],"right_children":[2,4,6,8,10,12,14,16,18,-1,20,22,24,26,28,-1,-1,-1,-1,-1,-1,-1,-1,-1,-1,-1,-1,-1,-1],"split_conditions":[4E0,3E0,1.9E1,6E0,2E0,1E1,2.2E1,2E0,2E0,-1.1193825E-1,4E0,6E0,1.8E1,3E0,4E0,-4.3497172E-1,-3.8123643E-1,-3.0403936E-1,-3.4611773E-1,-2.4125516E-1,-3.360648E-1,1.4963934E-1,-2.9710487E-1,2.5971797E-1,6.7579426E-2,-1.6805348E-1,-2.228251E-2,-3.9331004E-1,-2.3230515E-1],"split_indices":[1,1,1,0,0,1,1,1,1,0,0,0,1,0,0,0,0,0,0,0,0,0,0,0,0,0,0,0,0],"split_type":[0,0,0,0,0,0,0,0,0,0,0,0,0,0,0,0,0,0,0,0,0,0,0,0,0,0,0,0,0],"sum_hessian":[8.551E3,9.49E2,7.602E3,8.83E2,6.6E1,4.896E3,2.706E3,6.31E2,2.52E2,2.2E1,4.4E1,1.713E3,3.183E3,1.559E3,1.147E3,5.32E2,9.9E1,1.29E2,1.23E2,2.1E1,2.3E1,1.332E3,3.81E2,2.724E3,4.59E2,5.2E2,1.039E3,5.05E2,6.42E2],"tree_param":{"num_deleted":"0","num_feature":"2","num_nodes":"29","size_leaf_vector":"1"}},{"base_weights":[-3.1453485E-3,-3.4919484E0,4.3278337E-1,-3.5895157E0,-2.1525223E0,1.5158911E0,-1.526733E0,-3.8457093E0,-2.9353502E0,-1.0123109E-1,-2.6874633E0,-9.7909254E-1,1.7722954E0,-6.3894695E-1,-2.7318025E0,-3.9497238E-1,-3.4788674E-1,-2.7386928E-1,-3.1178513E-1,-2.1822631E-1,-3.038586E-1,-2.5615258E-2,-3.7681463E-1,2.1212323E-1,-1.7425632E-2,-2.0829406E-1,-3.644093E-2,-3.8505122E-1,-2.2523367E-1],"categories":[],"categories_nodes":[],"categories_segments":[],"categories_sizes":[],"default_left":[0,0,0,0,0,0,0,0,0,0,0,0,0,0,0,0,0,0,0,0,0,0,0,0,0,0,0,0,0],"id":10,"left_children":[1,3,5,7,9,11,13,15,17,-1,19,21,23,25,27,-1,-1,-1,-1,-1,-1,-1,-1,-1,-1,-1,-1,-1,-1],"loss_changes":[1.3007985E4,1.1642383E2,1.6138672E4,1.3686426E2,3.8145844E1,3.1344668E3,2.8943218E3,1.0374023E1,5.4125977E-1,0E0,1.3514404E0,9.204923E2,3.0168037E3,6.176727E2,6.070957E2,0E0,0E0,0E0,0E0,0E0,0E0,0E0,0E0,0E0,0E0,0E0,0E0,0E0,0E0],"parents":[2147483647,0,0,1,1,2,2,3,3,4,4,5,5,6,6,7,7,8,8,10,10,11,11,12,12,13,13,14,14],"right_children":[2,4,6,8,10,12,14,16,18,-1,20,22,24,26,28,-1,-1,-1,-1,-1,-1,-1,-1,-1,-1,-1,-1,-1,-1],"split_conditions":[4E0,3E0,1.9E1,6E0,2E0,5E0,2.2E1,5E0,2E0,-1.0123109E-1,4E0,6E0,7E0,2E0,3E0,-3.9497238E-1,-3.4788674E-1,-2.7386928E-1,-3.1178513E-1,-2.1822631E-1,-3.038586E-1,-2.5615258E-2,-3.7681463E-1,2.1212323E-1,-1.7425632E-2,-2.0829406E-1,-3.644093E-2,-3.8505122E-1,-2.2523367E-1],"split_indices":[1,1,1,0,0,1,1,0,1,0,0,0,0,0,0,0,0,0,0,0,0,0,0,0,0,0,0,0,0],"split_type":[0,0,0,0,0,0,0,0,0,0,0,0,0,0,0,0,0,0,0,0,0,0,0,0,0,0,0,0,0],"sum_hessian":[8.551E3,9.49E2,7.602E3,8.83E2,6.6E1,4.896E3,2.706E3,6.31E2,2.52E2,2.2E1,4.4E1,4.56E2,4.44E3,1.559E3,1.147E3,4.84E2,1.47E2,1.29E2,1.23E2,2.1E1,2.3E1,3.63E2,9.3E1,3.765E3,6.75E2,2.48E2,1.311E3,3.42E2,8.05E2],"tree_param":{"num_deleted":"0","num_feature":"2","num_nodes":"29","size_leaf_vector":"1"}},{"base_weights":[-3.1834813E-3,-3.144808E0,3.8936508E-1,-3.232067E0,-1.9465735E0,1.3642592E0,-1.3743756E0,-3.462314E0,-2.6441302E0,-9.154816E-2,-2.4303188E0,1.267708E-1,1.8213608E0,-5.752092E-1,-2.4591537E0,-3.5343167E-1,-3.0439174E-1,-2.4669306E-1,-2.8085804E-1,-1.9739561E-1,-2.747388E-1,9.954287E-2,-3.0374175E-1,2.058182E-1,5.8178127E-2,-1.3946293E-1,-1.6415812E-2,-1.8652378E-1,-3.2614395E-1],"categories":[],"categories_nodes":[],"categories_segments":[],"categories_sizes":[],"default_left":[0,0,0,0,0,0,0,0,0,0,0,0,0,0,0,0,0,0,0,0,0,0,0,0,0,0,0,0,0],"id":11,"left_children":[1,3,5,7,9,11,13,15,17,-1,19,21,23,25,27,-1,-1,-1,-1,-1,-1,-1,-1,-1,-1,-1,-1,-1,-1],"loss_changes":[1.0547895E4,9.3038086E1,1.3074932E4,1.10512695E2,3.1193756E1,2.7697969E3,2.345333E3,8.280762E0,4.4384766E-1,0E0,1.0881958E0,3.6366685E3,1.0485684E3,5.252158E2,5.4092773E2,0E0,0E0,0E0,0E0,0E0,0E0,0E0,0E0,0E0,0E0,0E0,0E0,0E0,0E0],"parents":[2147483647,0,0,1,1,2,2,3,3,4,4,5,5,6,6,7,7,8,8,10,10,11,11,12,12,13,13,14,14],"right_children":[2,4,6,8,10,12,14,16,18,-1,20,22,24,26,28,-1,-1,-1,-1,-1,-1,-1,-1,-1,-1,-1,-1,-1,-1],"split_conditions":[4E0,3E0,1.9E1,6E0,2E0,9E0,2.2E1,2E0,2E0,-9.154816E-2,4E0,6E0,7E0,3E0,2.3E1,-3.5343167E-1,-3.0439174E-1,-2.4669306E-1,-2.8085804E-1,-1.9739561E-1,-2.747388E-1,9.954287E-2,-3.0374175E-1,2.058182E-1,5.8178127E-2,-1.3946293E-1,-1.6415812E-2,-1.8652378E-1,-3.2614395E-1],"split_indices":[1,1,1,0,0,1,1,1,1,0,0,0,0,0,1,0,0,0,0,0,0,0,0,0,0,0,0,0,0],"split_type":[0,0,0,0,0,0,0,0,0,0,0,0,0,0,0,0,0,0,0,0,0,0,0,0,0,0,0,0,0],"sum_hessian":[8.551E3,9.49E2,7.602E3,8.83E2,6.6E1,4.896E3,2.706E3,6.31E2,2.52E2,2.2E1,4.4E1,1.321E3,3.575E3,1.559E3,1.147E3,5.32E2,9.9E1,1.29E2,1.23E2,2.1E1,2.3E1,1.037E3,2.84E2,3.001E3,5.74E2,5.2E2,1.039E3,6.61E2,4.86E2],"tree_param":{"num_deleted":"0","num_feature":"2","num_nodes":"29","size_leaf_vector":"1"}},{"base_weights":[-3.1408544E-3,-2.8321683E0,3.5034847E-1,-2.9102013E0,-1.7603294E0,9.792093E-1,-1.8843883E0,-3.212873E0,-2.5359364E0,-8.279139E-2,-2.197779E0,1.3273549E0,-5.355589E-2,-2.512225E0,-8.5710794E-1,-3.3263898E-1,-2.7425694E-1,-2.71971E-1,-2.2841151E-1,-1.7855333E-1,-2.4840966E-1,5.395302E-2,2.2456439E-1,-1.3425367E-1,1.5200417E-2,-2.1737392E-1,-3.409546E-1,2.2069814E-2,-3.1189486E-1],"categories":[],"categories_nodes":[],"categories_segments":[],"categories_sizes":[],"default_left":[0,0,0,0,0,0,0,0,0,0,0,0,0,0,0,0,0,0,0,0,0,0,0,0,0,0,0,0,0],"id":12,"left_children":[1,3,5,7,9,11,13,15,17,-1,19,21,23,25,27,-1,-1,-1,-1,-1,-1,-1,-1,-1,-1,-1,-1,-1,-1],"loss_changes":[8.553258E3,7.4333496E1,1.0686635E4,9.199121E1,2.5508698E1,2.1336567E3,1.0749365E3,1.677002E1,1.2299072E1,0E0,8.760681E-1,3.2094624E3,3.968536E2,3.0725342E2,1.5487075E3,0E0,0E0,0E0,0E0,0E0,0E0,0E0,0E0,0E0,0E0,0E0,0E0,0E0,0E0],"parents":[2147483647,0,0,1,1,2,2,3,3,4,4,5,5,6,6,7,7,8,8,10,10,11,11,12,12,13,13,14,14],"right_children":[2,4,6,8,10,12,14,16,18,-1,20,22,24,26,28,-1,-1,-1,-1,-1,-1,-1,-1,-1,-1,-1,-1,-1,-1],"split_conditions":[4E0,3E0,2.1E1,5E0,2E0,1.8E1,5E0,2E0,7E0,-8.279139E-2,4E0,1.2E1,2E0,2.3E1,7E0,-3.3263898E-1,-2.7425694E-1,-2.71971E-1,-2.2841151E-1,-1.7855333E-1,-2.4840966E-1,5.395302E-2,2.2456439E-1,-1.3425367E-1,1.5200417E-2,-2.1737392E-1,-3.409546E-1,2.2069814E-2,-3.1189486E-1],"split_indices":[1,1,1,0,0,1,0,1,0,0,0,1,0,1,0,0,0,0,0,0,0,0,0,0,0,0,0,0,0],"split_type":[0,0,0,0,0,0,0,0,0,0,0,0,0,0,0,0,0,0,0,0,0,0,0,0,0,0,0,0,0],"sum_hessian":[8.551E3,9.49E2,7.602E3,8.83E2,6.6E1,5.933E3,1.669E3,4.84E2,3.99E2,2.2E1,4.4E1,4.437E3,1.496E3,1.035E3,6.34E2,3.85E2,9.9E1,2.25E2,1.74E2,2.1E1,2.3E1,2.389E3,2.048E3,2.05E2,1.291E3,7.54E2,2.81E2,4.3E2,2.04E2],"tree_param":{"num_deleted":"0","num_feature":"2","num_nodes":"29","size_leaf_vector":"1"}},{"base_weights":[-3.0963125E-3,-2.5506537E0,3.1522313E-1,-2.6204338E0,-1.5919049E0,8.8131535E-1,-1.6964575E0,-2.892837E0,-2.2835934E0,-7.4872226E-2,-1.9874892E0,1.1170378E0,-5.2026516E-1,-2.2615414E0,-7.7185374E-1,-2.9946128E-1,-2.4710551E-1,-2.4489422E-1,-2.0570086E-1,-1.6150962E-1,-2.2460373E-1,1.4926754E-1,-9.867146E-4,-3.4541145E-1,4.6459895E-2,-1.9566533E-1,-3.0698E-1,1.9867942E-2,-2.8085753E-1],"categories":[],"categories_nodes":[],"categories_segments":[],"categories_sizes":[],"default_left":[0,0,0,0,0,0,0,0,0,0,0,0,0,0,0,0,0,0,0,0,0,0,0,0,0,0,0,0,0],"id":13,"left_children":[1,3,5,7,9,11,13,15,17,-1,19,21,23,25,27,-1,-1,-1,-1,-1,-1,-1,-1,-1,-1,-1,-1,-1,-1],"loss_changes":[6.9359375E3,5.9384766E1,8.659768E3,7.4506836E1,2.0859772E1,1.9610796E3,8.7079395E2,1.3419922E1,9.94873E0,0E0,7.0510864E-1,2.150419E3,2.4720786E3,2.4929346E2,1.2557664E3,0E0,0E0,0E0,0E0,0E0,0E0,0E0,0E0,0E0,0E0,0E0,0E0,0E0,0E0],"parents":[2147483647,0,0,1,1,2,2,3,3,4,4,5,5,6,6,7,7,8,8,10,10,11,11,12,12,13,13,14,14],"right_children":[2,4,6,8,10,12,14,16,18,-1,20,22,24,26,28,-1,-1,-1,-1,-1,-1,-1,-1,-1,-1,-1,-1,-1,-1],"split_conditions":[4E0,3E0,2.1E1,5E0,2E0,7E0,5E0,2E0,7E0,-7.4872226E-2,4E0,1.8E1,1E1,2.3E1,7E0,-2.9946128E-1,-2.4710551E-1,-2.4489422E-1,-2.0570086E-1,-1.6150962E-1,-2.2460373E-1,1.4926754E-1,-9.867146E-4,-3.4541145E-1,4.6459895E-2,-1.9566533E-1,-3.0698E-1,1.9867942E-2,-2.8085753E-1],"split_indices":[1,1,1,0,0,0,0,1,0,0,0,1,1,1,0,0,0,0,0,0,0,0,0,0,0,0,0,0,0],"split_type":[0,0,0,0,0,0,0,0,0,0,0,0,0,0,0,0,0,0,0,0,0,0,0,0,0,0,0,0,0],"sum_hessian":[8.551E3,9.49E2,7.602E3,8.83E2,6.6E1,5.933E3,1.669E3,4.84E2,3.99E2,2.2E1,4.4E1,5.079E3,8.54E2,1.035E3,6.34E2,3.85E2,9.9E1,2.25E2,1.74E2,2.1E1,2.3E1,3.809E3,1.27E3,2.14E2,6.4E2,7.54E2,2.81E2,4.3E2,2.04E2],"tree_param":{"num_deleted":"0","num_feature":"2","num_nodes":"29","size_leaf_vector":"1"}},{"base_weights":[-3.063867E-3,-1.8952016E0,3.6916906E-1,-2.3595183E0,-1.106767E0,1.2142394E0,-1.0173571E0,-2.530173E0,-1.923893E0,-5.935082E-1,-2.8827467E0,1.4733934E0,-2.3130555E-1,-4.143195E-1,-1.8359298E0,-2.6046804E-1,-2.2689147E-1,-1.7563511E-1,-2.0840263E-1,-8.749726E-2,-1.4899167E-2,-2.0307922E-1,-3.0695996E-1,1.6091804E-1,2.2273993E-2,-3.1057066E-1,7.481564E-2,-1.4735828E-1,-2.129697E-2,-2.7464777E-1,-1.4461607E-1],"categories":[],"categories_nodes":[],"categories_segments":[],"categories_sizes":[],"default_left":[0,0,0,0,0,0,0,0,0,0,0,0,0,0,0,0,0,0,0,0,0,0,0,0,0,0,0,0,0,0,0],"id":14,"left_children":[1,3,5,7,9,11,13,15,17,19,21,23,25,27,29,-1,-1,-1,-1,-1,-1,-1,-1,-1,-1,-1,-1,-1,-1,-1,-1],"loss_changes":[6.0240103E3,5.1210156E2,8.375462E3,6.0850098E1,4.75023E2,1.6640234E3,1.3354961E3,6.39209E0,3.1274414E0,5.0791687E1,1.23914795E1,6.3919336E2,1.9055112E3,3.324068E2,4.0345703E2,0E0,0E0,0E0,0E0,0E0,0E0,0E0,0E0,0E0,0E0,0E0,0E0,0E0,0E0,0E0,0E0],"parents":[2147483647,0,0,1,1,2,2,3,3,4,4,5,5,6,6,7,7,8,8,9,9,10,10,11,11,12,12,13,13,14,14],"right_children":[2,4,6,8,10,12,14,16,18,20,22,24,26,28,30,-1,-1,-1,-1,-1,-1,-1,-1,-1,-1,-1,-1,-1,-1,-1,-1],"split_conditions":[5E0,3E0,1.9E1,6E0,6E0,7E0,2.2E1,5E0,2E0,4E0,4E0,1.8E1,1E1,2E0,3E0,-2.6046804E-1,-2.2689147E-1,-1.7563511E-1,-2.0840263E-1,-8.749726E-2,-1.4899167E-2,-2.0307922E-1,-3.0695996E-1,1.6091804E-1,2.2273993E-2,-3.1057066E-1,7.481564E-2,-1.4735828E-1,-2.129697E-2,-2.7464777E-1,-1.4461607E-1],"split_indices":[1,1,1,0,0,0,1,0,1,0,1,1,1,0,0,0,0,0,0,0,0,0,0,0,0,0,0,0,0,0,0],"split_type":[0,0,0,0,0,0,0,0,0,0,0,0,0,0,0,0,0,0,0,0,0,0,0,0,0,0,0,0,0,0,0],"sum_hessian":[8.551E3,1.405E3,7.146E3,8.83E2,5.22E2,4.44E3,2.706E3,6.31E2,2.52E2,4.06E2,1.16E2,3.765E3,6.75E2,1.559E3,1.147E3,4.84E2,1.47E2,1.29E2,1.23E2,2.48E2,1.58E2,2.3E1,9.3E1,3.396E3,3.69E2,1.71E2,5.04E2,2.48E2,1.311E3,3.42E2,8.05E2],"tree_param":{"num_deleted":"0","num_feature":"2","num_nodes":"31","size_leaf_vector":"1"}},{"base_weights":[-3.0057111E-3,-1.7067367E0,3.321627E-1,-2.1245522E0,-9.972612E-1,1.0928041E0,-9.1583884E-1,-2.277927E0,-1.7330214E0,-5.3440875E-1,-2.5988312E0,1.3261032E0,-2.0852387E-1,-6.076406E-1,-2.3195195E0,-2.331696E-1,-1.9685571E-1,-1.5820669E-1,-1.8773045E-1,-7.878264E-2,-1.3418625E-2,-1.8361746E-1,-2.765905E-1,1.4483105E-1,2.005261E-2,-1.8847673E-1,1.2593472E-1,-1.3721378E-1,-2.1692341E-2,-3.1339747E-1,-2.1295182E-1],"categories":[],"categories_nodes":[],"categories_segments":[],"categories_sizes":[],"default_left":[0,0,0,0,0,0,0,0,0,0,0,0,0,0,0,0,0,0,0,0,0,0,0,0,0,0,0,0,0,0,0],"id":15,"left_children":[1,3,5,7,9,11,13,15,17,19,21,23,25,27,29,-1,-1,-1,-1,-1,-1,-1,-1,-1,-1,-1,-1,-1,-1,-1,-1],"loss_changes":[4.8840737E3,4.1466187E2,6.7855156E3,4.9137207E1,3.863061E2,1.3485591E3,1.1696714E3,5.9230957E0,2.5404053E0,4.1173607E1,9.829468E0,5.1773584E2,1.6656779E3,6.631198E2,6.868799E1,0E0,0E0,0E0,0E0,0E0,0E0,0E0,0E0,0E0,0E0,0E0,0E0,0E0,0E0,0E0,0E0],"parents":[2147483647,0,0,1,1,2,2,3,3,4,4,5,5,6,6,7,7,8,8,9,9,10,10,11,11,12,12,13,13,14,14],"right_children":[2,4,6,8,10,12,14,16,18,20,22,24,26,28,30,-1,-1,-1,-1,-1,-1,-1,-1,-1,-1,-1,-1,-1,-1,-1,-1],"split_conditions":[5E0,3E0,1.9E1,6E0,6E0,7E0,2.3E1,2E0,2E0,4E0,4E0,1.8E1,1.3E1,3E0,2E0,-2.331696E-1,-1.9685571E-1,-1.5820669E-1,-1.8773045E-1,-7.878264E-2,-1.3418625E-2,-1.8361746E-1,-2.765905E-1,1.4483105E-1,2.005261E-2,-1.8847673E-1,1.2593472E-1,-1.3721378E-1,-2.1692341E-2,-3.1339747E-1,-2.1295182E-1],"split_indices":[1,1,1,0,0,0,1,1,1,0,1,1,1,0,0,0,0,0,0,0,0,0,0,0,0,0,0,0,0,0,0],"split_type":[0,0,0,0,0,0,0,0,0,0,0,0,0,0,0,0,0,0,0,0,0,0,0,0,0,0,0,0,0,0,0],"sum_hessian":[8.551E3,1.405E3,7.146E3,8.83E2,5.22E2,4.44E3,2.706E3,6.31E2,2.52E2,4.06E2,1.16E2,3.765E3,6.75E2,2.22E3,4.86E2,5.32E2,9.9E1,1.29E2,1.23E2,2.48E2,1.58E2,2.3E1,9.3E1,3.396E3,3.69E2,3.15E2,3.6E2,7.5E2,1.47E3,8.9E1,3.97E2],"tree_param":{"num_deleted":"0","num_feature":"2","num_nodes":"31","size_leaf_vector":"1"}},{"base_weights":[-2.9285706E-3,-1.5370078E0,2.9886496E-1,-1.9129748E0,-8.985912E-1,9.8354685E-1,-8.245082E-1,-2.119473E0,-1.6578134E0,-4.811943E-1,-2.3428814E0,1.1935369E0,-1.87764E-1,-3.1281057E-1,-1.5191282E0,-2.2035685E-1,-1.7736702E-1,-1.7843293E-1,-1.484954E-1,-7.093597E-2,-1.2085221E-2,-1.6602078E-1,-2.4922569E-1,3.9399616E-2,1.3552594E-1,-2.6095608E-1,6.3745745E-2,-6.298231E-2,2.0661162E-2,-2.0840743E-1,-1.07218914E-1],"categories":[],"categories_nodes":[],"categories_segments":[],"categories_sizes":[],"default_left":[0,0,0,0,0,0,0,0,0,0,0,0,0,0,0,0,0,0,0,0,0,0,0,0,0,0,0,0,0,0,0],"id":16,"left_children":[1,3,5,7,9,11,13,15,17,19,21,23,25,27,29,-1,-1,-1,-1,-1,-1,-1,-1,-1,-1,-1,-1,-1,-1,-1,-1],"loss_changes":[3.9598232E3,3.357539E2,5.497949E3,4.3064697E1,3.1415915E2,1.0925483E3,9.616885E2,1.0195557E1,6.0981445E0,3.337684E1,7.793335E0,4.8642383E2,1.352662E3,2.5700494E2,2.876316E2,0E0,0E0,0E0,0E0,0E0,0E0,0E0,0E0,0E0,0E0,0E0,0E0,0E0,0E0,0E0,0E0],"parents":[2147483647,0,0,1,1,2,2,3,3,4,4,5,5,6,6,7,7,8,8,9,9,10,10,11,11,12,12,13,13,14,14],"right_children":[2,4,6,8,10,12,14,16,18,20,22,24,26,28,30,-1,-1,-1,-1,-1,-1,-1,-1,-1,-1,-1,-1,-1,-1,-1,-1],"split_conditions":[5E0,3E0,1.9E1,5E0,6E0,7E0,2.2E1,2E0,7E0,4E0,4E0,2E0,1E1,5E0,4E0,-2.2035685E-1,-1.7736702E-1,-1.7843293E-1,-1.484954E-1,-7.093597E-2,-1.2085221E-2,-1.6602078E-1,-2.4922569E-1,3.9399616E-2,1.3552594E-1,-2.6095608E-1,6.3745745E-2,-6.298231E-2,2.0661162E-2,-2.0840743E-1,-1.07218914E-1],"split_indices":[1,1,1,0,0,0,1,1,0,0,1,0,1,0,0,0,0,0,0,0,0,0,0,0,0,0,0,0,0,0,0],"split_type":[0,0,0,0,0,0,0,0,0,0,0,0,0,0,0,0,0,0,0,0,0,0,0,0,0,0,0,0,0,0,0],"sum_hessian":[8.551E3,1.405E3,7.146E3,8.83E2,5.22E2,4.44E3,2.706E3,4.84E2,3.99E2,4.06E2,1.16E2,3.765E3,6.75E2,1.559E3,1.147E3,3.85E2,9.9E1,2.25E2,1.74E2,2.48E2,1.58E2,2.3E1,9.3E1,6.34E2,3.131E3,1.71E2,5.04E2,9.68E2,5.91E2,5.05E2,6.42E2],"tree_param":{"num_deleted":"0","num_feature":"2","num_nodes":"31","size_leaf_vector":"1"}},{"base_weights":[-2.8234066E-3,-1.3841769E0,2.6892498E-1,-1.7224971E0,-8.096848E-1,9.77323E-1,-6.2213945E-1,-1.9083457E0,-1.4928495E0,-4.332788E-1,-2.1121426E0,4.3421254E-1,1.4894745E0,-2.3446757E-2,-1.1584393E0,-1.9837825E-1,-1.5980767E-1,-1.606686E-1,-1.3373074E-1,-6.387084E-2,-1.0884326E-2,-1.5011044E-1,-2.2456828E-1,7.84939E-2,-1.5487032E-1,5.434627E-2,1.6565211E-1,-1.01212524E-1,1.3420899E-2,-1.603164E-1,-4.3104853E-2],"categories":[],"categories_nodes":[],"categories_segments":[],"categories_sizes":[],"default_left":[0,0,0,0,0,0,0,0,0,0,0,0,0,0,0,0,0,0,0,0,0,0,0,0,0,0,0,0,0,0,0],"id":17,"left_children":[1,3,5,7,9,11,13,15,17,19,21,23,25,27,29,-1,-1,-1,-1,-1,-1,-1,-1,-1,-1,-1,-1,-1,-1,-1,-1],"loss_changes":[3.2106267E3,2.718789E2,4.5119966E3,3.4879883E1,2.5548706E2,1.1069653E3,1.0165084E3,8.181641E0,4.933838E0,2.7056496E1,6.1759644E0,1.346237E3,3.228994E2,2.334745E2,5.395349E2,0E0,0E0,0E0,0E0,0E0,0E0,0E0,0E0,0E0,0E0,0E0,0E0,0E0,0E0,0E0,0E0],"parents":[2147483647,0,0,1,1,2,2,3,3,4,4,5,5,6,6,7,7,8,8,9,9,10,10,11,11,12,12,13,13,14,14],"right_children":[2,4,6,8,10,12,14,16,18,20,22,24,26,28,30,-1,-1,-1,-1,-1,-1,-1,-1,-1,-1,-1,-1,-1,-1,-1,-1],"split_conditions":[5E0,3E0,1.8E1,5E0,6E0,1.2E1,2.1E1,2E0,7E0,4E0,4E0,7E0,2E0,2E0,5E0,-1.9837825E-1,-1.5980767E-1,-1.606686E-1,-1.3373074E-1,-6.387084E-2,-1.0884326E-2,-1.5011044E-1,-2.2456828E-1,7.84939E-2,-1.5487032E-1,5.434627E-2,1.6565211E-1,-1.01212524E-1,1.3420899E-2,-1.603164E-1,-4.3104853E-2],"split_indices":[1,1,1,0,0,1,1,1,0,0,1,0,0,0,0,0,0,0,0,0,0,0,0,0,0,0,0,0,0,0,0],"split_type":[0,0,0,0,0,0,0,0,0,0,0,0,0,0,0,0,0,0,0,0,0,0,0,0,0,0,0,0,0,0,0],"sum_hessian":[8.551E3,1.405E3,7.146E3,8.83E2,5.22E2,3.981E3,3.165E3,4.84E2,3.99E2,4.06E2,1.16E2,1.933E3,2.048E3,1.496E3,1.669E3,3.85E2,9.9E1,2.25E2,1.74E2,2.48E2,1.58E2,2.3E1,9.3E1,1.643E3,2.9E2,3.08E2,1.74E3,2.05E2,1.291E3,1.035E3,6.34E2],"tree_param":{"num_deleted":"0","num_feature":"2","num_nodes":"31","size_leaf_vector":"1"}},{"base_weights":[-2.6868903E-3,-1.2465429E0,2.4201219E-1,-1.5509856E0,-7.295758E-1,8.7962747E-1,-5.6001747E-1,-1.7182496E0,-1.3443006E0,-3.9013484E-1,-1.9041306E0,3.907524E-1,1.3406352E0,-3.2837734E-1,-1.8336018E0,-1.785918E-1,-1.439867E-1,-1.4467286E-1,-1.2043406E-1,-2.4277346E-2,-8.782341E-2,-1.3572489E-1,-2.0235033E-1,7.0649356E-2,-1.3943653E-1,4.892925E-2,1.490965E-1,-1.0804798E-1,3.1883698E-3,-1.6575603E-1,-2.9124066E-1],"categories":[],"categories_nodes":[],"categories_segments":[],"categories_sizes":[],"default_left":[0,0,0,0,0,0,0,0,0,0,0,0,0,0,0,0,0,0,0,0,0,0,0,0,0,0,0,0,0,0,0],"id":18,"left_children":[1,3,5,7,9,11,13,15,17,19,21,23,25,27,29,-1,-1,-1,-1,-1,-1,-1,-1,-1,-1,-1,-1,-1,-1,-1,-1],"loss_changes":[2.6032778E3,2.201543E2,3.655371E3,2.8250732E1,2.077731E2,8.969199E2,9.3340985E2,6.5648193E0,3.9919434E0,2.9061066E1,4.891693E0,1.0910555E3,2.615061E2,7.26189E2,8.766089E1,0E0,0E0,0E0,0E0,0E0,0E0,0E0,0E0,0E0,0E0,0E0,0E0,0E0,0E0,0E0,0E0],"parents":[2147483647,0,0,1,1,2,2,3,3,4,4,5,5,6,6,7,7,8,8,9,9,10,10,11,11,12,12,13,13,14,14],"right_children":[2,4,6,8,10,12,14,16,18,20,22,24,26,28,30,-1,-1,-1,-1,-1,-1,-1,-1,-1,-1,-1,-1,-1,-1,-1,-1],"split_conditions":[5E0,3E0,1.8E1,5E0,6E0,1.2E1,2.3E1,2E0,7E0,5E0,4E0,7E0,2E0,3E0,7E0,-1.785918E-1,-1.439867E-1,-1.4467286E-1,-1.2043406E-1,-2.4277346E-2,-8.782341E-2,-1.3572489E-1,-2.0235033E-1,7.0649356E-2,-1.3943653E-1,4.892925E-2,1.490965E-1,-1.0804798E-1,3.1883698E-3,-1.6575603E-1,-2.9124066E-1],"split_indices":[1,1,1,0,0,1,1,1,0,0,1,0,0,0,0,0,0,0,0,0,0,0,0,0,0,0,0,0,0,0,0],"split_type":[0,0,0,0,0,0,0,0,0,0,0,0,0,0,0,0,0,0,0,0,0,0,0,0,0,0,0,0,0,0,0],"sum_hessian":[8.551E3,1.405E3,7.146E3,8.83E2,5.22E2,3.981E3,3.165E3,4.84E2,3.99E2,4.06E2,1.16E2,1.933E3,2.048E3,2.679E3,4.86E2,3.85E2,9.9E1,2.25E2,1.74E2,3.13E2,9.3E1,2.3E1,9.3E1,1.643E3,2.9E2,3.08E2,1.74E3,8.67E2,1.812E3,4.2E2,6.6E1],"tree_param":{"num_deleted":"0","num_feature":"2","num_nodes":"31","size_leaf_vector":"1"}},{"base_weights":[-2.5904018E-3,-1.1226268E0,2.1775012E-1,-1.3965518E0,-6.5747875E-1,5.7766986E-1,-9.6300334E-1,-1.5926012E0,-1.2523283E0,-3.513965E-1,-1.716607E0,7.278493E-1,-2.8620332E-1,-1.5185037E0,-4.9852112E-1,-1.6953053E-1,-1.2973201E-1,-1.3349786E-1,-1.0845945E-1,-5.509143E-2,-3.673408E-3,-1.22717895E-1,-1.8233055E-1,9.685536E-2,8.394669E-3,-3.437307E-1,4.3852623E-3,-1.6666257E-1,-1.1377398E-1,-2.8831162E-3,-2.1159469E-1],"categories":[],"categories_nodes":[],"categories_segments":[],"categories_sizes":[],"default_left":[0,0,0,0,0,0,0,0,0,0,0,0,0,0,0,0,0,0,0,0,0,0,0,0,0,0,0,0,0,0,0],"id":19,"left_children":[1,3,5,7,9,11,13,15,17,19,21,23,25,27,29,-1,-1,-1,-1,-1,-1,-1,-1,-1,-1,-1,-1,-1,-1,-1,-1],"loss_changes":[2.1107874E3,1.7822815E2,3.0378635E3,2.3000732E1,1.6894313E2,7.109021E2,4.301366E2,9.051819E0,5.6777344E0,2.5531525E1,3.8723755E0,7.2325757E2,8.446635E2,4.0967285E1,6.920153E2,0E0,0E0,0E0,0E0,0E0,0E0,0E0,0E0,0E0,0E0,0E0,0E0,0E0,0E0,0E0,0E0],"parents":[2147483647,0,0,1,1,2,2,3,3,4,4,5,5,6,6,7,7,8,8,9,9,10,10,11,11,12,12,13,13,14,14],"right_children":[2,4,6,8,10,12,14,16,18,20,22,24,26,28,30,-1,-1,-1,-1,-1,-1,-1,-1,-1,-1,-1,-1,-1,-1,-1,-1],"split_conditions":[5E0,3E0,2.1E1,4E0,6E0,7E0,4E0,2E0,7E0,4E0,4E0,1.8E1,7E0,3E0,7E0,-1.6953053E-1,-1.2973201E-1,-1.3349786E-1,-1.0845945E-1,-5.509143E-2,-3.673408E-3,-1.22717895E-1,-1.8233055E-1,9.685536E-2,8.394669E-3,-3.437307E-1,4.3852623E-3,-1.6666257E-1,-1.1377398E-1,-2.8831162E-3,-2.1159469E-1],"split_indices":[1,1,1,0,0,0,0,1,0,0,1,1,1,0,0,0,0,0,0,0,0,0,0,0,0,0,0,0,0,0,0],"split_type":[0,0,0,0,0,0,0,0,0,0,0,0,0,0,0,0,0,0,0,0,0,0,0,0,0,0,0,0,0,0,0],"sum_hessian":[8.551E3,1.405E3,7.146E3,8.83E2,5.22E2,5.477E3,1.669E3,3.7E2,5.13E2,4.06E2,1.16E2,4.666E3,8.11E2,7.59E2,9.1E2,2.71E2,9.9E1,3.39E2,1.74E2,2.48E2,1.58E2,2.3E1,9.3E1,3.396E3,1.27E3,7.6E1,7.35E2,5.44E2,2.15E2,7.06E2,2.04E2],"tree_param":{"num_deleted":"0","num_feature":"2","num_nodes":"31","size_leaf_vector":"1"}},{"base_weights":[-2.5222707E-3,-1.0110077E0,1.9587328E-1,-1.2575089E0,-5.924263E-1,5.1986045E-1,-8.6699945E-1,-1.394502E0,-1.0882609E0,-3.1640092E-1,-1.5475537E0,6.550872E-1,-2.580006E-1,-1.2420859E0,-2.5368184E-1,-1.4493392E-1,-1.1688854E-1,-1.1697886E-1,-9.767549E-2,-1.7430073E-2,-7.877101E-2,-1.10957436E-1,-1.6429149E-1,8.7172695E-2,7.555903E-3,-3.09804E-1,3.947362E-3,-1.05698206E-1,-1.733261E-1,5.3251933E-2,-1.9053845E-1],"categories":[],"categories_nodes":[],"categories_segments":[],"categories_sizes":[],"default_left":[0,0,0,0,0,0,0,0,0,0,0,0,0,0,0,0,0,0,0,0,0,0,0,0,0,0,0,0,0,0,0],"id":20,"left_children":[1,3,5,7,9,11,13,15,17,19,21,23,25,27,29,-1,-1,-1,-1,-1,-1,-1,-1,-1,-1,-1,-1,-1,-1,-1,-1],"loss_changes":[1.7112737E3,1.4432727E2,2.4615706E3,1.8978638E1,1.3739378E2,5.763867E2,3.8386377E2,4.3063965E0,2.493744E0,2.7120762E1,3.0636902E0,5.858705E2,6.861311E2,9.2359375E1,8.256069E2,0E0,0E0,0E0,0E0,0E0,0E0,0E0,0E0,0E0,0E0,0E0,0E0,0E0,0E0,0E0,0E0],"parents":[2147483647,0,0,1,1,2,2,3,3,4,4,5,5,6,6,7,7,8,8,9,9,10,10,11,11,12,12,13,13,14,14],"right_children":[2,4,6,8,10,12,14,16,18,20,22,24,26,28,30,-1,-1,-1,-1,-1,-1,-1,-1,-1,-1,-1,-1,-1,-1,-1,-1],"split_conditions":[5E0,3E0,2.1E1,5E0,6E0,7E0,5E0,2E0,7E0,5E0,4E0,1.8E1,7E0,2.3E1,7E0,-1.4493392E-1,-1.1688854E-1,-1.1697886E-1,-9.767549E-2,-1.7430073E-2,-7.877101E-2,-1.10957436E-1,-1.6429149E-1,8.7172695E-2,7.555903E-3,-3.09804E-1,3.947362E-3,-1.05698206E-1,-1.733261E-1,5.3251933E-2,-1.9053845E-1],"split_indices":[1,1,1,0,0,0,0,1,0,0,1,1,1,1,0,0,0,0,0,0,0,0,0,0,0,0,0,0,0,0,0],"split_type":[0,0,0,0,0,0,0,0,0,0,0,0,0,0,0,0,0,0,0,0,0,0,0,0,0,0,0,0,0,0,0],"sum_hessian":[8.551E3,1.405E3,7.146E3,8.83E2,5.22E2,5.477E3,1.669E3,4.84E2,3.99E2,4.06E2,1.16E2,4.666E3,8.11E2,1.035E3,6.34E2,3.85E2,9.9E1,2.25E2,1.74E2,3.13E2,9.3E1,2.3E1,9.3E1,3.396E3,1.27E3,7.6E1,7.35E2,7.54E2,2.81E2,4.3E2,2.04E2],"tree_param":{"num_deleted":"0","num_feature":"2","num_nodes":"31","size_leaf_vector":"1"}},{"base_weights":[-2.4428796E-3,-9.1051E-1,1.7619778E-1,-1.1111927E0,-4.9134356E-1,5.898276E-1,-5.0245243E-1,-1.1848923E0,-9.269232E-1,-6.889312E-2,-1.1009303E0,2.200622E-1,8.7473047E-1,-2.930897E-1,-1.4562352E0,-1.21708475E-1,-6.955619E-2,-7.678879E-2,-1.0612612E-1,-4.3003626E-2,1.0593551E-1,-7.097773E-2,-1.4803712E-1,4.5196984E-2,-1.09085254E-1,1.2025882E-1,3.0360376E-2,-7.630114E-2,-5.2978E-3,-1.3297339E-1,-2.2293818E-1],"categories":[],"categories_nodes":[],"categories_segments":[],"categories_sizes":[],"default_left":[0,0,0,0,0,0,0,0,0,0,0,0,0,0,0,0,0,0,0,0,0,0,0,0,0,0,0,0,0,0,0],"id":21,"left_children":[1,3,5,7,9,11,13,15,17,19,21,23,25,27,29,-1,-1,-1,-1,-1,-1,-1,-1,-1,-1,-1,-1,-1,-1,-1,-1],"loss_changes":[1.3874463E3,1.17726074E2,2.0065303E3,1.1803101E1,1.17610886E2,4.6765454E2,5.401247E2,9.786621E0,5.081665E0,1.1087695E2,2.6703705E1,5.8845056E2,4.6925366E2,2.5056319E2,4.4666138E1,0E0,0E0,0E0,0E0,0E0,0E0,0E0,0E0,0E0,0E0,0E0,0E0,0E0,0E0,0E0,0E0],"parents":[2147483647,0,0,1,1,2,2,3,3,4,4,5,5,6,6,7,7,8,8,9,9,10,10,11,11,12,12,13,13,14,14],"right_children":[2,4,6,8,10,12,14,16,18,20,22,24,26,28,30,-1,-1,-1,-1,-1,-1,-1,-1,-1,-1,-1,-1,-1,-1,-1,-1],"split_conditions":[5E0,4E0,1.9E1,6E0,5E0,1.2E1,2.3E1,3E0,2E0,4E0,6E0,7E0,1.7E1,3E0,7E0,-1.21708475E-1,-6.955619E-2,-7.678879E-2,-1.0612612E-1,-4.3003626E-2,1.0593551E-1,-7.097773E-2,-1.4803712E-1,4.5196984E-2,-1.09085254E-1,1.2025882E-1,3.0360376E-2,-7.630114E-2,-5.2978E-3,-1.3297339E-1,-2.2293818E-1],"split_indices":[1,1,1,0,0,1,1,1,1,0,0,0,1,0,0,0,0,0,0,0,0,0,0,0,0,0,0,0,0,0,0],"split_type":[0,0,0,0,0,0,0,0,0,0,0,0,0,0,0,0,0,0,0,0,0,0,0,0,0,0,0,0,0,0,0],"sum_hessian":[8.551E3,1.405E3,7.146E3,9.49E2,4.56E2,4.44E3,2.706E3,6.74E2,2.75E2,2.7E2,1.86E2,1.933E3,2.507E3,2.22E3,4.86E2,6.31E2,4.3E1,1.29E2,1.46E2,2.05E2,6.5E1,9.3E1,9.3E1,1.643E3,2.9E2,1.592E3,9.15E2,7.5E2,1.47E3,4.2E2,6.6E1],"tree_param":{"num_deleted":"0","num_feature":"2","num_nodes":"31","size_leaf_vector":"1"}},{"base_weights":[-2.3014764E-3,-8.198361E-1,1.5852907E-1,-1.0004673E0,-4.4255048E-1,4.251589E-1,-7.161755E-1,-1.1202933E0,-9.062245E-1,-6.1771158E-2,-9.920085E-1,5.398739E-1,-2.3469348E-1,-1.0486163E0,-1.7267185E-1,-1.2607358E-1,-8.453234E-2,-9.628356E-2,-8.044365E-2,-3.872409E-2,9.550249E-2,-6.395545E-2,-1.3339092E-1,7.115109E-2,8.071517E-3,-2.684591E-1,2.1932616E-3,-1.2930591E-1,-7.7570975E-2,5.2585233E-2,-1.6404341E-1],"categories":[],"categories_nodes":[],"categories_segments":[],"categories_sizes":[],"default_left":[0,0,0,0,0,0,0,0,0,0,0,0,0,0,0,0,0,0,0,0,0,0,0,0,0,0,0,0,0,0,0],"id":22,"left_children":[1,3,5,7,9,11,13,15,17,19,21,23,25,27,29,-1,-1,-1,-1,-1,-1,-1,-1,-1,-1,-1,-1,-1,-1,-1,-1],"loss_changes":[1.1245857E3,9.537555E1,1.6671442E3,9.71283E0,9.555328E1,4.147838E2,3.0155914E2,1.4921936E1,2.3198547E0,9.005357E1,2.1681168E1,3.6774255E2,5.105695E2,6.810852E1,6.519074E2,0E0,0E0,0E0,0E0,0E0,0E0,0E0,0E0,0E0,0E0,0E0,0E0,0E0,0E0,0E0,0E0],"parents":[2147483647,0,0,1,1,2,2,3,3,4,4,5,5,6,6,7,7,8,8,9,9,10,10,11,11,12,12,13,13,14,14],"right_children":[2,4,6,8,10,12,14,16,18,20,22,24,26,28,30,-1,-1,-1,-1,-1,-1,-1,-1,-1,-1,-1,-1,-1,-1,-1,-1],"split_conditions":[5E0,4E0,2.1E1,4E0,5E0,7E0,5E0,2E0,7E0,4E0,6E0,1.8E1,7E0,3E0,7E0,-1.2607358E-1,-8.453234E-2,-9.628356E-2,-8.044365E-2,-3.872409E-2,9.550249E-2,-6.395545E-2,-1.3339092E-1,7.115109E-2,8.071517E-3,-2.684591E-1,2.1932616E-3,-1.2930591E-1,-7.7570975E-2,5.2585233E-2,-1.6404341E-1],"split_indices":[1,1,1,0,0,0,0,1,0,0,0,1,1,0,0,0,0,0,0,0,0,0,0,0,0,0,0,0,0,0,0],"split_type":[0,0,0,0,0,0,0,0,0,0,0,0,0,0,0,0,0,0,0,0,0,0,0,0,0,0,0,0,0,0,0],"sum_hessian":[8.551E3,1.405E3,7.146E3,9.49E2,4.56E2,5.477E3,1.669E3,4.13E2,5.36E2,2.7E2,1.86E2,4.666E3,8.11E2,1.035E3,6.34E2,2.71E2,1.42E2,3.39E2,1.97E2,2.05E2,6.5E1,9.3E1,9.3E1,3.396E3,1.27E3,7.6E1,7.35E2,5.44E2,4.91E2,4.3E2,2.04E2],"tree_param":{"num_deleted":"0","num_feature":"2","num_nodes":"31","size_leaf_vector":"1"}},{"base_weights":[-2.1924926E-3,-7.382279E-1,1.4260504E-1,-9.0082824E-1,-3.9860302E-1,4.3196517E-1,-5.121192E-1,-9.8583907E-1,-7.925858E-1,-5.53846E-2,-8.938629E-1,5.886163E-1,6.425173E-2,-3.3082658E-1,-1.7899487E0,-7.7217214E-2,-1.0791419E-1,-8.4881775E-2,-7.24399E-2,-3.4870483E-2,8.609692E-2,-5.7627928E-2,-1.20193735E-1,-4.1609104E-3,7.478342E-2,-1.5610369E-1,4.5758855E-2,-6.9438E-2,5.2502137E-2,-2.7064994E-1,-1.4771907E-1],"categories":[],"categories_nodes":[],"categories_segments":[],"categories_sizes":[],"default_left":[0,0,0,0,0,0,0,0,0,0,0,0,0,0,0,0,0,0,0,0,0,0,0,0,0,0,0,0,0,0,0],"id":23,"left_children":[1,3,5,7,9,11,13,15,17,19,21,23,25,27,29,-1,-1,-1,-1,-1,-1,-1,-1,-1,-1,-1,-1,-1,-1,-1,-1],"loss_changes":[9.1154407E2,7.728467E1,1.354228E3,7.960266E0,7.763241E1,2.8549902E2,5.069771E2,9.69281E0,1.0070496E0,7.314098E1,1.7603317E1,3.4882385E2,9.481358E2,5.977658E2,7.397302E1,0E0,0E0,0E0,0E0,0E0,0E0,0E0,0E0,0E0,0E0,0E0,0E0,0E0,0E0,0E0,0E0],"parents":[2147483647,0,0,1,1,2,2,3,3,4,4,5,5,6,6,7,7,8,8,9,9,10,10,11,11,12,12,13,13,14,14],"right_children":[2,4,6,8,10,12,14,16,18,20,22,24,26,28,30,-1,-1,-1,-1,-1,-1,-1,-1,-1,-1,-1,-1,-1,-1,-1,-1],"split_conditions":[5E0,4E0,2E1,5E0,5E0,6E0,7E0,2E0,7E0,4E0,6E0,2E0,1E1,5E0,2.1E1,-7.7217214E-2,-1.0791419E-1,-8.4881775E-2,-7.24399E-2,-3.4870483E-2,8.609692E-2,-5.7627928E-2,-1.20193735E-1,-4.1609104E-3,7.478342E-2,-1.5610369E-1,4.5758855E-2,-6.9438E-2,5.2502137E-2,-2.7064994E-1,-1.4771907E-1],"split_indices":[1,1,1,0,0,0,0,0,0,0,0,0,1,0,1,0,0,0,0,0,0,0,0,0,0,0,0,0,0,0,0],"split_type":[0,0,0,0,0,0,0,0,0,0,0,0,0,0,0,0,0,0,0,0,0,0,0,0,0,0,0,0,0,0,0],"sum_hessian":[8.551E3,1.405E3,7.146E3,9.49E2,4.56E2,4.956E3,2.19E3,5.27E2,4.22E2,2.7E2,1.86E2,3.475E3,1.481E3,1.919E3,2.71E2,1.63E2,3.64E2,2.25E2,1.97E2,2.05E2,6.5E1,9.3E1,9.3E1,7.01E2,2.774E3,2.88E2,1.193E3,1.347E3,5.72E2,6.7E1,2.04E2],"tree_param":{"num_deleted":"0","num_feature":"2","num_nodes":"31","size_leaf_vector":"1"}},{"base_weights":[-2.083591E-3,1.1663059E-1,-7.678296E-1,-6.647388E-1,2.9971206E-1,-4.4700548E-1,-1.202363E0,-8.2852507E-1,-3.8662824E-1,4.8767513E-1,-7.114911E-2,-9.2950964E-1,2.1075727E-2,-1.3628118E0,-8.780473E-1,-9.651025E-2,-7.283331E-2,-2.0216702E-2,-1.02499664E-1,1.7288884E-2,8.981817E-2,-8.7794185E-2,8.132389E-3,-1.083995E-1,-5.480968E-2,6.0271215E-2,-1.4889282E-1,-1.261013E-1,-1.998729E-1,-3.0532038E-2,-1.7026621E-1],"categories":[],"categories_nodes":[],"categories_segments":[],"categories_sizes":[],"default_left":[0,0,0,0,0,0,0,0,0,0,0,0,0,0,0,0,0,0,0,0,0,0,0,0,0,0,0,0,0,0,0],"id":24,"left_children":[1,3,5,7,9,11,13,15,17,19,21,23,25,27,29,-1,-1,-1,-1,-1,-1,-1,-1,-1,-1,-1,-1,-1,-1,-1,-1],"loss_changes":[7.775084E2,1.059516E3,1.5950385E2,6.3723877E1,4.1828394E2,1.4953302E2,2.4144958E1,1.1393738E1,6.1378242E1,5.1440625E2,2.4843689E2,1.8614655E1,2.968755E2,1.8453857E1,7.69339E1,0E0,0E0,0E0,0E0,0E0,0E0,0E0,0E0,0E0,0E0,0E0,0E0,0E0,0E0,0E0,0E0],"parents":[2147483647,0,0,1,1,2,2,3,3,4,4,5,5,6,6,7,7,8,8,9,9,10,10,11,11,12,12,13,13,14,14],"right_children":[2,4,6,8,10,12,14,16,18,20,22,24,26,28,30,-1,-1,-1,-1,-1,-1,-1,-1,-1,-1,-1,-1,-1,-1,-1,-1],"split_conditions":[2.2E1,5E0,2.3E1,3E0,1.8E1,4E0,6E0,4E0,6E0,1.3E1,2E0,3E0,7E0,5E0,7E0,-9.651025E-2,-7.283331E-2,-2.0216702E-2,-1.02499664E-1,1.7288884E-2,8.981817E-2,-8.7794185E-2,8.132389E-3,-1.083995E-1,-5.480968E-2,6.0271215E-2,-1.4889282E-1,-1.261013E-1,-1.998729E-1,-3.0532038E-2,-1.7026621E-1],"split_indices":[1,1,1,1,1,0,0,0,0,1,0,0,0,0,0,0,0,0,0,0,0,0,0,0,0,0,0,0,0,0,0],"split_type":[0,0,0,0,0,0,0,0,0,0,0,0,0,0,0,0,0,0,0,0,0,0,0,0,0,0,0,0,0,0,0],"sum_hessian":[8.551E3,7.404E3,1.147E3,1.405E3,5.999E3,6.61E2,4.86E2,8.83E2,5.22E2,3.981E3,2.018E3,3.25E2,3.36E2,3.23E2,1.63E2,3.7E2,5.13E2,4.06E2,1.16E2,2.254E3,1.727E3,3.2E2,1.698E3,2.3E2,9.5E1,2.43E2,9.3E1,2.81E2,4.2E1,9.7E1,6.6E1],"tree_param":{"num_deleted":"0","num_feature":"2","num_nodes":"31","size_leaf_vector":"1"}},{"base_weights":[-1.9971835E-3,1.04931846E-1,-6.917249E-1,-5.984726E-1,2.6974547E-1,-4.026854E-1,-1.0832083E0,-7.458641E-1,-3.482E-1,4.3893445E-1,-6.407341E-2,-8.3705944E-1,1.8705176E-2,-1.2275367E0,-7.914671E-1,-8.6885236E-2,-6.556413E-2,-8.644332E-3,-7.3793046E-2,1.0386738E-2,7.549817E-2,-7.904211E-2,7.319655E-3,-9.76065E-2,-4.9385812E-2,5.4268796E-2,-1.3416193E-1,-1.1353588E-1,-1.8035042E-1,-2.7510006E-2,-1.5349372E-1],"categories":[],"categories_nodes":[],"categories_segments":[],"categories_sizes":[],"default_left":[0,0,0,0,0,0,0,0,0,0,0,0,0,0,0,0,0,0,0,0,0,0,0,0,0,0,0,0,0,0,0],"id":25,"left_children":[1,3,5,7,9,11,13,15,17,19,21,23,25,27,29,-1,-1,-1,-1,-1,-1,-1,-1,-1,-1,-1,-1,-1,-1,-1,-1],"loss_changes":[6.3079895E2,8.586277E2,1.2946484E2,5.160492E1,3.3889908E2,1.2118888E2,1.9534302E1,9.239502E0,5.3289818E1,4.2160352E2,2.013637E2,1.5070419E1,2.4093716E2,1.5154022E1,6.2537903E1,0E0,0E0,0E0,0E0,0E0,0E0,0E0,0E0,0E0,0E0,0E0,0E0,0E0,0E0,0E0,0E0],"parents":[2147483647,0,0,1,1,2,2,3,3,4,4,5,5,6,6,7,7,8,8,9,9,10,10,11,11,12,12,13,13,14,14],"right_children":[2,4,6,8,10,12,14,16,18,20,22,24,26,28,30,-1,-1,-1,-1,-1,-1,-1,-1,-1,-1,-1,-1,-1,-1,-1,-1],"split_conditions":[2.2E1,5E0,2.3E1,3E0,1.8E1,4E0,6E0,4E0,5E0,1.2E1,2E0,3E0,7E0,5E0,7E0,-8.6885236E-2,-6.556413E-2,-8.644332E-3,-7.3793046E-2,1.0386738E-2,7.549817E-2,-7.904211E-2,7.319655E-3,-9.76065E-2,-4.9385812E-2,5.4268796E-2,-1.3416193E-1,-1.1353588E-1,-1.8035042E-1,-2.7510006E-2,-1.5349372E-1],"split_indices":[1,1,1,1,1,0,0,0,0,1,0,0,0,0,0,0,0,0,0,0,0,0,0,0,0,0,0,0,0,0,0],"split_type":[0,0,0,0,0,0,0,0,0,0,0,0,0,0,0,0,0,0,0,0,0,0,0,0,0,0,0,0,0,0,0],"sum_hessian":[8.551E3,7.404E3,1.147E3,1.405E3,5.999E3,6.61E2,4.86E2,8.83E2,5.22E2,3.981E3,2.018E3,3.25E2,3.36E2,3.23E2,1.63E2,3.7E2,5.13E2,3.13E2,2.09E2,1.933E3,2.048E3,3.2E2,1.698E3,2.3E2,9.5E1,2.43E2,9.3E1,2.81E2,4.2E1,9.7E1,6.6E1],"tree_param":{"num_deleted":"0","num_feature":"2","num_nodes":"31","size_leaf_vector":"1"}},{"base_weights":[-1.9055356E-3,9.440862E-2,-6.231637E-1,-3.6768922E-1,2.9875717E-1,-3.6275953E-1,-9.758627E-1,2.0734191E-1,-8.434248E-1,5.86452E-1,-1.0679097E-2,-7.538042E-1,1.659754E-2,-1.3943009E-1,-8.7878907E-1,-5.9408393E-2,1.4138511E-1,-4.9467538E-2,-1.4442387E-1,2.346048E-3,7.9014264E-2,-7.432023E-2,1.3512124E-2,-8.7888084E-2,-4.449865E-2,4.8864152E-2,-1.20888464E-1,-7.742406E-2,-1.3837342E-1],"categories":[],"categories_nodes":[],"categories_segments":[],"categories_sizes":[],"default_left":[0,0,0,0,0,0,0,0,0,0,0,0,0,0,0,0,0,0,0,0,0,0,0,0,0,0,0,0,0],"id":26,"left_children":[1,3,5,7,9,11,13,15,17,19,21,23,25,-1,27,-1,-1,-1,-1,-1,-1,-1,-1,-1,-1,-1,-1,-1,-1],"loss_changes":[5.117759E2,6.9935675E2,1.0508322E2,6.214359E2,4.5714044E2,9.8217285E1,1.8556335E1,9.9580835E2,2.5973572E2,3.0513458E2,2.644357E2,1.2200943E1,1.9553897E2,0E0,1.9939606E1,0E0,0E0,0E0,0E0,0E0,0E0,0E0,0E0,0E0,0E0,0E0,0E0,0E0,0E0],"parents":[2147483647,0,0,1,1,2,2,3,3,4,4,5,5,6,6,7,7,8,8,9,9,10,10,11,11,12,12,14,14],"right_children":[2,4,6,8,10,12,14,16,18,20,22,24,26,-1,28,-1,-1,-1,-1,-1,-1,-1,-1,-1,-1,-1,-1,-1,-1],"split_conditions":[2.2E1,9E0,2.3E1,4E0,1.7E1,4E0,2E0,5E0,5E0,3E0,2E0,3E0,7E0,-1.3943009E-1,7E0,-5.9408393E-2,1.4138511E-1,-4.9467538E-2,-1.4442387E-1,2.346048E-3,7.9014264E-2,-7.432023E-2,1.3512124E-2,-8.7888084E-2,-4.449865E-2,4.8864152E-2,-1.20888464E-1,-7.742406E-2,-1.3837342E-1],"split_indices":[1,1,1,0,1,0,0,1,1,0,0,0,0,0,0,0,0,0,0,0,0,0,0,0,0,0,0,0,0],"split_type":[0,0,0,0,0,0,0,0,0,0,0,0,0,0,0,0,0,0,0,0,0,0,0,0,0,0,0,0,0],"sum_hessian":[8.551E3,7.404E3,1.147E3,2.27E3,5.134E3,6.61E2,4.86E2,1.028E3,1.242E3,2.66E3,2.474E3,3.25E2,3.36E2,8.9E1,3.97E2,6.18E2,4.1E2,7.87E2,4.55E2,7.07E2,1.953E3,4.1E2,2.064E3,2.3E2,9.5E1,2.43E2,9.3E1,3.31E2,6.6E1],"tree_param":{"num_deleted":"0","num_feature":"2","num_nodes":"29","size_leaf_vector":"1"}},{"base_weights":[-1.7909498E-3,8.49556E-2,-5.613349E-1,-3.3096975E-1,2.688858E-1,-3.2679242E-1,-8.7900585E-1,4.9859792E-2,-9.197745E-1,5.278377E-1,-9.635407E-3,-6.7882985E-1,1.4723835E-2,-1.0114725E0,-6.119438E-1,-6.6970885E-2,4.9520846E-2,-5.550411E-2,-1.6986577E-1,2.1825159E-2,8.657284E-2,-6.690631E-2,1.21616125E-2,-7.91373E-2,-4.009516E-2,4.399774E-2,-1.08928256E-1,-9.255069E-2,-1.5517247E-1,-1.7123705E-2,-1.2474262E-1],"categories":[],"categories_nodes":[],"categories_segments":[],"categories_sizes":[],"default_left":[0,0,0,0,0,0,0,0,0,0,0,0,0,0,0,0,0,0,0,0,0,0,0,0,0,0,0,0,0,0,0],"id":27,"left_children":[1,3,5,7,9,11,13,15,17,19,21,23,25,27,29,-1,-1,-1,-1,-1,-1,-1,-1,-1,-1,-1,-1,-1,-1,-1,-1],"loss_changes":[4.1514902E2,5.665806E2,8.524713E1,5.092818E2,3.703598E2,7.959993E1,1.6609558E1,4.42565E2,2.5246075E2,2.7816833E2,2.1429483E2,9.877792E0,1.586949E2,1.361145E1,4.5716457E1,0E0,0E0,0E0,0E0,0E0,0E0,0E0,0E0,0E0,0E0,0E0,0E0,0E0,0E0,0E0,0E0],"parents":[2147483647,0,0,1,1,2,2,3,3,4,4,5,5,6,6,7,7,8,8,9,9,10,10,11,11,12,12,13,13,14,14],"right_children":[2,4,6,8,10,12,14,16,18,20,22,24,26,28,30,-1,-1,-1,-1,-1,-1,-1,-1,-1,-1,-1,-1,-1,-1,-1,-1],"split_conditions":[2.2E1,9E0,2.3E1,5E0,1.7E1,4E0,6E0,4E0,5E0,1.3E1,2E0,3E0,7E0,5E0,7E0,-6.6970885E-2,4.9520846E-2,-5.550411E-2,-1.6986577E-1,2.1825159E-2,8.657284E-2,-6.690631E-2,1.21616125E-2,-7.91373E-2,-4.009516E-2,4.399774E-2,-1.08928256E-1,-9.255069E-2,-1.5517247E-1,-1.7123705E-2,-1.2474262E-1],"split_indices":[1,1,1,0,1,0,0,1,1,1,0,0,0,0,0,0,0,0,0,0,0,0,0,0,0,0,0,0,0,0,0],"split_type":[0,0,0,0,0,0,0,0,0,0,0,0,0,0,0,0,0,0,0,0,0,0,0,0,0,0,0,0,0,0,0],"sum_hessian":[8.551E3,7.404E3,1.147E3,2.27E3,5.134E3,6.61E2,4.86E2,1.379E3,8.91E2,2.66E3,2.474E3,3.25E2,3.36E2,3.23E2,1.63E2,5.27E2,8.52E2,6.08E2,2.83E2,1.389E3,1.271E3,4.1E2,2.064E3,2.3E2,9.5E1,2.43E2,9.3E1,2.81E2,4.2E1,9.7E1,6.6E1],"tree_param":{"num_deleted":"0","num_feature":"2","num_nodes":"31","size_leaf_vector":"1"}},{"base_weights":[-1.7009845E-3,9.634506E-2,-4.058023E-1,-2.979795E-1,2.9045188E-1,-6.5009874E-1,-6.5945648E-3,1.8396963E-1,-6.967146E-1,4.750945E-1,3.872403E-2,-7.8451157E-1,-4.9988517E-1,4.2673236E-1,-9.176058E-1,-5.0648846E-2,1.22340895E-1,-3.9684128E-2,-1.2133888E-1,1.0838823E-2,7.419577E-2,3.6376353E-2,-6.983869E-2,-7.3036365E-2,-9.8505594E-2,-7.6278396E-2,-3.9210312E-2,8.878382E-2,-5.380508E-2,-4.4570487E-2,-1.0475423E-1],"categories":[],"categories_nodes":[],"categories_segments":[],"categories_sizes":[],"default_left":[0,0,0,0,0,0,0,0,0,0,0,0,0,0,0,0,0,0,0,0,0,0,0,0,0,0,0,0,0,0,0],"id":28,"left_children":[1,3,5,7,9,11,13,15,17,19,21,23,25,27,29,-1,-1,-1,-1,-1,-1,-1,-1,-1,-1,-1,-1,-1,-1,-1,-1],"loss_changes":[3.3887393E2,5.269189E2,1.6286249E2,4.3654623E2,2.143924E2,2.052536E1,2.510678E2,7.3912195E2,1.9210498E2,2.6032617E2,4.6817368E2,5.1987E0,1.364212E1,1.9221542E2,1.2103119E1,0E0,0E0,0E0,0E0,0E0,0E0,0E0,0E0,0E0,0E0,0E0,0E0,0E0,0E0,0E0,0E0],"parents":[2147483647,0,0,1,1,2,2,3,3,4,4,5,5,6,6,7,7,8,8,9,9,10,10,11,11,12,12,13,13,14,14],"right_children":[2,4,6,8,10,12,14,16,18,20,22,24,26,28,30,-1,-1,-1,-1,-1,-1,-1,-1,-1,-1,-1,-1,-1,-1,-1,-1],"split_conditions":[2.1E1,9E0,5E0,4E0,1.7E1,3E0,7E0,5E0,5E0,4E0,6E0,2.3E1,2.2E1,2.3E1,2.2E1,-5.0648846E-2,1.22340895E-1,-3.9684128E-2,-1.2133888E-1,1.0838823E-2,7.419577E-2,3.6376353E-2,-6.983869E-2,-7.3036365E-2,-9.8505594E-2,-7.6278396E-2,-3.9210312E-2,8.878382E-2,-5.380508E-2,-4.4570487E-2,-1.0475423E-1],"split_indices":[1,1,0,0,1,0,0,1,1,0,0,1,1,1,1,0,0,0,0,0,0,0,0,0,0,0,0,0,0,0,0],"split_type":[0,0,0,0,0,0,0,0,0,0,0,0,0,0,0,0,0,0,0,0,0,0,0,0,0,0,0,0,0,0,0],"sum_hessian":[8.551E3,6.882E3,1.669E3,2.27E3,4.612E3,1.035E3,6.34E2,1.028E3,1.242E3,2.66E3,1.952E3,5.44E2,4.91E2,4.3E2,2.04E2,6.18E2,4.1E2,7.87E2,4.55E2,1.121E3,1.539E3,1.355E3,5.97E2,4.32E2,1.12E2,1.41E2,3.5E2,2.91E2,1.39E2,4.5E1,1.59E2],"tree_param":{"num_deleted":"0","num_feature":"2","num_nodes":"31","size_leaf_vector":"1"}},{"base_weights":[-1.5823198E-3,6.9583066E-2,-4.6062246E-1,-4.009209E-1,1.7982623E-1,-2.646354E-1,-7.260902E-1,-5.1192963E-1,-2.1252197E-1,2.6132536E-1,-3.0956864E-1,-5.483576E-1,1.0611063E-2,-8.4961146E-1,-4.7763306E-1,-5.6299724E-2,-3.8233813E-2,-6.9912593E-3,-7.067912E-2,-1.927809E-2,3.5534568E-2,-9.835698E-2,8.396255E-3,-6.3985825E-2,-3.224721E-2,3.5285246E-2,-8.77873E-2,-7.706631E-2,-1.3476074E-1,-1.0103128E-2,-1.0213546E-1],"categories":[],"categories_nodes":[],"categories_segments":[],"categories_sizes":[],"default_left":[0,0,0,0,0,0,0,0,0,0,0,0,0,0,0,0,0,0,0,0,0,0,0,0,0,0,0,0,0,0,0],"id":29,"left_children":[1,3,5,7,9,11,13,15,17,19,21,23,25,27,29,-1,-1,-1,-1,-1,-1,-1,-1,-1,-1,-1,-1,-1,-1,-1,-1],"loss_changes":[2.794068E2,3.841683E2,5.953627E1,2.9296188E1,2.3939247E2,5.1703728E1,1.45401E1,5.6349792E0,3.681551E1,2.1969263E2,2.2739365E2,6.5316544E0,1.0278338E2,1.1699829E1,3.3478516E1,0E0,0E0,0E0,0E0,0E0,0E0,0E0,0E0,0E0,0E0,0E0,0E0,0E0,0E0,0E0,0E0],"parents":[2147483647,0,0,1,1,2,2,3,3,4,4,5,5,6,6,7,7,8,8,9,9,10,10,11,11,12,12,13,13,14,14],"right_children":[2,4,6,8,10,12,14,16,18,20,22,24,26,28,30,-1,-1,-1,-1,-1,-1,-1,-1,-1,-1,-1,-1,-1,-1,-1,-1],"split_conditions":[2.2E1,5E0,2.3E1,3E0,7E0,4E0,6E0,6E0,6E0,2E0,1.3E1,3E0,7E0,5E0,7E0,-5.6299724E-2,-3.8233813E-2,-6.9912593E-3,-7.067912E-2,-1.927809E-2,3.5534568E-2,-9.835698E-2,8.396255E-3,-6.3985825E-2,-3.224721E-2,3.5285246E-2,-8.77873E-2,-7.706631E-2,-1.3476074E-1,-1.0103128E-2,-1.0213546E-1],"split_indices":[1,1,1,1,0,0,0,0,0,0,1,0,0,0,0,0,0,0,0,0,0,0,0,0,0,0,0,0,0,0,0],"split_type":[0,0,0,0,0,0,0,0,0,0,0,0,0,0,0,0,0,0,0,0,0,0,0,0,0,0,0,0,0,0,0],"sum_hessian":[8.551E3,7.404E3,1.147E3,1.405E3,5.999E3,6.61E2,4.86E2,8.83E2,5.22E2,5.143E3,8.56E2,3.25E2,3.36E2,3.23E2,1.63E2,6.31E2,2.52E2,4.06E2,1.16E2,8.82E2,4.261E3,3.15E2,5.41E2,2.3E2,9.5E1,2.43E2,9.3E1,2.81E2,4.2E1,9.7E1,6.6E1],"tree_param":{"num_deleted":"0","num_feature":"2","num_nodes":"31","size_leaf_vector":"1"}},{"base_weights":[-1.5079388E-3,8.0785155E-2,-3.406827E-1,-2.4767612E-1,2.4247056E-1,-5.5591005E-1,1.0996373E-2,1.8087007E-1,-6.0224277E-1,4.1198674E-1,1.1377338E-2,-6.651393E-1,-4.337843E-1,3.756448E-1,-7.557084E-1,-4.194679E-2,1.0845887E-1,-3.1452652E-2,-1.098116E-1,1.985697E-2,7.980462E-2,3.0383036E-2,-6.517961E-2,-6.255281E-2,-8.110377E-2,-7.223271E-2,-3.1581607E-2,1.2344881E-1,-1.6003316E-3,-4.1031647E-2,-8.502854E-2],"categories":[],"categories_nodes":[],"categories_segments":[],"categories_sizes":[],"default_left":[0,0,0,0,0,0,0,0,0,0,0,0,0,0,0,0,0,0,0,0,0,0,0,0,0,0,0,0,0,0,0],"id":30,"left_children":[1,3,5,7,9,11,13,15,17,19,21,23,25,27,29,-1,-1,-1,-1,-1,-1,-1,-1,-1,-1,-1,-1,-1,-1,-1,-1],"loss_changes":[2.3872873E2,3.6559827E2,1.2640999E2,3.4518323E2,1.8070517E2,1.3531433E1,1.778157E2,5.587251E2,1.7699445E2,2.1908575E2,3.789766E2,2.642334E0,1.6519005E1,1.4499281E2,6.347679E0,0E0,0E0,0E0,0E0,0E0,0E0,0E0,0E0,0E0,0E0,0E0,0E0,0E0,0E0,0E0,0E0],"parents":[2147483647,0,0,1,1,2,2,3,3,4,4,5,5,6,6,7,7,8,8,9,9,10,10,11,11,12,12,13,13,14,14],"right_children":[2,4,6,8,10,12,14,16,18,20,22,24,26,28,30,-1,-1,-1,-1,-1,-1,-1,-1,-1,-1,-1,-1,-1,-1,-1,-1],"split_conditions":[2.1E1,9E0,5E0,4E0,1.7E1,3E0,7E0,5E0,5E0,1.4E1,6E0,2.3E1,2.2E1,2.2E1,2.2E1,-4.194679E-2,1.0845887E-1,-3.1452652E-2,-1.098116E-1,1.985697E-2,7.980462E-2,3.0383036E-2,-6.517961E-2,-6.255281E-2,-8.110377E-2,-7.223271E-2,-3.1581607E-2,1.2344881E-1,-1.6003316E-3,-4.1031647E-2,-8.502854E-2],"split_indices":[1,1,0,0,1,0,0,1,1,1,0,1,1,1,1,0,0,0,0,0,0,0,0,0,0,0,0,0,0,0,0],"split_type":[0,0,0,0,0,0,0,0,0,0,0,0,0,0,0,0,0,0,0,0,0,0,0,0,0,0,0,0,0,0,0],"sum_hessian":[8.551E3,6.882E3,1.669E3,2.27E3,4.612E3,1.035E3,6.34E2,1.028E3,1.242E3,2.66E3,1.952E3,5.44E2,4.91E2,4.3E2,2.04E2,6.18E2,4.1E2,7.87E2,4.55E2,1.714E3,9.46E2,1.355E3,5.97E2,4.32E2,1.12E2,1.41E2,3.5E2,1.34E2,2.96E2,4.5E1,1.59E2],"tree_param":{"num_deleted":"0","num_feature":"2","num_nodes":"31","size_leaf_vector":"1"}},{"base_weights":[-1.387875E-3,7.270503E-2,-3.0676517E-1,-2.2294156E-1,2.1823737E-1,-5.00558E-1,9.890219E-3,6.7700155E-2,-6.7233914E-1,-8.873209E-2,3.4209812E-1,-5.98889E-1,-3.9061713E-1,3.3836314E-1,-6.807523E-1,2.2797776E-2,-1.9216444E-1,-3.8466718E-2,-1.2868457E-1,-8.310154E-2,3.596138E-2,5.904907E-2,3.0095004E-3,-5.6311976E-2,-7.306517E-2,-6.506035E-2,-2.8432462E-2,7.082887E-2,-4.356127E-2,-3.7017662E-2,-7.657882E-2],"categories":[],"categories_nodes":[],"categories_segments":[],"categories_sizes":[],"default_left":[0,0,0,0,0,0,0,0,0,0,0,0,0,0,0,0,0,0,0,0,0,0,0,0,0,0,0,0,0,0,0],"id":31,"left_children":[1,3,5,7,9,11,13,15,17,19,21,23,25,27,29,-1,-1,-1,-1,-1,-1,-1,-1,-1,-1,-1,-1,-1,-1,-1,-1],"loss_changes":[1.9352232E2,2.9619757E2,1.0248541E2,2.9666922E2,1.7542336E2,1.0965851E1,1.4428477E2,4.4044748E2,1.5718939E2,4.4192398E2,2.5472229E2,2.1571655E0,1.341124E1,1.237096E2,5.130577E0,0E0,0E0,0E0,0E0,0E0,0E0,0E0,0E0,0E0,0E0,0E0,0E0,0E0,0E0,0E0,0E0],"parents":[2147483647,0,0,1,1,2,2,3,3,4,4,5,5,6,6,7,7,8,8,9,9,10,10,11,11,12,12,13,13,14,14],"right_children":[2,4,6,8,10,12,14,16,18,20,22,24,26,28,30,-1,-1,-1,-1,-1,-1,-1,-1,-1,-1,-1,-1,-1,-1,-1,-1],"split_conditions":[2.1E1,9E0,5E0,5E0,3E0,3E0,7E0,8E0,5E0,1.4E1,6E0,2.3E1,2.2E1,2.3E1,2.2E1,2.2797776E-2,-1.9216444E-1,-3.8466718E-2,-1.2868457E-1,-8.310154E-2,3.596138E-2,5.904907E-2,3.0095004E-3,-5.6311976E-2,-7.306517E-2,-6.506035E-2,-2.8432462E-2,7.082887E-2,-4.356127E-2,-3.7017662E-2,-7.657882E-2],"split_indices":[1,1,0,0,0,0,0,1,1,1,0,1,1,1,1,0,0,0,0,0,0,0,0,0,0,0,0,0,0,0,0],"split_type":[0,0,0,0,0,0,0,0,0,0,0,0,0,0,0,0,0,0,0,0,0,0,0,0,0,0,0,0,0,0,0],"sum_hessian":[8.551E3,6.882E3,1.669E3,2.27E3,4.612E3,1.035E3,6.34E2,1.379E3,8.91E2,1.326E3,3.286E3,5.44E2,4.91E2,4.3E2,2.04E2,1.277E3,1.02E2,6.08E2,2.83E2,4.99E2,8.27E2,1.829E3,1.457E3,4.32E2,1.12E2,1.41E2,3.5E2,2.91E2,1.39E2,4.5E1,1.59E2],"tree_param":{"num_deleted":"0","num_feature":"2","num_nodes":"31","size_leaf_vector":"1"}},{"base_weights":[-1.3229502E-3,-4.0942922E-1,4.9670376E-2,-4.856549E-1,-3.1331432E-1,2.1436727E-1,-1.8121228E-1,-2.8955618E-1,-5.724345E-1,-2.6616088E-1,-4.0003672E-1,3.621771E-2,4.9373594E-1,-4.613561E-1,-5.5596285E-2,-3.5817377E-2,1.466723E-2,-7.318157E-2,-4.903978E-2,-3.7877977E-2,-1.4137968E-2,-5.711328E-2,-3.636953E-2,1.6454073E-2,-8.04953E-2,6.1980188E-2,1.4176748E-2,-1.3550606E-1,-3.386232E-2,4.3158936E-3,-5.328966E-2],"categories":[],"categories_nodes":[],"categories_segments":[],"categories_sizes":[],"default_left":[0,0,0,0,0,0,0,0,0,0,0,0,0,0,0,0,0,0,0,0,0,0,0,0,0,0,0,0,0,0,0],"id":32,"left_children":[1,3,5,7,9,11,13,15,17,19,21,23,25,27,29,-1,-1,-1,-1,-1,-1,-1,-1,-1,-1,-1,-1,-1,-1,-1,-1],"loss_changes":[1.7799342E2,6.8079376E0,2.891479E2,8.819405E0,1.6232834E0,2.2085876E2,1.113876E2,4.9615374E0,4.413536E0,3.8390503E0,7.0630836E-1,2.9276202E2,7.65856E1,1.0703435E2,1.031092E2,0E0,0E0,0E0,0E0,0E0,0E0,0E0,0E0,0E0,0E0,0E0,0E0,0E0,0E0,0E0,0E0],"parents":[2147483647,0,0,1,1,2,2,3,3,4,4,5,5,6,6,7,7,8,8,9,9,10,10,11,11,12,12,13,13,14,14],"right_children":[2,4,6,8,10,12,14,16,18,20,22,24,26,28,30,-1,-1,-1,-1,-1,-1,-1,-1,-1,-1,-1,-1,-1,-1,-1,-1],"split_conditions":[4E0,5E0,1.8E1,2E0,2E0,1.3E1,3E0,3E0,3E0,1E0,7E0,7E0,1.7E1,1.9E1,2.3E1,-3.5817377E-2,1.466723E-2,-7.318157E-2,-4.903978E-2,-3.7877977E-2,-1.4137968E-2,-5.711328E-2,-3.636953E-2,1.6454073E-2,-8.04953E-2,6.1980188E-2,1.4176748E-2,-1.3550606E-1,-3.386232E-2,4.3158936E-3,-5.328966E-2],"split_indices":[1,0,1,0,1,1,0,1,0,1,0,0,1,1,1,0,0,0,0,0,0,0,0,0,0,0,0,0,0,0,0],"split_type":[0,0,0,0,0,0,0,0,0,0,0,0,0,0,0,0,0,0,0,0,0,0,0,0,0,0,0,0,0,0,0],"sum_hessian":[8.551E3,9.49E2,7.602E3,5.27E2,4.22E2,4.437E3,3.165E3,1.63E2,3.64E2,2.76E2,1.46E2,2.71E3,1.727E3,9.79E2,2.186E3,1.41E2,2.2E1,1.21E2,2.43E2,1.44E2,1.32E2,2.3E1,1.23E2,2.352E3,3.58E2,1.271E3,4.56E2,1.17E2,8.62E2,1.812E3,3.74E2],"tree_param":{"num_deleted":"0","num_feature":"2","num_nodes":"31","size_leaf_vector":"1"}},{"base_weights":[-1.2486724E-3,-2.9610988E-1,5.6758337E-2,-3.7822723E-1,-1.5674496E-1,2.315965E-1,-1.6316026E-1,-4.5690107E-1,-2.8188965E-1,-4.6849117E-2,-5.376925E-1,6.841777E-2,4.4440693E-1,-4.1539344E-1,-5.005937E-2,-4.9968317E-2,-2.8719319E-2,-2.3973262E-2,-3.737897E-2,-2.1567138E-2,2.1782756E-2,-2.7785197E-2,-5.9831467E-2,2.0080261E-2,-7.4454114E-2,5.9642572E-2,1.5243775E-2,-1.2207033E-1,-3.0480025E-2,4.264847E-2,-1.3862552E-2],"categories":[],"categories_nodes":[],"categories_segments":[],"categories_sizes":[],"default_left":[0,0,0,0,0,0,0,0,0,0,0,0,0,0,0,0,0,0,0,0,0,0,0,0,0,0,0,0,0,0,0],"id":33,"left_children":[1,3,5,7,9,11,13,15,17,19,21,23,25,27,29,-1,-1,-1,-1,-1,-1,-1,-1,-1,-1,-1,-1,-1,-1,-1,-1],"loss_changes":[1.4629036E2,1.6031372E1,2.7484113E2,6.571251E0,2.1869968E1,1.3824907E2,9.029823E1,3.3778076E0,1.460083E0,1.823309E1,1.6767502E0,2.4284036E2,7.660599E1,8.690849E1,9.236292E1,0E0,0E0,0E0,0E0,0E0,0E0,0E0,0E0,0E0,0E0,0E0,0E0,0E0,0E0,0E0,0E0],"parents":[2147483647,0,0,1,1,2,2,3,3,4,4,5,5,6,6,7,7,8,8,9,9,10,10,11,11,12,12,13,13,14,14],"right_children":[2,4,6,8,10,12,14,16,18,20,22,24,26,28,30,-1,-1,-1,-1,-1,-1,-1,-1,-1,-1,-1,-1,-1,-1,-1,-1],"split_conditions":[5E0,3E0,1.8E1,5E0,6E0,1.3E1,3E0,2E0,2E0,4E0,4E0,7E0,6E0,1.9E1,1.9E1,-4.9968317E-2,-2.8719319E-2,-2.3973262E-2,-3.737897E-2,-2.1567138E-2,2.1782756E-2,-2.7785197E-2,-5.9831467E-2,2.0080261E-2,-7.4454114E-2,5.9642572E-2,1.5243775E-2,-1.2207033E-1,-3.0480025E-2,4.264847E-2,-1.3862552E-2],"split_indices":[1,1,1,0,0,1,0,1,1,0,1,0,0,1,1,0,0,0,0,0,0,0,0,0,0,0,0,0,0,0,0],"split_type":[0,0,0,0,0,0,0,0,0,0,0,0,0,0,0,0,0,0,0,0,0,0,0,0,0,0,0,0,0,0,0],"sum_hessian":[8.551E3,1.405E3,7.146E3,8.83E2,5.22E2,3.981E3,3.165E3,4.84E2,3.99E2,4.06E2,1.16E2,2.254E3,1.727E3,9.79E2,2.186E3,3.85E2,9.9E1,2.76E2,1.23E2,2.48E2,1.58E2,2.3E1,9.3E1,1.939E3,3.15E2,1.135E3,5.92E2,1.17E2,8.62E2,3.42E2,1.844E3],"tree_param":{"num_deleted":"0","num_feature":"2","num_nodes":"31","size_leaf_vector":"1"}},{"base_weights":[-1.1625222E-3,2.8756924E-2,-4.9670482E-1,-2.6666063E-1,9.110917E-2,-6.088794E-1,-2.7206293E-1,-3.4056297E-1,-1.4123745E-1,2.0844182E-1,-8.3260134E-2,-5.3087574E-1,-1.1062782E-1,2.0136056E-3,-6.9539785E-2,-3.910775E-2,-2.1303026E-2,1.8655459E-3,-3.796429E-2,6.155163E-3,4.0000953E-2,-3.448796E-2,4.20399E-3,-7.751931E-2,-4.1419473E-2],"categories":[],"categories_nodes":[],"categories_segments":[],"categories_sizes":[],"default_left":[0,0,0,0,0,0,0,0,0,0,0,0,0,0,0,0,0,0,0,0,0,0,0,0,0],"id":34,"left_children":[1,3,5,7,9,11,13,15,17,19,21,23,-1,-1,-1,-1,-1,-1,-1,-1,-1,-1,-1,-1,-1],"loss_changes":[1.26809235E2,1.4859961E2,1.2106308E1,1.29842E1,1.3629617E2,1.1983543E1,2.030048E1,5.6116486E0,1.9943493E1,1.1202652E2,8.7867386E1,7.717949E0,0E0,0E0,0E0,0E0,0E0,0E0,0E0,0E0,0E0,0E0,0E0,0E0,0E0],"parents":[2147483647,0,0,1,1,2,2,3,3,4,4,5,5,6,6,7,7,8,8,9,9,10,10,11,11],"right_children":[2,4,6,8,10,12,14,16,18,20,22,24,-1,-1,-1,-1,-1,-1,-1,-1,-1,-1,-1,-1,-1],"split_conditions":[2.3E1,5E0,6E0,3E0,1.8E1,5E0,7E0,6E0,5E0,1.3E1,3E0,2E0,-1.1062782E-1,2.0136056E-3,-6.9539785E-2,-3.910775E-2,-2.1303026E-2,1.8655459E-3,-3.796429E-2,6.155163E-3,4.0000953E-2,-3.448796E-2,4.20399E-3,-7.751931E-2,-4.1419473E-2],"split_indices":[1,1,0,1,1,0,0,0,0,1,0,0,0,0,0,0,0,0,0,0,0,0,0,0,0],"split_type":[0,0,0,0,0,0,0,0,0,0,0,0,0,0,0,0,0,0,0,0,0,0,0,0,0],"sum_hessian":[8.551E3,8.065E3,4.86E2,1.405E3,6.66E3,3.23E2,1.63E2,8.83E2,5.22E2,3.981E3,2.679E3,2.81E2,4.2E1,9.7E1,6.6E1,6.31E2,2.52E2,3.13E2,2.09E2,2.254E3,1.727E3,8.67E2,1.812E3,8.9E1,1.92E2],"tree_param":{"num_deleted":"0","num_feature":"2","num_nodes":"25","size_leaf_vector":"1"}},{"base_weights":[-1.0903501E-3,4.7609773E-2,-2.8402323E-1,-2.4507591E-1,1.0920714E-1,-8.198581E-2,-1.014622E0,3.5176077E-1,-4.0673524E-1,-3.722521E-1,1.6140415E-1,-4.8231488E-1,4.3583968E-1,-2.3532906E-1,-5.656264E-1,-2.9677426E-2,2.3706464E-1,-1.3611881E-1,-3.2779027E-2,-4.93666E-2,-2.815252E-2,2.8354881E-2,-5.9459703E-3,-3.8549274E-2,-2.4411705E-1,1.0405003E-1,9.124733E-3,-3.287372E-2,-6.3019685E-2],"categories":[],"categories_nodes":[],"categories_segments":[],"categories_sizes":[],"default_left":[0,0,0,0,0,0,0,0,0,0,0,0,0,0,0,0,0,0,0,0,0,0,0,0,0,0,0,0,0],"id":35,"left_children":[1,3,5,7,9,11,13,15,17,19,21,23,25,-1,27,-1,-1,-1,-1,-1,-1,-1,-1,-1,-1,-1,-1,-1,-1],"loss_changes":[1.1785039E2,1.3158197E2,1.853128E2,1.2258155E2,1.5157326E2,2.044013E2,1.6215619E2,3.5552875E2,7.482773E1,6.360176E0,1.467736E2,1.04510254E2,8.9500465E1,0E0,2.9285278E0,0E0,0E0,0E0,0E0,0E0,0E0,0E0,0E0,0E0,0E0,0E0,0E0,0E0,0E0],"parents":[2147483647,0,0,1,1,2,2,3,3,4,4,5,5,6,6,7,7,8,8,9,9,10,10,11,11,12,12,14,14],"right_children":[2,4,6,8,10,12,14,16,18,20,22,24,26,-1,28,-1,-1,-1,-1,-1,-1,-1,-1,-1,-1,-1,-1,-1,-1],"split_conditions":[7E0,2E0,2E1,7E0,4E0,1.3E1,2.1E1,5E0,9E0,4E0,1.9E1,1.2E1,1.6E1,-2.3532906E-1,2.2E1,-2.9677426E-2,2.3706464E-1,-1.3611881E-1,-3.2779027E-2,-4.93666E-2,-2.815252E-2,2.8354881E-2,-5.9459703E-3,-3.8549274E-2,-2.4411705E-1,1.0405003E-1,9.124733E-3,-3.287372E-2,-6.3019685E-2],"split_indices":[0,0,1,1,1,1,1,1,1,0,1,1,1,0,1,0,0,0,0,0,0,0,0,0,0,0,0,0,0],"split_type":[0,0,0,0,0,0,0,0,0,0,0,0,0,0,0,0,0,0,0,0,0,0,0,0,0,0,0,0,0],"sum_hessian":[8.551E3,7.296E3,1.255E3,1.268E3,6.028E3,9.84E2,2.71E2,2.7E2,9.98E2,5.89E2,5.439E3,5.55E2,4.29E2,6.7E1,2.04E2,2.05E2,6.5E1,7.5E1,9.23E2,2.5E2,3.39E2,3.502E3,1.937E3,5.3E2,2.5E1,1.55E2,2.74E2,4.5E1,1.59E2],"tree_param":{"num_deleted":"0","num_feature":"2","num_nodes":"29","size_leaf_vector":"1"}},{"base_weights":[-1.0416312E-3,4.2846702E-2,-2.5601944E-1,-1.232935E-1,1.329839E-1,-7.395915E-2,-9.1437745E-1,3.075401E-1,-2.4753134E-1,-2.9069713E-1,2.4007481E-1,-3.814752E-1,5.211581E-1,-2.1214226E-1,-5.095314E-1,-2.4669698E-2,1.7847234E-1,-1.0026467E-1,6.701548E-4,5.048749E-2,-5.5993766E-2,5.9512217E-2,6.672164E-3,1.0038213E-1,-4.2932104E-2,2.4599402E-1,8.2155755E-3,-2.9657776E-2,-5.67571E-2],"categories":[],"categories_nodes":[],"categories_segments":[],"categories_sizes":[],"default_left":[0,0,0,0,0,0,0,0,0,0,0,0,0,0,0,0,0,0,0,0,0,0,0,0,0,0,0,0,0],"id":36,"left_children":[1,3,5,7,9,11,13,15,17,19,21,23,25,-1,27,-1,-1,-1,-1,-1,-1,-1,-1,-1,-1,-1,-1,-1,-1],"loss_changes":[9.571257E1,1.0929196E2,1.504776E2,1.3747693E2,2.1472656E2,1.8046179E2,1.3183665E2,4.7119836E2,3.8261322E2,2.0484392E2,2.3242928E2,4.3513428E1,2.8577753E2,0E0,2.3654175E0,0E0,0E0,0E0,0E0,0E0,0E0,0E0,0E0,0E0,0E0,0E0,0E0,0E0,0E0],"parents":[2147483647,0,0,1,1,2,2,3,3,4,4,5,5,6,6,7,7,8,8,9,9,10,10,11,11,12,12,14,14],"right_children":[2,4,6,8,10,12,14,16,18,20,22,24,26,-1,28,-1,-1,-1,-1,-1,-1,-1,-1,-1,-1,-1,-1,-1,-1],"split_conditions":[7E0,3E0,2E1,7E0,7E0,1.5E1,2.1E1,5E0,1.3E1,4E0,1.4E1,1E0,1.6E1,-2.1214226E-1,2.2E1,-2.4669698E-2,1.7847234E-1,-1.0026467E-1,6.701548E-4,5.048749E-2,-5.5993766E-2,5.9512217E-2,6.672164E-3,1.0038213E-1,-4.2932104E-2,2.4599402E-1,8.2155755E-3,-2.9657776E-2,-5.67571E-2],"split_indices":[0,0,1,1,1,1,1,1,1,0,1,1,1,0,1,0,0,0,0,0,0,0,0,0,0,0,0,0,0],"split_type":[0,0,0,0,0,0,0,0,0,0,0,0,0,0,0,0,0,0,0,0,0,0,0,0,0,0,0,0,0],"sum_hessian":[8.551E3,7.296E3,1.255E3,2.566E3,4.73E3,9.84E2,2.71E2,5.74E2,1.992E3,9.54E2,3.776E3,6.49E2,3.35E2,6.7E1,2.04E2,4.18E2,1.56E2,5.01E2,1.491E3,2.41E2,7.13E2,1.238E3,2.538E3,2.1E1,6.28E2,6.1E1,2.74E2,4.5E1,1.59E2],"tree_param":{"num_deleted":"0","num_feature":"2","num_nodes":"29","size_leaf_vector":"1"}},{"base_weights":[-9.224839E-4,2.4727622E-2,-4.2575377E-1,-1.4721847E-1,9.2095606E-2,-5.399784E-1,-1.9749448E-1,1.6362195E-1,-4.0442488E-1,-9.1072105E-2,2.3927361E-1,-4.6808118E-1,-9.9893264E-2,1.7425051E-3,-5.0890673E-2,-2.9325062E-2,8.5131176E-2,-1.1569544E-2,-9.024828E-2,-5.4721247E-2,1.038346E-3,5.1018395E-2,1.3198245E-3,-6.667831E-2,-3.72997E-2],"categories":[],"categories_nodes":[],"categories_segments":[],"categories_sizes":[],"default_left":[0,0,0,0,0,0,0,0,0,0,0,0,0,0,0,0,0,0,0,0,0,0,0,0,0],"id":37,"left_children":[1,3,5,7,9,11,13,15,17,19,21,23,-1,-1,-1,-1,-1,-1,-1,-1,-1,-1,-1,-1,-1],"loss_changes":[9.32014E1,9.344738E1,1.259082E1,1.8163297E2,1.5627187E2,1.022361E1,1.0985153E1,3.2354767E2,1.7864392E2,1.195417E2,1.9683836E2,5.079239E0,0E0,0E0,0E0,0E0,0E0,0E0,0E0,0E0,0E0,0E0,0E0,0E0,0E0],"parents":[2147483647,0,0,1,1,2,2,3,3,4,4,5,5,6,6,7,7,8,8,9,9,10,10,11,11],"right_children":[2,4,6,8,10,12,14,16,18,20,22,24,-1,-1,-1,-1,-1,-1,-1,-1,-1,-1,-1,-1,-1],"split_conditions":[2.3E1,9E0,6E0,4E0,4E0,5E0,7E0,5E0,5E0,1.2E1,6E0,2E0,-9.9893264E-2,1.7425051E-3,-5.0890673E-2,-2.9325062E-2,8.5131176E-2,-1.1569544E-2,-9.024828E-2,-5.4721247E-2,1.038346E-3,5.1018395E-2,1.3198245E-3,-6.667831E-2,-3.72997E-2],"split_indices":[1,1,0,0,0,0,0,1,1,1,0,0,0,0,0,0,0,0,0,0,0,0,0,0,0],"split_type":[0,0,0,0,0,0,0,0,0,0,0,0,0,0,0,0,0,0,0,0,0,0,0,0,0],"sum_hessian":[8.551E3,8.065E3,4.86E2,2.27E3,5.795E3,3.23E2,1.63E2,1.028E3,1.242E3,2.582E3,3.213E3,2.81E2,4.2E1,9.7E1,6.6E1,6.18E2,4.1E2,7.87E2,4.55E2,4.69E2,2.113E3,1.461E3,1.752E3,8.9E1,1.92E2],"tree_param":{"num_deleted":"0","num_feature":"2","num_nodes":"25","size_leaf_vector":"1"}},{"base_weights":[-8.6520176E-4,4.581272E-2,-1.9325039E-1,-1.3251679E-1,1.3359518E-1,-3.6206445E-1,8.247346E-2,7.822873E-2,-4.584095E-1,2.510339E-1,-2.6485732E-2,-5.145434E-1,-2.858526E-1,7.0311195E-1,-1.6269629E-1,2.242702E-2,-1.7345795E-1,-1.9006452E-2,-1.0322253E-1,4.686672E-3,5.3893376E-2,2.1889394E-2,-5.8285423E-2,-4.2844187E-2,-7.5278066E-2,-1.9221565E-2,-4.2164184E-2,1.0290929E-1,-2.6885629E-2,1.4685065E-3,-4.909436E-2],"categories":[],"categories_nodes":[],"categories_segments":[],"categories_sizes":[],"default_left":[0,0,0,0,0,0,0,0,0,0,0,0,0,0,0,0,0,0,0,0,0,0,0,0,0,0,0,0,0,0,0],"id":38,"left_children":[1,3,5,7,9,11,13,15,17,19,21,23,25,27,29,-1,-1,-1,-1,-1,-1,-1,-1,-1,-1,-1,-1,-1,-1,-1,-1],"loss_changes":[7.6807014E1,1.0776559E2,7.776178E1,1.5600912E2,8.6729645E1,1.1891968E1,9.673713E1,3.657374E2,1.3715453E2,1.5638751E2,2.6675406E2,6.7338104E0,8.73037E0,5.7308456E1,2.6557785E1,0E0,0E0,0E0,0E0,0E0,0E0,0E0,0E0,0E0,0E0,0E0,0E0,0E0,0E0,0E0,0E0],"parents":[2147483647,0,0,1,1,2,2,3,3,4,4,5,5,6,6,7,7,8,8,9,9,10,10,11,11,12,12,13,13,14,14],"right_children":[2,4,6,8,10,12,14,16,18,20,22,24,26,28,30,-1,-1,-1,-1,-1,-1,-1,-1,-1,-1,-1,-1,-1,-1,-1,-1],"split_conditions":[2.1E1,9E0,5E0,5E0,1.7E1,2.2E1,2.2E1,8E0,5E0,5E0,6E0,4E0,2.3E1,7E0,7E0,2.242702E-2,-1.7345795E-1,-1.9006452E-2,-1.0322253E-1,4.686672E-3,5.3893376E-2,2.1889394E-2,-5.8285423E-2,-4.2844187E-2,-7.5278066E-2,-1.9221565E-2,-4.2164184E-2,1.0290929E-1,-2.6885629E-2,1.4685065E-3,-4.909436E-2],"split_indices":[1,1,0,0,1,1,1,1,1,0,0,0,1,0,0,0,0,0,0,0,0,0,0,0,0,0,0,0,0,0,0],"split_type":[0,0,0,0,0,0,0,0,0,0,0,0,0,0,0,0,0,0,0,0,0,0,0,0,0,0,0,0,0,0,0],"sum_hessian":[8.551E3,6.882E3,1.669E3,2.27E3,4.612E3,1.035E3,6.34E2,1.379E3,8.91E2,2.66E3,1.952E3,3.43E2,6.92E2,1.79E2,4.55E2,1.277E3,1.02E2,6.08E2,2.83E2,1.557E3,1.103E3,1.355E3,5.97E2,2.54E2,8.9E1,4.11E2,2.81E2,1.34E2,4.5E1,2.96E2,1.59E2],"tree_param":{"num_deleted":"0","num_feature":"2","num_nodes":"31","size_leaf_vector":"1"}},{"base_weights":[-8.256816E-4,2.0445758E-2,-3.5313493E-1,-1.7907563E-1,6.255755E-2,-4.502319E-1,-1.5915596E-1,-2.8636354E-1,-9.457017E-2,1.08138084E-1,-2.115673E-1,-3.7962717E-1,-9.027971E-2,1.4246814E-3,-4.1041445E-2,-4.1272845E-2,-1.867727E-2,1.6484527E-2,-1.710894E-2,-7.0455372E-3,2.0707354E-2,-2.7325714E-3,-8.7685086E-2,-5.5914998E-2,-2.9394487E-2],"categories":[],"categories_nodes":[],"categories_segments":[],"categories_sizes":[],"default_left":[0,0,0,0,0,0,0,0,0,0,0,0,0,0,0,0,0,0,0,0,0,0,0,0,0],"id":39,"left_children":[1,3,5,7,9,11,13,15,17,19,21,23,-1,-1,-1,-1,-1,-1,-1,-1,-1,-1,-1,-1,-1],"loss_changes":[6.409698E1,6.778336E1,9.100868E0,1.2720299E1,8.3250465E1,1.0010132E1,7.1511483E0,7.7128944E0,1.5670214E1,1.0094121E2,1.1642029E2,4.1733437E0,0E0,0E0,0E0,0E0,0E0,0E0,0E0,0E0,0E0,0E0,0E0,0E0,0E0],"parents":[2147483647,0,0,1,1,2,2,3,3,4,4,5,5,6,6,7,7,8,8,9,9,10,10,11,11],"right_children":[2,4,6,8,10,12,14,16,18,20,22,24,-1,-1,-1,-1,-1,-1,-1,-1,-1,-1,-1,-1,-1],"split_conditions":[2.3E1,5E0,6E0,4E0,7E0,5E0,7E0,2E0,5E0,3E0,2E1,2E0,-9.027971E-2,1.4246814E-3,-4.1041445E-2,-4.1272845E-2,-1.867727E-2,1.6484527E-2,-1.710894E-2,-7.0455372E-3,2.0707354E-2,-2.7325714E-3,-8.7685086E-2,-5.5914998E-2,-2.9394487E-2],"split_indices":[1,1,0,0,0,0,0,1,0,0,1,0,0,0,0,0,0,0,0,0,0,0,0,0,0],"split_type":[0,0,0,0,0,0,0,0,0,0,0,0,0,0,0,0,0,0,0,0,0,0,0,0,0],"sum_hessian":[8.551E3,8.065E3,4.86E2,1.405E3,6.66E3,3.23E2,1.63E2,6.18E2,7.87E2,5.711E3,9.49E2,2.81E2,4.2E1,9.7E1,6.6E1,2.71E2,3.47E2,1.79E2,6.08E2,2.036E3,3.675E3,7.44E2,2.05E2,8.9E1,1.92E2],"tree_param":{"num_deleted":"0","num_feature":"2","num_nodes":"25","size_leaf_vector":"1"}},{"base_weights":[-7.844452E-4,5.3656094E-2,-1.18353195E-1,-1.11772686E-1,1.5869947E-1,-2.1966314E-1,4.2481735E-2,1.5141381E-1,-3.2955799E-1,-3.1185842E-1,2.3422427E-1,-5.4454114E-2,-3.1927818E-1,2.146172E-1,-3.1453368E-1,-2.5782386E-2,7.673912E-2,-8.511393E-3,-7.512518E-2,6.7323255E-3,-1.0845925E-1,3.563923E-2,3.009079E-3,-2.2343518E-2,1.152408E-2,-4.6778273E-2,-2.4510093E-2,-4.56965E-2,3.7246883E-2,1.145556E-1,-6.891357E-2],"categories":[],"categories_nodes":[],"categories_segments":[],"categories_sizes":[],"default_left":[0,0,0,0,0,0,0,0,0,0,0,0,0,0,0,0,0,0,0,0,0,0,0,0,0,0,0,0,0,0,0],"id":40,"left_children":[1,3,5,7,9,11,13,15,17,19,21,23,25,27,29,-1,-1,-1,-1,-1,-1,-1,-1,-1,-1,-1,-1,-1,-1,-1,-1],"loss_changes":[5.4743477E1,1.01604836E2,4.4117676E1,1.3021942E2,1.2715978E2,2.73182E1,6.4410904E1,2.5958932E2,1.280652E2,1.4511127E2,7.684999E1,1.7976442E1,1.1297562E1,7.511951E1,1.8730023E2,0E0,0E0,0E0,0E0,0E0,0E0,0E0,0E0,0E0,0E0,0E0,0E0,0E0,0E0,0E0,0E0],"parents":[2147483647,0,0,1,1,2,2,3,3,4,4,5,5,6,6,7,7,8,8,9,9,10,10,11,11,12,12,13,13,14,14],"right_children":[2,4,6,8,10,12,14,16,18,20,22,24,26,28,30,-1,-1,-1,-1,-1,-1,-1,-1,-1,-1,-1,-1,-1,-1,-1,-1],"split_conditions":[1.9E1,9E0,5E0,4E0,2E0,2.1E1,7E0,5E0,5E0,1.7E1,6E0,2E1,2.2E1,2E1,2E1,-2.5782386E-2,7.673912E-2,-8.511393E-3,-7.512518E-2,6.7323255E-3,-1.0845925E-1,3.563923E-2,3.009079E-3,-2.2343518E-2,1.152408E-2,-4.6778273E-2,-2.4510093E-2,-4.56965E-2,3.7246883E-2,1.145556E-1,-6.891357E-2],"split_indices":[1,1,0,0,0,1,0,1,1,1,0,1,1,1,1,0,0,0,0,0,0,0,0,0,0,0,0,0,0,0,0],"split_type":[0,0,0,0,0,0,0,0,0,0,0,0,0,0,0,0,0,0,0,0,0,0,0,0,0,0,0,0,0,0,0],"sum_hessian":[8.551E3,5.845E3,2.706E3,2.27E3,3.575E3,1.66E3,1.046E3,1.028E3,1.242E3,4.94E2,3.081E3,6.25E2,1.035E3,7.06E2,3.4E2,6.18E2,4.1E2,7.87E2,4.55E2,3.32E2,1.62E2,1.927E3,1.154E3,3.13E2,3.12E2,3.43E2,6.92E2,1.34E2,5.72E2,6.9E1,2.71E2],"tree_param":{"num_deleted":"0","num_feature":"2","num_nodes":"31","size_leaf_vector":"1"}},{"base_weights":[-7.2240137E-4,1.7673936E-2,-3.054126E-1,4.8833568E-2,-1.6241218E-1,-3.8932174E-1,-1.3777865E-1,-8.325145E-2,1.2213673E-1,-4.5423225E-2,-7.210127E-1,-3.1754377E-1,-8.509976E-2,-2.4030113E-3,-3.0210072E-2,-2.9581562E-2,1.185819E-2,-2.053827E-2,2.1226613E-2,-3.0662317E-2,4.6000946E-2,-1.7019771E-1,-2.3592932E-2,-4.7961835E-2,-2.4031965E-2],"categories":[],"categories_nodes":[],"categories_segments":[],"categories_sizes":[],"default_left":[0,0,0,0,0,0,0,0,0,0,0,0,0,0,0,0,0,0,0,0,0,0,0,0,0],"id":41,"left_children":[1,3,5,7,9,11,13,15,17,19,21,23,-1,-1,-1,-1,-1,-1,-1,-1,-1,-1,-1,-1,-1],"loss_changes":[4.794093E1,4.5269623E1,6.7965126E0,6.659499E1,7.773386E1,1.046653E1,3.058129E0,1.053608E2,1.3060672E2,1.3017975E2,9.762346E1,3.4142685E0,0E0,0E0,0E0,0E0,0E0,0E0,0E0,0E0,0E0,0E0,0E0,0E0,0E0],"parents":[2147483647,0,0,1,1,2,2,3,3,4,4,5,5,6,6,7,7,8,8,9,9,10,10,11,11],"right_children":[2,4,6,8,10,12,14,16,18,20,22,24,-1,-1,-1,-1,-1,-1,-1,-1,-1,-1,-1,-1,-1],"split_conditions":[2.3E1,7E0,6E0,3E0,2E1,5E0,7E0,1.4E1,7E0,1.5E1,2.1E1,2E0,-8.509976E-2,-2.4030113E-3,-3.0210072E-2,-2.9581562E-2,1.185819E-2,-2.053827E-2,2.1226613E-2,-3.0662317E-2,4.6000946E-2,-1.7019771E-1,-2.3592932E-2,-4.7961835E-2,-2.4031965E-2],"split_indices":[1,0,0,0,1,0,0,1,1,1,1,0,0,0,0,0,0,0,0,0,0,0,0,0,0],"split_type":[0,0,0,0,0,0,0,0,0,0,0,0,0,0,0,0,0,0,0,0,0,0,0,0,0],"sum_hessian":[8.551E3,8.065E3,4.86E2,6.876E3,1.189E3,3.23E2,1.63E2,2.454E3,4.422E3,9.84E2,2.05E2,2.81E2,4.2E1,9.7E1,6.6E1,1.195E3,1.259E3,9.54E2,3.468E3,6.49E2,3.35E2,6.7E1,1.38E2,8.9E1,1.92E2],"tree_param":{"num_deleted":"0","num_feature":"2","num_nodes":"25","size_leaf_vector":"1"}},{"base_weights":[-6.952853E-4,5.8395524E-2,-1.0123903E-1,-4.5000933E-2,2.2685935E-1,-2.3531085E-1,3.5568108E-3,-2.3293969E-1,3.5563495E-2,3.442309E-1,-9.423319E-3,-5.6955326E-1,-1.8315904E-1,6.347441E-2,-2.83747E-1,3.022354E-2,-9.5138066E-2,-2.1317886E-2,3.3155225E-2,8.368612E-3,7.552531E-2,6.1328925E-2,-9.537976E-2,-1.0318672E-1,2.1791229E-2,1.9257593E-3,-3.0117197E-2,2.2683559E-2,-9.028496E-3,-4.6348337E-2,-1.241995E-2],"categories":[],"categories_nodes":[],"categories_segments":[],"categories_sizes":[],"default_left":[0,0,0,0,0,0,0,0,0,0,0,0,0,0,0,0,0,0,0,0,0,0,0,0,0,0,0,0,0,0,0],"id":42,"left_children":[1,3,5,7,9,11,13,15,17,19,21,23,25,27,29,-1,-1,-1,-1,-1,-1,-1,-1,-1,-1,-1,-1,-1,-1,-1,-1],"loss_changes":[5.0815147E1,9.3844E1,4.4483677E1,5.0564674E1,5.682788E1,2.4107826E1,3.0625486E1,3.8554822E2,1.7220578E2,1.4654259E2,4.0106314E2,6.8303375E1,2.8742794E1,3.6994633E1,8.746119E0,0E0,0E0,0E0,0E0,0E0,0E0,0E0,0E0,0E0,0E0,0E0,0E0,0E0,0E0,0E0,0E0],"parents":[2147483647,0,0,1,1,2,2,3,3,4,4,5,5,6,6,7,7,8,8,9,9,10,10,11,11,12,12,13,13,14,14],"right_children":[2,4,6,8,10,12,14,16,18,20,22,24,26,28,30,-1,-1,-1,-1,-1,-1,-1,-1,-1,-1,-1,-1,-1,-1,-1,-1],"split_conditions":[1.8E1,1.2E1,4E0,3E0,6E0,1.9E1,2.3E1,7E0,7E0,1.6E1,1.6E1,3E0,2.1E1,6E0,6E0,3.022354E-2,-9.5138066E-2,-2.1317886E-2,3.3155225E-2,8.368612E-3,7.552531E-2,6.1328925E-2,-9.537976E-2,-1.0318672E-1,2.1791229E-2,1.9257593E-3,-3.0117197E-2,2.2683559E-2,-9.028496E-3,-4.6348337E-2,-1.241995E-2],"split_indices":[1,1,0,0,0,1,1,1,1,1,1,0,1,0,0,0,0,0,0,0,0,0,0,0,0,0,0,0,0,0,0],"split_type":[0,0,0,0,0,0,0,0,0,0,0,0,0,0,0,0,0,0,0,0,0,0,0,0,0,0,0,0,0,0,0],"sum_hessian":[8.551E3,5.386E3,3.165E3,3.338E3,2.048E3,1.388E3,1.777E3,1.001E3,2.337E3,1.368E3,6.8E2,1.86E2,1.202E3,1.471E3,3.06E2,5.74E2,4.27E2,1.27E3,1.067E3,8.38E2,5.3E2,4.1E2,2.7E2,1.17E2,6.9E1,4.43E2,7.59E2,7.13E2,7.58E2,1.43E2,1.63E2],"tree_param":{"num_deleted":"0","num_feature":"2","num_nodes":"31","size_leaf_vector":"1"}},{"base_weights":[-6.443203E-4,6.0602535E-2,-8.402576E-2,-1.6337523E-2,3.8430426E-1,-3.652739E-1,-2.9066043E-2,-2.4815531E-1,8.3042555E-2,1.443138E0,8.433055E-2,-9.8470527E-1,-1.2961671E-1,9.341462E-2,-2.582258E-1,2.7206425E-2,-7.286667E-2,-1.9187773E-2,3.128719E-2,3.853911E-2,2.810487E-1,-6.9617115E-2,2.9778227E-2,-8.6494915E-2,-1.1205013E-1,1.5843825E-2,-2.591445E-2,7.9592034E-2,-1.196678E-2,-1.4271075E-1,-8.679713E-3],"categories":[],"categories_nodes":[],"categories_segments":[],"categories_sizes":[],"default_left":[0,0,0,0,0,0,0,0,0,0,0,0,0,0,0,0,0,0,0,0,0,0,0,0,0,0,0,0,0,0,0],"id":43,"left_children":[1,3,5,7,9,11,13,15,17,19,21,23,25,27,29,-1,-1,-1,-1,-1,-1,-1,-1,-1,-1,-1,-1,-1,-1,-1,-1],"loss_changes":[4.3678883E1,1.2281593E2,5.5975792E1,9.182732E1,3.0066656E2,8.6288666E1,8.509714E1,2.9916403E2,1.7634549E2,3.011954E2,1.2332427E2,1.6815948E0,1.6084839E1,2.9588586E2,2.1147726E2,0E0,0E0,0E0,0E0,0E0,0E0,0E0,0E0,0E0,0E0,0E0,0E0,0E0,0E0,0E0,0E0],"parents":[2147483647,0,0,1,1,2,2,3,3,4,4,5,5,6,6,7,7,8,8,9,9,10,10,11,11,12,12,13,13,14,14],"right_children":[2,4,6,8,10,12,14,16,18,20,22,24,26,28,30,-1,-1,-1,-1,-1,-1,-1,-1,-1,-1,-1,-1,-1,-1,-1,-1],"split_conditions":[1.7E1,1.4E1,2E0,3E0,3E0,1.9E1,6E0,7E0,7E0,2E0,4E0,1.8E1,2.1E1,1.9E1,1.8E1,2.7206425E-2,-7.286667E-2,-1.9187773E-2,3.128719E-2,3.853911E-2,2.810487E-1,-6.9617115E-2,2.9778227E-2,-8.6494915E-2,-1.1205013E-1,1.5843825E-2,-2.591445E-2,7.9592034E-2,-1.196678E-2,-1.4271075E-1,-8.679713E-3],"split_indices":[1,1,0,0,0,1,0,1,1,0,0,1,1,1,1,0,0,0,0,0,0,0,0,0,0,0,0,0,0,0,0],"split_type":[0,0,0,0,0,0,0,0,0,0,0,0,0,0,0,0,0,0,0,0,0,0,0,0,0,0,0,0,0,0,0],"sum_hessian":[8.551E3,4.93E3,3.621E3,3.984E3,9.46E2,5.91E2,3.03E3,1.195E3,2.789E3,2.08E2,7.38E2,1.62E2,4.29E2,1.975E3,1.055E3,5.74E2,6.21E2,1.27E3,1.519E3,1.18E2,9E1,1.58E2,5.8E2,9E1,7.2E1,1.33E2,2.96E2,4.59E2,1.516E3,1.34E2,9.21E2],"tree_param":{"num_deleted":"0","num_feature":"2","num_nodes":"31","size_leaf_vector":"1"}},{"base_weights":[-5.8511825E-4,5.4592498E-2,-7.5703904E-2,-1.4711896E-2,3.461695E-1,-3.2909885E-1,-2.6187073E-2,-2.2337808E-1,7.4743114E-2,1.3003532E0,7.584397E-2,-8.8745314E-1,-1.1667829E-1,8.410739E-2,-2.3254661E-1,2.4490511E-2,-6.5591745E-2,-1.7270496E-2,2.8160611E-2,3.471751E-2,2.5325274E-1,-6.269927E-2,2.6805598E-2,-7.7940516E-2,-1.0099862E-1,1.4271309E-2,-2.3331722E-2,7.165016E-2,-1.0770898E-2,-1.285453E-1,-7.812698E-3],"categories":[],"categories_nodes":[],"categories_segments":[],"categories_sizes":[],"default_left":[0,0,0,0,0,0,0,0,0,0,0,0,0,0,0,0,0,0,0,0,0,0,0,0,0,0,0,0,0,0,0],"id":44,"left_children":[1,3,5,7,9,11,13,15,17,19,21,23,25,27,29,-1,-1,-1,-1,-1,-1,-1,-1,-1,-1,-1,-1,-1,-1,-1,-1],"loss_changes":[3.5451107E1,9.9648605E1,4.5437756E1,7.440164E1,2.4417078E2,7.011116E1,6.900608E1,2.424115E2,1.4286273E2,2.4458734E2,1.0000228E2,1.3708344E0,1.3043006E1,2.3977301E2,1.7159401E2,0E0,0E0,0E0,0E0,0E0,0E0,0E0,0E0,0E0,0E0,0E0,0E0,0E0,0E0,0E0,0E0],"parents":[2147483647,0,0,1,1,2,2,3,3,4,4,5,5,6,6,7,7,8,8,9,9,10,10,11,11,12,12,13,13,14,14],"right_children":[2,4,6,8,10,12,14,16,18,20,22,24,26,28,30,-1,-1,-1,-1,-1,-1,-1,-1,-1,-1,-1,-1,-1,-1,-1,-1],"split_conditions":[1.7E1,1.4E1,2E0,3E0,3E0,1.9E1,6E0,7E0,7E0,2E0,4E0,1.8E1,2.1E1,1.9E1,1.8E1,2.4490511E-2,-6.5591745E-2,-1.7270496E-2,2.8160611E-2,3.471751E-2,2.5325274E-1,-6.269927E-2,2.6805598E-2,-7.7940516E-2,-1.0099862E-1,1.4271309E-2,-2.3331722E-2,7.165016E-2,-1.0770898E-2,-1.285453E-1,-7.812698E-3],"split_indices":[1,1,0,0,0,1,0,1,1,0,0,1,1,1,1,0,0,0,0,0,0,0,0,0,0,0,0,0,0,0,0],"split_type":[0,0,0,0,0,0,0,0,0,0,0,0,0,0,0,0,0,0,0,0,0,0,0,0,0,0,0,0,0,0,0],"sum_hessian":[8.551E3,4.93E3,3.621E3,3.984E3,9.46E2,5.91E2,3.03E3,1.195E3,2.789E3,2.08E2,7.38E2,1.62E2,4.29E2,1.975E3,1.055E3,5.74E2,6.21E2,1.27E3,1.519E3,1.18E2,9E1,1.58E2,5.8E2,9E1,7.2E1,1.33E2,2.96E2,4.59E2,1.516E3,1.34E2,9.21E2],"tree_param":{"num_deleted":"0","num_feature":"2","num_nodes":"31","size_leaf_vector":"1"}},{"base_weights":[-5.314516E-4,2.467586E-2,-1.4697827E-1,-1.9270743E-1,4.968196E-2,-4.023169E-2,-5.3300184E-1,-2.7768546E-1,-8.866741E-2,1.3369566E-1,-6.732896E-2,-3.0028972E-1,4.629765E-1,-1.5091376E-1,-2.066105E-1,-1.2828464E-2,-3.741956E-2,-2.8710878E-2,2.5136257E-3,6.88231E-3,2.096986E-2,-1.929633E-2,6.217653E-3,1.04606286E-1,-3.4690257E-2,2.0020477E-1,1.1430233E-2,-4.131541E-3,-2.5284154E-2],"categories":[],"categories_nodes":[],"categories_segments":[],"categories_sizes":[],"default_left":[0,0,0,0,0,0,0,0,0,0,0,0,0,0,0,0,0,0,0,0,0,0,0,0,0,0,0,0,0],"id":45,"left_children":[1,3,5,7,9,11,13,15,17,19,21,23,25,-1,27,-1,-1,-1,-1,-1,-1,-1,-1,-1,-1,-1,-1,-1,-1],"loss_changes":[3.1573599E1,3.96754E1,5.1734165E1,6.632736E0,6.4349754E1,1.290394E2,8.6348015E1,5.921339E0,7.6855583E0,1.877079E1,4.4527634E1,4.1155125E1,1.8008032E2,0E0,1.5561152E0,0E0,0E0,0E0,0E0,0E0,0E0,0E0,0E0,0E0,0E0,0E0,0E0,0E0,0E0],"parents":[2147483647,0,0,1,1,2,2,3,3,4,4,5,5,6,6,7,7,8,8,9,9,10,10,11,11,12,12,14,14],"right_children":[2,4,6,8,10,12,14,16,18,20,22,24,26,-1,28,-1,-1,-1,-1,-1,-1,-1,-1,-1,-1,-1,-1,-1,-1],"split_conditions":[7E0,4E0,2E1,4E0,1.8E1,1.5E1,2.1E1,2E0,1E0,1.2E1,4E0,1E0,1.6E1,-1.5091376E-1,2.2E1,-1.2828464E-2,-3.741956E-2,-2.8710878E-2,2.5136257E-3,6.88231E-3,2.096986E-2,-1.929633E-2,6.217653E-3,1.04606286E-1,-3.4690257E-2,2.0020477E-1,1.1430233E-2,-4.131541E-3,-2.5284154E-2],"split_indices":[0,1,1,0,1,1,1,0,1,1,0,1,1,0,1,0,0,0,0,0,0,0,0,0,0,0,0,0,0],"split_type":[0,0,0,0,0,0,0,0,0,0,0,0,0,0,0,0,0,0,0,0,0,0,0,0,0,0,0,0,0],"sum_hessian":[8.551E3,7.296E3,1.255E3,7.52E2,6.544E3,9.84E2,2.71E2,4.13E2,3.39E2,3.809E3,2.735E3,6.49E2,3.35E2,6.7E1,2.04E2,1.63E2,2.5E2,1.23E2,2.16E2,2.056E3,1.753E3,1.388E3,1.347E3,2.1E1,6.28E2,6.1E1,2.74E2,4.5E1,1.59E2],"tree_param":{"num_deleted":"0","num_feature":"2","num_nodes":"29","size_leaf_vector":"1"}},{"base_weights":[-4.734995E-4,2.2200022E-2,-1.3219978E-1,-1.7353822E-1,4.4716246E-2,-3.592263E-2,-4.8036447E-1,-2.2972015E-1,-4.151345E-2,1.3128297E-1,-4.885386E-2,-2.701531E-1,4.173087E-1,-1.3604426E-1,-1.8609288E-1,-1.1553443E-2,-2.8039614E-2,-2.5862947E-2,2.2027198E-2,9.796361E-3,5.080645E-2,-2.8336436E-2,5.501939E-4,9.462115E-2,-3.1226737E-2,1.805072E-1,1.0291366E-2,-3.7273907E-3,-2.2771528E-2],"categories":[],"categories_nodes":[],"categories_segments":[],"categories_sizes":[],"default_left":[0,0,0,0,0,0,0,0,0,0,0,0,0,0,0,0,0,0,0,0,0,0,0,0,0,0,0,0,0],"id":46,"left_children":[1,3,5,7,9,11,13,15,17,19,21,23,25,-1,27,-1,-1,-1,-1,-1,-1,-1,-1,-1,-1,-1,-1,-1,-1],"loss_changes":[2.5545183E1,3.2167725E1,4.2084248E1,5.5757713E0,5.3021294E1,1.0468091E2,7.0189926E1,3.0228634E0,1.2902313E1,4.263424E1,4.0103638E1,3.359256E1,1.46413E2,0E0,1.261323E0,0E0,0E0,0E0,0E0,0E0,0E0,0E0,0E0,0E0,0E0,0E0,0E0,0E0,0E0],"parents":[2147483647,0,0,1,1,2,2,3,3,4,4,5,5,6,6,7,7,8,8,9,9,10,10,11,11,12,12,14,14],"right_children":[2,4,6,8,10,12,14,16,18,20,22,24,26,-1,28,-1,-1,-1,-1,-1,-1,-1,-1,-1,-1,-1,-1,-1,-1],"split_conditions":[7E0,4E0,2E1,5E0,1.7E1,1.5E1,2.1E1,2E0,1E0,1.6E1,2E0,1E0,1.6E1,-1.3604426E-1,2.2E1,-1.1553443E-2,-2.8039614E-2,-2.5862947E-2,2.2027198E-2,9.796361E-3,5.080645E-2,-2.8336436E-2,5.501939E-4,9.462115E-2,-3.1226737E-2,1.805072E-1,1.0291366E-2,-3.7273907E-3,-2.2771528E-2],"split_indices":[0,1,1,0,1,1,1,0,1,1,0,1,1,0,1,0,0,0,0,0,0,0,0,0,0,0,0,0,0],"split_type":[0,0,0,0,0,0,0,0,0,0,0,0,0,0,0,0,0,0,0,0,0,0,0,0,0,0,0,0,0],"sum_hessian":[8.551E3,7.296E3,1.255E3,7.52E2,6.544E3,9.84E2,2.71E2,5.27E2,2.25E2,3.399E3,3.145E3,6.49E2,3.35E2,6.7E1,2.04E2,1.63E2,3.64E2,1.23E2,1.02E2,3.124E3,2.75E2,5.91E2,2.554E3,2.1E1,6.28E2,6.1E1,2.74E2,4.5E1,1.59E2],"tree_param":{"num_deleted":"0","num_feature":"2","num_nodes":"29","size_leaf_vector":"1"}},{"base_weights":[-4.1652855E-4,1.19677875E-2,-2.0553249E-1,4.534821E-2,-7.11275E-2,-2.6837474E-1,-8.01275E-2,-6.389713E-4,2.9639456E-1,-3.465429E-1,3.818352E-2,-2.0053929E-1,-7.070079E-2,2.6605567E-5,-1.9652216E-2,2.2654492E-2,-8.155881E-3,-5.1970333E-2,7.262948E-2,-4.0240963E-3,-7.364352E-2,4.900625E-2,-2.376359E-2,-3.066041E-2,-1.5003994E-2],"categories":[],"categories_nodes":[],"categories_segments":[],"categories_sizes":[],"default_left":[0,0,0,0,0,0,0,0,0,0,0,0,0,0,0,0,0,0,0,0,0,0,0,0,0],"id":47,"left_children":[1,3,5,7,9,11,13,15,17,19,21,23,-1,-1,-1,-1,-1,-1,-1,-1,-1,-1,-1,-1,-1],"loss_changes":[2.1726429E1,2.2376337E1,3.816412E0,6.6441154E1,6.9618164E1,9.4988E0,1.5346625E0,8.94551E1,3.129765E2,7.8432434E1,2.065153E2,1.4644461E0,0E0,0E0,0E0,0E0,0E0,0E0,0E0,0E0,0E0,0E0,0E0,0E0,0E0],"parents":[2147483647,0,0,1,1,2,2,3,3,4,4,5,5,6,6,7,7,8,8,9,9,10,10,11,11],"right_children":[2,4,6,8,10,12,14,16,18,20,22,24,-1,-1,-1,-1,-1,-1,-1,-1,-1,-1,-1,-1,-1],"split_conditions":[2.3E1,6E0,6E0,5E0,1E1,5E0,7E0,8E0,8E0,5E0,1.6E1,2E0,-7.070079E-2,2.6605567E-5,-1.9652216E-2,2.2654492E-2,-8.155881E-3,-5.1970333E-2,7.262948E-2,-4.0240963E-3,-7.364352E-2,4.900625E-2,-2.376359E-2,-3.066041E-2,-1.5003994E-2],"split_indices":[1,0,0,0,1,0,0,1,1,1,1,0,0,0,0,0,0,0,0,0,0,0,0,0,0],"split_type":[0,0,0,0,0,0,0,0,0,0,0,0,0,0,0,0,0,0,0,0,0,0,0,0,0],"sum_hessian":[8.551E3,8.065E3,4.86E2,5.754E3,2.311E3,3.23E2,1.63E2,4.864E3,8.9E2,6.56E2,1.655E3,2.81E2,4.2E1,9.7E1,6.6E1,1.277E3,3.587E3,3.07E2,5.83E2,3.68E2,2.88E2,6.27E2,1.028E3,8.9E1,1.92E2],"tree_param":{"num_deleted":"0","num_feature":"2","num_nodes":"25","size_leaf_vector":"1"}},{"base_weights":[-3.9276027E-4,1.0768906E-2,-1.852585E-1,3.0936915E-2,-1.0579089E-1,-2.4189642E-1,-7.223441E-2,-1.6153477E-1,5.4594096E-2,-2.6572485E-2,-4.840644E-1,-1.8064727E-1,-6.379514E-2,2.3962528E-5,-1.7716309E-2,-2.2943469E-2,-2.186556E-4,1.1220989E-2,-1.728715E-3,-2.4012413E-2,3.8662735E-2,-1.2029846E-1,-1.2887997E-2,-2.762844E-2,-1.3511366E-2],"categories":[],"categories_nodes":[],"categories_segments":[],"categories_sizes":[],"default_left":[0,0,0,0,0,0,0,0,0,0,0,0,0,0,0,0,0,0,0,0,0,0,0,0,0],"id":48,"left_children":[1,3,5,7,9,11,13,15,17,19,21,23,-1,-1,-1,-1,-1,-1,-1,-1,-1,-1,-1,-1,-1],"loss_changes":[1.7648275E1,1.8964657E1,3.1000328E0,3.1322123E1,3.5646946E1,7.744358E0,1.2471979E0,8.146755E0,2.5368595E1,8.700875E1,5.2446907E1,1.1906967E0,0E0,0E0,0E0,0E0,0E0,0E0,0E0,0E0,0E0,0E0,0E0,0E0,0E0],"parents":[2147483647,0,0,1,1,2,2,3,3,4,4,5,5,6,6,7,7,8,8,9,9,10,10,11,11],"right_children":[2,4,6,8,10,12,14,16,18,20,22,24,-1,-1,-1,-1,-1,-1,-1,-1,-1,-1,-1,-1,-1],"split_conditions":[2.3E1,7E0,6E0,4E0,2E1,5E0,7E0,5E0,1.7E1,1.5E1,2.1E1,2E0,-6.379514E-2,2.3962528E-5,-1.7716309E-2,-2.2943469E-2,-2.186556E-4,1.1220989E-2,-1.728715E-3,-2.4012413E-2,3.8662735E-2,-1.2029846E-1,-1.2887997E-2,-2.762844E-2,-1.3511366E-2],"split_indices":[1,0,0,1,1,0,0,0,1,1,1,0,0,0,0,0,0,0,0,0,0,0,0,0,0],"split_type":[0,0,0,0,0,0,0,0,0,0,0,0,0,0,0,0,0,0,0,0,0,0,0,0,0],"sum_hessian":[8.551E3,8.065E3,4.86E2,6.876E3,1.189E3,3.23E2,1.63E2,7.52E2,6.124E3,9.84E2,2.05E2,2.81E2,4.2E1,9.7E1,6.6E1,5.27E2,2.25E2,3.399E3,2.725E3,6.49E2,3.35E2,6.7E1,1.38E2,8.9E1,1.92E2],"tree_param":{"num_deleted":"0","num_feature":"2","num_nodes":"25","size_leaf_vector":"1"}},{"base_weights":[-3.8325405E-4,9.675655E-3,-1.6698444E-1,3.806831E-2,-6.1003152E-2,-2.180307E-1,-6.511873E-2,-2.9579042E-3,2.6203516E-1,-2.9981148E-1,3.3778295E-2,-1.6272847E-1,-5.7563998E-2,2.1604616E-5,-1.5971111E-2,2.0678444E-2,-7.766464E-3,-4.736265E-2,6.4957246E-2,-2.2084082E-3,-6.5338105E-2,4.4061895E-2,-2.145499E-2,-2.4896296E-2,-1.2167237E-2],"categories":[],"categories_nodes":[],"categories_segments":[],"categories_sizes":[],"default_left":[0,0,0,0,0,0,0,0,0,0,0,0,0,0,0,0,0,0,0,0,0,0,0,0,0],"id":49,"left_children":[1,3,5,7,9,11,13,15,17,19,21,23,-1,-1,-1,-1,-1,-1,-1,-1,-1,-1,-1,-1,-1],"loss_changes":[1.4333281E1,1.618884E1,2.518138E0,5.288066E1,5.2341316E1,6.31394E0,1.0135827E0,7.624655E1,2.5432846E2,6.450032E1,1.6740024E2,9.681153E-1,0E0,0E0,0E0,0E0,0E0,0E0,0E0,0E0,0E0,0E0,0E0,0E0,0E0],"parents":[2147483647,0,0,1,1,2,2,3,3,4,4,5,5,6,6,7,7,8,8,9,9,10,10,11,11],"right_children":[2,4,6,8,10,12,14,16,18,20,22,24,-1,-1,-1,-1,-1,-1,-1,-1,-1,-1,-1,-1,-1],"split_conditions":[2.3E1,6E0,6E0,5E0,1E1,5E0,7E0,8E0,8E0,5E0,1.6E1,2E0,-5.7563998E-2,2.1604616E-5,-1.5971111E-2,2.0678444E-2,-7.766464E-3,-4.736265E-2,6.4957246E-2,-2.2084082E-3,-6.5338105E-2,4.4061895E-2,-2.145499E-2,-2.4896296E-2,-1.2167237E-2],"split_indices":[1,0,0,0,1,0,0,1,1,1,1,0,0,0,0,0,0,0,0,0,0,0,0,0,0],"split_type":[0,0,0,0,0,0,0,0,0,0,0,0,0,0,0,0,0,0,0,0,0,0,0,0,0],"sum_hessian":[8.551E3,8.065E3,4.86E2,5.754E3,2.311E3,3.23E2,1.63E2,4.864E3,8.9E2,6.56E2,1.655E3,2.81E2,4.2E1,9.7E1,6.6E1,1.277E3,3.587E3,3.07E2,5.83E2,3.68E2,2.88E2,6.27E2,1.028E3,8.9E1,1.92E2],"tree_param":{"num_deleted":"0","num_feature":"2","num_nodes":"25","size_leaf_vector":"1"}}]},"name":"gbtree"},"learner_model_param":{"base_score":"[1.3210619E1]","boost_from_average":"1","num_class":"0","num_feature":"2","num_target":"1"},"objective":{"name":"reg:squarederror","reg_loss_param":{"scale_pos_weight":"1"}}},"version":[3,2,1]}