{"learner":{"attributes":{},"feature_names":["day_of_week","hour_of_day"],"feature_types":[],"gradient_booster":{"model":{"cats":{"enc":[],"feature_segments":[],"sorted_idx":[]},"gbtree_model_param":{"num_parallel_tree":"1","num_trees":"50"},"iteration_indptr":[0,1,2,3,4,5,6,7,8,9,10,11,12,13,14,15,16,17,18,19,20,21,22,23,24,25,26,27,28,29,30,31,32,33,34,35,36,37,38,39,40,41,42,43,44,45,46,47,48,49,50],"tree_info":[0,0,0,0,0,0,0,0,0,0,0,0,0,0,0,0,0,0,0,0,0,0,0,0,0,0,0,0,0,0,0,0,0,0,0,0,0,0,0,0,0,0,0,0,0,0,0,0,0,0],"trees":[{"base_weights":[-3.1833372E-7,-1.0110811E1,1.2129577E0,-1.047186E1,-6.5156784E0,4.2842326E0,-4.124889E0,-1.1178612E1,-8.628184E-1,-1.8642454E-1,-8.0838233E-1,1.0059884E0,5.009644E0,-1.6467047E0,-7.5930505E0,-1.1425593E0,-1.0346192E0,3.0046457E-1,-5.5833644E-1,5.4846805E-1,2.282019E-1,-3.8240242E-1,-5.6854516E-2,-9.906948E-1,-6.0170317E-1],"categories":[],"categories_nodes":[],"categories_segments":[],"categories_sizes":[],"default_left":[0,0,0,0,0,0,0,0,0,0,0,0,0,0,0,0,0,0,0,0,0,0,0,0,0],"id":0,"left_children":[1,3,5,7,9,11,13,15,-1,-1,-1,17,19,21,23,-1,-1,-1,-1,-1,-1,-1,-1,-1,-1],"loss_changes":[1.14606984E5,1.2310781E3,1.3680917E5,1.0866875E3,6.7057715E2,1.2591625E4,2.6184273E4,1.6039062E1,0E0,0E0,0E0,1.2673011E4,5.6070234E3,4.174025E3,4.57175E3,0E0,0E0,0E0,0E0,0E0,0E0,0E0,0E0,0E0,0E0],"parents":[2147483647,0,0,1,1,2,2,3,3,4,4,5,5,6,6,7,7,11,11,12,12,13,13,14,14],"right_children":[2,4,6,8,10,12,14,16,-1,-1,-1,18,20,22,24,-1,-1,-1,-1,-1,-1,-1,-1,-1,-1],"split_conditions":[4E0,3E0,1.9E1,6E0,2E0,7E0,2.2E1,5E0,-8.628184E-1,-1.8642454E-1,-8.0838233E-1,6E0,7E0,3E0,4E0,-1.1425593E0,-1.0346192E0,3.0046457E-1,-5.5833644E-1,5.4846805E-1,2.282019E-1,-3.8240242E-1,-5.6854516E-2,-9.906948E-1,-6.0170317E-1],"split_indices":[1,1,1,0,0,1,1,0,0,0,0,0,0,0,0,0,0,0,0,0,0,0,0,0,0],"split_type":[0,0,0,0,0,0,0,0,0,0,0,0,0,0,0,0,0,0,0,0,0,0,0,0,0],"sum_hessian":[9.343E3,1E3,8.343E3,9.07E2,9.3E1,5.296E3,3.047E3,6.52E2,2.55E2,2.4E1,6.9E1,9.6E2,4.336E3,1.778E3,1.269E3,4.93E2,1.59E2,7.37E2,2.23E2,3.692E3,6.44E2,5.88E2,1.19E3,5.12E2,7.57E2],"tree_param":{"num_deleted":"0","num_feature":"2","num_nodes":"25","size_leaf_vector":"1"}},{"base_weights":[-5.940848E-4,-9.103761E0,1.0914805E0,-9.428021E0,-5.874694E0,3.4898438E0,-4.484432E0,-1.0064084E1,-7.768736E-1,-1.685278E-1,-7.2869897E-1,3.8559074E0,-1.1410626E-1,-2.0753224E0,-6.8349996E0,-1.0285347E0,-9.318039E-1,9.051211E-2,4.5088586E-1,-1.0092266E-1,4.3831557E-2,-4.2921495E-1,-9.0716854E-2,-8.9181846E-1,-5.416123E-1],"categories":[],"categories_nodes":[],"categories_segments":[],"categories_sizes":[],"default_left":[0,0,0,0,0,0,0,0,0,0,0,0,0,0,0,0,0,0,0,0,0,0,0,0,0],"id":1,"left_children":[1,3,5,7,9,11,13,15,-1,-1,-1,17,19,21,23,-1,-1,-1,-1,-1,-1,-1,-1,-1,-1],"loss_changes":[9.29018E4,9.9271875E2,1.116005E5,8.801328E2,5.438887E2,7.6984062E3,1.4199379E4,1.1953125E1,0E0,0E0,0E0,1.0201758E4,2.6696924E2,3.209794E3,3.705543E3,0E0,0E0,0E0,0E0,0E0,0E0,0E0,0E0,0E0,0E0],"parents":[2147483647,0,0,1,1,2,2,3,3,4,4,5,5,6,6,7,7,11,11,12,12,13,13,14,14],"right_children":[2,4,6,8,10,12,14,16,-1,-1,-1,18,20,22,24,-1,-1,-1,-1,-1,-1,-1,-1,-1,-1],"split_conditions":[4E0,3E0,2E1,6E0,2E0,1.9E1,2.2E1,5E0,-7.768736E-1,-1.685278E-1,-7.2869897E-1,7E0,4E0,3E0,4E0,-1.0285347E0,-9.318039E-1,9.051211E-2,4.5088586E-1,-1.0092266E-1,4.3831557E-2,-4.2921495E-1,-9.0716854E-2,-8.9181846E-1,-5.416123E-1],"split_indices":[1,1,1,0,0,1,1,0,0,0,0,1,0,0,0,0,0,0,0,0,0,0,0,0,0],"split_type":[0,0,0,0,0,0,0,0,0,0,0,0,0,0,0,0,0,0,0,0,0,0,0,0,0],"sum_hessian":[9.343E3,1E3,8.343E3,9.07E2,9.3E1,5.834E3,2.509E3,6.52E2,2.55E2,2.4E1,6.9E1,5.296E3,5.38E2,1.24E3,1.269E3,4.93E2,1.59E2,9.6E2,4.336E3,2.05E2,3.33E2,4.27E2,8.13E2,5.12E2,7.57E2],"tree_param":{"num_deleted":"0","num_feature":"2","num_nodes":"25","size_leaf_vector":"1"}},{"base_weights":[-1.0807663E-3,-8.197016E0,9.821565E-1,-8.488234E0,-5.2967696E0,3.1409423E0,-4.036767E0,-9.060678E0,-6.994897E-1,-1.5234916E-1,-6.5687007E-1,3.6154823E0,3.765152E-1,-1.8682086E0,-6.1526284E0,-9.258893E-1,-8.3920586E-1,4.2174515E-1,9.002968E-2,-4.1935322E-1,2.0127343E-1,-3.863937E-1,-8.165627E-2,-8.028104E-1,-4.8752245E-1],"categories":[],"categories_nodes":[],"categories_segments":[],"categories_sizes":[],"default_left":[0,0,0,0,0,0,0,0,0,0,0,0,0,0,0,0,0,0,0,0,0,0,0,0,0],"id":2,"left_children":[1,3,5,7,9,11,13,15,-1,-1,-1,17,19,21,23,-1,-1,-1,-1,-1,-1,-1,-1,-1,-1],"loss_changes":[7.5307125E4,8.005E2,9.0418086E4,7.128242E2,4.411316E2,7.653176E3,1.15053125E4,8.839844E0,0E0,0E0,0E0,8.1358047E3,6.4092646E3,2.601455E3,3.0034453E3,0E0,0E0,0E0,0E0,0E0,0E0,0E0,0E0,0E0,0E0],"parents":[2147483647,0,0,1,1,2,2,3,3,4,4,5,5,6,6,7,7,11,11,12,12,13,13,14,14],"right_children":[2,4,6,8,10,12,14,16,-1,-1,-1,18,20,22,24,-1,-1,-1,-1,-1,-1,-1,-1,-1,-1],"split_conditions":[4E0,3E0,2E1,6E0,2E0,7E0,2.2E1,5E0,-6.994897E-1,-1.5234916E-1,-6.5687007E-1,1.8E1,1E1,3E0,4E0,-9.258893E-1,-8.3920586E-1,4.2174515E-1,9.002968E-2,-4.1935322E-1,2.0127343E-1,-3.863937E-1,-8.165627E-2,-8.028104E-1,-4.8752245E-1],"split_indices":[1,1,1,0,0,0,1,0,0,0,0,1,1,0,0,0,0,0,0,0,0,0,0,0,0],"split_type":[0,0,0,0,0,0,0,0,0,0,0,0,0,0,0,0,0,0,0,0,0,0,0,0,0],"sum_hessian":[9.343E3,1E3,8.343E3,9.07E2,9.3E1,5.834E3,2.509E3,6.52E2,2.55E2,2.4E1,6.9E1,4.979E3,8.55E2,1.24E3,1.269E3,4.93E2,1.59E2,4.075E3,9.04E2,2.25E2,6.3E2,4.27E2,8.13E2,5.12E2,7.57E2],"tree_param":{"num_deleted":"0","num_feature":"2","num_nodes":"25","size_leaf_vector":"1"}},{"base_weights":[-1.4798521E-3,-7.3805847E0,8.837653E-1,-7.642125E0,-4.7757015E0,3.1354287E0,-3.0296023E0,-8.157313E0,-6.2981396E0,-1.3772361E-1,-5.921215E-1,5.028005E-1,3.718048E0,-1.2369214E0,-5.5383816E0,-8.334879E-1,-7.558098E-1,-5.804021E-1,-6.653954E-1,2.1930245E-1,-5.068129E-1,4.1045657E-1,1.4992443E-1,-2.848012E-1,-4.3913055E-2,-7.226859E-1,-4.3883458E-1],"categories":[],"categories_nodes":[],"categories_segments":[],"categories_sizes":[],"default_left":[0,0,0,0,0,0,0,0,0,0,0,0,0,0,0,0,0,0,0,0,0,0,0,0,0,0,0],"id":3,"left_children":[1,3,5,7,9,11,13,15,17,-1,-1,19,21,23,25,-1,-1,-1,-1,-1,-1,-1,-1,-1,-1,-1,-1],"loss_changes":[6.1044492E4,6.4546484E2,7.3533375E4,5.773281E2,3.577859E2,8.1227773E3,1.3701348E4,6.4882812E0,6.388672E0,0E0,0E0,9.060003E3,3.713293E3,2.2853213E3,2.4343828E3,0E0,0E0,0E0,0E0,0E0,0E0,0E0,0E0,0E0,0E0,0E0,0E0],"parents":[2147483647,0,0,1,1,2,2,3,3,4,4,5,5,6,6,7,7,8,8,11,11,12,12,13,13,14,14],"right_children":[2,4,6,8,10,12,14,16,18,-1,-1,20,22,24,26,-1,-1,-1,-1,-1,-1,-1,-1,-1,-1,-1,-1],"split_conditions":[4E0,3E0,1.9E1,6E0,2E0,7E0,2.2E1,5E0,2E0,-1.3772361E-1,-5.921215E-1,6E0,7E0,3E0,4E0,-8.334879E-1,-7.558098E-1,-5.804021E-1,-6.653954E-1,2.1930245E-1,-5.068129E-1,4.1045657E-1,1.4992443E-1,-2.848012E-1,-4.3913055E-2,-7.226859E-1,-4.3883458E-1],"split_indices":[1,1,1,0,0,1,1,0,1,0,0,0,0,0,0,0,0,0,0,0,0,0,0,0,0,0,0],"split_type":[0,0,0,0,0,0,0,0,0,0,0,0,0,0,0,0,0,0,0,0,0,0,0,0,0,0,0],"sum_hessian":[9.343E3,1E3,8.343E3,9.07E2,9.3E1,5.296E3,3.047E3,6.52E2,2.55E2,2.4E1,6.9E1,9.6E2,4.336E3,1.778E3,1.269E3,4.93E2,1.59E2,1.14E2,1.41E2,7.37E2,2.23E2,3.692E3,6.44E2,5.88E2,1.19E3,5.12E2,7.57E2],"tree_param":{"num_deleted":"0","num_feature":"2","num_nodes":"27","size_leaf_vector":"1"}},{"base_weights":[-1.8436166E-3,-6.6460876E0,7.9524297E-1,-6.881035E0,-4.305896E0,2.5530074E0,-3.2913508E0,-7.344016E0,-5.673192E0,-1.24502115E-1,-5.3375524E-1,-8.1110847E-1,2.8533356E0,-1.5550032E0,-4.9854584E0,-7.5030786E-1,-6.807012E-1,-5.2286655E-1,-5.993244E-1,2.990048E-2,-5.6790096E-1,3.41567E-1,6.888698E-2,-3.19431E-1,-6.911477E-2,-6.505582E-1,-3.9500907E-1],"categories":[],"categories_nodes":[],"categories_segments":[],"categories_sizes":[],"default_left":[0,0,0,0,0,0,0,0,0,0,0,0,0,0,0,0,0,0,0,0,0,0,0,0,0,0,0],"id":4,"left_children":[1,3,5,7,9,11,13,15,17,-1,-1,19,21,23,25,-1,-1,-1,-1,-1,-1,-1,-1,-1,-1,-1,-1],"loss_changes":[4.949146E4,5.207422E2,5.9945605E4,4.6609766E2,2.9018518E2,5.8976406E3,7.3755586E3,4.703125E0,5.084961E0,0E0,0E0,2.5901765E3,6.5179375E3,1.7552024E3,1.9731387E3,0E0,0E0,0E0,0E0,0E0,0E0,0E0,0E0,0E0,0E0,0E0,0E0],"parents":[2147483647,0,0,1,1,2,2,3,3,4,4,5,5,6,6,7,7,8,8,11,11,12,12,13,13,14,14],"right_children":[2,4,6,8,10,12,14,16,18,-1,-1,20,22,24,26,-1,-1,-1,-1,-1,-1,-1,-1,-1,-1,-1,-1],"split_conditions":[4E0,3E0,2E1,6E0,2E0,5E0,2.2E1,5E0,2E0,-1.24502115E-1,-5.3375524E-1,6E0,1.8E1,3E0,4E0,-7.5030786E-1,-6.807012E-1,-5.2286655E-1,-5.993244E-1,2.990048E-2,-5.6790096E-1,3.41567E-1,6.888698E-2,-3.19431E-1,-6.911477E-2,-6.505582E-1,-3.9500907E-1],"split_indices":[1,1,1,0,0,1,1,0,1,0,0,0,1,0,0,0,0,0,0,0,0,0,0,0,0,0,0],"split_type":[0,0,0,0,0,0,0,0,0,0,0,0,0,0,0,0,0,0,0,0,0,0,0,0,0,0,0],"sum_hessian":[9.343E3,1E3,8.343E3,9.07E2,9.3E1,5.834E3,2.509E3,6.52E2,2.55E2,2.4E1,6.9E1,4.78E2,5.356E3,1.24E3,1.269E3,4.93E2,1.59E2,1.14E2,1.41E2,3.9E2,8.8E1,4.251E3,1.105E3,4.27E2,8.13E2,5.12E2,7.57E2],"tree_param":{"num_deleted":"0","num_feature":"2","num_nodes":"27","size_leaf_vector":"1"}},{"base_weights":[-2.1700177E-3,-5.9846873E0,7.155315E-1,-6.195743E0,-3.882309E0,2.5476792E0,-2.468721E0,-6.611806E0,-5.110256E0,-1.1254989E-1,-4.8114225E-1,3.2077384E-1,3.0405333E0,-1.0259907E0,-4.4877357E0,-6.754289E-1,-6.1305654E-1,-4.710346E-1,-5.39814E-1,2.502365E-1,-3.0213496E-1,3.3861205E-1,1.0571324E-1,-3.2556945E-1,-6.073298E-2,-5.4993266E-1,-3.1953627E-1],"categories":[],"categories_nodes":[],"categories_segments":[],"categories_sizes":[],"default_left":[0,0,0,0,0,0,0,0,0,0,0,0,0,0,0,0,0,0,0,0,0,0,0,0,0,0,0],"id":5,"left_children":[1,3,5,7,9,11,13,15,17,-1,-1,19,21,23,25,-1,-1,-1,-1,-1,-1,-1,-1,-1,-1,-1,-1],"loss_changes":[4.012426E4,4.2010938E2,4.8685355E4,3.7629297E2,2.3535535E2,5.8126953E3,8.873895E3,3.3671875E0,4.04541E0,0E0,0E0,7.0143535E3,2.9691602E3,1.6587009E3,1.6427676E3,0E0,0E0,0E0,0E0,0E0,0E0,0E0,0E0,0E0,0E0,0E0,0E0],"parents":[2147483647,0,0,1,1,2,2,3,3,4,4,5,5,6,6,7,7,8,8,11,11,12,12,13,13,14,14],"right_children":[2,4,6,8,10,12,14,16,18,-1,-1,20,22,24,26,-1,-1,-1,-1,-1,-1,-1,-1,-1,-1,-1,-1],"split_conditions":[4E0,3E0,1.9E1,6E0,2E0,7E0,2.2E1,5E0,2E0,-1.1254989E-1,-4.8114225E-1,5E0,7E0,2E0,5E0,-6.754289E-1,-6.1305654E-1,-4.710346E-1,-5.39814E-1,2.502365E-1,-3.0213496E-1,3.3861205E-1,1.0571324E-1,-3.2556945E-1,-6.073298E-2,-5.4993266E-1,-3.1953627E-1],"split_indices":[1,1,1,0,0,1,1,0,1,0,0,0,0,0,0,0,0,0,0,0,0,0,0,0,0,0,0],"split_type":[0,0,0,0,0,0,0,0,0,0,0,0,0,0,0,0,0,0,0,0,0,0,0,0,0,0,0],"sum_hessian":[9.343E3,1E3,8.343E3,9.07E2,9.3E1,5.296E3,3.047E3,6.52E2,2.55E2,2.4E1,6.9E1,9.6E2,4.336E3,1.778E3,1.269E3,4.93E2,1.59E2,1.14E2,1.41E2,5.81E2,3.79E2,3.692E3,6.44E2,2.8E2,1.498E3,7.1E2,5.59E2],"tree_param":{"num_deleted":"0","num_feature":"2","num_nodes":"27","size_leaf_vector":"1"}},{"base_weights":[-2.3548827E-3,-5.3891087E0,6.4387506E-1,-5.578701E0,-3.500394E0,2.07507E0,-2.6834817E0,-5.9525986E0,-4.603179E0,-1.0174512E-1,-4.337154E-1,-7.7211034E-1,2.329265E0,-1.2934631E0,-4.0396466E0,-6.0802275E-1,-5.5213404E-1,-4.243407E-1,-4.8621273E-1,1.5096645E-2,-4.81875E-1,2.800367E-1,5.1601637E-2,-2.682616E-1,-5.6145955E-2,-5.790426E-1,-3.382996E-1],"categories":[],"categories_nodes":[],"categories_segments":[],"categories_sizes":[],"default_left":[0,0,0,0,0,0,0,0,0,0,0,0,0,0,0,0,0,0,0,0,0,0,0,0,0,0,0],"id":6,"left_children":[1,3,5,7,9,11,13,15,17,-1,-1,19,21,23,25,-1,-1,-1,-1,-1,-1,-1,-1,-1,-1,-1,-1],"loss_changes":[3.2530697E4,3.3891602E2,3.9740496E4,3.0378906E2,1.9088403E2,4.2248184E3,4.7263613E3,2.3730469E0,3.2177734E0,0E0,0E0,1.7899644E3,4.574635E3,1.2604231E3,1.4404648E3,0E0,0E0,0E0,0E0,0E0,0E0,0E0,0E0,0E0,0E0,0E0,0E0],"parents":[2147483647,0,0,1,1,2,2,3,3,4,4,5,5,6,6,7,7,8,8,11,11,12,12,13,13,14,14],"right_children":[2,4,6,8,10,12,14,16,18,-1,-1,20,22,24,26,-1,-1,-1,-1,-1,-1,-1,-1,-1,-1,-1,-1],"split_conditions":[4E0,3E0,2E1,6E0,2E0,5E0,2.2E1,5E0,2E0,-1.0174512E-1,-4.337154E-1,6E0,1.8E1,3E0,3E0,-6.0802275E-1,-5.5213404E-1,-4.243407E-1,-4.8621273E-1,1.5096645E-2,-4.81875E-1,2.800367E-1,5.1601637E-2,-2.682616E-1,-5.6145955E-2,-5.790426E-1,-3.382996E-1],"split_indices":[1,1,1,0,0,1,1,0,1,0,0,0,1,0,0,0,0,0,0,0,0,0,0,0,0,0,0],"split_type":[0,0,0,0,0,0,0,0,0,0,0,0,0,0,0,0,0,0,0,0,0,0,0,0,0,0,0],"sum_hessian":[9.343E3,1E3,8.343E3,9.07E2,9.3E1,5.834E3,2.509E3,6.52E2,2.55E2,2.4E1,6.9E1,4.78E2,5.356E3,1.24E3,1.269E3,4.93E2,1.59E2,1.14E2,1.41E2,3.9E2,8.8E1,4.251E3,1.105E3,4.27E2,8.13E2,3.44E2,9.25E2],"tree_param":{"num_deleted":"0","num_feature":"2","num_nodes":"27","size_leaf_vector":"1"}},{"base_weights":[-2.5454883E-3,-4.8528013E0,5.7932276E-1,-5.023112E0,-3.156051E0,2.0696187E0,-2.0107944E0,-5.3591156E0,-4.146418E0,-9.1977626E-2,-3.9096339E0,7.7108014E-1,2.7692173E0,-8.491667E-1,-3.6364043E0,-5.473436E-1,-4.9726573E-1,-3.8227567E-1,-4.379339E-1,-3.1989476E-1,-4.2108843E-1,1.7418833E-1,-2.8240725E-1,3.1138355E-1,1.020015E-1,-1.783653E-1,-9.920482E-3,-4.4958663E-1,-2.5387013E-1],"categories":[],"categories_nodes":[],"categories_segments":[],"categories_sizes":[],"default_left":[0,0,0,0,0,0,0,0,0,0,0,0,0,0,0,0,0,0,0,0,0,0,0,0,0,0,0,0,0],"id":7,"left_children":[1,3,5,7,9,11,13,15,17,-1,19,21,23,25,27,-1,-1,-1,-1,-1,-1,-1,-1,-1,-1,-1,-1,-1,-1],"loss_changes":[2.6373541E4,2.7341016E2,3.221234E4,2.4525195E2,1.5481464E2,4.809953E3,5.7526133E3,1.6308594E0,2.5581055E0,0E0,1.5162354E0,6.482703E3,2.0716875E3,1.2465979E3,1.186748E3,0E0,0E0,0E0,0E0,0E0,0E0,0E0,0E0,0E0,0E0,0E0,0E0,0E0,0E0],"parents":[2147483647,0,0,1,1,2,2,3,3,4,4,5,5,6,6,7,7,8,8,10,10,11,11,12,12,13,13,14,14],"right_children":[2,4,6,8,10,12,14,16,18,-1,20,22,24,26,28,-1,-1,-1,-1,-1,-1,-1,-1,-1,-1,-1,-1,-1,-1],"split_conditions":[4E0,3E0,1.9E1,6E0,2E0,1E1,2.2E1,5E0,2E0,-9.1977626E-2,4E0,6E0,1.8E1,4E0,5E0,-5.473436E-1,-4.9726573E-1,-3.8227567E-1,-4.379339E-1,-3.1989476E-1,-4.2108843E-1,1.7418833E-1,-2.8240725E-1,3.1138355E-1,1.020015E-1,-1.783653E-1,-9.920482E-3,-4.4958663E-1,-2.5387013E-1],"split_indices":[1,1,1,0,0,1,1,0,1,0,0,0,1,0,0,0,0,0,0,0,0,0,0,0,0,0,0,0,0],"split_type":[0,0,0,0,0,0,0,0,0,0,0,0,0,0,0,0,0,0,0,0,0,0,0,0,0,0,0,0,0],"sum_hessian":[9.343E3,1E3,8.343E3,9.07E2,9.3E1,5.296E3,3.047E3,6.52E2,2.55E2,2.4E1,6.9E1,1.855E3,3.441E3,1.778E3,1.269E3,4.93E2,1.59E2,1.14E2,1.41E2,2.4E1,4.5E1,1.461E3,3.94E2,2.874E3,5.67E2,7.91E2,9.87E2,7.1E2,5.59E2],"tree_param":{"num_deleted":"0","num_feature":"2","num_nodes":"29","size_leaf_vector":"1"}},{"base_weights":[-2.6426094E-3,-4.3702164E0,5.2132E-1,-4.5228543E0,-2.849307E0,1.4976586E0,-2.7373035E0,-4.8248034E0,-3.7349803E0,-8.314774E-2,-3.529256E0,1.9757426E0,1.6028547E-1,-3.8802528E0,-1.832934E0,-4.9271998E-1,-4.4784996E-1,-3.443805E-1,-3.9444888E-1,-2.891849E-1,-3.7989503E-1,6.9391355E-2,2.8025597E-1,-1.4541458E-1,4.242541E-2,-3.4456083E-1,-5.203145E-1,-9.368186E-2,-4.558185E-1],"categories":[],"categories_nodes":[],"categories_segments":[],"categories_sizes":[],"default_left":[0,0,0,0,0,0,0,0,0,0,0,0,0,0,0,0,0,0,0,0,0,0,0,0,0,0,0,0,0],"id":8,"left_children":[1,3,5,7,9,11,13,15,17,-1,19,21,23,25,27,-1,-1,-1,-1,-1,-1,-1,-1,-1,-1,-1,-1,-1,-1],"loss_changes":[2.1385512E4,2.1949414E2,2.65507E4,1.9799023E2,1.2603546E2,4.105122E3,1.981627E3,1.0888672E0,2.032959E0,0E0,1.0473633E0,5.01109E3,7.216783E2,4.7023633E2,2.6234717E3,0E0,0E0,0E0,0E0,0E0,0E0,0E0,0E0,0E0,0E0,0E0,0E0,0E0,0E0],"parents":[2147483647,0,0,1,1,2,2,3,3,4,4,5,5,6,6,7,7,8,8,10,10,11,11,12,12,13,13,14,14],"right_children":[2,4,6,8,10,12,14,16,18,-1,20,22,24,26,28,-1,-1,-1,-1,-1,-1,-1,-1,-1,-1,-1,-1,-1,-1],"split_conditions":[4E0,3E0,2.1E1,6E0,2E0,1.8E1,4E0,5E0,2E0,-8.314774E-2,4E0,1E1,2E0,2.3E1,7E0,-4.9271998E-1,-4.4784996E-1,-3.443805E-1,-3.9444888E-1,-2.891849E-1,-3.7989503E-1,6.9391355E-2,2.8025597E-1,-1.4541458E-1,4.242541E-2,-3.4456083E-1,-5.203145E-1,-9.368186E-2,-4.558185E-1],"split_indices":[1,1,1,0,0,1,0,0,1,0,0,1,0,1,0,0,0,0,0,0,0,0,0,0,0,0,0,0,0],"split_type":[0,0,0,0,0,0,0,0,0,0,0,0,0,0,0,0,0,0,0,0,0,0,0,0,0,0,0,0,0],"sum_hessian":[9.343E3,1E3,8.343E3,9.07E2,9.3E1,6.42E3,1.923E3,6.52E2,2.55E2,2.4E1,6.9E1,4.729E3,1.691E3,8.48E2,1.075E3,4.93E2,1.59E2,1.14E2,1.41E2,2.4E1,4.5E1,1.855E3,2.874E3,2.37E2,1.454E3,6.41E2,2.07E2,8.1E2,2.65E2],"tree_param":{"num_deleted":"0","num_feature":"2","num_nodes":"29","size_leaf_vector":"1"}},{"base_weights":[-2.7635805E-3,-3.935624E0,4.69048E-1,-4.072418E0,-2.5723786E0,1.5236914E0,-1.9828696E0,-4.3437634E0,-3.3643684E0,-7.516553E-2,-3.1858888E0,1.8566777E0,-4.153218E-1,-1.4353185E0,-3.97306E0,-4.4354773E-1,-4.0334487E-1,-3.102419E-1,-3.552818E-1,-2.6142317E-1,-3.4273136E-1,-6.0366374E-2,2.0946634E-1,-3.5600778E-1,7.116675E-2,-2.6776344E-1,-8.34113E-2,-4.5446035E-1,-3.2534525E-1],"categories":[],"categories_nodes":[],"categories_segments":[],"categories_sizes":[],"default_left":[0,0,0,0,0,0,0,0,0,0,0,0,0,0,0,0,0,0,0,0,0,0,0,0,0,0,0,0,0],"id":9,"left_children":[1,3,5,7,9,11,13,15,17,-1,19,21,23,25,27,-1,-1,-1,-1,-1,-1,-1,-1,-1,-1,-1,-1,-1,-1],"loss_changes":[1.7340281E4,1.7619531E2,2.157976E4,1.5983594E2,1.0260632E2,3.7682236E3,2.7295225E3,6.9433594E-1,1.6149902E0,0E0,7.010498E-1,2.9171855E3,3.036288E3,1.4691343E3,2.077207E2,0E0,0E0,0E0,0E0,0E0,0E0,0E0,0E0,0E0,0E0,0E0,0E0,0E0,0E0],"parents":[2147483647,0,0,1,1,2,2,3,3,4,4,5,5,6,6,7,7,8,8,10,10,11,11,12,12,13,13,14,14],"right_children":[2,4,6,8,10,12,14,16,18,-1,20,22,24,26,28,-1,-1,-1,-1,-1,-1,-1,-1,-1,-1,-1,-1,-1,-1],"split_conditions":[4E0,3E0,2E1,6E0,2E0,7E0,2.3E1,5E0,2E0,-7.516553E-2,4E0,5E0,1E1,3E0,5E0,-4.4354773E-1,-4.0334487E-1,-3.102419E-1,-3.552818E-1,-2.6142317E-1,-3.4273136E-1,-6.0366374E-2,2.0946634E-1,-3.5600778E-1,7.116675E-2,-2.6776344E-1,-8.34113E-2,-4.5446035E-1,-3.2534525E-1],"split_indices":[1,1,1,0,0,0,1,0,1,0,0,1,1,0,0,0,0,0,0,0,0,0,0,0,0,0,0,0,0],"split_type":[0,0,0,0,0,0,0,0,0,0,0,0,0,0,0,0,0,0,0,0,0,0,0,0,0,0,0,0,0],"sum_hessian":[9.343E3,1E3,8.343E3,9.07E2,9.3E1,5.834E3,2.509E3,6.52E2,2.55E2,2.4E1,6.9E1,4.979E3,8.55E2,1.969E3,5.4E2,4.93E2,1.59E2,1.14E2,1.41E2,2.4E1,4.5E1,4.39E2,4.54E3,2.25E2,6.3E2,6.41E2,1.328E3,2.98E2,2.42E2],"tree_param":{"num_deleted":"0","num_feature":"2","num_nodes":"29","size_leaf_vector":"1"}},{"base_weights":[-2.8575128E-3,-3.544251E0,4.219912E-1,-3.6668422E0,-2.3223674E0,1.5364472E0,-1.5149165E0,-3.9106839E0,-3.0305314E0,-6.7949615E-2,-2.8759305E0,1.8745773E0,-4.5392966E-1,-6.340735E-1,-2.7475977E0,-3.9928275E-1,-3.6326244E-1,-2.7948755E-1,-3.200038E-1,-2.3632653E-1,-3.0920327E-1,-5.4343432E-2,2.134311E-1,-3.2056454E-1,6.879817E-2,-2.1618283E-1,-3.472602E-2,-4.0176535E-1,-2.2714455E-1],"categories":[],"categories_nodes":[],"categories_segments":[],"categories_sizes":[],"default_left":[0,0,0,0,0,0,0,0,0,0,0,0,0,0,0,0,0,0,0,0,0,0,0,0,0,0,0,0,0],"id":10,"left_children":[1,3,5,7,9,11,13,15,17,-1,19,21,23,25,27,-1,-1,-1,-1,-1,-1,-1,-1,-1,-1,-1,-1,-1,-1],"loss_changes":[1.4060071E4,1.4142578E2,1.8013672E4,1.290332E2,8.35325E1,3.5657666E3,3.307771E3,4.111328E-1,1.2822266E0,0E0,4.4781494E-1,2.84492E3,2.4217112E3,7.787725E2,7.5889355E2,0E0,0E0,0E0,0E0,0E0,0E0,0E0,0E0,0E0,0E0,0E0,0E0,0E0,0E0],"parents":[2147483647,0,0,1,1,2,2,3,3,4,4,5,5,6,6,7,7,8,8,10,10,11,11,12,12,13,13,14,14],"right_children":[2,4,6,8,10,12,14,16,18,-1,20,22,24,26,28,-1,-1,-1,-1,-1,-1,-1,-1,-1,-1,-1,-1,-1,-1],"split_conditions":[4E0,3E0,1.9E1,6E0,2E0,7E0,2.2E1,5E0,2E0,-6.7949615E-2,4E0,5E0,1E1,2E0,3E0,-3.9928275E-1,-3.6326244E-1,-2.7948755E-1,-3.200038E-1,-2.3632653E-1,-3.0920327E-1,-5.4343432E-2,2.134311E-1,-3.2056454E-1,6.879817E-2,-2.1618283E-1,-3.472602E-2,-4.0176535E-1,-2.2714455E-1],"split_indices":[1,1,1,0,0,0,1,0,1,0,0,1,1,0,0,0,0,0,0,0,0,0,0,0,0,0,0,0,0],"split_type":[0,0,0,0,0,0,0,0,0,0,0,0,0,0,0,0,0,0,0,0,0,0,0,0,0,0,0,0,0],"sum_hessian":[9.343E3,1E3,8.343E3,9.07E2,9.3E1,5.296E3,3.047E3,6.52E2,2.55E2,2.4E1,6.9E1,4.527E3,7.69E2,1.778E3,1.269E3,4.93E2,1.59E2,1.14E2,1.41E2,2.4E1,4.5E1,4.39E2,4.088E3,2.25E2,5.44E2,2.8E2,1.498E3,3.44E2,9.25E2],"tree_param":{"num_deleted":"0","num_feature":"2","num_nodes":"29","size_leaf_vector":"1"}},{"base_weights":[-2.8870658E-3,-3.1917992E0,3.7967575E-1,-3.3016577E0,-2.0966573E0,1.1049534E0,-2.041004E0,-3.5207832E0,-2.72982E0,-6.142648E-2,-2.5961308E0,1.4832921E0,4.6651367E-2,-2.7366776E0,-1.0559598E0,-3.594353E-1,-3.2716322E-1,-2.517818E-1,-2.8822875E-1,-2.1363918E-1,-2.7895516E-1,4.6233747E-2,2.141869E-1,-1.333177E-1,2.7232317E-2,-2.3537011E-1,-3.7893564E-1,3.0739848E-2,-3.7838322E-1],"categories":[],"categories_nodes":[],"categories_segments":[],"categories_sizes":[],"default_left":[0,0,0,0,0,0,0,0,0,0,0,0,0,0,0,0,0,0,0,0,0,0,0,0,0,0,0,0,0],"id":11,"left_children":[1,3,5,7,9,11,13,15,17,-1,19,21,23,25,27,-1,-1,-1,-1,-1,-1,-1,-1,-1,-1,-1,-1,-1,-1],"loss_changes":[1.1400511E4,1.1350879E2,1.4651523E4,1.0416406E2,6.8004425E1,2.570877E3,1.3155679E3,2.1044922E-1,1.0177002E0,0E0,2.6501465E-1,3.1793555E3,5.2723206E2,4.4543262E2,2.9689788E3,0E0,0E0,0E0,0E0,0E0,0E0,0E0,0E0,0E0,0E0,0E0,0E0,0E0,0E0],"parents":[2147483647,0,0,1,1,2,2,3,3,4,4,5,5,6,6,7,7,8,8,10,10,11,11,12,12,13,13,14,14],"right_children":[2,4,6,8,10,12,14,16,18,-1,20,22,24,26,28,-1,-1,-1,-1,-1,-1,-1,-1,-1,-1,-1,-1,-1,-1],"split_conditions":[4E0,3E0,2.1E1,6E0,2E0,1.8E1,5E0,5E0,2E0,-6.142648E-2,4E0,1E1,2E0,2.3E1,7E0,-3.594353E-1,-3.2716322E-1,-2.517818E-1,-2.8822875E-1,-2.1363918E-1,-2.7895516E-1,4.6233747E-2,2.141869E-1,-1.333177E-1,2.7232317E-2,-2.3537011E-1,-3.7893564E-1,3.0739848E-2,-3.7838322E-1],"split_indices":[1,1,1,0,0,1,0,0,1,0,0,1,0,1,0,0,0,0,0,0,0,0,0,0,0,0,0,0,0],"split_type":[0,0,0,0,0,0,0,0,0,0,0,0,0,0,0,0,0,0,0,0,0,0,0,0,0,0,0,0,0],"sum_hessian":[9.343E3,1E3,8.343E3,9.07E2,9.3E1,6.42E3,1.923E3,6.52E2,2.55E2,2.4E1,6.9E1,4.729E3,1.691E3,1.126E3,7.97E2,4.93E2,1.59E2,1.14E2,1.41E2,2.4E1,4.5E1,1.855E3,2.874E3,2.37E2,1.454E3,8.28E2,2.98E2,5.32E2,2.65E2],"tree_param":{"num_deleted":"0","num_feature":"2","num_nodes":"29","size_leaf_vector":"1"}},{"base_weights":[-2.8755933E-3,-2.8743982E0,3.4161112E-1,-2.972843E0,-1.8928854E0,1.2504375E0,-1.2379148E0,-3.1697564E0,-2.4589472E0,-5.5529576E-2,-2.343555E0,1.5556124E0,-5.457733E-1,-5.077542E-1,-2.2597399E0,-3.2356453E-1,-2.9465136E-1,-2.2682254E-1,-2.5960883E-1,-1.9312981E-1,-2.5166607E-1,-5.353437E-2,1.7802308E-1,-4.1483903E-1,1.5883988E-2,-1.1326317E-1,-6.3263264E-4,-1.9536324E-1,-3.957793E-1],"categories":[],"categories_nodes":[],"categories_segments":[],"categories_sizes":[],"default_left":[0,0,0,0,0,0,0,0,0,0,0,0,0,0,0,0,0,0,0,0,0,0,0,0,0,0,0,0,0],"id":12,"left_children":[1,3,5,7,9,11,13,15,17,-1,19,21,23,25,27,-1,-1,-1,-1,-1,-1,-1,-1,-1,-1,-1,-1,-1,-1],"loss_changes":[9.24408E3,9.109375E1,1.1979484E4,8.408887E1,5.5362854E1,2.9044434E3,2.2729546E3,7.128906E-2,8.0737305E-1,0E0,1.350708E-1,2.1276074E3,1.9552665E3,5.574086E2,6.5239746E2,0E0,0E0,0E0,0E0,0E0,0E0,0E0,0E0,0E0,0E0,0E0,0E0,0E0,0E0],"parents":[2147483647,0,0,1,1,2,2,3,3,4,4,5,5,6,6,7,7,8,8,10,10,11,11,12,12,13,13,14,14],"right_children":[2,4,6,8,10,12,14,16,18,-1,20,22,24,26,28,-1,-1,-1,-1,-1,-1,-1,-1,-1,-1,-1,-1,-1,-1],"split_conditions":[4E0,3E0,1.9E1,6E0,2E0,7E0,2.2E1,5E0,2E0,-5.5529576E-2,4E0,5E0,7E0,4E0,7E0,-3.2356453E-1,-2.9465136E-1,-2.2682254E-1,-2.5960883E-1,-1.9312981E-1,-2.5166607E-1,-5.353437E-2,1.7802308E-1,-4.1483903E-1,1.5883988E-2,-1.1326317E-1,-6.3263264E-4,-1.9536324E-1,-3.957793E-1],"split_indices":[1,1,1,0,0,0,1,0,1,0,0,1,1,0,0,0,0,0,0,0,0,0,0,0,0,0,0,0,0],"split_type":[0,0,0,0,0,0,0,0,0,0,0,0,0,0,0,0,0,0,0,0,0,0,0,0,0,0,0,0,0],"sum_hessian":[9.343E3,1E3,8.343E3,9.07E2,9.3E1,5.296E3,3.047E3,6.52E2,2.55E2,2.4E1,6.9E1,4.527E3,7.69E2,1.778E3,1.269E3,4.93E2,1.59E2,1.14E2,1.41E2,2.4E1,4.5E1,4.39E2,4.088E3,1.25E2,6.44E2,7.91E2,9.87E2,1.077E3,1.92E2],"tree_param":{"num_deleted":"0","num_feature":"2","num_nodes":"29","size_leaf_vector":"1"}},{"base_weights":[-2.864457E-3,-2.5885618E0,3.0733278E-1,-2.6767752E0,-1.7089194E0,8.9937645E-1,-1.6686649E0,-2.8537273E-1,-2.2149527E0,-5.019873E-2,-2.1155536E0,1.1310997E0,-4.7865787E-1,-2.5311031E0,-9.866215E-1,-2.0433755E-1,-2.338308E-1,-1.7458932E-1,-2.2704656E-1,1.5116075E-1,3.9622444E-3,-3.7368438E-1,3.5104712E-3,-2.2695176E-1,-3.3263287E-1,-2.8534263E-2,-3.121022E-1],"categories":[],"categories_nodes":[],"categories_segments":[],"categories_sizes":[],"default_left":[0,0,0,0,0,0,0,0,0,0,0,0,0,0,0,0,0,0,0,0,0,0,0,0,0,0,0],"id":13,"left_children":[1,3,5,7,9,11,13,-1,15,-1,17,19,21,23,25,-1,-1,-1,-1,-1,-1,-1,-1,-1,-1,-1,-1],"loss_changes":[7.4953955E3,7.309961E1,9.762954E3,6.788135E1,4.507132E1,2.0509111E3,1.1292383E3,0E0,6.402588E-1,0E0,4.4555664E-2,2.2829287E3,1.54852E3,1.6906006E2,1.6096769E3,0E0,0E0,0E0,0E0,0E0,0E0,0E0,0E0,0E0,0E0,0E0,0E0],"parents":[2147483647,0,0,1,1,2,2,3,3,4,4,5,5,6,6,8,8,10,10,11,11,12,12,13,13,14,14],"right_children":[2,4,6,8,10,12,14,-1,16,-1,18,20,22,24,26,-1,-1,-1,-1,-1,-1,-1,-1,-1,-1,-1,-1],"split_conditions":[4E0,3E0,2.1E1,6E0,2E0,7E0,4E0,-2.8537273E-1,2E0,-5.019873E-2,4E0,1.8E1,7E0,2.3E1,7E0,-2.0433755E-1,-2.338308E-1,-1.7458932E-1,-2.2704656E-1,1.5116075E-1,3.9622444E-3,-3.7368438E-1,3.5104712E-3,-2.2695176E-1,-3.3263287E-1,-2.8534263E-2,-3.121022E-1],"split_indices":[1,1,1,0,0,0,0,0,1,0,0,1,1,1,0,0,0,0,0,0,0,0,0,0,0,0,0],"split_type":[0,0,0,0,0,0,0,0,0,0,0,0,0,0,0,0,0,0,0,0,0,0,0,0,0,0,0],"sum_hessian":[9.343E3,1E3,8.343E3,9.07E2,9.3E1,6.42E3,1.923E3,6.52E2,2.55E2,2.4E1,6.9E1,5.496E3,9.24E2,8.48E2,1.075E3,1.14E2,1.41E2,2.4E1,4.5E1,4.075E3,1.421E3,1.25E2,7.99E2,6.41E2,2.07E2,8.1E2,2.65E2],"tree_param":{"num_deleted":"0","num_feature":"2","num_nodes":"27","size_leaf_vector":"1"}},{"base_weights":[-2.8233575E-3,-2.3308797E0,2.7646562E-1,-2.4098945E0,-1.5428344E0,1.017107E0,-1.0107567E0,-2.5687916E0,-1.9951689E0,-4.5379676E-2,-1.909736E-1,1.2636453E0,-4.3398702E-1,-6.549988E-1,-2.6581328E0,-2.6279408E-1,-2.3701146E-1,-1.8408148E-1,-2.1061237E-1,-6.327485E-2,1.4673993E-1,-1.8856482E-1,8.995874E-2,-1.472645E-1,-2.6975557E-2,-2.4667357E-1,-3.8903856E-1],"categories":[],"categories_nodes":[],"categories_segments":[],"categories_sizes":[],"default_left":[0,0,0,0,0,0,0,0,0,0,0,0,0,0,0,0,0,0,0,0,0,0,0,0,0,0,0],"id":14,"left_children":[1,3,5,7,9,11,13,15,17,-1,-1,19,21,23,25,-1,-1,-1,-1,-1,-1,-1,-1,-1,-1,-1,-1],"loss_changes":[6.0761177E3,5.861133E1,7.95595E3,5.4711426E1,3.6692932E1,1.8955513E3,1.7845918E3,1.4448242E0,5.074463E-1,0E0,0E0,1.7505366E3,1.4923379E3,7.8960425E2,1.1799805E2,0E0,0E0,0E0,0E0,0E0,0E0,0E0,0E0,0E0,0E0,0E0,0E0],"parents":[2147483647,0,0,1,1,2,2,3,3,4,4,5,5,6,6,7,7,8,8,11,11,12,12,13,13,14,14],"right_children":[2,4,6,8,10,12,14,16,18,-1,-1,20,22,24,26,-1,-1,-1,-1,-1,-1,-1,-1,-1,-1,-1,-1],"split_conditions":[4E0,3E0,1.9E1,6E0,2E0,7E0,2.3E1,5E0,2E0,-4.5379676E-2,-1.909736E-1,5E0,1.3E1,3E0,7E0,-2.6279408E-1,-2.3701146E-1,-1.8408148E-1,-2.1061237E-1,-6.327485E-2,1.4673993E-1,-1.8856482E-1,8.995874E-2,-1.472645E-1,-2.6975557E-2,-2.4667357E-1,-3.8903856E-1],"split_indices":[1,1,1,0,0,0,1,0,1,0,0,1,1,0,0,0,0,0,0,0,0,0,0,0,0,0,0],"split_type":[0,0,0,0,0,0,0,0,0,0,0,0,0,0,0,0,0,0,0,0,0,0,0,0,0,0,0],"sum_hessian":[9.343E3,1E3,8.343E3,9.07E2,9.3E1,5.296E3,3.047E3,6.52E2,2.55E2,2.4E1,6.9E1,4.527E3,7.69E2,2.507E3,5.4E2,4.93E2,1.59E2,1.14E2,1.41E2,4.39E2,4.088E3,3.68E2,4.01E2,8.02E2,1.705E3,4.7E2,7E1],"tree_param":{"num_deleted":"0","num_feature":"2","num_nodes":"27","size_leaf_vector":"1"}},{"base_weights":[-2.7503283E-3,-2.0989215E0,2.4872021E-1,-2.1698902E0,-1.3910652E0,7.362696E-1,-1.3785166E0,-2.312678E0,-1.7971939E0,-4.102323E-2,-1.7214904E0,9.257667E-1,-3.9065143E-1,-1.973279E0,-5.368174E-1,-2.0829494E-1,-2.3652582E-1,-1.658334E-1,-1.8969946E-1,-1.3949528E-1,-1.8615328E-1,1.2363986E-1,3.4724975E-3,-3.179057E-1,4.9010734E-3,-1.6971886E-1,-2.732161E-1,5.3773265E-2,-2.687939E-1],"categories":[],"categories_nodes":[],"categories_segments":[],"categories_sizes":[],"default_left":[0,0,0,0,0,0,0,0,0,0,0,0,0,0,0,0,0,0,0,0,0,0,0,0,0,0,0,0,0],"id":15,"left_children":[1,3,5,7,9,11,13,15,17,-1,19,21,23,25,27,-1,-1,-1,-1,-1,-1,-1,-1,-1,-1,-1,-1,-1,-1],"loss_changes":[4.9259805E3,4.726758E1,6.6207964E3,4.416455E1,2.9758423E1,1.3715557E3,9.6211646E2,2.9611816E0,4.019165E-1,0E0,6.042938E-1,1.5214497E3,1.1341655E3,2.3149219E2,1.8460127E3,0E0,0E0,0E0,0E0,0E0,0E0,0E0,0E0,0E0,0E0,0E0,0E0,0E0,0E0],"parents":[2147483647,0,0,1,1,2,2,3,3,4,4,5,5,6,6,7,7,8,8,10,10,11,11,12,12,13,13,14,14],"right_children":[2,4,6,8,10,12,14,16,18,-1,20,22,24,26,28,-1,-1,-1,-1,-1,-1,-1,-1,-1,-1,-1,-1,-1,-1],"split_conditions":[4E0,3E0,2.1E1,6E0,2E0,7E0,5E0,2E0,2E0,-4.102323E-2,4E0,1.8E1,7E0,2.3E1,7E0,-2.0829494E-1,-2.3652582E-1,-1.658334E-1,-1.8969946E-1,-1.3949528E-1,-1.8615328E-1,1.2363986E-1,3.4724975E-3,-3.179057E-1,4.9010734E-3,-1.6971886E-1,-2.732161E-1,5.3773265E-2,-2.687939E-1],"split_indices":[1,1,1,0,0,0,0,0,1,0,0,1,1,1,0,0,0,0,0,0,0,0,0,0,0,0,0,0,0],"split_type":[0,0,0,0,0,0,0,0,0,0,0,0,0,0,0,0,0,0,0,0,0,0,0,0,0,0,0,0,0],"sum_hessian":[9.343E3,1E3,8.343E3,9.07E2,9.3E1,6.42E3,1.923E3,6.52E2,2.55E2,2.4E1,6.9E1,5.496E3,9.24E2,1.126E3,7.97E2,1.29E2,5.23E2,1.14E2,1.41E2,2.4E1,4.5E1,4.075E3,1.421E3,1.25E2,7.99E2,8.28E2,2.98E2,5.32E2,2.65E2],"tree_param":{"num_deleted":"0","num_feature":"2","num_nodes":"29","size_leaf_vector":"1"}},{"base_weights":[-2.6905863E-3,-1.5320281E0,2.8486252E-1,-1.9537826E0,-8.5985124E-1,9.8647064E-1,-8.2449913E-1,-2.0820913E0,-1.6188631E0,-2.678009E-1,-2.7930622E0,1.2103686E0,-2.672986E-1,-5.220008E-1,-2.225315E0,-2.2196792E-1,-2.0004778E-1,-1.4939424E-1,-1.7086308E-1,-1.8222675E-1,3.7061577E-3,-3.710527E-1,-1.563903E-1,3.0623907E-2,1.387772E-1,-1.5726987E-1,8.049633E-2,-9.248894E-2,7.2516487E-3,-2.0673595E-1,-3.2418182E-1],"categories":[],"categories_nodes":[],"categories_segments":[],"categories_sizes":[],"default_left":[0,0,0,0,0,0,0,0,0,0,0,0,0,0,0,0,0,0,0,0,0,0,0,0,0,0,0,0,0,0,0],"id":16,"left_children":[1,3,5,7,9,11,13,15,17,19,21,23,25,27,29,-1,-1,-1,-1,-1,-1,-1,-1,-1,-1,-1,-1,-1,-1,-1,-1],"loss_changes":[4.1096074E3,4.1760693E2,6.1232134E3,3.564917E1,6.5393933E2,1.3530957E3,1.2904116E3,2.8918457E0,3.1817627E-1,2.08109E2,1.453103E2,6.554331E2,1.0244691E3,6.007939E2,8.016235E1,0E0,0E0,0E0,0E0,0E0,0E0,0E0,0E0,0E0,0E0,0E0,0E0,0E0,0E0,0E0,0E0],"parents":[2147483647,0,0,1,1,2,2,3,3,4,4,5,5,6,6,7,7,8,8,9,9,10,10,11,11,12,12,13,13,14,14],"right_children":[2,4,6,8,10,12,14,16,18,20,22,24,26,28,30,-1,-1,-1,-1,-1,-1,-1,-1,-1,-1,-1,-1,-1,-1,-1,-1],"split_conditions":[5E0,3E0,1.9E1,6E0,6E0,7E0,2.3E1,1E0,2E0,2E0,7E0,2E0,1.3E1,5E0,7E0,-2.2196792E-1,-2.0004778E-1,-1.4939424E-1,-1.7086308E-1,-1.8222675E-1,3.7061577E-3,-3.710527E-1,-1.563903E-1,3.0623907E-2,1.387772E-1,-1.5726987E-1,8.049633E-2,-9.248894E-2,7.2516487E-3,-2.0673595E-1,-3.2418182E-1],"split_indices":[1,1,1,0,0,0,1,1,1,0,0,0,1,0,0,0,0,0,0,0,0,0,0,0,0,0,0,0,0,0,0],"split_type":[0,0,0,0,0,0,0,0,0,0,0,0,0,0,0,0,0,0,0,0,0,0,0,0,0,0,0,0,0,0,0],"sum_hessian":[9.343E3,1.478E3,7.865E3,9.07E2,5.71E2,4.818E3,3.047E3,6.52E2,2.55E2,4.38E2,1.33E2,4.088E3,7.3E2,2.507E3,5.4E2,2.33E2,4.19E2,1.14E2,1.41E2,7.1E1,3.67E2,7.5E1,5.8E1,6.71E2,3.417E3,3.29E2,4.01E2,1.494E3,1.013E3,4.7E2,7E1],"tree_param":{"num_deleted":"0","num_feature":"2","num_nodes":"31","size_leaf_vector":"1"}},{"base_weights":[-2.6324056E-3,-1.3798045E0,2.563099E-1,-1.7592218E0,-7.751003E-1,7.086346E-1,-1.140999E0,-1.9320803E0,-1.5492187E0,3.720887E-2,-2.009831E0,9.864202E-1,1.01399785E-2,-1.6537281E0,-4.1545174E-1,-1.677748E-1,-2.0173709E-1,-1.8624933E-1,-1.3552953E-1,-4.3643814E-2,1.8779042E-1,-1.2644777E-1,-2.517692E-1,1.2092429E-1,-3.307752E-2,-1.14798464E-1,1.9957196E-2,-2.21988E-1,-1.4134906E-1,5.458766E-2,-2.3401605E-1],"categories":[],"categories_nodes":[],"categories_segments":[],"categories_sizes":[],"default_left":[0,0,0,0,0,0,0,0,0,0,0,0,0,0,0,0,0,0,0,0,0,0,0,0,0,0,0,0,0,0,0],"id":17,"left_children":[1,3,5,7,9,11,13,15,17,19,21,23,25,27,29,-1,-1,-1,-1,-1,-1,-1,-1,-1,-1,-1,-1,-1,-1,-1,-1],"loss_changes":[3.3324995E3,3.379712E2,4.972415E3,2.9968018E1,5.737811E2,1.1531206E3,7.150586E2,7.331421E0,2.2687561E1,3.024762E2,8.274408E1,1.2483662E3,3.714299E2,1.5014673E2,1.4777985E3,0E0,0E0,0E0,0E0,0E0,0E0,0E0,0E0,0E0,0E0,0E0,0E0,0E0,0E0,0E0,0E0],"parents":[2147483647,0,0,1,1,2,2,3,3,4,4,5,5,6,6,7,7,8,8,9,9,10,10,11,11,12,12,13,13,14,14],"right_children":[2,4,6,8,10,12,14,16,18,20,22,24,26,28,30,-1,-1,-1,-1,-1,-1,-1,-1,-1,-1,-1,-1,-1,-1,-1,-1],"split_conditions":[5E0,3E0,2.1E1,5E0,5E0,1.8E1,5E0,2E0,1E0,4E0,6E0,7E0,2E0,2E0,7E0,-1.677748E-1,-2.0173709E-1,-1.8624933E-1,-1.3552953E-1,-4.3643814E-2,1.8779042E-1,-1.2644777E-1,-2.517692E-1,1.2092429E-1,-3.307752E-2,-1.14798464E-1,1.9957196E-2,-2.21988E-1,-1.4134906E-1,5.458766E-2,-2.3401605E-1],"split_indices":[1,1,1,0,0,1,0,0,1,0,0,0,0,0,0,0,0,0,0,0,0,0,0,0,0,0,0,0,0,0,0],"split_type":[0,0,0,0,0,0,0,0,0,0,0,0,0,0,0,0,0,0,0,0,0,0,0,0,0,0,0,0,0,0,0],"sum_hessian":[9.343E3,1.478E3,7.865E3,9.07E2,5.71E2,5.942E3,1.923E3,4.93E2,4.14E2,3.45E2,2.26E2,4.251E3,1.691E3,1.126E3,7.97E2,1.29E2,3.64E2,1.55E2,2.59E2,2.75E2,7E1,9.3E1,1.33E2,3.636E3,6.15E2,2.37E2,1.454E3,3.33E2,7.93E2,5.32E2,2.65E2],"tree_param":{"num_deleted":"0","num_feature":"2","num_nodes":"31","size_leaf_vector":"1"}},{"base_weights":[-2.5269496E-3,-1.2424496E0,2.306091E-1,-1.5840609E0,-6.979995E-1,8.0121785E-1,-6.7161995E-1,-1.7396202E0,-1.3950722E0,3.3904642E-2,-1.8105142E0,9.828697E-1,-2.1598525E-1,-4.069867E-1,-1.8971812E0,-1.5112637E-1,-1.8161866E-1,-1.6774379E-1,-1.2202871E-1,-3.9295234E-2,1.6927584E-1,-1.1393751E-1,-2.267802E-1,1.8929256E-2,1.1386043E-1,-3.1675732E-1,1.8247077E-2,-1.0109363E-1,-1.2247416E-2,-2.129159E-1,-1.3739568E-1],"categories":[],"categories_nodes":[],"categories_segments":[],"categories_sizes":[],"default_left":[0,0,0,0,0,0,0,0,0,0,0,0,0,0,0,0,0,0,0,0,0,0,0,0,0,0,0,0,0,0,0],"id":18,"left_children":[1,3,5,7,9,11,13,15,17,19,21,23,25,27,29,-1,-1,-1,-1,-1,-1,-1,-1,-1,-1,-1,-1,-1,-1,-1,-1],"loss_changes":[2.7013633E3,2.7397412E2,4.0501108E3,2.4267334E1,4.658147E2,8.906516E2,9.877682E2,5.892578E0,1.8434692E1,2.4566544E2,6.708319E1,5.0513403E2,8.6029095E2,4.3082886E2,6.2739258E1,0E0,0E0,0E0,0E0,0E0,0E0,0E0,0E0,0E0,0E0,0E0,0E0,0E0,0E0,0E0,0E0],"parents":[2147483647,0,0,1,1,2,2,3,3,4,4,5,5,6,6,7,7,8,8,9,9,10,10,11,11,12,12,13,13,14,14],"right_children":[2,4,6,8,10,12,14,16,18,20,22,24,26,28,30,-1,-1,-1,-1,-1,-1,-1,-1,-1,-1,-1,-1,-1,-1,-1,-1],"split_conditions":[5E0,3E0,1.9E1,5E0,5E0,7E0,2.3E1,2E0,1E0,4E0,6E0,2E0,7E0,3E0,6E0,-1.5112637E-1,-1.8161866E-1,-1.6774379E-1,-1.2202871E-1,-3.9295234E-2,1.6927584E-1,-1.1393751E-1,-2.267802E-1,1.8929256E-2,1.1386043E-1,-3.1675732E-1,1.8247077E-2,-1.0109363E-1,-1.2247416E-2,-2.129159E-1,-1.3739568E-1],"split_indices":[1,1,1,0,0,0,1,0,1,0,0,0,1,0,0,0,0,0,0,0,0,0,0,0,0,0,0,0,0,0,0],"split_type":[0,0,0,0,0,0,0,0,0,0,0,0,0,0,0,0,0,0,0,0,0,0,0,0,0,0,0,0,0,0,0],"sum_hessian":[9.343E3,1.478E3,7.865E3,9.07E2,5.71E2,4.818E3,3.047E3,4.93E2,4.14E2,3.45E2,2.26E2,4.088E3,7.3E2,2.507E3,5.4E2,1.29E2,3.64E2,1.55E2,2.59E2,2.75E2,7E1,9.3E1,1.33E2,6.71E2,3.417E3,8.6E1,6.44E2,8.02E2,1.705E3,3.72E2,1.68E2],"tree_param":{"num_deleted":"0","num_feature":"2","num_nodes":"31","size_leaf_vector":"1"}},{"base_weights":[-2.4310471E-3,1.9172919E-1,-1.2369518E0,-1.0089521E0,5.125465E-1,-1.0231645E0,-2.4246505E-1,-5.983839E-1,-1.5579983E0,8.680474E-1,-9.8054744E-2,-1.6291484E0,1.504161E-1,-1.4876375E-1,5.1098105E-2,-1.3909173E-1,-2.7573273E-1,4.0514488E-2,1.2693852E-1,-1.1958819E-1,1.1341604E-2,-2.0108095E-1,-1.2659271E-1,1.2152636E-1,-1.0568702E-1],"categories":[],"categories_nodes":[],"categories_segments":[],"categories_sizes":[],"default_left":[0,0,0,0,0,0,0,0,0,0,0,0,0,0,0,0,0,0,0,0,0,0,0,0,0],"id":19,"left_children":[1,3,5,7,9,11,-1,13,15,17,19,21,23,-1,-1,-1,-1,-1,-1,-1,-1,-1,-1,-1,-1],"loss_changes":[2.2399458E3,3.1110017E3,3.1999146E2,3.8295972E2,1.3834679E3,7.668873E2,0E0,9.635906E2,1.4204504E2,7.4780884E2,5.447791E2,9.6018555E1,4.7437634E2,0E0,0E0,0E0,0E0,0E0,0E0,0E0,0E0,0E0,0E0,0E0,0E0],"parents":[2147483647,0,0,1,1,2,2,3,3,4,4,5,5,7,7,8,8,9,9,10,10,11,11,12,12],"right_children":[2,4,6,8,10,12,-1,14,16,18,20,22,24,-1,-1,-1,-1,-1,-1,-1,-1,-1,-1,-1,-1],"split_conditions":[2.2E1,6E0,7E0,5E0,1.8E1,5E0,-2.4246505E-1,4E0,5E0,1.2E1,2E0,3E0,2.3E1,-1.4876375E-1,5.1098105E-2,-1.3909173E-1,-2.7573273E-1,4.0514488E-2,1.2693852E-1,-1.1958819E-1,1.1341604E-2,-2.0108095E-1,-1.2659271E-1,1.2152636E-1,-1.0568702E-1],"split_indices":[1,1,0,0,1,0,0,1,1,1,0,0,1,0,0,0,0,0,0,0,0,0,0,0,0],"split_type":[0,0,0,0,0,0,0,0,0,0,0,0,0,0,0,0,0,0,0,0,0,0,0,0,0],"sum_hessian":[9.343E3,8.074E3,1.269E3,1.702E3,6.372E3,1.077E3,1.92E2,9.75E2,7.27E2,4.027E3,2.345E3,7.1E2,3.67E2,5.41E2,4.34E2,6.4E2,8.7E1,1.871E3,2.156E3,3.78E2,1.967E3,3.44E2,3.66E2,1.95E2,1.72E2],"tree_param":{"num_deleted":"0","num_feature":"2","num_nodes":"25","size_leaf_vector":"1"}},{"base_weights":[-2.2956422E-3,1.725003E-1,-1.1136932E0,-1.0144248E0,4.3857422E-1,-9.2113745E-1,-2.1834417E-1,-1.2821505E0,-5.876602E-1,7.2916645E-1,-8.829565E-2,-1.4666945E0,1.3541736E-1,-1.4178692E-1,-1.1175066E-1,7.6659815E-4,-1.492485E-1,9.102611E-2,-3.412399E-2,-1.0766094E-1,1.0207997E-2,-1.8103115E-1,-1.1396793E-1,1.0943569E-1,-9.51794E-2],"categories":[],"categories_nodes":[],"categories_segments":[],"categories_sizes":[],"default_left":[0,0,0,0,0,0,0,0,0,0,0,0,0,0,0,0,0,0,0,0,0,0,0,0,0],"id":20,"left_children":[1,3,5,7,9,11,-1,13,15,17,19,21,23,-1,-1,-1,-1,-1,-1,-1,-1,-1,-1,-1,-1],"loss_changes":[1.8154304E3,2.5506094E3,2.595913E2,1.6823096E2,1.0100935E3,6.2156946E2,0E0,1.8704956E1,3.081283E2,8.245388E2,4.4151175E2,7.7830444E1,3.8470737E2,0E0,0E0,0E0,0E0,0E0,0E0,0E0,0E0,0E0,0E0,0E0,0E0],"parents":[2147483647,0,0,1,1,2,2,3,3,4,4,5,5,7,7,8,8,9,9,10,10,11,11,12,12],"right_children":[2,4,6,8,10,12,-1,14,16,18,20,22,24,-1,-1,-1,-1,-1,-1,-1,-1,-1,-1,-1,-1],"split_conditions":[2.2E1,5E0,7E0,3E0,1.8E1,5E0,-2.1834417E-1,5E0,5E0,7E0,2E0,3E0,2.3E1,-1.4178692E-1,-1.1175066E-1,7.6659815E-4,-1.492485E-1,9.102611E-2,-3.412399E-2,-1.0766094E-1,1.0207997E-2,-1.8103115E-1,-1.1396793E-1,1.0943569E-1,-9.51794E-2],"split_indices":[1,1,0,1,1,0,0,0,0,0,0,0,1,0,0,0,0,0,0,0,0,0,0,0,0],"split_type":[0,0,0,0,0,0,0,0,0,0,0,0,0,0,0,0,0,0,0,0,0,0,0,0,0],"sum_hessian":[9.343E3,8.074E3,1.269E3,1.478E3,6.596E3,1.077E3,1.92E2,9.07E2,5.71E2,4.251E3,2.345E3,7.1E2,3.67E2,4.93E2,4.14E2,3.45E2,2.26E2,3.636E3,6.15E2,3.78E2,1.967E3,3.44E2,3.66E2,1.95E2,1.72E2],"tree_param":{"num_deleted":"0","num_feature":"2","num_nodes":"25","size_leaf_vector":"1"}},{"base_weights":[-2.1669427E-3,1.5519537E-1,-1.0027169E0,-8.307038E-1,4.1862404E-1,-8.292842E-1,-1.966229E-1,-4.8007405E-1,-1.2996377E0,7.0864356E-1,-7.950769E-2,-1.3204399E0,1.2191424E-1,-1.21024765E-1,4.3080907E-2,-1.12724565E-1,-2.540588E-1,2.9226009E-2,1.0696826E-1,-9.6923225E-2,9.187702E-3,-1.629805E-1,-1.026022E-1,9.854792E-2,-8.571646E-2],"categories":[],"categories_nodes":[],"categories_segments":[],"categories_sizes":[],"default_left":[0,0,0,0,0,0,0,0,0,0,0,0,0,0,0,0,0,0,0,0,0,0,0,0,0],"id":21,"left_children":[1,3,5,7,9,11,-1,13,15,17,19,21,23,-1,-1,-1,-1,-1,-1,-1,-1,-1,-1,-1,-1],"loss_changes":[1.4713578E3,2.0975393E3,2.1059216E2,2.7938696E2,9.2075037E2,5.037881E2,0E0,6.4966174E2,1.528772E2,6.0521936E2,3.5781927E2,6.3087524E1,3.1198807E2,0E0,0E0,0E0,0E0,0E0,0E0,0E0,0E0,0E0,0E0,0E0,0E0],"parents":[2147483647,0,0,1,1,2,2,3,3,4,4,5,5,7,7,8,8,9,9,10,10,11,11,12,12],"right_children":[2,4,6,8,10,12,-1,14,16,18,20,22,24,-1,-1,-1,-1,-1,-1,-1,-1,-1,-1,-1,-1],"split_conditions":[2.2E1,6E0,7E0,5E0,1.8E1,5E0,-1.966229E-1,4E0,5E0,1.2E1,2E0,3E0,2.3E1,-1.21024765E-1,4.3080907E-2,-1.12724565E-1,-2.540588E-1,2.9226009E-2,1.0696826E-1,-9.6923225E-2,9.187702E-3,-1.629805E-1,-1.026022E-1,9.854792E-2,-8.571646E-2],"split_indices":[1,1,0,0,1,0,0,1,1,1,0,0,1,0,0,0,0,0,0,0,0,0,0,0,0],"split_type":[0,0,0,0,0,0,0,0,0,0,0,0,0,0,0,0,0,0,0,0,0,0,0,0,0],"sum_hessian":[9.343E3,8.074E3,1.269E3,1.702E3,6.372E3,1.077E3,1.92E2,9.75E2,7.27E2,4.027E3,2.345E3,7.1E2,3.67E2,5.41E2,4.34E2,6.4E2,8.7E1,1.871E3,2.156E3,3.78E2,1.967E3,3.44E2,3.66E2,1.95E2,1.72E2],"tree_param":{"num_deleted":"0","num_feature":"2","num_nodes":"25","size_leaf_vector":"1"}},{"base_weights":[-2.0407622E-3,1.8072115E-1,-7.069649E-1,-7.478945E-1,4.5721212E-1,-1.0747367E0,-1.8668193E-1,-4.3214658E-1,-1.1701777E0,6.7639786E-1,-1.7296648E-2,-1.2937819E0,-8.147131E-1,5.1689905E-1,-1.5957872E0,-1.0894461E-1,3.8782697E-2,-1.01469696E-1,-2.2894163E-1,2.8135452E-1,5.9220817E-2,-2.266475E-1,2.0094825E-2,-1.0638706E-1,-1.4672968E-1,-5.2674033E-2,-1.4062856E-1,1.1331122E-1,-7.7194385E-2,-1.118227E-1,-1.7706248E-1],"categories":[],"categories_nodes":[],"categories_segments":[],"categories_sizes":[],"default_left":[0,0,0,0,0,0,0,0,0,0,0,0,0,0,0,0,0,0,0,0,0,0,0,0,0,0,0,0,0,0,0],"id":22,"left_children":[1,3,5,7,9,11,13,15,17,19,21,23,25,27,29,-1,-1,-1,-1,-1,-1,-1,-1,-1,-1,-1,-1,-1,-1,-1,-1],"loss_changes":[1.2039459E3,1.9057124E3,3.67948E2,2.265639E2,5.9481946E2,6.3136353E1,7.919778E2,5.2645544E2,1.2436365E2,7.0220325E2,8.879514E2,2.2773743E1,8.750406E1,4.2418427E2,2.0229797E1,0E0,0E0,0E0,0E0,0E0,0E0,0E0,0E0,0E0,0E0,0E0,0E0,0E0,0E0,0E0,0E0],"parents":[2147483647,0,0,1,1,2,2,3,3,4,4,5,5,6,6,7,7,8,8,9,9,10,10,11,11,12,12,13,13,14,14],"right_children":[2,4,6,8,10,12,14,16,18,20,22,24,26,28,30,-1,-1,-1,-1,-1,-1,-1,-1,-1,-1,-1,-1,-1,-1,-1,-1],"split_conditions":[2.1E1,6E0,5E0,5E0,6E0,3E0,7E0,4E0,5E0,7E0,8E0,2.2E1,2.3E1,2.3E1,2.2E1,-1.0894461E-1,3.8782697E-2,-1.01469696E-1,-2.2894163E-1,2.8135452E-1,5.9220817E-2,-2.266475E-1,2.0094825E-2,-1.0638706E-1,-1.4672968E-1,-5.2674033E-2,-1.4062856E-1,1.1331122E-1,-7.7194385E-2,-1.118227E-1,-1.7706248E-1],"split_indices":[1,1,0,0,0,0,0,1,1,1,1,1,1,1,1,0,0,0,0,0,0,0,0,0,0,0,0,0,0,0,0],"split_type":[0,0,0,0,0,0,0,0,0,0,0,0,0,0,0,0,0,0,0,0,0,0,0,0,0,0,0,0,0,0,0],"sum_hessian":[9.343E3,7.42E3,1.923E3,1.702E3,5.718E3,1.126E3,7.97E2,9.75E2,7.27E2,3.911E3,1.807E3,6.09E2,5.17E2,5.32E2,2.65E2,5.41E2,4.34E2,6.4E2,8.7E1,1.47E2,3.764E3,1.59E2,1.648E3,2.65E2,3.44E2,3.49E2,1.68E2,3.6E2,1.72E2,7.3E1,1.92E2],"tree_param":{"num_deleted":"0","num_feature":"2","num_nodes":"31","size_leaf_vector":"1"}},{"base_weights":[-1.9401144E-3,-7.5288635E-1,1.3925636E-1,-9.3169117E-1,-4.6773303E-1,5.5335283E-1,-3.4784666E-1,-1.0000678E0,-6.6803586E-1,-1.381701E-1,-1.5439299E0,4.9883705E-3,8.159938E-1,-9.4040304E-2,-8.164151E-1,-1.1887004E-1,-8.938394E-2,3.716412E-2,-7.857289E-2,-1.5220904E-1,1.3297239E-2,-2.3761824E-1,-4.457077E-2,1.03070155E-1,-8.452447E-2,-1.3766191E-2,9.6972816E-2,-5.0524116E-2,2.102388E-2,-6.763568E-2,-1.5944797E-1],"categories":[],"categories_nodes":[],"categories_segments":[],"categories_sizes":[],"default_left":[0,0,0,0,0,0,0,0,0,0,0,0,0,0,0,0,0,0,0,0,0,0,0,0,0,0,0,0,0,0,0],"id":23,"left_children":[1,3,5,7,9,11,13,15,17,19,21,23,25,27,29,-1,-1,-1,-1,-1,-1,-1,-1,-1,-1,-1,-1,-1,-1,-1,-1],"loss_changes":[9.9085803E2,7.4973755E1,1.5868248E3,1.5701294E1,2.0266055E2,6.123817E2,4.298394E2,1.334491E1,2.3540924E1,1.6493259E2,1.2141672E2,1.2026183E3,4.216361E2,2.9363733E2,1.3731915E2,0E0,0E0,0E0,0E0,0E0,0E0,0E0,0E0,0E0,0E0,0E0,0E0,0E0,0E0,0E0,0E0],"parents":[2147483647,0,0,1,1,2,2,3,3,4,4,5,5,6,6,7,7,8,8,9,9,10,10,11,11,12,12,13,13,14,14],"right_children":[2,4,6,8,10,12,14,16,18,20,22,24,26,28,30,-1,-1,-1,-1,-1,-1,-1,-1,-1,-1,-1,-1,-1,-1,-1,-1],"split_conditions":[5E0,3E0,1.8E1,7E0,6E0,1E1,2.2E1,1E0,1E0,2E0,7E0,4E0,2E0,4E0,7E0,-1.1887004E-1,-8.938394E-2,3.716412E-2,-7.857289E-2,-1.5220904E-1,1.3297239E-2,-2.3761824E-1,-4.457077E-2,1.03070155E-1,-8.452447E-2,-1.3766191E-2,9.6972816E-2,-5.0524116E-2,2.102388E-2,-6.763568E-2,-1.5944797E-1],"split_indices":[1,1,1,0,0,1,1,1,1,0,0,0,0,0,0,0,0,0,0,0,0,0,0,0,0,0,0,0,0,0,0],"split_type":[0,0,0,0,0,0,0,0,0,0,0,0,0,0,0,0,0,0,0,0,0,0,0,0,0,0,0,0,0,0,0],"sum_hessian":[9.343E3,1.478E3,7.865E3,9.07E2,5.71E2,4.251E3,3.614E3,7.18E2,1.89E2,4.38E2,1.33E2,1.377E3,2.874E3,2.345E3,1.269E3,2.55E2,4.63E2,1.9E1,1.7E2,7.1E1,3.67E2,7.5E1,5.8E1,6.24E2,7.53E2,3.99E2,2.475E3,9.97E2,1.348E3,1.077E3,1.92E2],"tree_param":{"num_deleted":"0","num_feature":"2","num_nodes":"31","size_leaf_vector":"1"}},{"base_weights":[-1.8346767E-3,-6.7805123E-1,1.2531078E-1,-8.387971E-1,-4.216958E-1,4.4713807E-1,-3.8355115E-1,-9.5055956E-1,-7.0373815E-1,-1.24669425E-1,-1.3916427E0,6.864074E-1,-8.634891E-2,-2.3130953E-1,-1.0886129E0,-8.286924E-2,-1.0643023E-1,-9.496102E-2,-5.535083E-2,-1.371995E-1,1.1971134E-2,-2.1416906E-1,-4.0189218E-2,-7.525208E-3,8.78858E-2,-2.2523332E-1,2.1794688E-2,-1.2236658E-2,-9.0044804E-2,-1.3181712E-1,-5.7551343E-2],"categories":[],"categories_nodes":[],"categories_segments":[],"categories_sizes":[],"default_left":[0,0,0,0,0,0,0,0,0,0,0,0,0,0,0,0,0,0,0,0,0,0,0,0,0,0,0,0,0,0,0],"id":24,"left_children":[1,3,5,7,9,11,13,15,17,19,21,23,25,27,29,-1,-1,-1,-1,-1,-1,-1,-1,-1,-1,-1,-1,-1,-1,-1,-1],"loss_changes":[8.0346204E2,6.059308E1,1.2883522E3,1.3036865E1,1.6461961E2,6.151904E2,3.2691977E2,5.965637E0,1.4803375E1,1.339813E2,9.861551E1,4.8774377E2,9.84527E2,1.8271785E2,6.2963684E1,0E0,0E0,0E0,0E0,0E0,0E0,0E0,0E0,0E0,0E0,0E0,0E0,0E0,0E0,0E0,0E0],"parents":[2147483647,0,0,1,1,2,2,3,3,4,4,5,5,6,6,7,7,8,8,9,9,10,10,11,11,12,12,13,13,14,14],"right_children":[2,4,6,8,10,12,14,16,18,20,22,24,26,28,30,-1,-1,-1,-1,-1,-1,-1,-1,-1,-1,-1,-1,-1,-1,-1,-1],"split_conditions":[5E0,3E0,1.9E1,5E0,6E0,6E0,2.3E1,3E0,1E0,2E0,7E0,2E0,8E0,7E0,6E0,-8.286924E-2,-1.0643023E-1,-9.496102E-2,-5.535083E-2,-1.371995E-1,1.1971134E-2,-2.1416906E-1,-4.0189218E-2,-7.525208E-3,8.78858E-2,-2.2523332E-1,2.1794688E-2,-1.2236658E-2,-9.0044804E-2,-1.3181712E-1,-5.7551343E-2],"split_indices":[1,1,1,0,0,0,1,0,1,0,0,0,1,0,0,0,0,0,0,0,0,0,0,0,0,0,0,0,0,0,0],"split_type":[0,0,0,0,0,0,0,0,0,0,0,0,0,0,0,0,0,0,0,0,0,0,0,0,0,0,0,0,0,0,0],"sum_hessian":[9.343E3,1.478E3,7.865E3,9.07E2,5.71E2,4.818E3,3.047E3,4.93E2,4.14E2,4.38E2,1.33E2,3.326E3,1.492E3,2.507E3,5.4E2,2.42E2,2.51E2,1.55E2,2.59E2,7.1E1,3.67E2,7.5E1,5.8E1,6.71E2,2.655E3,1.83E2,1.309E3,2.157E3,3.5E2,3.72E2,1.68E2],"tree_param":{"num_deleted":"0","num_feature":"2","num_nodes":"31","size_leaf_vector":"1"}},{"base_weights":[-1.7724201E-3,1.3526069E-1,-5.303176E-1,-5.5167687E-1,3.3979285E-1,-8.676337E-1,-5.3268038E-2,-2.8890887E-1,-9.0320146E-1,5.1884663E-1,-4.7816787E-2,-1.0670269E0,-6.3115215E-1,5.4248726E-1,-1.2468181E0,-8.558868E-2,2.9157972E-2,-5.872297E-2,-1.4401673E-1,2.399323E-1,4.447884E-2,-1.7334227E-1,1.1576403E-2,-8.953589E-2,-1.1962926E-1,-4.183091E-2,-1.0682168E-1,1.0592431E-1,-5.3896558E-2,-9.398265E-2,-1.3580646E-1],"categories":[],"categories_nodes":[],"categories_segments":[],"categories_sizes":[],"default_left":[0,0,0,0,0,0,0,0,0,0,0,0,0,0,0,0,0,0,0,0,0,0,0,0,0,0,0,0,0,0,0],"id":25,"left_children":[1,3,5,7,9,11,13,15,17,19,21,23,25,27,29,-1,-1,-1,-1,-1,-1,-1,-1,-1,-1,-1,-1,-1,-1,-1,-1],"loss_changes":[6.7684076E2,1.0428442E3,3.0955707E2,1.5704419E2,3.9694037E2,5.2467773E1,5.6810535E2,3.214748E2,1.226712E2,5.437367E2,4.9872556E2,1.2465271E1,4.7740723E1,2.984364E2,7.808014E0,0E0,0E0,0E0,0E0,0E0,0E0,0E0,0E0,0E0,0E0,0E0,0E0,0E0,0E0,0E0,0E0],"parents":[2147483647,0,0,1,1,2,2,3,3,4,4,5,5,6,6,7,7,8,8,9,9,10,10,11,11,12,12,13,13,14,14],"right_children":[2,4,6,8,10,12,14,16,18,20,22,24,26,28,30,-1,-1,-1,-1,-1,-1,-1,-1,-1,-1,-1,-1,-1,-1,-1,-1],"split_conditions":[2.1E1,6E0,5E0,5E0,6E0,3E0,7E0,3E0,4E0,7E0,8E0,2.2E1,2.3E1,2.3E1,2.2E1,-8.558868E-2,2.9157972E-2,-5.872297E-2,-1.4401673E-1,2.399323E-1,4.447884E-2,-1.7334227E-1,1.1576403E-2,-8.953589E-2,-1.1962926E-1,-4.183091E-2,-1.0682168E-1,1.0592431E-1,-5.3896558E-2,-9.398265E-2,-1.3580646E-1],"split_indices":[1,1,0,0,0,0,0,1,1,1,1,1,1,1,1,0,0,0,0,0,0,0,0,0,0,0,0,0,0,0,0],"split_type":[0,0,0,0,0,0,0,0,0,0,0,0,0,0,0,0,0,0,0,0,0,0,0,0,0,0,0,0,0,0,0],"sum_hessian":[9.343E3,7.42E3,1.923E3,1.702E3,5.718E3,1.126E3,7.97E2,9.75E2,7.27E2,3.911E3,1.807E3,6.09E2,5.17E2,5.32E2,2.65E2,4.93E2,4.82E2,4.59E2,2.68E2,1.47E2,3.764E3,1.59E2,1.648E3,2.65E2,3.44E2,3.49E2,1.68E2,3.6E2,1.72E2,7.3E1,1.92E2],"tree_param":{"num_deleted":"0","num_feature":"2","num_nodes":"31","size_leaf_vector":"1"}},{"base_weights":[-1.6671711E-3,1.2171615E-1,-4.7756422E-1,-3.094183E-1,3.9136097E-1,-8.8393146E-1,-1.5648307E-1,-8.612579E-2,-1.0035894E0,7.5758046E-1,-2.0881968E-2,-1.0658934E0,-7.644368E-1,1.6071792E-1,-1.123E0,-7.413773E-2,1.9729499E-2,-4.640042E-2,-1.4122264E-1,4.43577E-2,1.17461435E-1,-9.611872E-2,1.4597443E-2,-9.664818E-2,-1.133513E-1,-8.303195E-2,-6.8521194E-2,-3.5799354E-2,9.743894E-2,-8.471139E-2,-1.2229617E-1],"categories":[],"categories_nodes":[],"categories_segments":[],"categories_sizes":[],"default_left":[0,0,0,0,0,0,0,0,0,0,0,0,0,0,0,0,0,0,0,0,0,0,0,0,0,0,0,0,0,0,0],"id":26,"left_children":[1,3,5,7,9,11,13,15,17,19,21,23,25,27,29,-1,-1,-1,-1,-1,-1,-1,-1,-1,-1,-1,-1,-1,-1,-1,-1],"loss_changes":[5.487168E2,8.628358E2,2.508992E2,4.426027E2,6.8935126E2,1.7645386E1,3.3006073E2,4.0165536E2,1.5258832E2,3.161162E2,3.373097E2,1.1496887E0,2.1243286E0,3.4264005E2,6.2997437E0,0E0,0E0,0E0,0E0,0E0,0E0,0E0,0E0,0E0,0E0,0E0,0E0,0E0,0E0,0E0,0E0],"parents":[2147483647,0,0,1,1,2,2,3,3,4,4,5,5,6,6,7,7,8,8,9,9,10,10,11,11,12,12,13,13,14,14],"right_children":[2,4,6,8,10,12,14,16,18,20,22,24,26,28,30,-1,-1,-1,-1,-1,-1,-1,-1,-1,-1,-1,-1,-1,-1,-1,-1],"split_conditions":[2.1E1,1E1,4E0,6E0,1.7E1,2E0,7E0,3E0,4E0,1.4E1,2E0,2.2E1,3E0,6E0,2.2E1,-7.413773E-2,1.9729499E-2,-4.640042E-2,-1.4122264E-1,4.43577E-2,1.17461435E-1,-9.611872E-2,1.4597443E-2,-9.664818E-2,-1.133513E-1,-8.303195E-2,-6.8521194E-2,-3.5799354E-2,9.743894E-2,-8.471139E-2,-1.2229617E-1],"split_indices":[1,1,0,0,1,0,0,1,1,1,0,1,0,0,1,0,0,0,0,0,0,0,0,0,0,0,0,0,0,0,0],"split_type":[0,0,0,0,0,0,0,0,0,0,0,0,0,0,0,0,0,0,0,0,0,0,0,0,0,0,0,0,0,0,0],"sum_hessian":[9.343E3,7.42E3,1.923E3,2.855E3,4.565E3,8.48E2,1.075E3,2.161E3,6.94E2,2.417E3,2.148E3,3.33E2,5.15E2,8.1E2,2.65E2,6.52E2,1.509E3,3E2,3.94E2,1.38E3,1.037E3,3.23E2,1.825E3,1.41E2,1.92E2,2.76E2,2.39E2,4.95E2,3.15E2,7.3E1,1.92E2],"tree_param":{"num_deleted":"0","num_feature":"2","num_nodes":"31","size_leaf_vector":"1"}},{"base_weights":[-1.572051E-3,8.6227804E-2,-5.598258E-1,-5.0850075E-1,2.195486E-1,-9.7734526E-2,-4.0366593E-1,-6.157799E-1,-3.3731553E-1,4.2300656E-1,-5.599277E-2,-7.571621E-2,-8.144163E-1,-6.619399E-2,-4.3785963E-2,-1.245778E-2,-1.03175245E-1,1.21476E-2,9.6402906E-2,-8.687984E-2,1.0561929E-2,2.123741E-2,-9.979265E-2,-1.0737945E-1,-4.3664522E-2],"categories":[],"categories_nodes":[],"categories_segments":[],"categories_sizes":[],"default_left":[0,0,0,0,0,0,0,0,0,0,0,0,0,0,0,0,0,0,0,0,0,0,0,0,0],"id":27,"left_children":[1,3,5,7,9,-1,11,13,15,17,19,21,23,-1,-1,-1,-1,-1,-1,-1,-1,-1,-1,-1,-1],"loss_changes":[4.5804065E2,6.4037585E2,8.240918E1,2.6953522E1,3.6985867E2,0E0,1.2467558E2,7.1674194E0,8.43747E1,6.1897955E2,3.682916E2,1.3730273E2,3.9803192E1,0E0,0E0,0E0,0E0,0E0,0E0,0E0,0E0,0E0,0E0,0E0,0E0],"parents":[2147483647,0,0,1,1,2,2,3,3,4,4,6,6,7,7,8,8,9,9,10,10,11,11,12,12],"right_children":[2,4,6,8,10,-1,12,14,16,18,20,22,24,-1,-1,-1,-1,-1,-1,-1,-1,-1,-1,-1,-1],"split_conditions":[2.2E1,5E0,3E0,3E0,1.7E1,-9.7734526E-2,2.3E1,7E0,6E0,1.3E1,2E0,7E0,6E0,-6.619399E-2,-4.3785963E-2,-1.245778E-2,-1.03175245E-1,1.21476E-2,9.6402906E-2,-8.687984E-2,1.0561929E-2,2.123741E-2,-9.979265E-2,-1.0737945E-1,-4.3664522E-2],"split_indices":[1,1,0,1,1,0,1,0,0,1,0,0,0,0,0,0,0,0,0,0,0,0,0,0,0],"split_type":[0,0,0,0,0,0,0,0,0,0,0,0,0,0,0,0,0,0,0,0,0,0,0,0,0],"sum_hessian":[9.343E3,8.074E3,1.269E3,1.478E3,6.596E3,3.44E2,9.25E2,9.07E2,5.71E2,3.794E3,2.802E3,5.15E2,4.1E2,7.18E2,1.89E2,4.38E2,1.33E2,2.437E3,1.357E3,4.64E2,2.338E3,3.93E2,1.22E2,2.42E2,1.68E2],"tree_param":{"num_deleted":"0","num_feature":"2","num_nodes":"25","size_leaf_vector":"1"}},{"base_weights":[-1.4706257E-3,7.758101E-2,-5.041009E-1,-4.1577587E-1,2.094042E-1,-8.79894E-1,-3.6354727E-1,-1.060976E-1,-6.419472E-1,4.1329086E-1,-5.042052E-2,-9.2352086E-1,-8.191106E-2,-1.8981643E-1,-1.0223808E0,-5.13782E-2,4.0806958E-1,-4.1255906E-2,-1.8033329E-1,1.3438545E-2,8.6769685E-2,-7.8210555E-2,9.506214E-3,-1.03313446E-1,-8.2576476E-2,1.9119065E-2,-6.2948495E-2,-8.989454E-2,-1.22182004E-1],"categories":[],"categories_nodes":[],"categories_segments":[],"categories_sizes":[],"default_left":[0,0,0,0,0,0,0,0,0,0,0,0,0,0,0,0,0,0,0,0,0,0,0,0,0,0,0,0,0],"id":28,"left_children":[1,3,5,7,9,11,13,15,17,19,21,23,-1,25,27,-1,-1,-1,-1,-1,-1,-1,-1,-1,-1,-1,-1,-1,-1],"loss_changes":[3.7131128E2,5.252518E2,6.6760376E1,1.192106E2,3.3762918E2,1.5838623E-1,1.0579564E2,1.2310577E3,2.6140152E2,4.5245868E2,2.9844666E2,1.2149506E0,0E0,1.2307769E2,3.652893E0,0E0,0E0,0E0,0E0,0E0,0E0,0E0,0E0,0E0,0E0,0E0,0E0,0E0,0E0],"parents":[2147483647,0,0,1,1,2,2,3,3,4,4,5,5,6,6,7,7,8,8,9,9,10,10,11,11,13,13,14,14],"right_children":[2,4,6,8,10,12,14,16,18,20,22,24,-1,26,28,-1,-1,-1,-1,-1,-1,-1,-1,-1,-1,-1,-1,-1,-1],"split_conditions":[2.2E1,6E0,3E0,4E0,1.7E1,2E0,7E0,5E0,5E0,1.3E1,2E0,2.3E1,-8.191106E-2,2.3E1,2.3E1,-5.13782E-2,4.0806958E-1,-4.1255906E-2,-1.8033329E-1,1.3438545E-2,8.6769685E-2,-7.8210555E-2,9.506214E-3,-1.03313446E-1,-8.2576476E-2,1.9119065E-2,-6.2948495E-2,-8.989454E-2,-1.22182004E-1],"split_indices":[1,1,0,0,1,0,0,1,1,1,0,1,0,1,1,0,0,0,0,0,0,0,0,0,0,0,0,0,0],"split_type":[0,0,0,0,0,0,0,0,0,0,0,0,0,0,0,0,0,0,0,0,0,0,0,0,0,0,0,0,0],"sum_hessian":[9.343E3,8.074E3,1.269E3,1.702E3,6.372E3,3.44E2,9.25E2,7.19E2,9.83E2,3.57E3,2.802E3,1.92E2,1.52E2,7.33E2,1.92E2,6.56E2,6.3E1,8.22E2,1.61E2,2.213E3,1.357E3,4.64E2,2.338E3,8.6E1,1.06E2,3.93E2,3.4E2,1.22E2,7E1],"tree_param":{"num_deleted":"0","num_feature":"2","num_nodes":"29","size_leaf_vector":"1"}},{"base_weights":[-1.3617962E-3,7.727654E-2,-4.4838434E-1,-4.4031817E-1,1.7221393E-1,-2.775121E-1,-9.897566E-1,-3.576966E-1,-1.0720072E0,4.9859405E-1,-1.2908058E-1,-7.4040973E-1,2.7037615E-1,-1.3685906E-1,-8.863425E-1,-5.5416174E-2,-6.4645517E-3,-3.6052357E-2,-2.3739265E-1,2.9471576E-2,1.07408576E-1,-7.4275605E-2,1.3081522E-3,-2.7017085E-2,-1.09155774E-1,1.0715567E-1,1.8255971E-2,-8.039317E-2,-1.10135905E-1],"categories":[],"categories_nodes":[],"categories_segments":[],"categories_sizes":[],"default_left":[0,0,0,0,0,0,0,0,0,0,0,0,0,0,0,0,0,0,0,0,0,0,0,0,0,0,0,0,0],"id":29,"left_children":[1,3,5,7,9,11,13,15,17,19,21,23,25,-1,27,-1,-1,-1,-1,-1,-1,-1,-1,-1,-1,-1,-1,-1,-1],"loss_changes":[3.285053E2,3.9058414E2,1.29048E2,6.3916016E1,6.6049255E2,2.700478E2,1.1911224E1,6.277774E1,1.3067792E2,3.7795612E2,3.0474393E2,9.498129E1,3.41385E1,0E0,3.828003E0,0E0,0E0,0E0,0E0,0E0,0E0,0E0,0E0,0E0,0E0,0E0,0E0,0E0,0E0],"parents":[2147483647,0,0,1,1,2,2,3,3,4,4,5,5,6,6,7,7,8,8,9,9,10,10,11,11,12,12,14,14],"right_children":[2,4,6,8,10,12,14,16,18,20,22,24,26,-1,28,-1,-1,-1,-1,-1,-1,-1,-1,-1,-1,-1,-1,-1,-1],"split_conditions":[7E0,5E0,2E1,6E0,1.7E1,1.3E1,2.1E1,3E0,4E0,1.4E1,2E0,5E0,1.4E1,-1.3685906E-1,2.3E1,-5.5416174E-2,-6.4645517E-3,-3.6052357E-2,-2.3739265E-1,2.9471576E-2,1.07408576E-1,-7.4275605E-2,1.3081522E-3,-2.7017085E-2,-1.09155774E-1,1.0715567E-1,1.8255971E-2,-8.039317E-2,-1.10135905E-1],"split_indices":[0,1,1,0,1,1,1,1,1,1,0,1,1,0,1,0,0,0,0,0,0,0,0,0,0,0,0,0,0],"split_type":[0,0,0,0,0,0,0,0,0,0,0,0,0,0,0,0,0,0,0,0,0,0,0,0,0,0,0,0,0],"sum_hessian":[9.343E3,7.946E3,1.397E3,1.231E3,6.715E3,1.063E3,3.34E2,1.09E3,1.41E2,3.223E3,3.492E3,5.76E2,4.87E2,6.9E1,2.65E2,6.52E2,4.38E2,9.2E1,4.9E1,2.381E3,8.42E2,6.56E2,2.836E3,2.47E2,3.29E2,4.7E1,4.4E2,1.95E2,7E1],"tree_param":{"num_deleted":"0","num_feature":"2","num_nodes":"29","size_leaf_vector":"1"}},{"base_weights":[-1.2910604E-3,6.613335E-2,-4.2999247E-1,-2.2271831E-1,2.2415906E-1,-6.329938E-1,-1.714854E-1,-3.9655145E-2,-7.9186916E-1,5.188686E-1,-3.015129E-2,-7.5192124E-1,-5.194709E-1,1.7459315E-1,-8.3047724E-1,-4.988305E-2,1.5894165E-2,-2.8951725E-2,-1.1726693E-1,6.463273E-2,-1.5377961E-2,-6.299469E-2,8.910271E-3,-7.9835616E-2,-6.699714E-2,-3.2659527E-2,-7.4351095E-2,6.7496724E-2,-3.9331388E-2,-7.300418E-2,-9.927742E-2],"categories":[],"categories_nodes":[],"categories_segments":[],"categories_sizes":[],"default_left":[0,0,0,0,0,0,0,0,0,0,0,0,0,0,0,0,0,0,0,0,0,0,0,0,0,0,0,0,0,0,0],"id":30,"left_children":[1,3,5,7,9,11,13,15,17,19,21,23,25,27,29,-1,-1,-1,-1,-1,-1,-1,-1,-1,-1,-1,-1,-1,-1,-1,-1],"loss_changes":[2.701162E2,3.686413E2,6.65376E1,2.9753687E2,3.912426E2,9.208618E0,1.2786022E2,1.9723366E2,1.3261096E2,2.0740619E2,2.0054918E2,7.7796936E-1,1.5615921E1,1.0483854E2,2.4212189E0,0E0,0E0,0E0,0E0,0E0,0E0,0E0,0E0,0E0,0E0,0E0,0E0,0E0,0E0,0E0,0E0],"parents":[2147483647,0,0,1,1,2,2,3,3,4,4,5,5,6,6,7,7,8,8,9,9,10,10,11,11,12,12,13,13,14,14],"right_children":[2,4,6,8,10,12,14,16,18,20,22,24,26,28,30,-1,-1,-1,-1,-1,-1,-1,-1,-1,-1,-1,-1,-1,-1,-1,-1],"split_conditions":[2.2E1,1E1,5E0,6E0,1.7E1,3E0,7E0,3E0,4E0,7E0,2E0,2.3E1,2.3E1,2.3E1,2.3E1,-4.988305E-2,1.5894165E-2,-2.8951725E-2,-1.1726693E-1,6.463273E-2,-1.5377961E-2,-6.299469E-2,8.910271E-3,-7.9835616E-2,-6.699714E-2,-3.2659527E-2,-7.4351095E-2,6.7496724E-2,-3.9331388E-2,-7.300418E-2,-9.927742E-2],"split_indices":[1,1,0,0,1,0,0,1,1,0,0,1,1,1,1,0,0,0,0,0,0,0,0,0,0,0,0,0,0,0,0],"split_type":[0,0,0,0,0,0,0,0,0,0,0,0,0,0,0,0,0,0,0,0,0,0,0,0,0,0,0,0,0,0,0],"sum_hessian":[9.343E3,8.074E3,1.269E3,2.855E3,5.219E3,7.1E2,5.59E2,2.161E3,6.94E2,2.417E3,2.802E3,3.44E2,3.66E2,3.67E2,1.92E2,6.52E2,1.509E3,3E2,3.94E2,2.032E3,3.85E2,4.64E2,2.338E3,2.14E2,1.3E2,1.98E2,1.68E2,1.95E2,1.72E2,1.22E2,7E1],"tree_param":{"num_deleted":"0","num_feature":"2","num_nodes":"31","size_leaf_vector":"1"}},{"base_weights":[-1.2243084E-3,6.3208796E-2,-3.674966E-1,-3.689839E-1,1.4248191E-1,-2.1580072E-1,-8.4820384E-1,-2.985534E-1,-9.0750957E-1,4.0712538E-1,-1.0182187E-1,-6.066291E-1,2.4674797E-1,-1.2424697E-1,-7.4126095E-1,-4.4902373E-2,-7.405305E-3,-2.9621864E-2,-2.0263605E-1,2.3172816E-2,9.0224884E-2,-6.0284447E-2,1.4242168E-3,-2.0053947E-2,-9.099733E-2,9.8169096E-2,1.6619464E-2,-6.818259E-2,-8.94895E-2],"categories":[],"categories_nodes":[],"categories_segments":[],"categories_sizes":[],"default_left":[0,0,0,0,0,0,0,0,0,0,0,0,0,0,0,0,0,0,0,0,0,0,0,0,0,0,0,0,0],"id":31,"left_children":[1,3,5,7,9,11,13,15,17,19,21,23,25,-1,27,-1,-1,-1,-1,-1,-1,-1,-1,-1,-1,-1,-1,-1,-1],"loss_changes":[2.205422E2,2.7232675E2,1.01760956E2,4.6457123E1,4.342537E2,1.9249657E2,1.3203903E1,3.6821434E1,9.651972E1,2.7977368E2,2.0312898E2,7.089523E1,2.872747E1,0E0,1.8187561E0,0E0,0E0,0E0,0E0,0E0,0E0,0E0,0E0,0E0,0E0,0E0,0E0,0E0,0E0],"parents":[2147483647,0,0,1,1,2,2,3,3,4,4,5,5,6,6,7,7,8,8,9,9,10,10,11,11,12,12,14,14],"right_children":[2,4,6,8,10,12,14,16,18,20,22,24,26,-1,28,-1,-1,-1,-1,-1,-1,-1,-1,-1,-1,-1,-1,-1,-1],"split_conditions":[7E0,5E0,2E1,6E0,1.7E1,1.3E1,2.1E1,3E0,4E0,1.4E1,2E0,5E0,1.4E1,-1.2424697E-1,2.3E1,-4.4902373E-2,-7.405305E-3,-2.9621864E-2,-2.0263605E-1,2.3172816E-2,9.0224884E-2,-6.0284447E-2,1.4242168E-3,-2.0053947E-2,-9.099733E-2,9.8169096E-2,1.6619464E-2,-6.818259E-2,-8.94895E-2],"split_indices":[0,1,1,0,1,1,1,1,1,1,0,1,1,0,1,0,0,0,0,0,0,0,0,0,0,0,0,0,0],"split_type":[0,0,0,0,0,0,0,0,0,0,0,0,0,0,0,0,0,0,0,0,0,0,0,0,0,0,0,0,0],"sum_hessian":[9.343E3,7.946E3,1.397E3,1.231E3,6.715E3,1.063E3,3.34E2,1.09E3,1.41E2,3.223E3,3.492E3,5.76E2,4.87E2,6.9E1,2.65E2,6.52E2,4.38E2,9.2E1,4.9E1,2.381E3,8.42E2,6.56E2,2.836E3,2.47E2,3.29E2,4.7E1,4.4E2,1.95E2,7E1],"tree_param":{"num_deleted":"0","num_feature":"2","num_nodes":"29","size_leaf_vector":"1"}},{"base_weights":[-1.156152E-3,5.649281E-2,-3.6770278E-1,-1.8669476E-1,1.8953633E-1,-5.5480987E-1,-1.2948698E-1,-3.2142624E-2,-6.672056E-1,-3.426906E-1,2.826903E-1,-6.4423275E-1,-4.6923575E-1,1.5579057E-1,-6.7276496E-1,-3.8711216E-2,1.3808021E-2,-2.377501E-2,-9.927724E-2,1.3129E-1,-4.557727E-2,4.5775387E-2,-6.143576E-3,-6.9562614E-2,-5.54967E-2,-2.9551703E-2,-6.710156E-2,6.0639877E-2,-3.5562556E-2,-5.900029E-2,-8.0666594E-2],"categories":[],"categories_nodes":[],"categories_segments":[],"categories_sizes":[],"default_left":[0,0,0,0,0,0,0,0,0,0,0,0,0,0,0,0,0,0,0,0,0,0,0,0,0,0,0,0,0,0,0],"id":32,"left_children":[1,3,5,7,9,11,13,15,17,19,21,23,25,27,29,-1,-1,-1,-1,-1,-1,-1,-1,-1,-1,-1,-1,-1,-1,-1,-1],"loss_changes":[1.9746913E2,2.6129825E2,5.6534424E1,2.1207648E2,2.5889948E2,5.1384583E0,8.6896416E1,1.3068997E2,9.693643E1,1.4625372E2,2.6769196E2,1.196701E0,1.266613E1,8.502062E1,1.6628723E0,0E0,0E0,0E0,0E0,0E0,0E0,0E0,0E0,0E0,0E0,0E0,0E0,0E0,0E0,0E0,0E0],"parents":[2147483647,0,0,1,1,2,2,3,3,4,4,5,5,6,6,7,7,8,8,9,9,10,10,11,11,12,12,13,13,14,14],"right_children":[2,4,6,8,10,12,14,16,18,20,22,24,26,28,30,-1,-1,-1,-1,-1,-1,-1,-1,-1,-1,-1,-1,-1,-1,-1,-1],"split_conditions":[2.2E1,1E1,5E0,6E0,2E0,3E0,7E0,4E0,4E0,1.1E1,1.9E1,2.3E1,2.3E1,2.3E1,2.3E1,-3.8711216E-2,1.3808021E-2,-2.377501E-2,-9.927724E-2,1.3129E-1,-4.557727E-2,4.5775387E-2,-6.143576E-3,-6.9562614E-2,-5.54967E-2,-2.9551703E-2,-6.710156E-2,6.0639877E-2,-3.5562556E-2,-5.900029E-2,-8.0666594E-2],"split_indices":[1,1,0,0,0,0,0,1,1,1,1,1,1,1,1,0,0,0,0,0,0,0,0,0,0,0,0,0,0,0,0],"split_type":[0,0,0,0,0,0,0,0,0,0,0,0,0,0,0,0,0,0,0,0,0,0,0,0,0,0,0,0,0,0,0],"sum_hessian":[9.343E3,8.074E3,1.269E3,2.855E3,5.219E3,7.1E2,5.59E2,2.161E3,6.94E2,7.77E2,4.442E3,3.44E2,3.66E2,3.67E2,1.92E2,7E2,1.461E3,3E2,3.94E2,4.9E1,7.28E2,2.944E3,1.498E3,2.14E2,1.3E2,1.98E2,1.68E2,1.95E2,1.72E2,1.22E2,7E1],"tree_param":{"num_deleted":"0","num_feature":"2","num_nodes":"31","size_leaf_vector":"1"}},{"base_weights":[-1.0785976E-3,5.4858096E-2,-3.1905273E-1,-3.0896863E-1,1.2159122E-1,-1.9148251E-1,-7.232785E-1,-2.4884443E-1,-7.6873296E-1,3.4288707E-1,-8.269718E-2,-5.102196E-1,1.8577723E-1,-1.1139423E-1,-6.1775315E-1,-5.7365503E-2,-1.7529137E-2,-2.433957E-2,-1.7304856E-1,1.8790906E-2,7.8038976E-2,-4.924039E-2,1.2212937E-3,-1.4501396E-2,-7.8313105E-2,8.40746E-2,1.1406685E-2,-5.7497818E-2,-7.2713554E-2],"categories":[],"categories_nodes":[],"categories_segments":[],"categories_sizes":[],"default_left":[0,0,0,0,0,0,0,0,0,0,0,0,0,0,0,0,0,0,0,0,0,0,0,0,0,0,0,0,0],"id":33,"left_children":[1,3,5,7,9,11,13,15,17,19,21,23,25,-1,27,-1,-1,-1,-1,-1,-1,-1,-1,-1,-1,-1,-1,-1,-1],"loss_changes":[1.6621382E2,1.929851E2,7.195239E1,3.3864838E1,3.0364642E2,1.2803723E2,1.3122223E1,2.5964317E1,7.132353E1,2.184512E2,1.3583241E2,5.7395325E1,2.2824514E1,0E0,8.2647705E-1,0E0,0E0,0E0,0E0,0E0,0E0,0E0,0E0,0E0,0E0,0E0,0E0,0E0,0E0],"parents":[2147483647,0,0,1,1,2,2,3,3,4,4,5,5,6,6,7,7,8,8,9,9,10,10,11,11,12,12,14,14],"right_children":[2,4,6,8,10,12,14,16,18,20,22,24,26,-1,28,-1,-1,-1,-1,-1,-1,-1,-1,-1,-1,-1,-1,-1,-1],"split_conditions":[7E0,5E0,2E1,6E0,1.7E1,1.3E1,2.1E1,2E0,4E0,1.4E1,2E0,5E0,1.4E1,-1.1139423E-1,2.3E1,-5.7365503E-2,-1.7529137E-2,-2.433957E-2,-1.7304856E-1,1.8790906E-2,7.8038976E-2,-4.924039E-2,1.2212937E-3,-1.4501396E-2,-7.8313105E-2,8.40746E-2,1.1406685E-2,-5.7497818E-2,-7.2713554E-2],"split_indices":[0,1,1,0,1,1,1,0,1,1,0,1,1,0,1,0,0,0,0,0,0,0,0,0,0,0,0,0,0],"split_type":[0,0,0,0,0,0,0,0,0,0,0,0,0,0,0,0,0,0,0,0,0,0,0,0,0,0,0,0,0],"sum_hessian":[9.343E3,7.946E3,1.397E3,1.231E3,6.715E3,1.063E3,3.34E2,1.09E3,1.41E2,3.223E3,3.492E3,5.76E2,4.87E2,6.9E1,2.65E2,2E2,8.9E2,9.2E1,4.9E1,2.381E3,8.42E2,6.56E2,2.836E3,2.47E2,3.29E2,4.7E1,4.4E2,1.95E2,7E1],"tree_param":{"num_deleted":"0","num_feature":"2","num_nodes":"29","size_leaf_vector":"1"}},{"base_weights":[-1.0202992E-3,4.8372637E-2,-3.15073E-1,-1.5632589E-1,1.6035935E-1,-4.8723352E-1,-9.592801E-2,1.2529968E-1,-3.8513684E-1,-2.963281E-1,2.4029239E-1,-5.533067E-1,-4.2379352E-1,1.3906124E-1,-5.434934E-1,3.417882E-2,-1.1754991E-1,-5.4000925E-2,4.5035094E-2,1.1658201E-1,-3.962061E-2,3.8748972E-2,-4.905814E-3,-6.07418E-2,-4.6027437E-2,-2.6732905E-2,-6.0552515E-2,5.448524E-2,-3.2148283E-2,-4.7445152E-2,-6.554463E-2],"categories":[],"categories_nodes":[],"categories_segments":[],"categories_sizes":[],"default_left":[0,0,0,0,0,0,0,0,0,0,0,0,0,0,0,0,0,0,0,0,0,0,0,0,0,0,0,0,0,0,0],"id":34,"left_children":[1,3,5,7,9,11,13,15,17,19,21,23,25,27,29,-1,-1,-1,-1,-1,-1,-1,-1,-1,-1,-1,-1,-1,-1,-1,-1],"loss_changes":[1.4495924E2,1.8513245E2,4.7867966E1,1.8408607E2,1.9062422E2,2.7457886E0,5.897249E1,3.6114163E2,2.0416818E2,1.1407827E2,1.892536E2,1.4571915E0,1.0273605E1,6.894873E1,1.1808014E0,0E0,0E0,0E0,0E0,0E0,0E0,0E0,0E0,0E0,0E0,0E0,0E0,0E0,0E0,0E0,0E0],"parents":[2147483647,0,0,1,1,2,2,3,3,4,4,5,5,6,6,7,7,8,8,9,9,10,10,11,11,12,12,13,13,14,14],"right_children":[2,4,6,8,10,12,14,16,18,20,22,24,26,28,30,-1,-1,-1,-1,-1,-1,-1,-1,-1,-1,-1,-1,-1,-1,-1,-1],"split_conditions":[2.2E1,1E1,5E0,4E0,2E0,3E0,7E0,9E0,9E0,1.1E1,1.9E1,2.3E1,2.3E1,2.3E1,2.3E1,3.417882E-2,-1.1754991E-1,-5.4000925E-2,4.5035094E-2,1.1658201E-1,-3.962061E-2,3.8748972E-2,-4.905814E-3,-6.07418E-2,-4.6027437E-2,-2.6732905E-2,-6.0552515E-2,5.448524E-2,-3.2148283E-2,-4.7445152E-2,-6.554463E-2],"split_indices":[1,1,0,0,0,0,0,1,1,1,1,1,1,1,1,0,0,0,0,0,0,0,0,0,0,0,0,0,0,0,0],"split_type":[0,0,0,0,0,0,0,0,0,0,0,0,0,0,0,0,0,0,0,0,0,0,0,0,0,0,0,0,0,0,0],"sum_hessian":[9.343E3,8.074E3,1.269E3,2.855E3,5.219E3,7.1E2,5.59E2,1.28E3,1.575E3,7.77E2,4.442E3,3.44E2,3.66E2,3.67E2,1.92E2,1.098E3,1.82E2,1.329E3,2.46E2,4.9E1,7.28E2,2.944E3,1.498E3,2.14E2,1.3E2,1.98E2,1.68E2,1.95E2,1.72E2,1.22E2,7E1],"tree_param":{"num_deleted":"0","num_feature":"2","num_nodes":"31","size_leaf_vector":"1"}},{"base_weights":[-9.469975E-4,4.8628688E-2,-2.8276175E-1,-2.7128837E-1,1.0730784E-1,-1.7675179E-1,-6.1861795E-1,-2.2309804E-1,-6.3962895E-1,2.9563397E-1,-6.65458E-2,-4.413107E-1,1.3641879E-1,-9.9930406E-2,-5.1611173E-1,-3.602169E-2,-1.5488405E-3,-1.6589751E-2,-1.5079768E-1,1.6099151E-2,6.757321E-2,-3.9987985E-2,1.0672043E-3,-7.6787747E-3,-7.139179E-2,7.204811E-2,7.2538042E-3,-4.864141E-2,-5.9082486E-2],"categories":[],"categories_nodes":[],"categories_segments":[],"categories_sizes":[],"default_left":[0,0,0,0,0,0,0,0,0,0,0,0,0,0,0,0,0,0,0,0,0,0,0,0,0,0,0,0,0],"id":35,"left_children":[1,3,5,7,9,11,13,15,17,19,21,23,25,-1,27,-1,-1,-1,-1,-1,-1,-1,-1,-1,-1,-1,-1,-1,-1],"loss_changes":[1.3056026E2,1.4921385E2,4.9665184E1,2.172586E1,2.1990944E2,8.82148E1,1.2556854E1,3.1052132E1,5.8163475E1,1.64887E2,8.991177E1,5.7282585E1,1.8155182E1,0E0,3.0281067E-1,0E0,0E0,0E0,0E0,0E0,0E0,0E0,0E0,0E0,0E0,0E0,0E0,0E0,0E0],"parents":[2147483647,0,0,1,1,2,2,3,3,4,4,5,5,6,6,7,7,8,8,9,9,10,10,11,11,12,12,14,14],"right_children":[2,4,6,8,10,12,14,16,18,20,22,24,26,-1,28,-1,-1,-1,-1,-1,-1,-1,-1,-1,-1,-1,-1,-1,-1],"split_conditions":[7E0,5E0,2E1,6E0,1.7E1,1.3E1,2.1E1,4E0,4E0,1.4E1,2E0,5E0,1.4E1,-9.9930406E-2,2.3E1,-3.602169E-2,-1.5488405E-3,-1.6589751E-2,-1.5079768E-1,1.6099151E-2,6.757321E-2,-3.9987985E-2,1.0672043E-3,-7.6787747E-3,-7.139179E-2,7.204811E-2,7.2538042E-3,-4.864141E-2,-5.9082486E-2],"split_indices":[0,1,1,0,1,1,1,0,1,1,0,1,1,0,1,0,0,0,0,0,0,0,0,0,0,0,0,0,0],"split_type":[0,0,0,0,0,0,0,0,0,0,0,0,0,0,0,0,0,0,0,0,0,0,0,0,0,0,0,0,0],"sum_hessian":[9.343E3,7.946E3,1.397E3,1.231E3,6.715E3,1.063E3,3.34E2,1.09E3,1.41E2,3.223E3,3.492E3,5.76E2,4.87E2,6.9E1,2.65E2,6.56E2,4.34E2,9.2E1,4.9E1,2.381E3,8.42E2,6.56E2,2.836E3,2.47E2,3.29E2,4.7E1,4.4E2,1.95E2,7E1],"tree_param":{"num_deleted":"0","num_feature":"2","num_nodes":"29","size_leaf_vector":"1"}},{"base_weights":[-8.9192064E-4,4.152021E-2,-2.705589E-1,-2.0500249E-1,1.0738976E-1,-4.2876208E-1,-6.9214255E-2,1.7895173E-2,-3.6789E-1,1.5971436E-1,-1.9710314E-1,-3.8983348E-1,-5.26961E-1,1.24151595E-1,-4.375532E-1,-3.242502E-2,3.5299513E-1,-1.2773258E-2,-1.5856782E-1,9.661105E-2,1.29384445E-2,-1.0342779E-2,-7.1519725E-2,-4.765014E-2,-2.1060117E-2,-4.1112877E-2,-6.572103E-2,4.895833E-2,-2.9058117E-2,-3.791462E-2,-5.3257447E-2],"categories":[],"categories_nodes":[],"categories_segments":[],"categories_sizes":[],"default_left":[0,0,0,0,0,0,0,0,0,0,0,0,0,0,0,0,0,0,0,0,0,0,0,0,0,0,0,0,0,0,0],"id":36,"left_children":[1,3,5,7,9,11,13,15,17,19,21,23,25,27,29,-1,-1,-1,-1,-1,-1,-1,-1,-1,-1,-1,-1,-1,-1,-1,-1],"loss_changes":[1.0687998E2,1.311466E2,4.042408E1,6.1837822E1,1.0156911E2,2.5125427E0,3.993986E1,8.6632086E2,2.8757898E2,1.3290167E2,4.530405E1,7.868431E0,2.7321243E0,5.591506E1,8.692093E-1,0E0,0E0,0E0,0E0,0E0,0E0,0E0,0E0,0E0,0E0,0E0,0E0,0E0,0E0,0E0,0E0],"parents":[2147483647,0,0,1,1,2,2,3,3,4,4,5,5,6,6,7,7,8,8,9,9,10,10,11,11,12,12,13,13,14,14],"right_children":[2,4,6,8,10,12,14,16,18,20,22,24,26,28,30,-1,-1,-1,-1,-1,-1,-1,-1,-1,-1,-1,-1,-1,-1,-1,-1],"split_conditions":[2.2E1,6E0,5E0,4E0,7E0,4E0,7E0,5E0,5E0,7E0,2E1,3E0,2.3E1,2.3E1,2.3E1,-3.242502E-2,3.5299513E-1,-1.2773258E-2,-1.5856782E-1,9.661105E-2,1.29384445E-2,-1.0342779E-2,-7.1519725E-2,-4.765014E-2,-2.1060117E-2,-4.1112877E-2,-6.572103E-2,4.895833E-2,-2.9058117E-2,-3.791462E-2,-5.3257447E-2],"split_indices":[1,1,0,0,0,0,0,1,1,1,1,0,1,1,1,0,0,0,0,0,0,0,0,0,0,0,0,0,0,0,0],"split_type":[0,0,0,0,0,0,0,0,0,0,0,0,0,0,0,0,0,0,0,0,0,0,0,0,0,0,0,0,0,0,0],"sum_hessian":[9.343E3,8.074E3,1.269E3,1.702E3,6.372E3,7.1E2,5.59E2,7.19E2,9.83E2,5.438E3,9.34E2,5.12E2,1.98E2,3.67E2,1.92E2,6.56E2,6.3E1,8.22E2,1.61E2,1.96E2,5.242E3,7.92E2,1.42E2,3.44E2,1.68E2,1.07E2,9.1E1,1.95E2,1.72E2,1.22E2,7E1],"tree_param":{"num_deleted":"0","num_feature":"2","num_nodes":"31","size_leaf_vector":"1"}},{"base_weights":[-8.098726E-4,3.960601E-2,-2.3055537E-1,-2.1253575E-1,9.0914145E-2,-1.448354E-1,-5.02124E-1,1.14734136E-1,-3.6296996E-1,-3.2237807E-1,1.3524207E-1,-3.7978598E-1,1.3326155E-1,-8.3030276E-2,-4.138735E-1,-4.824778E-2,6.50113E-2,-6.483813E-2,-9.127303E-3,-4.181193E-2,-1.7330777E-2,2.5273083E-2,-7.244223E-3,-5.6418176E-3,-6.216509E-2,6.6006206E-2,7.562054E-3,-3.877836E-2,-4.800671E-2],"categories":[],"categories_nodes":[],"categories_segments":[],"categories_sizes":[],"default_left":[0,0,0,0,0,0,0,0,0,0,0,0,0,0,0,0,0,0,0,0,0,0,0,0,0,0,0,0,0],"id":37,"left_children":[1,3,5,7,9,11,13,15,17,19,21,23,25,-1,27,-1,-1,-1,-1,-1,-1,-1,-1,-1,-1,-1,-1,-1,-1],"loss_changes":[8.677161E1,1.02829056E2,3.2471107E1,6.6210236E1,1.2103145E2,6.957134E1,9.358604E0,1.3588115E2,7.136012E1,9.061737E0,1.4556769E2,4.5092857E1,1.4768356E1,0E0,2.7321625E-1,0E0,0E0,0E0,0E0,0E0,0E0,0E0,0E0,0E0,0E0,0E0,0E0,0E0,0E0],"parents":[2147483647,0,0,1,1,2,2,3,3,4,4,5,5,6,6,7,7,8,8,9,9,10,10,11,11,12,12,14,14],"right_children":[2,4,6,8,10,12,14,16,18,20,22,24,26,-1,28,-1,-1,-1,-1,-1,-1,-1,-1,-1,-1,-1,-1,-1,-1],"split_conditions":[7E0,2E0,2E1,1.1E1,4E0,1.3E1,2.1E1,5E0,1.9E1,5E0,1.9E1,5E0,1.4E1,-8.3030276E-2,2.3E1,-4.824778E-2,6.50113E-2,-6.483813E-2,-9.127303E-3,-4.181193E-2,-1.7330777E-2,2.5273083E-2,-7.244223E-3,-5.6418176E-3,-6.216509E-2,6.6006206E-2,7.562054E-3,-3.877836E-2,-4.800671E-2],"split_indices":[0,0,1,1,1,1,1,1,1,0,1,1,1,0,1,0,0,0,0,0,0,0,0,0,0,0,0,0,0],"split_type":[0,0,0,0,0,0,0,0,0,0,0,0,0,0,0,0,0,0,0,0,0,0,0,0,0,0,0,0,0],"sum_hessian":[9.343E3,7.946E3,1.397E3,1.343E3,6.603E3,1.063E3,3.34E2,4.23E2,9.2E2,6.39E2,5.964E3,5.76E2,4.87E2,6.9E1,2.65E2,2E2,2.23E2,4.48E2,4.72E2,3.88E2,2.51E2,3.809E3,2.155E3,2.47E2,3.29E2,4.7E1,4.4E2,1.95E2,7E1],"tree_param":{"num_deleted":"0","num_feature":"2","num_nodes":"29","size_leaf_vector":"1"}},{"base_weights":[-7.5675006E-4,2.2031363E-2,-3.7159926E-1,-1.2917416E-1,9.4618514E-2,-5.6388044E-1,5.4983493E-2,1.04199655E-1,-3.1878245E-1,9.562101E-1,6.3080385E-2,-4.2235553E-1,-1.1205747E-1,4.0420726E-2,-4.3273672E-2,3.0842055E-2,-1.122811E-1,-4.5418408E-2,4.1159377E-2,1.1558876E-1,1.766113E-2,-3.2998662E-2,1.2809998E-2,-3.4836914E-2,-5.8503825E-2],"categories":[],"categories_nodes":[],"categories_segments":[],"categories_sizes":[],"default_left":[0,0,0,0,0,0,0,0,0,0,0,0,0,0,0,0,0,0,0,0,0,0,0,0,0],"id":38,"left_children":[1,3,5,7,9,11,13,15,17,19,21,23,-1,-1,-1,-1,-1,-1,-1,-1,-1,-1,-1,-1,-1],"loss_changes":[7.897247E1,9.664121E1,4.44059E1,1.264101E2,1.6159177E2,2.8913933E1,2.8959587E1,3.2134082E2,1.5604407E2,3.248619E1,1.4673978E2,3.3950462E0,0E0,0E0,0E0,0E0,0E0,0E0,0E0,0E0,0E0,0E0,0E0,0E0,0E0],"parents":[2147483647,0,0,1,1,2,2,3,3,4,4,5,5,6,6,7,7,8,8,9,9,10,10,11,11],"right_children":[2,4,6,8,10,12,14,16,18,20,22,24,-1,-1,-1,-1,-1,-1,-1,-1,-1,-1,-1,-1,-1],"split_conditions":[2.3E1,1E1,6E0,4E0,1.1E1,5E0,7E0,9E0,9E0,7E0,2E0,4E0,-1.1205747E-1,4.0420726E-2,-4.3273672E-2,3.0842055E-2,-1.122811E-1,-4.5418408E-2,4.1159377E-2,1.1558876E-1,1.766113E-2,-3.2998662E-2,1.2809998E-2,-3.4836914E-2,-5.8503825E-2],"split_indices":[1,1,0,0,1,0,0,1,1,0,0,0,0,0,0,0,0,0,0,0,0,0,0,0,0],"split_type":[0,0,0,0,0,0,0,0,0,0,0,0,0,0,0,0,0,0,0,0,0,0,0,0,0],"sum_hessian":[9.343E3,8.803E3,5.4E2,2.855E3,5.948E3,3.72E2,1.68E2,1.28E3,1.575E3,2.09E2,5.739E3,2.98E2,7.4E1,9.8E1,7E1,1.098E3,1.82E2,1.329E3,2.46E2,1.66E2,4.3E1,8.14E2,4.925E3,2.07E2,9.1E1],"tree_param":{"num_deleted":"0","num_feature":"2","num_nodes":"25","size_leaf_vector":"1"}},{"base_weights":[-7.00277E-4,3.370912E-2,-2.1948388E-1,-1.1628666E-1,1.1576932E-1,-3.6264223E-1,-3.7331987E-2,9.371634E-2,-2.8690693E-1,8.612233E-1,8.450588E-2,-3.2892892E-1,-4.4772908E-1,1.23996004E-1,-3.447484E-1,2.776067E-2,-1.0111427E-1,-4.087999E-2,3.706014E-2,4.858089E-2,1.3282952E-1,-2.8274188E-2,1.4699458E-2,-4.0411822E-2,-1.7348971E-2,-3.7591103E-2,-5.271706E-2,4.353371E-2,-2.2945395E-2,-3.1578276E-2,-3.9007273E-2],"categories":[],"categories_nodes":[],"categories_segments":[],"categories_sizes":[],"default_left":[0,0,0,0,0,0,0,0,0,0,0,0,0,0,0,0,0,0,0,0,0,0,0,0,0,0,0,0,0,0,0],"id":39,"left_children":[1,3,5,7,9,11,13,15,17,19,21,23,25,27,29,-1,-1,-1,-1,-1,-1,-1,-1,-1,-1,-1,-1,-1,-1,-1,-1],"loss_changes":[7.035101E1,9.9406075E1,3.3103695E1,1.0235955E2,1.2158171E2,1.892273E0,2.7815876E1,2.6054523E2,1.26461044E2,3.6177246E1,1.1503818E2,5.9255066E0,9.37191E-1,4.0595894E1,1.3020325E-1,0E0,0E0,0E0,0E0,0E0,0E0,0E0,0E0,0E0,0E0,0E0,0E0,0E0,0E0,0E0,0E0],"parents":[2147483647,0,0,1,1,2,2,3,3,4,4,5,5,6,6,7,7,8,8,9,9,10,10,11,11,12,12,13,13,14,14],"right_children":[2,4,6,8,10,12,14,16,18,20,22,24,26,28,30,-1,-1,-1,-1,-1,-1,-1,-1,-1,-1,-1,-1,-1,-1,-1,-1],"split_conditions":[2.2E1,1E1,5E0,4E0,1.1E1,4E0,7E0,9E0,9E0,5E0,2E0,3E0,2.3E1,2.3E1,2.3E1,2.776067E-2,-1.0111427E-1,-4.087999E-2,3.706014E-2,4.858089E-2,1.3282952E-1,-2.8274188E-2,1.4699458E-2,-4.0411822E-2,-1.7348971E-2,-3.7591103E-2,-5.271706E-2,4.353371E-2,-2.2945395E-2,-3.1578276E-2,-3.9007273E-2],"split_indices":[1,1,0,0,1,0,0,1,1,0,0,0,1,1,1,0,0,0,0,0,0,0,0,0,0,0,0,0,0,0,0],"split_type":[0,0,0,0,0,0,0,0,0,0,0,0,0,0,0,0,0,0,0,0,0,0,0,0,0,0,0,0,0,0,0],"sum_hessian":[9.343E3,8.074E3,1.269E3,2.855E3,5.219E3,7.1E2,5.59E2,1.28E3,1.575E3,2.09E2,5.01E3,5.12E2,1.98E2,3.67E2,1.92E2,1.098E3,1.82E2,1.329E3,2.46E2,1.17E2,9.2E1,7.28E2,4.282E3,3.44E2,1.68E2,1.07E2,9.1E1,1.95E2,1.72E2,1.22E2,7E1],"tree_param":{"num_deleted":"0","num_feature":"2","num_nodes":"31","size_leaf_vector":"1"}},{"base_weights":[-6.417734E-4,3.494395E-2,-2.0293011E-1,-1.9553605E-1,7.721858E-2,-1.2808195E-1,-4.4005105E-1,-3.2506016E-1,-4.745812E-2,2.2016189E-1,-5.4738607E-2,-3.1453058E-1,9.26331E-2,-7.7557385E-2,-3.5010126E-1,-4.9278125E-2,-2.5058096E-2,4.267673E-2,-2.6759971E-2,9.627005E-3,5.6997236E-2,-2.6542587E-2,-5.9277983E-4,3.5151478E-3,-5.7636883E-2,5.6849487E-2,4.062857E-3,-4.4829078E-2,-3.1063948E-2],"categories":[],"categories_nodes":[],"categories_segments":[],"categories_sizes":[],"default_left":[0,0,0,0,0,0,0,0,0,0,0,0,0,0,0,0,0,0,0,0,0,0,0,0,0,0,0,0,0],"id":40,"left_children":[1,3,5,7,9,11,13,15,17,19,21,23,25,-1,27,-1,-1,-1,-1,-1,-1,-1,-1,-1,-1,-1,-1,-1,-1],"loss_changes":[6.727059E1,7.744635E1,2.475544E1,2.3613922E1,1.266919E2,4.381488E1,9.838844E0,8.083588E0,6.0246716E1,1.3966898E2,3.5919792E1,5.285046E1,1.2053421E1,0E0,8.914223E-1,0E0,0E0,0E0,0E0,0E0,0E0,0E0,0E0,0E0,0E0,0E0,0E0,0E0,0E0],"parents":[2147483647,0,0,1,1,2,2,3,3,4,4,5,5,6,6,7,7,8,8,9,9,10,10,11,11,12,12,14,14],"right_children":[2,4,6,8,10,12,14,16,18,20,22,24,26,-1,28,-1,-1,-1,-1,-1,-1,-1,-1,-1,-1,-1,-1,-1,-1],"split_conditions":[7E0,5E0,2E1,4E0,1.7E1,1.3E1,2.1E1,2E0,5E0,1.4E1,2E0,5E0,1.4E1,-7.7557385E-2,2.2E1,-4.9278125E-2,-2.5058096E-2,4.267673E-2,-2.6759971E-2,9.627005E-3,5.6997236E-2,-2.6542587E-2,-5.9277983E-4,3.5151478E-3,-5.7636883E-2,5.6849487E-2,4.062857E-3,-4.4829078E-2,-3.1063948E-2],"split_indices":[0,1,1,0,1,1,1,0,0,1,0,1,1,0,1,0,0,0,0,0,0,0,0,0,0,0,0,0,0],"split_type":[0,0,0,0,0,0,0,0,0,0,0,0,0,0,0,0,0,0,0,0,0,0,0,0,0,0,0,0,0],"sum_hessian":[9.343E3,7.946E3,1.397E3,1.231E3,6.715E3,1.063E3,3.34E2,6.56E2,5.75E2,3.223E3,3.492E3,5.76E2,4.87E2,6.9E1,2.65E2,2E2,4.56E2,1.82E2,3.93E2,2.381E3,8.42E2,6.56E2,2.836E3,2.47E2,3.29E2,4.7E1,4.4E2,7.3E1,1.92E2],"tree_param":{"num_deleted":"0","num_feature":"2","num_nodes":"29","size_leaf_vector":"1"}},{"base_weights":[-5.950776E-4,3.144744E-2,-1.8274193E-1,-9.292199E-2,9.524797E-2,8.70524E-2,-1.978852E-1,-3.8004833E-1,1.4305E-1,2.5536734E-1,-5.694241E-2,-1.3402382E-1,-3.9650393E-1,2.910713E-2,-1.0718211E-1,3.5843733E-1,4.0045874E-3,-1.6251976E-2,7.4422054E-2,-7.625226E-2,2.5138957E-5,-3.2401487E-2,8.34947E-3,-6.991243E-2,-3.1537633E-2],"categories":[],"categories_nodes":[],"categories_segments":[],"categories_sizes":[],"default_left":[0,0,0,0,0,0,0,0,0,0,0,0,0,0,0,0,0,0,0,0,0,0,0,0,0],"id":41,"left_children":[1,3,5,7,9,-1,11,13,15,17,19,21,23,-1,-1,-1,-1,-1,-1,-1,-1,-1,-1,-1,-1],"loss_changes":[5.4541477E1,6.3066982E1,2.2470219E1,1.8265079E2,1.2802295E2,0E0,1.7438187E1,5.648549E2,5.244728E2,5.230916E2,1.0871606E2,4.3213318E1,8.004055E0,0E0,0E0,0E0,0E0,0E0,0E0,0E0,0E0,0E0,0E0,0E0,0E0],"parents":[2147483647,0,0,1,1,2,2,3,3,4,4,6,6,7,7,8,8,9,9,10,10,11,11,12,12],"right_children":[2,4,6,8,10,-1,12,14,16,18,20,22,24,-1,-1,-1,-1,-1,-1,-1,-1,-1,-1,-1,-1],"split_conditions":[7E0,3E0,1E0,1.4E1,1.5E1,8.70524E-2,2E1,8E0,1.5E1,9E0,1.6E1,1.3E1,2.1E1,2.910713E-2,-1.0718211E-1,3.5843733E-1,4.0045874E-3,-1.6251976E-2,7.4422054E-2,-7.625226E-2,2.5138957E-5,-3.2401487E-2,8.34947E-3,-6.991243E-2,-3.1537633E-2],"split_indices":[0,0,1,1,1,0,1,1,1,1,1,1,1,0,0,0,0,0,0,0,0,0,0,0,0],"split_type":[0,0,0,0,0,0,0,0,0,0,0,0,0,0,0,0,0,0,0,0,0,0,0,0,0],"sum_hessian":[9.343E3,7.946E3,1.397E3,2.694E3,5.252E3,1.9E1,1.378E3,1.215E3,1.479E3,2.559E3,2.693E3,1.044E3,3.34E2,6.17E2,5.98E2,4.2E1,1.437E3,1.38E3,1.179E3,2.01E2,2.492E3,5.57E2,4.87E2,6.9E1,2.65E2],"tree_param":{"num_deleted":"0","num_feature":"2","num_nodes":"25","size_leaf_vector":"1"}},{"base_weights":[-5.113158E-4,2.8488675E-2,-1.8490061E-1,9.227918E-2,-1.2149701E-1,-3.2093734E-1,-1.1852398E-2,1.3899569E-1,-4.305414E-1,-2.5673592E-1,5.993862E-1,-2.8853843E-1,-4.0284535E-1,1.5596394E-1,-2.3141514E-1,-4.8017656E-4,3.1916495E-2,-5.7886023E-2,-3.973527E-3,-2.7478114E-3,-7.4342564E-2,1.2555633E-1,-5.014928E-2,-3.527838E-2,-1.5567931E-2,-3.3810597E-2,-4.7446504E-2,3.9259132E-2,-2.2236886E-2,-9.868118E-2,1.051894E-2],"categories":[],"categories_nodes":[],"categories_segments":[],"categories_sizes":[],"default_left":[0,0,0,0,0,0,0,0,0,0,0,0,0,0,0,0,0,0,0,0,0,0,0,0,0,0,0,0,0,0,0],"id":42,"left_children":[1,3,5,7,9,11,13,15,17,19,21,23,25,27,29,-1,-1,-1,-1,-1,-1,-1,-1,-1,-1,-1,-1,-1,-1,-1,-1],"loss_changes":[4.997033E1,7.727008E1,2.9893147E1,1.3844824E2,2.3510832E2,1.7705688E0,2.0669973E1,1.3477434E2,2.6930222E1,2.2648172E2,2.758532E2,4.3238335E0,7.6226807E-1,2.85559E1,6.18914E1,0E0,0E0,0E0,0E0,0E0,0E0,0E0,0E0,0E0,0E0,0E0,0E0,0E0,0E0,0E0,0E0],"parents":[2147483647,0,0,1,1,2,2,3,3,4,4,5,5,6,6,7,7,8,8,9,9,10,10,11,11,12,12,13,13,14,14],"right_children":[2,4,6,8,10,12,14,16,18,20,22,24,26,28,30,-1,-1,-1,-1,-1,-1,-1,-1,-1,-1,-1,-1,-1,-1,-1,-1],"split_conditions":[2.2E1,6E0,5E0,2.1E1,2E1,4E0,2.3E1,1.3E1,4E0,1.6E1,7E0,3E0,2.3E1,7E0,6E0,-4.8017656E-4,3.1916495E-2,-5.7886023E-2,-3.973527E-3,-2.7478114E-3,-7.4342564E-2,1.2555633E-1,-5.014928E-2,-3.527838E-2,-1.5567931E-2,-3.3810597E-2,-4.7446504E-2,3.9259132E-2,-2.2236886E-2,-9.868118E-2,1.051894E-2],"split_indices":[1,0,0,1,1,0,1,1,0,1,0,0,1,0,0,0,0,0,0,0,0,0,0,0,0,0,0,0,0,0,0],"split_type":[0,0,0,0,0,0,0,0,0,0,0,0,0,0,0,0,0,0,0,0,0,0,0,0,0,0,0,0,0,0,0],"sum_hessian":[9.343E3,8.074E3,1.269E3,5.665E3,2.409E3,7.1E2,5.59E2,5.201E3,4.64E2,2.029E3,3.8E2,5.12E2,1.98E2,3.17E2,2.42E2,2.893E3,2.308E3,3.36E2,1.28E2,1.38E3,6.49E2,2.38E2,1.42E2,3.44E2,1.68E2,1.07E2,9.1E1,1.95E2,1.22E2,7.4E1,1.68E2],"tree_param":{"num_deleted":"0","num_feature":"2","num_nodes":"31","size_leaf_vector":"1"}},{"base_weights":[-4.850717E-4,2.5636181E-2,-1.6657062E-1,8.304629E-2,-1.0934776E-1,-2.8902945E-1,-1.0794197E-2,1.4274773E-1,-2.5029656E-1,-1.9242442E-1,8.568277E-1,-2.5978377E-1,-3.6296913E-1,1.4042118E-1,-2.0863657E-1,3.0690322E-3,4.4083294E-2,3.6319778E-3,-5.3237375E-2,-2.4731976E-3,-4.6788972E-2,1.589762E-1,-3.2348413E-2,-3.1760775E-2,-1.4020356E-2,-3.0460853E-2,-4.275341E-2,5.5574454E-2,-3.9002416E-3,-8.8944666E-2,9.473261E-3],"categories":[],"categories_nodes":[],"categories_segments":[],"categories_sizes":[],"default_left":[0,0,0,0,0,0,0,0,0,0,0,0,0,0,0,0,0,0,0,0,0,0,0,0,0,0,0,0,0,0,0],"id":43,"left_children":[1,3,5,7,9,11,13,15,17,19,21,23,25,27,29,-1,-1,-1,-1,-1,-1,-1,-1,-1,-1,-1,-1,-1,-1,-1,-1],"loss_changes":[4.0541935E1,6.2585835E1,2.4223644E1,1.12795074E2,1.9360744E2,1.4431877E0,1.678271E1,1.6051962E2,6.9629395E1,1.02537865E2,1.6574661E2,3.5026627E0,6.196079E-1,2.3718655E1,5.0272697E1,0E0,0E0,0E0,0E0,0E0,0E0,0E0,0E0,0E0,0E0,0E0,0E0,0E0,0E0,0E0,0E0],"parents":[2147483647,0,0,1,1,2,2,3,3,4,4,5,5,6,6,7,7,8,8,9,9,10,10,11,11,12,12,13,13,14,14],"right_children":[2,4,6,8,10,12,14,16,18,20,22,24,26,28,30,-1,-1,-1,-1,-1,-1,-1,-1,-1,-1,-1,-1,-1,-1,-1,-1],"split_conditions":[2.2E1,6E0,5E0,2E1,2.1E1,4E0,2.3E1,1.6E1,3E0,1.6E1,7E0,3E0,2.3E1,6E0,6E0,3.0690322E-3,4.4083294E-2,3.6319778E-3,-5.3237375E-2,-2.4731976E-3,-4.6788972E-2,1.589762E-1,-3.2348413E-2,-3.1760775E-2,-1.4020356E-2,-3.0460853E-2,-4.275341E-2,5.5574454E-2,-3.9002416E-3,-8.8944666E-2,9.473261E-3],"split_indices":[1,0,0,1,1,0,1,1,0,1,0,0,1,0,0,0,0,0,0,0,0,0,0,0,0,0,0,0,0,0,0],"split_type":[0,0,0,0,0,0,0,0,0,0,0,0,0,0,0,0,0,0,0,0,0,0,0,0,0,0,0,0,0,0,0],"sum_hessian":[9.343E3,8.074E3,1.269E3,5.665E3,2.409E3,7.1E2,5.59E2,4.805E3,8.6E2,2.219E3,1.9E2,5.12E2,1.98E2,3.17E2,2.42E2,3.493E3,1.312E3,4.27E2,4.33E2,1.38E3,8.39E2,1.17E2,7.3E1,3.44E2,1.68E2,1.07E2,9.1E1,9.5E1,2.22E2,7.4E1,1.68E2],"tree_param":{"num_deleted":"0","num_feature":"2","num_nodes":"31","size_leaf_vector":"1"}},{"base_weights":[-4.441381E-4,-1.9078076E-1,2.004017E-2,-2.979319E-1,-6.2772445E-2,8.6416006E-2,-6.8521574E-2,-1.1313031E-1,-3.6293542E-1,-2.4335258E-1,4.5817066E-2,2.0079754E-1,-1.917081E-1,-2.3445965E-1,5.0488416E-2,2.7047897E-2,-5.939984E-2,-4.3318834E-2,6.5329105E-2,-3.928372E-2,7.927846E-2,4.1845437E-2,-1.5057576E-2,8.857589E-3,7.531946E-2,-5.5458182E-3,-1.4636342E-1,-8.299612E-2,-1.3974856E-2,4.0073667E-2,-2.2199468E-3],"categories":[],"categories_nodes":[],"categories_segments":[],"categories_sizes":[],"default_left":[0,0,0,0,0,0,0,0,0,0,0,0,0,0,0,0,0,0,0,0,0,0,0,0,0,0,0,0,0,0,0],"id":44,"left_children":[1,3,5,7,9,11,13,15,17,19,21,23,25,27,29,-1,-1,-1,-1,-1,-1,-1,-1,-1,-1,-1,-1,-1,-1,-1,-1],"loss_changes":[3.6435276E1,1.2435646E1,4.9601635E1,5.893238E0,8.148929E0,1.5346902E2,7.140191E1,2.414117E1,2.63414E1,2.4473734E1,1.9090662E1,2.118182E2,2.4357837E2,8.504892E1,5.362514E1,0E0,0E0,0E0,0E0,0E0,0E0,0E0,0E0,0E0,0E0,0E0,0E0,0E0,0E0,0E0,0E0],"parents":[2147483647,0,0,1,1,2,2,3,3,4,4,5,5,6,6,7,7,8,8,9,9,10,10,11,11,12,12,13,13,14,14],"right_children":[2,4,6,8,10,12,14,16,18,20,22,24,26,28,30,-1,-1,-1,-1,-1,-1,-1,-1,-1,-1,-1,-1,-1,-1,-1,-1],"split_conditions":[3E0,5E0,1.8E1,2E0,1E0,6E0,4E0,2E0,2E0,7E0,7E0,1.6E1,1.7E1,1.9E1,1.9E1,2.7047897E-2,-5.939984E-2,-4.3318834E-2,6.5329105E-2,-3.928372E-2,7.927846E-2,4.1845437E-2,-1.5057576E-2,8.857589E-3,7.531946E-2,-5.5458182E-3,-1.4636342E-1,-8.299612E-2,-1.3974856E-2,4.0073667E-2,-2.2199468E-3],"split_indices":[1,0,1,0,1,0,0,1,1,0,0,1,1,1,1,0,0,0,0,0,0,0,0,0,0,0,0,0,0,0,0],"split_type":[0,0,0,0,0,0,0,0,0,0,0,0,0,0,0,0,0,0,0,0,0,0,0,0,0,0,0,0,0,0,0],"sum_hessian":[9.343E3,9.07E2,8.436E3,4.93E2,4.14E2,4.822E3,3.614E3,1.29E2,3.64E2,1.55E2,2.59E2,3.417E3,1.405E3,1.509E3,2.105E3,7.2E1,5.7E1,3.41E2,2.3E1,1.36E2,1.9E1,8.9E1,1.7E2,2.841E3,5.76E2,1.27E3,1.35E2,2.06E2,1.303E3,3.61E2,1.744E3],"tree_param":{"num_deleted":"0","num_feature":"2","num_nodes":"31","size_leaf_vector":"1"}},{"base_weights":[-4.071609E-4,-1.4750347E-1,2.430198E-2,8.4847786E-2,-2.5431067E-1,-9.892712E-2,7.970602E-2,-4.712592E-1,5.834757E-1,-5.7226425E-1,4.804765E-2,1.472536E-1,-2.4054323E-1,2.2464946E-1,-8.603082E-2,2.104229E-3,-2.0409086E-1,1.2813577E-1,-3.2033238E-3,-3.086756E-2,-9.467439E-2,6.167021E-2,-1.9045435E-2,4.4877212E-2,-1.5653901E-1,7.364653E-4,-5.1081862E-2,4.2546738E-2,-7.312929E-3,-2.10404E-2,1.3806961E-2],"categories":[],"categories_nodes":[],"categories_segments":[],"categories_sizes":[],"default_left":[0,0,0,0,0,0,0,0,0,0,0,0,0,0,0,0,0,0,0,0,0,0,0,0,0,0,0,0,0,0,0],"id":45,"left_children":[1,3,5,7,9,11,13,15,17,19,21,23,25,27,29,-1,-1,-1,-1,-1,-1,-1,-1,-1,-1,-1,-1,-1,-1,-1,-1],"loss_changes":[3.3965504E1,3.3375336E1,5.4633835E1,1.1784614E2,8.8568665E1,8.656578E1,1.3262335E2,1.5536386E2,9.626083E1,4.4027924E1,6.426818E1,4.690717E2,1.05601105E2,1.7614008E2,7.182753E1,0E0,0E0,0E0,0E0,0E0,0E0,0E0,0E0,0E0,0E0,0E0,0E0,0E0,0E0,0E0,0E0],"parents":[2147483647,0,0,1,1,2,2,3,3,4,4,5,5,6,6,7,7,8,8,9,9,10,10,11,11,12,12,13,13,14,14],"right_children":[2,4,6,8,10,12,14,16,18,20,22,24,26,28,30,-1,-1,-1,-1,-1,-1,-1,-1,-1,-1,-1,-1,-1,-1,-1,-1],"split_conditions":[2E0,1.1E1,1E1,5E0,1.9E1,4E0,1.9E1,4E0,8E0,1.7E1,2.1E1,9E0,5E0,6E0,6E0,2.104229E-3,-2.0409086E-1,1.2813577E-1,-3.2033238E-3,-3.086756E-2,-9.467439E-2,6.167021E-2,-1.9045435E-2,4.4877212E-2,-1.5653901E-1,7.364653E-4,-5.1081862E-2,4.2546738E-2,-7.312929E-3,-2.10404E-2,1.3806961E-2],"split_indices":[0,1,1,1,1,0,1,1,1,1,1,1,1,0,0,0,0,0,0,0,0,0,0,0,0,0,0,0,0,0,0],"split_type":[0,0,0,0,0,0,0,0,0,0,0,0,0,0,0,0,0,0,0,0,0,0,0,0,0,0,0,0,0,0,0],"sum_hessian":[9.343E3,1.343E3,8E3,4.23E2,9.2E2,2.481E3,5.519E3,2E2,2.23E2,4.48E2,4.72E2,9.06E2,1.575E3,2.944E3,2.575E3,1.53E2,4.7E1,1.04E2,1.19E2,2.64E2,1.84E2,1.39E2,3.33E2,7.71E2,1.35E2,8.22E2,7.53E2,1.758E3,1.186E3,1.656E3,9.19E2],"tree_param":{"num_deleted":"0","num_feature":"2","num_nodes":"31","size_leaf_vector":"1"}},{"base_weights":[-3.980874E-4,-1.84821E-1,1.9449774E-2,-2.9176906E-1,-5.7068795E-2,7.6067775E-2,-5.6093257E-2,-1.0415422E-1,-3.5779142E-1,-2.1949258E-1,4.0604968E-2,1.7174265E-1,-1.5657291E-1,-1.978743E-1,4.559024E-2,2.4172615E-2,-5.3769063E-2,-4.2028688E-2,5.4767665E-2,-3.545712E-2,7.167707E-2,3.763458E-2,-1.3633819E-2,7.223183E-3,6.615832E-2,-3.2913962E-3,-1.3110873E-1,-7.247427E-2,-1.1408622E-2,3.4864593E-2,-1.7304745E-3],"categories":[],"categories_nodes":[],"categories_segments":[],"categories_sizes":[],"default_left":[0,0,0,0,0,0,0,0,0,0,0,0,0,0,0,0,0,0,0,0,0,0,0,0,0,0,0,0,0,0,0],"id":46,"left_children":[1,3,5,7,9,11,13,15,17,19,21,23,25,27,29,-1,-1,-1,-1,-1,-1,-1,-1,-1,-1,-1,-1,-1,-1,-1,-1],"loss_changes":[3.420638E1,1.2389217E1,3.609012E1,6.0818024E0,6.592697E0,1.0737658E2,5.2125725E1,1.96237E1,2.0884663E1,1.9983334E1,1.5497144E1,1.665607E2,2.0068588E2,6.657669E1,4.0147835E1,0E0,0E0,0E0,0E0,0E0,0E0,0E0,0E0,0E0,0E0,0E0,0E0,0E0,0E0,0E0,0E0],"parents":[2147483647,0,0,1,1,2,2,3,3,4,4,5,5,6,6,7,7,8,8,9,9,10,10,11,11,12,12,13,13,14,14],"right_children":[2,4,6,8,10,12,14,16,18,20,22,24,26,28,30,-1,-1,-1,-1,-1,-1,-1,-1,-1,-1,-1,-1,-1,-1,-1,-1],"split_conditions":[3E0,5E0,1.8E1,2E0,1E0,6E0,4E0,2E0,2E0,7E0,7E0,1.6E1,1.7E1,1.9E1,1.9E1,2.4172615E-2,-5.3769063E-2,-4.2028688E-2,5.4767665E-2,-3.545712E-2,7.167707E-2,3.763458E-2,-1.3633819E-2,7.223183E-3,6.615832E-2,-3.2913962E-3,-1.3110873E-1,-7.247427E-2,-1.1408622E-2,3.4864593E-2,-1.7304745E-3],"split_indices":[1,0,1,0,1,0,0,1,1,0,0,1,1,1,1,0,0,0,0,0,0,0,0,0,0,0,0,0,0,0,0],"split_type":[0,0,0,0,0,0,0,0,0,0,0,0,0,0,0,0,0,0,0,0,0,0,0,0,0,0,0,0,0,0,0],"sum_hessian":[9.343E3,9.07E2,8.436E3,4.93E2,4.14E2,4.822E3,3.614E3,1.29E2,3.64E2,1.55E2,2.59E2,3.417E3,1.405E3,1.509E3,2.105E3,7.2E1,5.7E1,3.41E2,2.3E1,1.36E2,1.9E1,8.9E1,1.7E2,2.841E3,5.76E2,1.27E3,1.35E2,2.06E2,1.303E3,3.61E2,1.744E3],"tree_param":{"num_deleted":"0","num_feature":"2","num_nodes":"31","size_leaf_vector":"1"}},{"base_weights":[-3.6545526E-4,-9.042933E-2,3.6134172E-2,-3.6666903E-1,1.3659628E-1,1.4458707E-1,-6.633584E-2,2.3280704E-1,-9.845481E-1,3.1752753E0,4.5636762E-2,-1.3614798E-1,4.7148168E-1,-3.907757E-1,1.0516815E-2,-3.5348084E-2,1.3334E-1,-3.4009483E-2,-1.4580294E-1,1.9624555E-1,4.0536556E-1,6.423574E-2,-1.5497468E-2,4.545899E-2,-3.181528E-2,6.5231904E-2,-2.0959964E-2,-1.4546563E-1,-6.9147497E-3,1.4120102E-2,-9.315654E-3],"categories":[],"categories_nodes":[],"categories_segments":[],"categories_sizes":[],"default_left":[0,0,0,0,0,0,0,0,0,0,0,0,0,0,0,0,0,0,0,0,0,0,0,0,0,0,0,0,0,0,0],"id":47,"left_children":[1,3,5,7,9,11,13,15,17,19,21,23,25,27,29,-1,-1,-1,-1,-1,-1,-1,-1,-1,-1,-1,-1,-1,-1,-1,-1],"loss_changes":[3.071978E1,1.6906293E2,7.391218E1,4.5064014E2,4.0892233E2,2.9657556E2,8.527862E1,3.9924463E2,1.8228088E2,3.7853516E1,1.7224107E2,1.8711693E2,1.8402197E2,2.240234E2,3.7488216E1,0E0,0E0,0E0,0E0,0E0,0E0,0E0,0E0,0E0,0E0,0E0,0E0,0E0,0E0,0E0,0E0],"parents":[2147483647,0,0,1,1,2,2,3,3,4,4,5,5,6,6,7,7,8,8,9,9,10,10,11,11,12,12,13,13,14,14],"right_children":[2,4,6,8,10,12,14,16,18,20,22,24,26,28,30,-1,-1,-1,-1,-1,-1,-1,-1,-1,-1,-1,-1,-1,-1,-1,-1],"split_conditions":[3E0,1.4E1,1.5E1,8E0,1.5E1,9E0,4E0,5E0,2E0,2E0,1.8E1,4E0,7E0,1.7E1,6E0,-3.5348084E-2,1.3334E-1,-3.4009483E-2,-1.4580294E-1,1.9624555E-1,4.0536556E-1,6.423574E-2,-1.5497468E-2,4.545899E-2,-3.181528E-2,6.5231904E-2,-2.0959964E-2,-1.4546563E-1,-6.9147497E-3,1.4120102E-2,-9.315654E-3],"split_indices":[0,1,1,1,1,1,0,1,0,0,1,0,0,1,0,0,0,0,0,0,0,0,0,0,0,0,0,0,0,0,0],"split_type":[0,0,0,0,0,0,0,0,0,0,0,0,0,0,0,0,0,0,0,0,0,0,0,0,0,0,0,0,0,0,0],"sum_hessian":[9.343E3,2.694E3,6.649E3,1.215E3,1.479E3,3.23E3,3.419E3,6.17E2,5.98E2,4.2E1,1.437E3,1.738E3,1.492E3,6.54E2,2.765E3,4.03E2,2.14E2,2.54E2,3.44E2,1.9E1,2.3E1,3.61E2,1.076E3,4.09E2,1.329E3,1.179E3,3.13E2,1.51E2,5.03E2,1.223E3,1.542E3],"tree_param":{"num_deleted":"0","num_feature":"2","num_nodes":"31","size_leaf_vector":"1"}},{"base_weights":[-2.7765188E-4,-1.3595727E-1,2.251371E-2,-2.4761783E-1,7.018219E-2,-6.252708E-2,7.6345146E-2,-8.081772E-2,-8.6659545E-1,5.821861E-1,-1.4464036E-1,-5.5754244E-1,4.769601E-2,4.3224868E-1,5.859152E-3,-3.8592827E-2,4.5018406E-3,-1.08313195E-1,-6.6755235E-2,4.0922064E-2,7.309226E-2,-1.760224E-2,-7.6418407E-3,3.5740577E-2,-2.1908855E-1,-1.2252553E-2,4.176555E-2,1.6887112E-2,1.079841E-1,3.397311E-2,-5.9745475E-3],"categories":[],"categories_nodes":[],"categories_segments":[],"categories_sizes":[],"default_left":[0,0,0,0,0,0,0,0,0,0,0,0,0,0,0,0,0,0,0,0,0,0,0,0,0,0,0,0,0,0,0],"id":48,"left_children":[1,3,5,7,9,11,13,15,17,19,21,23,25,27,29,-1,-1,-1,-1,-1,-1,-1,-1,-1,-1,-1,-1,-1,-1,-1,-1],"loss_changes":[2.8897728E1,3.0953098E1,3.6632298E1,8.996007E1,5.2109463E1,1.6927832E2,1.2291992E2,2.6432392E1,7.250458E0,3.3025742E0,7.016244E-1,8.451328E2,1.598819E2,1.3797227E2,8.96277E1,0E0,0E0,0E0,0E0,0E0,0E0,0E0,0E0,0E0,0E0,0E0,0E0,0E0,0E0,0E0,0E0],"parents":[2147483647,0,0,1,1,2,2,3,3,4,4,5,5,6,6,7,7,8,8,9,9,10,10,11,11,12,12,13,13,14,14],"right_children":[2,4,6,8,10,12,14,16,18,20,22,24,26,28,30,-1,-1,-1,-1,-1,-1,-1,-1,-1,-1,-1,-1,-1,-1,-1,-1],"split_conditions":[2E0,1.9E1,1.2E1,1.7E1,2.1E1,3E0,1.5E1,5E0,1.8E1,2E1,2.3E1,9E0,9E0,1.4E1,3E0,-3.8592827E-2,4.5018406E-3,-1.08313195E-1,-6.6755235E-2,4.0922064E-2,7.309226E-2,-1.760224E-2,-7.6418407E-3,3.5740577E-2,-2.1908855E-1,-1.2252553E-2,4.176555E-2,1.6887112E-2,1.079841E-1,3.397311E-2,-5.9745475E-3],"split_indices":[0,1,1,1,1,0,1,1,1,1,1,1,1,1,0,0,0,0,0,0,0,0,0,0,0,0,0,0,0,0,0],"split_type":[0,0,0,0,0,0,0,0,0,0,0,0,0,0,0,0,0,0,0,0,0,0,0,0,0,0,0,0,0,0,0],"sum_hessian":[9.343E3,1.343E3,8E3,8.71E2,4.72E2,3.101E3,4.899E3,6.87E2,1.84E2,1.39E2,3.33E2,5.64E2,2.537E3,8.09E2,4.09E3,2E2,4.87E2,8.6E1,9.8E1,6.6E1,7.3E1,2.27E2,1.06E2,3.62E2,2.02E2,1.738E3,7.99E2,5.76E2,2.33E2,6.71E2,3.419E3],"tree_param":{"num_deleted":"0","num_feature":"2","num_nodes":"31","size_leaf_vector":"1"}},{"base_weights":[-2.628992E-4,1.2257804E-2,-2.0401892E-1,4.9408708E-2,-7.4879274E-2,-3.370119E-1,9.071717E-2,1.0655847E-1,-1.5140355E-1,-1.9250146E-1,3.212201E-1,-2.2349636E-1,-7.85067E-2,3.73059E-2,-3.0424843E-2,1.602559E-3,3.4739267E-2,-1.958309E-2,1.2677451E-2,-1.4866687E-3,-5.696109E-2,8.1246674E-2,-3.0841703E-2,-6.8848045E-3,-3.0807603E-2],"categories":[],"categories_nodes":[],"categories_segments":[],"categories_sizes":[],"default_left":[0,0,0,0,0,0,0,0,0,0,0,0,0,0,0,0,0,0,0,0,0,0,0,0,0],"id":49,"left_children":[1,3,5,7,9,11,13,15,17,19,21,23,-1,-1,-1,-1,-1,-1,-1,-1,-1,-1,-1,-1,-1],"loss_changes":[2.3840622E1,2.8504194E1,2.1236597E1,7.085978E1,1.226869E2,1.879578E1,1.8959589E1,1.0478165E2,1.693154E1,1.3597665E2,1.8676279E2,3.889739E0,0E0,0E0,0E0,0E0,0E0,0E0,0E0,0E0,0E0,0E0,0E0,0E0,0E0],"parents":[2147483647,0,0,1,1,2,2,3,3,4,4,5,5,6,6,7,7,8,8,9,9,10,10,11,11],"right_children":[2,4,6,8,10,12,14,16,18,20,22,24,-1,-1,-1,-1,-1,-1,-1,-1,-1,-1,-1,-1,-1],"split_conditions":[2.3E1,6E0,6E0,2E1,2E1,5E0,7E0,1.6E1,5E0,1.6E1,7E0,2E0,-7.85067E-2,3.73059E-2,-3.0424843E-2,1.602559E-3,3.4739267E-2,-1.958309E-2,1.2677451E-2,-1.4866687E-3,-5.696109E-2,8.1246674E-2,-3.0841703E-2,-6.8848045E-3,-3.0807603E-2],"split_indices":[1,0,0,1,1,0,0,1,0,1,0,0,0,0,0,0,0,0,0,0,0,0,0,0,0],"split_type":[0,0,0,0,0,0,0,0,0,0,0,0,0,0,0,0,0,0,0,0,0,0,0,0,0],"sum_hessian":[9.343E3,8.803E3,5.4E2,6.172E3,2.631E3,3.72E2,1.68E2,4.805E3,1.367E3,2.029E3,6.02E2,2.98E2,7.4E1,9.8E1,7E1,3.493E3,1.312E3,1.179E3,1.88E2,1.38E3,6.49E2,3.38E2,2.64E2,1.06E2,1.92E2],"tree_param":{"num_deleted":"0","num_feature":"2","num_nodes":"25","size_leaf_vector":"1"}}]},"name":"gbtree"},"learner_model_param":{"base_score":"[1.3316922E1]","boost_from_average":"1","num_class":"0","num_feature":"2","num_target":"1"},"objective":{"name":"reg:squarederror","reg_loss_param":{"scale_pos_weight":"1"}}},"version":[3,2,0]}