{"learner":{"attributes":{},"feature_names":["day_of_week","hour_of_day"],"feature_types":[],"gradient_booster":{"model":{"cats":{"enc":[],"feature_segments":[],"sorted_idx":[]},"gbtree_model_param":{"num_parallel_tree":"1","num_trees":"50"},"iteration_indptr":[0,1,2,3,4,5,6,7,8,9,10,11,12,13,14,15,16,17,18,19,20,21,22,23,24,25,26,27,28,29,30,31,32,33,34,35,36,37,38,39,40,41,42,43,44,45,46,47,48,49,50],"tree_info":[0,0,0,0,0,0,0,0,0,0,0,0,0,0,0,0,0,0,0,0,0,0,0,0,0,0,0,0,0,0,0,0,0,0,0,0,0,0,0,0,0,0,0,0,0,0,0,0,0,0],"trees":[{"base_weights":[1.9712606E-7,-1.0024953E1,1.999168E0,-1.0550791E1,-5.501992E0,4.9449763E0,-4.3970256E0,-1.1566972E0,-8.832777E-1,-2.1432534E-1,-8.6215144E-1,5.329022E0,-8.0552024E-1,-2.3378031E0,-8.321175E0,5.571832E-1,3.0941948E-1,-3.4810138E-1,9.687015E-2,-9.922992E-1,-4.6554175E-1],"categories":[],"categories_nodes":[],"categories_segments":[],"categories_sizes":[],"default_left":[0,0,0,0,0,0,0,0,0,0,0,0,0,0,0,0,0,0,0,0,0],"id":0,"left_children":[1,3,5,7,9,11,13,-1,-1,-1,-1,15,-1,17,19,-1,-1,-1,-1,-1,-1],"loss_changes":[4.9662992E4,9.218281E2,3.8949234E4,5.4028906E2,4.530166E2,7.107543E3,5.249159E3,0E0,0E0,0E0,0E0,7.288867E2,0E0,1.6250054E3,1.2691045E3,0E0,0E0,0E0,0E0,0E0,0E0],"parents":[2147483647,0,0,1,1,2,2,3,3,4,4,5,5,6,6,11,11,13,13,14,14],"right_children":[2,4,6,8,10,12,14,-1,-1,-1,-1,16,-1,18,20,-1,-1,-1,-1,-1,-1],"split_conditions":[4E0,3E0,1.9E1,5E0,2E0,5E0,2.2E1,-1.1566972E0,-8.832777E-1,-2.1432534E-1,-8.6215144E-1,1.8E1,-8.0552024E-1,4E0,4E0,5.571832E-1,3.0941948E-1,-3.4810138E-1,9.687015E-2,-9.922992E-1,-4.6554175E-1],"split_indices":[1,1,1,0,0,0,1,0,0,0,0,1,0,0,0,0,0,0,0,0,0],"split_type":[0,0,0,0,0,0,0,0,0,0,0,0,0,0,0,0,0,0,0,0,0],"sum_hessian":[2.476E3,4.11E2,2.065E3,3.67E2,4.4E1,1.414E3,6.51E2,2.27E2,1.4E2,2.2E1,2.2E1,1.374E3,4E1,4.28E2,2.23E2,1.238E3,1.36E2,3.18E2,1.1E2,1.54E2,6.9E1],"tree_param":{"num_deleted":"0","num_feature":"2","num_nodes":"21","size_leaf_vector":"1"}},{"base_weights":[-1.9234113E-3,-9.030022E0,1.7984533E0,-9.501255E0,-4.975715E0,4.450522E0,-3.959944E0,-1.0415348E0,-7.955764E-1,-1.938247E-1,-7.796848E-1,4.7967496E0,-7.2693294E-1,-2.1046083E0,-7.495565E0,5.0150985E-1,2.787034E-1,-3.1340036E-1,8.727038E-2,-8.937095E-1,-4.1965267E-1],"categories":[],"categories_nodes":[],"categories_segments":[],"categories_sizes":[],"default_left":[0,0,0,0,0,0,0,0,0,0,0,0,0,0,0,0,0,0,0,0,0],"id":1,"left_children":[1,3,5,7,9,11,13,-1,-1,-1,-1,15,-1,17,19,-1,-1,-1,-1,-1,-1],"loss_changes":[4.0277344E4,7.398594E2,3.156888E4,4.3701953E2,3.704973E2,5.7765684E3,4.2611904E3,0E0,0E0,0E0,0E0,5.8940234E2,0E0,1.3175471E3,1.0277646E3,0E0,0E0,0E0,0E0,0E0,0E0],"parents":[2147483647,0,0,1,1,2,2,3,3,4,4,5,5,6,6,11,11,13,13,14,14],"right_children":[2,4,6,8,10,12,14,-1,-1,-1,-1,16,-1,18,20,-1,-1,-1,-1,-1,-1],"split_conditions":[4E0,3E0,1.9E1,5E0,2E0,5E0,2.2E1,-1.0415348E0,-7.955764E-1,-1.938247E-1,-7.796848E-1,1.8E1,-7.2693294E-1,4E0,4E0,5.0150985E-1,2.787034E-1,-3.1340036E-1,8.727038E-2,-8.937095E-1,-4.1965267E-1],"split_indices":[1,1,1,0,0,0,1,0,0,0,0,1,0,0,0,0,0,0,0,0,0],"split_type":[0,0,0,0,0,0,0,0,0,0,0,0,0,0,0,0,0,0,0,0,0],"sum_hessian":[2.476E3,4.11E2,2.065E3,3.67E2,4.4E1,1.414E3,6.51E2,2.27E2,1.4E2,2.2E1,2.2E1,1.374E3,4E1,4.28E2,2.23E2,1.238E3,1.36E2,3.18E2,1.1E2,1.54E2,6.9E1],"tree_param":{"num_deleted":"0","num_feature":"2","num_nodes":"21","size_leaf_vector":"1"}},{"base_weights":[-3.4656555E-3,-8.1338415E0,1.6178888E0,-8.556122E0,-4.499777E0,3.6420565E0,-4.5010805E0,-9.378381E-1,-7.16583E-1,-1.7528492E-1,-7.051062E-1,3.916113E0,-6.560127E-1,-2.7530446E0,-6.751872E0,4.513994E-1,1.208147E-1,-3.5693252E-1,2.9286628E-3,-8.0491513E-1,-3.7828684E-1],"categories":[],"categories_nodes":[],"categories_segments":[],"categories_sizes":[],"default_left":[0,0,0,0,0,0,0,0,0,0,0,0,0,0,0,0,0,0,0,0,0],"id":2,"left_children":[1,3,5,7,9,11,13,-1,-1,-1,-1,15,-1,17,19,-1,-1,-1,-1,-1,-1],"loss_changes":[3.2665525E4,5.9375195E2,2.5605496E4,3.5348633E2,3.0300958E2,4.367838E3,2.0037275E3,0E0,0E0,0E0,0E0,2.4441562E3,0E0,6.610127E2,8.323154E2,0E0,0E0,0E0,0E0,0E0,0E0],"parents":[2147483647,0,0,1,1,2,2,3,3,4,4,5,5,6,6,11,11,13,13,14,14],"right_children":[2,4,6,8,10,12,14,-1,-1,-1,-1,16,-1,18,20,-1,-1,-1,-1,-1,-1],"split_conditions":[4E0,3E0,2E1,5E0,2E0,5E0,2.2E1,-9.378381E-1,-7.16583E-1,-1.7528492E-1,-7.051062E-1,1.8E1,-6.560127E-1,4E0,4E0,4.513994E-1,1.208147E-1,-3.5693252E-1,2.9286628E-3,-8.0491513E-1,-3.7828684E-1],"split_indices":[1,1,1,0,0,0,1,0,0,0,0,1,0,0,0,0,0,0,0,0,0],"split_type":[0,0,0,0,0,0,0,0,0,0,0,0,0,0,0,0,0,0,0,0,0],"sum_hessian":[2.476E3,4.11E2,2.065E3,3.67E2,4.4E1,1.552E3,5.13E2,2.27E2,1.4E2,2.2E1,2.2E1,1.512E3,4E1,2.9E2,2.23E2,1.238E3,2.74E2,2.24E2,6.6E1,1.54E2,6.9E1],"tree_param":{"num_deleted":"0","num_feature":"2","num_nodes":"21","size_leaf_vector":"1"}},{"base_weights":[-4.7968714E-3,-7.3266096E0,1.4553152E0,-7.7050047E0,-4.0693636E0,3.6175053E0,-3.2394E0,-8.4446555E-1,-6.454329E-1,-1.5851851E-1,-6.3766134E-1,3.8992689E0,-5.920115E-1,-7.865174E-1,-4.982037E0,2.1371277E-1,4.1100755E-1,-1.9453155E-1,3.8658455E-2,-6.1395323E-1,-2.1471648E-1],"categories":[],"categories_nodes":[],"categories_segments":[],"categories_sizes":[],"default_left":[0,0,0,0,0,0,0,0,0,0,0,0,0,0,0,0,0,0,0,0,0],"id":3,"left_children":[1,3,5,7,9,11,13,-1,-1,-1,-1,15,-1,17,19,-1,-1,-1,-1,-1,-1],"loss_changes":[2.6491447E4,4.7644727E2,2.098341E4,2.8591797E2,2.4781476E2,3.8256895E3,2.783045E3,0E0,0E0,0E0,0E0,5.0198828E2,0E0,3.7050565E2,1.2370117E3,0E0,0E0,0E0,0E0,0E0,0E0],"parents":[2147483647,0,0,1,1,2,2,3,3,4,4,5,5,6,6,11,11,13,13,14,14],"right_children":[2,4,6,8,10,12,14,-1,-1,-1,-1,16,-1,18,20,-1,-1,-1,-1,-1,-1],"split_conditions":[4E0,3E0,1.9E1,5E0,2E0,5E0,2.1E1,-8.4446555E-1,-6.454329E-1,-1.5851851E-1,-6.3766134E-1,6E0,-5.920115E-1,3E0,4E0,2.1371277E-1,4.1100755E-1,-1.9453155E-1,3.8658455E-2,-6.1395323E-1,-2.1471648E-1],"split_indices":[1,1,1,0,0,0,1,0,0,0,0,1,0,0,0,0,0,0,0,0,0],"split_type":[0,0,0,0,0,0,0,0,0,0,0,0,0,0,0,0,0,0,0,0,0],"sum_hessian":[2.476E3,4.11E2,2.065E3,3.67E2,4.4E1,1.414E3,6.51E2,2.27E2,1.4E2,2.2E1,2.2E1,1.374E3,4E1,2.71E2,3.8E2,1.48E2,1.226E3,1.36E2,1.35E2,2.69E2,1.11E2],"tree_param":{"num_deleted":"0","num_feature":"2","num_nodes":"21","size_leaf_vector":"1"}},{"base_weights":[-5.6246202E-3,-6.599498E0,1.3093228E0,-6.9385533E0,-3.68012E0,3.2557776E0,-2.9169698E0,-7.603894E-1,-5.813474E-1,-1.4335583E-1,-5.7666767E-1,3.509796E0,-5.3425425E-1,-1.5125129E0,-5.5937333E0,1.924849E-1,3.6994025E-1,-2.3104031E-1,7.941493E-2,-7.278718E-1,-3.904023E-1],"categories":[],"categories_nodes":[],"categories_segments":[],"categories_sizes":[],"default_left":[0,0,0,0,0,0,0,0,0,0,0,0,0,0,0,0,0,0,0,0,0],"id":4,"left_children":[1,3,5,7,9,11,13,-1,-1,-1,-1,15,-1,17,19,-1,-1,-1,-1,-1,-1],"loss_changes":[2.1485707E4,3.822754E2,1.7005008E4,2.3126562E2,2.0267413E2,3.1092979E3,2.4426675E3,0E0,0E0,0E0,0E0,4.060879E2,0E0,7.913937E2,6.093418E2,0E0,0E0,0E0,0E0,0E0,0E0],"parents":[2147483647,0,0,1,1,2,2,3,3,4,4,5,5,6,6,11,11,13,13,14,14],"right_children":[2,4,6,8,10,12,14,-1,-1,-1,-1,16,-1,18,20,-1,-1,-1,-1,-1,-1],"split_conditions":[4E0,3E0,1.9E1,5E0,2E0,5E0,2.2E1,-7.603894E-1,-5.813474E-1,-1.4335583E-1,-5.7666767E-1,6E0,-5.3425425E-1,4E0,3E0,1.924849E-1,3.6994025E-1,-2.3104031E-1,7.941493E-2,-7.278718E-1,-3.904023E-1],"split_indices":[1,1,1,0,0,0,1,0,0,0,0,1,0,0,0,0,0,0,0,0,0],"split_type":[0,0,0,0,0,0,0,0,0,0,0,0,0,0,0,0,0,0,0,0,0],"sum_hessian":[2.476E3,4.11E2,2.065E3,3.67E2,4.4E1,1.414E3,6.51E2,2.27E2,1.4E2,2.2E1,2.2E1,1.374E3,4E1,4.28E2,2.23E2,1.48E2,1.226E3,3.18E2,1.1E2,1.1E2,1.13E2],"tree_param":{"num_deleted":"0","num_feature":"2","num_nodes":"21","size_leaf_vector":"1"}},{"base_weights":[-6.3956524E-3,-5.9445524E0,1.1777897E0,-6.248344E0,-3.3281088E0,2.670544E0,-3.3347104E0,-6.84684E-1,-5.23625E-1,-1.2964359E-1,-5.2150816E-1,2.8717968E0,-4.8213196E-1,-2.0110867E0,-5.0393524E0,3.3274052E-1,8.086311E-2,-4.0458646E-1,-1.3482799E-1,-6.557403E-1,-3.5170457E-1],"categories":[],"categories_nodes":[],"categories_segments":[],"categories_sizes":[],"default_left":[0,0,0,0,0,0,0,0,0,0,0,0,0,0,0,0,0,0,0,0,0],"id":5,"left_children":[1,3,5,7,9,11,13,-1,-1,-1,-1,15,-1,17,19,-1,-1,-1,-1,-1,-1],"loss_changes":[1.7424963E4,3.0668457E2,1.3925592E4,1.870586E2,1.6575601E2,2.3553975E3,1.1496055E3,0E0,0E0,0E0,0E0,1.4195234E3,0E0,3.8700647E2,4.945879E2,0E0,0E0,0E0,0E0,0E0,0E0],"parents":[2147483647,0,0,1,1,2,2,3,3,4,4,5,5,6,6,11,11,13,13,14,14],"right_children":[2,4,6,8,10,12,14,-1,-1,-1,-1,16,-1,18,20,-1,-1,-1,-1,-1,-1],"split_conditions":[4E0,3E0,2E1,5E0,2E0,5E0,2.2E1,-6.84684E-1,-5.23625E-1,-1.2964359E-1,-5.2150816E-1,1.8E1,-4.8213196E-1,2E0,3E0,3.3274052E-1,8.086311E-2,-4.0458646E-1,-1.3482799E-1,-6.557403E-1,-3.5170457E-1],"split_indices":[1,1,1,0,0,0,1,0,0,0,0,1,0,0,0,0,0,0,0,0,0],"split_type":[0,0,0,0,0,0,0,0,0,0,0,0,0,0,0,0,0,0,0,0,0],"sum_hessian":[2.476E3,4.11E2,2.065E3,3.67E2,4.4E1,1.552E3,5.13E2,2.27E2,1.4E2,2.2E1,2.2E1,1.512E3,4E1,2.9E2,2.23E2,1.238E3,2.74E2,7E1,2.2E2,1.1E2,1.13E2],"tree_param":{"num_deleted":"0","num_feature":"2","num_nodes":"21","size_leaf_vector":"1"}},{"base_weights":[-7.1590506E-3,-5.3546104E0,1.0592287E0,-5.626793E0,-3.009768E0,2.4034452E0,-3.0042489E0,-6.1651587E0,-4.7163382E-1,-1.1724291E-1,-4.7162476E-1,2.5848904E0,-4.3509468E-1,-1.811832E0,-4.5399146E0,-5.5917794E-1,-6.505201E-1,2.994933E-1,7.280621E-2,-2.4033757E-1,2.017378E-2,-5.4468554E-1,-2.4668317E-1],"categories":[],"categories_nodes":[],"categories_segments":[],"categories_sizes":[],"default_left":[0,0,0,0,0,0,0,0,0,0,0,0,0,0,0,0,0,0,0,0,0,0,0],"id":6,"left_children":[1,3,5,7,9,11,13,15,-1,-1,-1,17,-1,19,21,-1,-1,-1,-1,-1,-1,-1,-1],"loss_changes":[1.4130655E4,2.4601367E2,1.1292113E4,1.5130176E2,1.3556262E2,1.9145283E3,9.329873E2,8.078125E0,0E0,0E0,0E0,1.1497871E3,0E0,3.4709924E2,4.077207E2,0E0,0E0,0E0,0E0,0E0,0E0,0E0,0E0],"parents":[2147483647,0,0,1,1,2,2,3,3,4,4,5,5,6,6,7,7,11,11,13,13,14,14],"right_children":[2,4,6,8,10,12,14,16,-1,-1,-1,18,-1,20,22,-1,-1,-1,-1,-1,-1,-1,-1],"split_conditions":[4E0,3E0,2E1,5E0,2E0,5E0,2.2E1,2E0,-4.7163382E-1,-1.1724291E-1,-4.7162476E-1,1.8E1,-4.3509468E-1,4E0,4E0,-5.5917794E-1,-6.505201E-1,2.994933E-1,7.280621E-2,-2.4033757E-1,2.017378E-2,-5.4468554E-1,-2.4668317E-1],"split_indices":[1,1,1,0,0,0,1,0,0,0,0,1,0,0,0,0,0,0,0,0,0,0,0],"split_type":[0,0,0,0,0,0,0,0,0,0,0,0,0,0,0,0,0,0,0,0,0,0,0],"sum_hessian":[2.476E3,4.11E2,2.065E3,3.67E2,4.4E1,1.552E3,5.13E2,2.27E2,1.4E2,2.2E1,2.2E1,1.512E3,4E1,2.9E2,2.23E2,9.1E1,1.36E2,1.238E3,2.74E2,2.24E2,6.6E1,1.54E2,6.9E1],"tree_param":{"num_deleted":"0","num_feature":"2","num_nodes":"23","size_leaf_vector":"1"}},{"base_weights":[-7.7936556E-3,-4.8246593E0,9.5278543E-1,-5.0686827E0,-2.7218773E0,2.3882296E0,-2.163942E0,-5.5539484E0,-4.2480493E-1,-1.0602837E-1,-4.2651287E-1,2.5747855E0,-3.926464E-1,-4.4857404E-1,-3.3828824E0,-5.038679E-1,-5.859429E-1,1.1056646E-1,2.751089E-1,-2.1608596E-1,1.5548952E-2,-4.2293915E-1,-1.3119857E-1],"categories":[],"categories_nodes":[],"categories_segments":[],"categories_sizes":[],"default_left":[0,0,0,0,0,0,0,0,0,0,0,0,0,0,0,0,0,0,0,0,0,0,0],"id":7,"left_children":[1,3,5,7,9,11,13,15,-1,-1,-1,17,-1,19,21,-1,-1,-1,-1,-1,-1,-1,-1],"loss_changes":[1.1465627E4,1.976123E2,9.248223E3,1.22953125E2,1.1086929E2,1.67704E3,1.3617695E3,6.364258E0,0E0,0E0,0E0,3.5309766E2,0E0,2.8167355E2,6.6235645E2,0E0,0E0,0E0,0E0,0E0,0E0,0E0,0E0],"parents":[2147483647,0,0,1,1,2,2,3,3,4,4,5,5,6,6,7,7,11,11,13,13,14,14],"right_children":[2,4,6,8,10,12,14,16,-1,-1,-1,18,-1,20,22,-1,-1,-1,-1,-1,-1,-1,-1],"split_conditions":[4E0,3E0,1.9E1,5E0,2E0,5E0,2.1E1,2E0,-4.2480493E-1,-1.0602837E-1,-4.2651287E-1,6E0,-3.926464E-1,2E0,4E0,-5.038679E-1,-5.859429E-1,1.1056646E-1,2.751089E-1,-2.1608596E-1,1.5548952E-2,-4.2293915E-1,-1.3119857E-1],"split_indices":[1,1,1,0,0,0,1,0,0,0,0,1,0,0,0,0,0,0,0,0,0,0,0],"split_type":[0,0,0,0,0,0,0,0,0,0,0,0,0,0,0,0,0,0,0,0,0,0,0],"sum_hessian":[2.476E3,4.11E2,2.065E3,3.67E2,4.4E1,1.414E3,6.51E2,2.27E2,1.4E2,2.2E1,2.2E1,1.374E3,4E1,2.71E2,3.8E2,9.1E1,1.36E2,1.48E2,1.226E3,7E1,2.01E2,2.69E2,1.11E2],"tree_param":{"num_deleted":"0","num_feature":"2","num_nodes":"23","size_leaf_vector":"1"}},{"base_weights":[-8.147949E-3,-4.3471622E0,8.5713863E-1,-4.5659304E0,-2.4615238E0,2.1494021E0,-1.9487052E0,-5.0033336E0,-3.8262573E-1,-9.588651E-2,-3.85716E-1,2.3175879E0,-3.543394E-1,-9.993077E-1,-3.7582712E0,-4.5402882E-1,-5.277763E-1,9.9584065E-2,2.4762046E-1,-1.609331E-1,7.628253E-2,-4.9486622E-1,-2.566239E-1],"categories":[],"categories_nodes":[],"categories_segments":[],"categories_sizes":[],"default_left":[0,0,0,0,0,0,0,0,0,0,0,0,0,0,0,0,0,0,0,0,0,0,0],"id":8,"left_children":[1,3,5,7,9,11,13,15,-1,-1,-1,17,-1,19,21,-1,-1,-1,-1,-1,-1,-1,-1],"loss_changes":[9.303601E3,1.5871777E2,7.4952773E3,9.991699E1,9.067389E1,1.3629995E3,1.1163784E3,5.010742E0,0E0,0E0,0E0,2.858037E2,0E0,4.6237784E2,3.0515308E2,0E0,0E0,0E0,0E0,0E0,0E0,0E0,0E0],"parents":[2147483647,0,0,1,1,2,2,3,3,4,4,5,5,6,6,7,7,11,11,13,13,14,14],"right_children":[2,4,6,8,10,12,14,16,-1,-1,-1,18,-1,20,22,-1,-1,-1,-1,-1,-1,-1,-1],"split_conditions":[4E0,3E0,1.9E1,5E0,2E0,5E0,2.2E1,2E0,-3.8262573E-1,-9.588651E-2,-3.85716E-1,6E0,-3.543394E-1,4E0,3E0,-4.5402882E-1,-5.277763E-1,9.9584065E-2,2.4762046E-1,-1.609331E-1,7.628253E-2,-4.9486622E-1,-2.566239E-1],"split_indices":[1,1,1,0,0,0,1,0,0,0,0,1,0,0,0,0,0,0,0,0,0,0,0],"split_type":[0,0,0,0,0,0,0,0,0,0,0,0,0,0,0,0,0,0,0,0,0,0,0],"sum_hessian":[2.476E3,4.11E2,2.065E3,3.67E2,4.4E1,1.414E3,6.51E2,2.27E2,1.4E2,2.2E1,2.2E1,1.374E3,4E1,4.28E2,2.23E2,9.1E1,1.36E2,1.48E2,1.226E3,3.18E2,1.1E2,1.1E2,1.13E2],"tree_param":{"num_deleted":"0","num_feature":"2","num_nodes":"23","size_leaf_vector":"1"}},{"base_weights":[-8.418427E-3,-3.9169269E0,7.7101713E-1,-4.1130447E0,-2.2260737E0,1.7625201E0,-2.2262106E0,-4.5073066E0,-3.4463453E-1,-8.671479E-2,-3.488214E-1,1.8957695E0,-3.1976968E-1,-1.3259562E0,-3.385799E0,-4.0911943E-1,-4.753839E-1,2.2107127E-1,4.69913E-2,-2.9072103E-1,-8.1195176E-2,-4.4582543E-1,-2.3118658E-1],"categories":[],"categories_nodes":[],"categories_segments":[],"categories_sizes":[],"default_left":[0,0,0,0,0,0,0,0,0,0,0,0,0,0,0,0,0,0,0,0,0,0,0],"id":9,"left_children":[1,3,5,7,9,11,13,15,-1,-1,-1,17,-1,19,21,-1,-1,-1,-1,-1,-1,-1,-1],"loss_changes":[7.5490283E3,1.2746582E2,6.14358E3,8.119678E1,7.415718E1,1.0325112E3,5.3208765E2,3.9404297E0,0E0,0E0,0E0,6.7839453E2,0E0,2.3415607E2,2.4768408E2,0E0,0E0,0E0,0E0,0E0,0E0,0E0,0E0],"parents":[2147483647,0,0,1,1,2,2,3,3,4,4,5,5,6,6,7,7,11,11,13,13,14,14],"right_children":[2,4,6,8,10,12,14,16,-1,-1,-1,18,-1,20,22,-1,-1,-1,-1,-1,-1,-1,-1],"split_conditions":[4E0,3E0,2E1,5E0,2E0,5E0,2.2E1,2E0,-3.4463453E-1,-8.671479E-2,-3.488214E-1,1.8E1,-3.1976968E-1,2E0,3E0,-4.0911943E-1,-4.753839E-1,2.2107127E-1,4.69913E-2,-2.9072103E-1,-8.1195176E-2,-4.4582543E-1,-2.3118658E-1],"split_indices":[1,1,1,0,0,0,1,0,0,0,0,1,0,0,0,0,0,0,0,0,0,0,0],"split_type":[0,0,0,0,0,0,0,0,0,0,0,0,0,0,0,0,0,0,0,0,0,0,0],"sum_hessian":[2.476E3,4.11E2,2.065E3,3.67E2,4.4E1,1.552E3,5.13E2,2.27E2,1.4E2,2.2E1,2.2E1,1.512E3,4E1,2.9E2,2.23E2,9.1E1,1.36E2,1.238E3,2.74E2,7E1,2.2E2,1.1E2,1.13E2],"tree_param":{"num_deleted":"0","num_feature":"2","num_nodes":"23","size_leaf_vector":"1"}},{"base_weights":[-8.692983E-3,-3.5292747E0,6.933827E-1,-3.7050805E0,-2.0131452E0,1.5862348E0,-2.0056303E0,-4.0604553E0,-3.104155E-1,-7.842033E-2,-3.1545588E-1,1.7063698E0,-2.8857264E-1,-1.194639E0,-3.0502412E0,-3.686522E-1,-4.2819253E-1,1.98982E-1,4.230925E-2,-2.620584E-1,-7.311243E-2,-4.0164453E-1,-2.0827071E-1],"categories":[],"categories_nodes":[],"categories_segments":[],"categories_sizes":[],"default_left":[0,0,0,0,0,0,0,0,0,0,0,0,0,0,0,0,0,0,0,0,0,0,0],"id":10,"left_children":[1,3,5,7,9,11,13,15,-1,-1,-1,17,-1,19,21,-1,-1,-1,-1,-1,-1,-1,-1],"loss_changes":[6.1248843E3,1.0235791E2,4.9818687E3,6.59834E1,6.0649094E1,8.392556E2,4.318015E2,3.0966797E0,0E0,0E0,0E0,5.495049E2,0E0,1.9041943E2,2.0103784E2,0E0,0E0,0E0,0E0,0E0,0E0,0E0,0E0],"parents":[2147483647,0,0,1,1,2,2,3,3,4,4,5,5,6,6,7,7,11,11,13,13,14,14],"right_children":[2,4,6,8,10,12,14,16,-1,-1,-1,18,-1,20,22,-1,-1,-1,-1,-1,-1,-1,-1],"split_conditions":[4E0,3E0,2E1,5E0,2E0,5E0,2.2E1,2E0,-3.104155E-1,-7.842033E-2,-3.1545588E-1,1.8E1,-2.8857264E-1,2E0,3E0,-3.686522E-1,-4.2819253E-1,1.98982E-1,4.230925E-2,-2.620584E-1,-7.311243E-2,-4.0164453E-1,-2.0827071E-1],"split_indices":[1,1,1,0,0,0,1,0,0,0,0,1,0,0,0,0,0,0,0,0,0,0,0],"split_type":[0,0,0,0,0,0,0,0,0,0,0,0,0,0,0,0,0,0,0,0,0,0,0],"sum_hessian":[2.476E3,4.11E2,2.065E3,3.67E2,4.4E1,1.552E3,5.13E2,2.27E2,1.4E2,2.2E1,2.2E1,1.512E3,4E1,2.9E2,2.23E2,9.1E1,1.36E2,1.238E3,2.74E2,7E1,2.2E2,1.1E2,1.13E2],"tree_param":{"num_deleted":"0","num_feature":"2","num_nodes":"23","size_leaf_vector":"1"}},{"base_weights":[-8.83037E-3,-3.1799905E0,6.23564E-1,-3.6513557E0,-2.7046869E0,1.575562E0,-1.4434617E0,-2.9386017E-1,-3.8020152E-1,-2.9294138E0,-1.8205833E0,1.6990489E0,-2.604192E-1,-2.3664647E-1,-2.3012314E0,-3.308023E-1,-2.6368135E-1,-7.091922E-2,-2.8528187E-1,1.254667E-1,2.191334E-1,-1.651108E-1,2.6168723E-2,-2.947024E-1,-7.238626E-2],"categories":[],"categories_nodes":[],"categories_segments":[],"categories_sizes":[],"default_left":[0,0,0,0,0,0,0,0,0,0,0,0,0,0,0,0,0,0,0,0,0,0,0,0,0],"id":11,"left_children":[1,3,5,7,9,11,13,-1,-1,15,17,19,-1,21,23,-1,-1,-1,-1,-1,-1,-1,-1,-1,-1],"loss_changes":[4.969418E3,8.24292E1,4.0677578E3,1.0733643E1,3.6191284E1,7.3476904E2,6.74386E2,0E0,0E0,9.556152E0,4.9601578E1,2.9804907E2,0E0,1.9215775E2,3.8597388E2,0E0,0E0,0E0,0E0,0E0,0E0,0E0,0E0,0E0,0E0],"parents":[2147483647,0,0,1,1,2,2,3,3,4,4,5,5,6,6,9,9,10,10,11,11,13,13,14,14],"right_children":[2,4,6,8,10,12,14,-1,-1,16,18,20,-1,22,24,-1,-1,-1,-1,-1,-1,-1,-1,-1,-1],"split_conditions":[4E0,2E0,1.9E1,1E0,3E0,5E0,2.1E1,-2.9386017E-1,-3.8020152E-1,2E0,2E0,1.3E1,-2.604192E-1,2E0,4E0,-3.308023E-1,-2.6368135E-1,-7.091922E-2,-2.8528187E-1,1.254667E-1,2.191334E-1,-1.651108E-1,2.6168723E-2,-2.947024E-1,-7.238626E-2],"split_indices":[1,1,1,1,1,0,1,0,0,0,0,1,0,0,0,0,0,0,0,0,0,0,0,0,0],"split_type":[0,0,0,0,0,0,0,0,0,0,0,0,0,0,0,0,0,0,0,0,0,0,0,0,0],"sum_hessian":[2.476E3,4.11E2,2.065E3,2.03E2,2.08E2,1.414E3,6.51E2,3.9E1,1.64E2,1.64E2,4.4E1,1.374E3,4E1,2.71E2,3.8E2,6.7E1,9.7E1,2.2E1,2.2E1,7.24E2,6.5E2,7E1,2.01E2,2.69E2,1.11E2],"tree_param":{"num_deleted":"0","num_feature":"2","num_nodes":"25","size_leaf_vector":"1"}},{"base_weights":[-8.77376E-3,-2.865935E0,5.610032E-1,-3.2895246E0,-2.4387667E0,1.4180651E0,-1.2998917E0,-2.652088E-1,-3.4241182E-1,-2.6400754E0,-1.6464407E0,1.5293943E0,-2.3501241E-1,-2.1349277E-1,-2.0720718E0,-2.9820853E-1,-2.3758228E-1,-6.413566E-2,-2.5799406E-1,1.2683998E-1,2.3170774E-1,-1.4883229E-1,2.3564797E-2,-2.6534134E-1,-6.52123E-2],"categories":[],"categories_nodes":[],"categories_segments":[],"categories_sizes":[],"default_left":[0,0,0,0,0,0,0,0,0,0,0,0,0,0,0,0,0,0,0,0,0,0,0,0,0],"id":12,"left_children":[1,3,5,7,9,11,13,-1,-1,15,17,19,-1,21,23,-1,-1,-1,-1,-1,-1,-1,-1,-1,-1],"loss_changes":[4.034027E3,6.652661E1,3.2969106E3,8.420898E0,2.8989136E1,5.972002E2,5.465177E2,0E0,0E0,7.8273926E0,4.0566406E1,2.7973486E2,0E0,1.5609195E2,3.1277563E2,0E0,0E0,0E0,0E0,0E0,0E0,0E0,0E0,0E0,0E0],"parents":[2147483647,0,0,1,1,2,2,3,3,4,4,5,5,6,6,9,9,10,10,11,11,13,13,14,14],"right_children":[2,4,6,8,10,12,14,-1,-1,16,18,20,-1,22,24,-1,-1,-1,-1,-1,-1,-1,-1,-1,-1],"split_conditions":[4E0,2E0,1.9E1,1E0,3E0,5E0,2.1E1,-2.652088E-1,-3.4241182E-1,2E0,2E0,4E0,-2.3501241E-1,2E0,4E0,-2.9820853E-1,-2.3758228E-1,-6.413566E-2,-2.5799406E-1,1.2683998E-1,2.3170774E-1,-1.4883229E-1,2.3564797E-2,-2.6534134E-1,-6.52123E-2],"split_indices":[1,1,1,1,1,0,1,0,0,0,0,0,0,0,0,0,0,0,0,0,0,0,0,0,0],"split_type":[0,0,0,0,0,0,0,0,0,0,0,0,0,0,0,0,0,0,0,0,0,0,0,0,0],"sum_hessian":[2.476E3,4.11E2,2.065E3,2.03E2,2.08E2,1.414E3,6.51E2,3.9E1,1.64E2,1.64E2,4.4E1,1.374E3,4E1,2.71E2,3.8E2,6.7E1,9.7E1,2.2E1,2.2E1,1.034E3,3.4E2,7E1,2.01E2,2.69E2,1.11E2],"tree_param":{"num_deleted":"0","num_feature":"2","num_nodes":"25","size_leaf_vector":"1"}},{"base_weights":[-8.622462E-3,-2.5828986E0,5.047417E-1,-2.9635506E0,-2.1989949E0,1.1610711E0,-1.4792743E0,-2.3935099E-1,-3.0837813E-1,-2.379315E0,-1.4889551E0,-3.0223167E-1,1.3628317E0,-8.266306E-1,-2.3205245E0,-2.6882622E-1,-2.1406649E-1,-5.8000963E-2,-2.3331635E-1,2.7667126E-1,-7.8692876E-2,4.0276352E-2,1.711545E-1,-1.1893636E-1,4.038403E-2,-3.0634207E-1,-1.5768228E-1],"categories":[],"categories_nodes":[],"categories_segments":[],"categories_sizes":[],"default_left":[0,0,0,0,0,0,0,0,0,0,0,0,0,0,0,0,0,0,0,0,0,0,0,0,0,0,0],"id":13,"left_children":[1,3,5,7,9,11,13,-1,-1,15,17,19,21,23,25,-1,-1,-1,-1,-1,-1,-1,-1,-1,-1,-1,-1],"loss_changes":[3.2747612E3,5.369043E1,2.6919966E3,6.600342E0,2.3216553E1,4.5891455E2,2.8028662E2,0E0,0E0,6.4108276E0,3.3177017E1,2.8331625E2,4.5629712E2,1.3036302E2,1.1892798E2,0E0,0E0,0E0,0E0,0E0,0E0,0E0,0E0,0E0,0E0,0E0,0E0],"parents":[2147483647,0,0,1,1,2,2,3,3,4,4,5,5,6,6,9,9,10,10,11,11,12,12,13,13,14,14],"right_children":[2,4,6,8,10,12,14,-1,-1,16,18,20,22,24,26,-1,-1,-1,-1,-1,-1,-1,-1,-1,-1,-1,-1],"split_conditions":[4E0,2E0,2E1,1E0,3E0,6E0,2.2E1,-2.3935099E-1,-3.0837813E-1,2E0,2E0,2E0,2E0,4E0,3E0,-2.6882622E-1,-2.1406649E-1,-5.8000963E-2,-2.3331635E-1,2.7667126E-1,-7.8692876E-2,4.0276352E-2,1.711545E-1,-1.1893636E-1,4.038403E-2,-3.0634207E-1,-1.5768228E-1],"split_indices":[1,1,1,1,1,1,1,0,0,0,0,0,0,0,0,0,0,0,0,0,0,0,0,0,0,0,0],"split_type":[0,0,0,0,0,0,0,0,0,0,0,0,0,0,0,0,0,0,0,0,0,0,0,0,0,0,0],"sum_hessian":[2.476E3,4.11E2,2.065E3,2.03E2,2.08E2,1.552E3,5.13E2,3.9E1,1.64E2,1.64E2,4.4E1,1.88E2,1.364E3,2.9E2,2.23E2,6.7E1,9.7E1,2.2E1,2.2E1,2.5E1,1.63E2,3.64E2,1E3,2.24E2,6.6E1,1.1E2,1.13E2],"tree_param":{"num_deleted":"0","num_feature":"2","num_nodes":"27","size_leaf_vector":"1"}},{"base_weights":[-8.347393E-3,-2.3278174E0,4.5420343E-1,-2.6698804E0,-1.9827999E0,1.1617343E0,-1.0820088E0,-2.7872636E0,-2.1796854E-1,-2.1443102E0,-1.3465335E0,-2.7096057E-1,1.3814716E0,-2.1368814E-1,-1.6990725E0,-2.2369309E-1,-2.8673443E-1,-2.4233894E-1,-1.9287828E-1,-5.2453082E-2,-2.1099913E-1,2.500683E-1,-7.0871525E-2,1.11673616E-1,2.1957815E-1,-1.325235E-1,1.7806195E-2,-2.1878938E-1,-5.0549358E-2],"categories":[],"categories_nodes":[],"categories_segments":[],"categories_sizes":[],"default_left":[0,0,0,0,0,0,0,0,0,0,0,0,0,0,0,0,0,0,0,0,0,0,0,0,0,0,0,0,0],"id":14,"left_children":[1,3,5,7,9,11,13,15,-1,17,19,21,23,25,27,-1,-1,-1,-1,-1,-1,-1,-1,-1,-1,-1,-1,-1,-1],"loss_changes":[2.658563E3,4.332959E1,2.246829E3,5.662842E0,1.859021E1,4.458396E2,3.4898462E2,6.813965E-1,0E0,5.2504883E0,2.7133636E1,2.3108598E2,2.6206055E2,1.18677986E2,2.2118713E2,0E0,0E0,0E0,0E0,0E0,0E0,0E0,0E0,0E0,0E0,0E0,0E0,0E0,0E0],"parents":[2147483647,0,0,1,1,2,2,3,3,4,4,5,5,6,6,7,7,9,9,10,10,11,11,12,12,13,13,14,14],"right_children":[2,4,6,8,10,12,14,16,-1,18,20,22,24,26,28,-1,-1,-1,-1,-1,-1,-1,-1,-1,-1,-1,-1,-1,-1],"split_conditions":[4E0,2E0,1.9E1,5E0,3E0,6E0,2.1E1,2E0,-2.1796854E-1,2E0,2E0,2E0,4E0,2E0,4E0,-2.2369309E-1,-2.8673443E-1,-2.4233894E-1,-1.9287828E-1,-5.2453082E-2,-2.1099913E-1,2.500683E-1,-7.0871525E-2,1.11673616E-1,2.1957815E-1,-1.325235E-1,1.7806195E-2,-2.1878938E-1,-5.0549358E-2],"split_indices":[1,1,1,0,1,1,1,0,0,0,0,0,0,0,0,0,0,0,0,0,0,0,0,0,0,0,0,0,0],"split_type":[0,0,0,0,0,0,0,0,0,0,0,0,0,0,0,0,0,0,0,0,0,0,0,0,0,0,0,0,0],"sum_hessian":[2.476E3,4.11E2,2.065E3,2.03E2,2.08E2,1.414E3,6.51E2,1.6E2,4.3E1,1.64E2,4.4E1,1.88E2,1.226E3,2.71E2,3.8E2,2.4E1,1.36E2,6.7E1,9.7E1,2.2E1,2.2E1,2.5E1,1.63E2,9.27E2,2.99E2,7E1,2.01E2,2.69E2,1.11E2],"tree_param":{"num_deleted":"0","num_feature":"2","num_nodes":"29","size_leaf_vector":"1"}},{"base_weights":[-8.037605E-3,-2.0984995E0,4.0884444E-1,-2.406463E0,-1.7878628E0,1.0459219E0,-9.7439694E-1,-1.9132404E-1,-2.5114474E0,-1.9325168E0,-1.2177347E0,1.1352375E0,-1.9749272E-1,-4.76006E-1,-1.9245546E0,-2.6956397E-1,-2.2544749E-1,-2.184614E-1,-1.7378727E-1,-4.743584E-2,-1.9081661E-1,8.2384616E-2,1.6601263E-1,-8.772964E-2,6.815403E-2,-2.54302E-1,-1.3054828E-1],"categories":[],"categories_nodes":[],"categories_segments":[],"categories_sizes":[],"default_left":[0,0,0,0,0,0,0,0,0,0,0,0,0,0,0,0,0,0,0,0,0,0,0,0,0,0,0],"id":15,"left_children":[1,3,5,7,9,11,13,-1,15,17,19,21,-1,23,25,-1,-1,-1,-1,-1,-1,-1,-1,-1,-1,-1,-1],"loss_changes":[2.1595042E3,3.511145E1,1.8216442E3,5.758301E0,1.4883179E1,3.8402136E2,3.0783844E2,0E0,1.732544E0,4.2998657E0,2.2191109E1,2.2337024E2,0E0,1.9987363E2,8.244397E1,0E0,0E0,0E0,0E0,0E0,0E0,0E0,0E0,0E0,0E0,0E0,0E0],"parents":[2147483647,0,0,1,1,2,2,3,3,4,4,5,5,6,6,8,8,9,9,10,10,11,11,13,13,14,14],"right_children":[2,4,6,8,10,12,14,-1,16,18,20,22,-1,24,26,-1,-1,-1,-1,-1,-1,-1,-1,-1,-1,-1,-1],"split_conditions":[4E0,2E0,1.9E1,1E0,3E0,5E0,2.2E1,-1.9132404E-1,4E0,2E0,2E0,1.5E1,-1.9749272E-1,4E0,3E0,-2.6956397E-1,-2.2544749E-1,-2.184614E-1,-1.7378727E-1,-4.743584E-2,-1.9081661E-1,8.2384616E-2,1.6601263E-1,-8.772964E-2,6.815403E-2,-2.54302E-1,-1.3054828E-1],"split_indices":[1,1,1,1,1,0,1,0,0,0,0,1,0,0,0,0,0,0,0,0,0,0,0,0,0,0,0],"split_type":[0,0,0,0,0,0,0,0,0,0,0,0,0,0,0,0,0,0,0,0,0,0,0,0,0,0,0],"sum_hessian":[2.476E3,4.11E2,2.065E3,2.03E2,2.08E2,1.414E3,6.51E2,3.9E1,1.64E2,1.64E2,4.4E1,1.374E3,4E1,4.28E2,2.23E2,9E1,7.4E1,6.7E1,9.7E1,2.2E1,2.2E1,8.64E2,5.1E2,3.18E2,1.1E2,1.1E2,1.13E2],"tree_param":{"num_deleted":"0","num_feature":"2","num_nodes":"27","size_leaf_vector":"1"}},{"base_weights":[-7.907886E-3,-1.8918457E0,3.6778927E-1,-2.169181E0,-1.6120933E0,1.0397513E0,-7.2333664E-1,-1.7266995E-1,-2.2633028E0,-1.7416424E0,-1.1012559E0,6.280384E-1,2.030579E0,-1.3442798E0,8.17163E-1,-1.7634042E-1,-2.3358856E-1,-1.9693653E-1,-1.5658587E-1,-4.2898506E-2,-1.7256461E-1,7.415573E-2,-1.7822514E-1,9.733568E-2,2.5303844E-1,-1.0608206E-1,-2.081745E-1,3.813471E-1,1.3607772E-3],"categories":[],"categories_nodes":[],"categories_segments":[],"categories_sizes":[],"default_left":[0,0,0,0,0,0,0,0,0,0,0,0,0,0,0,0,0,0,0,0,0,0,0,0,0,0,0,0,0],"id":16,"left_children":[1,3,5,7,9,11,13,-1,15,17,19,21,23,25,27,-1,-1,-1,-1,-1,-1,-1,-1,-1,-1,-1,-1,-1,-1],"loss_changes":[1.753892E3,2.846814E1,1.5155332E3,4.5880127E0,1.1913269E1,5.204756E2,7.548699E2,0E0,1.8677368E0,3.5212402E0,1.8148895E1,2.489418E2,1.9568909E2,1.1527283E2,5.4649567E2,0E0,0E0,0E0,0E0,0E0,0E0,0E0,0E0,0E0,0E0,0E0,0E0,0E0,0E0],"parents":[2147483647,0,0,1,1,2,2,3,3,4,4,5,5,6,6,8,8,9,9,10,10,11,11,12,12,13,13,14,14],"right_children":[2,4,6,8,10,12,14,-1,16,18,20,22,24,26,28,-1,-1,-1,-1,-1,-1,-1,-1,-1,-1,-1,-1,-1,-1],"split_conditions":[4E0,2E0,1.8E1,1E0,3E0,1.5E1,4E0,-1.7266995E-1,2E0,2E0,2E0,5E0,2E0,2.2E1,1.9E1,-1.7634042E-1,-2.3358856E-1,-1.9693653E-1,-1.5658587E-1,-4.2898506E-2,-1.7256461E-1,7.415573E-2,-1.7822514E-1,9.733568E-2,2.5303844E-1,-1.0608206E-1,-2.081745E-1,3.813471E-1,1.3607772E-3],"split_indices":[1,1,1,1,1,1,0,0,0,0,0,0,0,1,1,0,0,0,0,0,0,0,0,0,0,0,0,0,0],"split_type":[0,0,0,0,0,0,0,0,0,0,0,0,0,0,0,0,0,0,0,0,0,0,0,0,0,0,0,0,0],"sum_hessian":[2.476E3,4.11E2,2.065E3,2.03E2,2.08E2,1.278E3,7.87E2,3.9E1,1.64E2,1.64E2,4.4E1,9.04E2,3.74E2,5.61E2,2.26E2,2.4E1,1.4E2,6.7E1,9.7E1,2.2E1,2.2E1,8.64E2,4E1,1.21E2,2.53E2,4.07E2,1.54E2,4.7E1,1.79E2],"tree_param":{"num_deleted":"0","num_feature":"2","num_nodes":"29","size_leaf_vector":"1"}},{"base_weights":[-7.4549667E-3,-1.7054564E0,3.3116266E-1,-1.9551189E0,-1.4536065E0,9.3596864E-1,-6.5091604E-1,-2.1366997E0,-1.7198999E0,-1.5696207E0,-9.959185E-1,5.6511945E-1,1.8284554E0,-1.2104108E0,7.3713243E-1,-1.5941173E-1,-2.2680543E-1,-1.3276818E-1,-1.8015595E-1,-1.7753248E-1,-1.410871E-1,-3.8795196E-2,-1.5605843E-1,6.674872E-2,-1.6083734E-1,8.768188E-2,2.2783421E-1,-8.0695726E-2,-1.6437498E-1,3.4400678E-1,1.2254467E-3],"categories":[],"categories_nodes":[],"categories_segments":[],"categories_sizes":[],"default_left":[0,0,0,0,0,0,0,0,0,0,0,0,0,0,0,0,0,0,0,0,0,0,0,0,0,0,0,0,0,0,0],"id":17,"left_children":[1,3,5,7,9,11,13,15,17,19,21,23,25,27,29,-1,-1,-1,-1,-1,-1,-1,-1,-1,-1,-1,-1,-1,-1,-1,-1],"loss_changes":[1.4247733E3,2.3063599E1,1.2277451E3,5.038208E0,9.534302E0,4.222876E2,6.1285767E2,4.2955017E0,6.187439E-1,2.8834229E0,1.4842972E1,2.02432E2,1.5855054E2,9.69292E1,4.4471857E2,0E0,0E0,0E0,0E0,0E0,0E0,0E0,0E0,0E0,0E0,0E0,0E0,0E0,0E0,0E0,0E0],"parents":[2147483647,0,0,1,1,2,2,3,3,4,4,5,5,6,6,7,7,8,8,9,9,10,10,11,11,12,12,13,13,14,14],"right_children":[2,4,6,8,10,12,14,16,18,20,22,24,26,28,30,-1,-1,-1,-1,-1,-1,-1,-1,-1,-1,-1,-1,-1,-1,-1,-1],"split_conditions":[4E0,2E0,1.8E1,4E0,3E0,1.5E1,4E0,2E0,1E0,2E0,2E0,5E0,2E0,2.1E1,1.9E1,-1.5941173E-1,-2.2680543E-1,-1.3276818E-1,-1.8015595E-1,-1.7753248E-1,-1.410871E-1,-3.8795196E-2,-1.5605843E-1,6.674872E-2,-1.6083734E-1,8.768188E-2,2.2783421E-1,-8.0695726E-2,-1.6437498E-1,3.4400678E-1,1.2254467E-3],"split_indices":[1,1,1,0,1,1,0,0,1,0,0,0,0,1,1,0,0,0,0,0,0,0,0,0,0,0,0,0,0,0,0],"split_type":[0,0,0,0,0,0,0,0,0,0,0,0,0,0,0,0,0,0,0,0,0,0,0,0,0,0,0,0,0,0,0],"sum_hessian":[2.476E3,4.11E2,2.065E3,2.03E2,2.08E2,1.278E3,7.87E2,1.1E2,9.3E1,1.64E2,4.4E1,9.04E2,3.74E2,5.61E2,2.26E2,2.4E1,8.6E1,1.9E1,7.4E1,6.7E1,9.7E1,2.2E1,2.2E1,8.64E2,4E1,1.21E2,2.53E2,2.92E2,2.69E2,4.7E1,1.79E2],"tree_param":{"num_deleted":"0","num_feature":"2","num_nodes":"31","size_leaf_vector":"1"}},{"base_weights":[-7.0695532E-3,-1.537854E0,2.9820162E-1,-1.7630342E0,-1.3107027E0,6.29197E-1,-1.1673007E0,-1.9265091E0,-1.5512389E0,-1.4145898E0,-9.006567E-1,8.4254414E-1,-4.114671E-2,-1.4799834E0,-4.0308934E-1,-1.6859263E-1,-2.2298124E-1,-1.2015521E-1,-1.6238056E-1,-1.600403E-1,-1.2712236E-1,-3.5084322E-2,-1.4113113E-1,5.0850272E-2,1.6464506E-1,-7.265366E-2,1.6904083E-1,-1.3512976E-1,-2.6356778E-1,4.822566E-2,-9.411863E-2],"categories":[],"categories_nodes":[],"categories_segments":[],"categories_sizes":[],"default_left":[0,0,0,0,0,0,0,0,0,0,0,0,0,0,0,0,0,0,0,0,0,0,0,0,0,0,0,0,0,0,0],"id":18,"left_children":[1,3,5,7,9,11,13,15,17,19,21,23,25,27,29,-1,-1,-1,-1,-1,-1,-1,-1,-1,-1,-1,-1,-1,-1,-1,-1],"loss_changes":[1.1579716E3,1.8763E1,1.0028983E3,4.074707E0,7.628998E0,2.4115955E2,9.044556E1,4.3403015E0,4.3421936E-1,2.361023E0,1.2139267E1,3.426228E2,4.8543854E2,3.659326E1,5.3810913E1,0E0,0E0,0E0,0E0,0E0,0E0,0E0,0E0,0E0,0E0,0E0,0E0,0E0,0E0,0E0,0E0],"parents":[2147483647,0,0,1,1,2,2,3,3,4,4,5,5,6,6,7,7,8,8,9,9,10,10,11,11,12,12,13,13,14,14],"right_children":[2,4,6,8,10,12,14,16,18,20,22,24,26,28,30,-1,-1,-1,-1,-1,-1,-1,-1,-1,-1,-1,-1,-1,-1,-1,-1],"split_conditions":[4E0,2E0,2.1E1,4E0,3E0,1.8E1,4E0,3E0,1E0,2E0,2E0,1.5E1,4E0,2.3E1,2.2E1,-1.6859263E-1,-2.2298124E-1,-1.2015521E-1,-1.6238056E-1,-1.600403E-1,-1.2712236E-1,-3.5084322E-2,-1.4113113E-1,5.0850272E-2,1.6464506E-1,-7.265366E-2,1.6904083E-1,-1.3512976E-1,-2.6356778E-1,4.822566E-2,-9.411863E-2],"split_indices":[1,1,1,0,1,1,0,0,1,0,0,1,0,1,1,0,0,0,0,0,0,0,0,0,0,0,0,0,0,0,0],"split_type":[0,0,0,0,0,0,0,0,0,0,0,0,0,0,0,0,0,0,0,0,0,0,0,0,0,0,0,0,0,0,0],"sum_hessian":[2.476E3,4.11E2,2.065E3,2.03E2,2.08E2,1.685E3,3.8E2,1.1E2,9.3E1,1.64E2,4.4E1,1.278E3,4.07E2,2.69E2,1.11E2,6.5E1,4.5E1,1.9E1,7.4E1,6.7E1,9.7E1,2.2E1,2.2E1,9.04E2,3.74E2,2.92E2,1.15E2,2.44E2,2.5E1,4.2E1,6.9E1],"tree_param":{"num_deleted":"0","num_feature":"2","num_nodes":"31","size_leaf_vector":"1"}},{"base_weights":[-6.875105E-3,-1.3868294E0,2.6831755E-1,-1.5900352E0,-1.1818495E0,5.6646264E-1,-1.0517372E0,-1.7373859E0,-1.3991207E0,-1.2748711E0,-8.145068E-1,7.584587E-1,-3.679584E-2,-1.7579337E0,-7.511724E-1,-1.519888E-1,-2.0116787E-1,-1.0874045E-1,-1.4635901E-1,-1.4427163E-1,-1.14539824E-1,-3.1728398E-2,-1.2763165E-1,4.57709E-2,1.4822455E-1,-6.54131E-2,1.5228248E-1,-1.553501E-1,-2.382247E-1,-2.101686E-2,-1.13577284E-1],"categories":[],"categories_nodes":[],"categories_segments":[],"categories_sizes":[],"default_left":[0,0,0,0,0,0,0,0,0,0,0,0,0,0,0,0,0,0,0,0,0,0,0,0,0,0,0,0,0,0,0],"id":19,"left_children":[1,3,5,7,9,11,13,15,17,19,21,23,25,27,29,-1,-1,-1,-1,-1,-1,-1,-1,-1,-1,-1,-1,-1,-1,-1,-1],"loss_changes":[9.410211E2,1.5281921E1,8.137069E2,3.3079224E0,6.103302E0,1.9530591E2,7.954974E1,3.5645447E0,2.975464E-1,1.933197E0,9.928045E0,2.777326E2,3.9382205E2,1.07213745E1,5.573221E1,0E0,0E0,0E0,0E0,0E0,0E0,0E0,0E0,0E0,0E0,0E0,0E0,0E0,0E0,0E0,0E0],"parents":[2147483647,0,0,1,1,2,2,3,3,4,4,5,5,6,6,7,7,8,8,9,9,10,10,11,11,12,12,13,13,14,14],"right_children":[2,4,6,8,10,12,14,16,18,20,22,24,26,28,30,-1,-1,-1,-1,-1,-1,-1,-1,-1,-1,-1,-1,-1,-1,-1,-1],"split_conditions":[4E0,2E0,2.1E1,4E0,3E0,1.8E1,2E0,3E0,1E0,2E0,2E0,1.5E1,4E0,2.3E1,2.2E1,-1.519888E-1,-2.0116787E-1,-1.0874045E-1,-1.4635901E-1,-1.4427163E-1,-1.14539824E-1,-3.1728398E-2,-1.2763165E-1,4.57709E-2,1.4822455E-1,-6.54131E-2,1.5228248E-1,-1.553501E-1,-2.382247E-1,-2.101686E-2,-1.13577284E-1],"split_indices":[1,1,1,0,1,1,0,0,1,0,0,1,0,1,1,0,0,0,0,0,0,0,0,0,0,0,0,0,0,0,0],"split_type":[0,0,0,0,0,0,0,0,0,0,0,0,0,0,0,0,0,0,0,0,0,0,0,0,0,0,0,0,0,0,0],"sum_hessian":[2.476E3,4.11E2,2.065E3,2.03E2,2.08E2,1.685E3,3.8E2,1.1E2,9.3E1,1.64E2,4.4E1,1.278E3,4.07E2,1.12E2,2.68E2,6.5E1,4.5E1,1.9E1,7.4E1,6.7E1,9.7E1,2.2E1,2.2E1,9.04E2,3.74E2,2.92E2,1.15E2,8.7E1,2.5E1,1.12E2,1.56E2],"tree_param":{"num_deleted":"0","num_feature":"2","num_nodes":"31","size_leaf_vector":"1"}},{"base_weights":[-6.7016385E-3,-1.2506379E0,2.4136633E-1,-1.4340134E0,-1.0656654E0,5.0998324E-1,-9.479498E-1,-1.11286245E-1,-1.5031772E0,-1.1489527E0,-7.365973E-1,5.6087875E-1,-1.545724E-1,-1.2193005E0,-2.8533688E-1,-1.6383027E-1,-1.3191827E-1,-1.3005662E-1,-1.0320274E-1,-2.8693473E-2,-1.15423396E-1,7.559572E-2,-3.2903298E-3,-1.5856235E-1,-9.495931E-2,4.5568123E-2,-7.364575E-2],"categories":[],"categories_nodes":[],"categories_segments":[],"categories_sizes":[],"default_left":[0,0,0,0,0,0,0,0,0,0,0,0,0,0,0,0,0,0,0,0,0,0,0,0,0,0,0],"id":20,"left_children":[1,3,5,7,9,11,13,-1,15,17,19,21,-1,23,25,-1,-1,-1,-1,-1,-1,-1,-1,-1,-1,-1,-1],"loss_changes":[7.646563E2,1.2446594E1,6.605093E2,2.858429E0,4.881775E0,1.7726688E2,6.81561E1,0E0,1.9410706E0,1.5828094E0,8.119614E0,1.906878E2,0E0,2.5170319E1,3.77759E1,0E0,0E0,0E0,0E0,0E0,0E0,0E0,0E0,0E0,0E0,0E0,0E0],"parents":[2147483647,0,0,1,1,2,2,3,3,4,4,5,5,6,6,8,8,9,9,10,10,11,11,13,13,14,14],"right_children":[2,4,6,8,10,12,14,-1,16,18,20,22,-1,24,26,-1,-1,-1,-1,-1,-1,-1,-1,-1,-1,-1,-1],"split_conditions":[4E0,2E0,2.1E1,1E0,3E0,5E0,4E0,-1.11286245E-1,4E0,2E0,2E0,1.8E1,-1.545724E-1,2E0,2.2E1,-1.6383027E-1,-1.3191827E-1,-1.3005662E-1,-1.0320274E-1,-2.8693473E-2,-1.15423396E-1,7.559572E-2,-3.2903298E-3,-1.5856235E-1,-9.495931E-2,4.5568123E-2,-7.364575E-2],"split_indices":[1,1,1,1,1,0,0,0,0,0,0,1,0,0,1,0,0,0,0,0,0,0,0,0,0,0,0],"split_type":[0,0,0,0,0,0,0,0,0,0,0,0,0,0,0,0,0,0,0,0,0,0,0,0,0,0,0],"sum_hessian":[2.476E3,4.11E2,2.065E3,2.03E2,2.08E2,1.685E3,3.8E2,3.9E1,1.64E2,1.64E2,4.4E1,1.645E3,4E1,2.69E2,1.11E2,9E1,7.4E1,6.7E1,9.7E1,2.2E1,2.2E1,1.238E3,4.07E2,1.12E2,1.57E2,4.2E1,6.9E1],"tree_param":{"num_deleted":"0","num_feature":"2","num_nodes":"27","size_leaf_vector":"1"}},{"base_weights":[-6.4951633E-3,-9.086447E-1,2.8173497E-1,-1.1808277E0,-4.748592E-1,7.942414E-1,-4.281968E-1,-1.310094E0,-9.6342675E-2,8.939614E-1,-8.2555026E-1,2.1811545E-1,1.0074815E0,-8.3299387E-1,5.758743E-1,-1.1318032E-1,-1.4202595E-1,-2.594891E-2,1.8799384E-1,-5.8348782E-2,-1.2888865E-1,6.310929E-2,-1.8263556E-1,7.516002E-2,2.2437315E-1,-1.6850133E-1,-6.691149E-2,2.7918196E-1,-1.8243758E-3],"categories":[],"categories_nodes":[],"categories_segments":[],"categories_sizes":[],"default_left":[0,0,0,0,0,0,0,0,0,0,0,0,0,0,0,0,0,0,0,0,0,0,0,0,0,0,0,0,0],"id":21,"left_children":[1,3,5,7,9,11,13,15,-1,17,19,21,23,25,27,-1,-1,-1,-1,-1,-1,-1,-1,-1,-1,-1,-1,-1,-1],"loss_changes":[6.443421E2,7.028076E1,6.8364026E2,9.079529E0,1.1258574E2,1.3381299E2,3.2075836E2,2.870819E0,0E0,5.507706E1,2.0109016E1,2.5107147E2,2.5011487E2,7.7343506E1,2.98904E2,0E0,0E0,0E0,0E0,0E0,0E0,0E0,0E0,0E0,0E0,0E0,0E0,0E0,0E0],"parents":[2147483647,0,0,1,1,2,2,3,3,4,4,5,5,6,6,7,7,9,9,10,10,11,11,12,12,13,13,14,14],"right_children":[2,4,6,8,10,12,14,16,-1,18,20,22,24,26,28,-1,-1,-1,-1,-1,-1,-1,-1,-1,-1,-1,-1,-1,-1],"split_conditions":[6E0,3E0,1.8E1,5E0,2E0,2E0,4E0,2E0,-9.6342675E-2,4E0,5E0,1.7E1,1.6E1,1.9E1,1.9E1,-1.1318032E-1,-1.4202595E-1,-2.594891E-2,1.8799384E-1,-5.8348782E-2,-1.2888865E-1,6.310929E-2,-1.8263556E-1,7.516002E-2,2.2437315E-1,-1.6850133E-1,-6.691149E-2,2.7918196E-1,-1.8243758E-3],"split_indices":[1,1,1,0,0,0,0,0,0,1,0,1,1,1,1,0,0,0,0,0,0,0,0,0,0,0,0,0,0],"split_type":[0,0,0,0,0,0,0,0,0,0,0,0,0,0,0,0,0,0,0,0,0,0,0,0,0,0,0,0,0],"sum_hessian":[2.476E3,5.99E2,1.877E3,3.67E2,2.32E2,1.09E3,7.87E2,2.27E2,1.4E2,4.7E1,1.85E2,2.95E2,7.95E2,5.61E2,2.26E2,9.1E1,1.36E2,2.2E1,2.5E1,1.23E2,6.2E1,2.46E2,4.9E1,6.6E2,1.35E2,8.9E1,4.72E2,4.7E1,1.79E2],"tree_param":{"num_deleted":"0","num_feature":"2","num_nodes":"29","size_leaf_vector":"1"}},{"base_weights":[-5.9077214E-3,-8.1840795E-1,2.5368017E-1,-1.0637003E0,-4.27481E-1,7.149831E-1,-3.8532385E-1,-1.1802039E0,-8.6776756E-2,8.07941E-1,-7.440013E-1,2.4391916E-1,6.470406E-1,-7.5011325E-1,5.195086E-1,-1.0198529E-1,-1.2792704E-1,-2.3466874E-2,1.6991751E-1,-5.2560877E-2,-1.1620438E-1,3.5843424E-2,1.166346E-1,-1.1934793E-1,-4.902063E-2,2.5184536E-1,-1.6429526E-3],"categories":[],"categories_nodes":[],"categories_segments":[],"categories_sizes":[],"default_left":[0,0,0,0,0,0,0,0,0,0,0,0,0,0,0,0,0,0,0,0,0,0,0,0,0,0,0],"id":22,"left_children":[1,3,5,7,9,11,13,15,-1,17,19,-1,21,23,25,-1,-1,-1,-1,-1,-1,-1,-1,-1,-1,-1,-1],"loss_changes":[5.2264465E2,5.708011E1,5.538618E2,7.3761597E0,9.171253E1,1.26229126E2,2.604874E2,2.3171997E0,0E0,4.5000786E1,1.637053E1,0E0,1.571004E2,6.417642E1,2.4322893E2,0E0,0E0,0E0,0E0,0E0,0E0,0E0,0E0,0E0,0E0,0E0,0E0],"parents":[2147483647,0,0,1,1,2,2,3,3,4,4,5,5,6,6,7,7,9,9,10,10,12,12,13,13,14,14],"right_children":[2,4,6,8,10,12,14,16,-1,18,20,-1,22,24,26,-1,-1,-1,-1,-1,-1,-1,-1,-1,-1,-1,-1],"split_conditions":[6E0,3E0,1.8E1,5E0,2E0,7E0,4E0,2E0,-8.6776756E-2,4E0,5E0,2.4391916E-1,1.5E1,2E0,1.9E1,-1.0198529E-1,-1.2792704E-1,-2.3466874E-2,1.6991751E-1,-5.2560877E-2,-1.1620438E-1,3.5843424E-2,1.166346E-1,-1.1934793E-1,-4.902063E-2,2.5184536E-1,-1.6429526E-3],"split_indices":[1,1,1,0,0,1,0,0,0,1,0,0,1,0,1,0,0,0,0,0,0,0,0,0,0,0,0],"split_type":[0,0,0,0,0,0,0,0,0,0,0,0,0,0,0,0,0,0,0,0,0,0,0,0,0,0,0],"sum_hessian":[2.476E3,5.99E2,1.877E3,3.67E2,2.32E2,1.09E3,7.87E2,2.27E2,1.4E2,4.7E1,1.85E2,4E1,1.05E3,5.61E2,2.26E2,9.1E1,1.36E2,2.2E1,2.5E1,1.23E2,6.2E1,6.76E2,3.74E2,2.06E2,3.55E2,4.7E1,1.79E2],"tree_param":{"num_deleted":"0","num_feature":"2","num_nodes":"27","size_leaf_vector":"1"}},{"base_weights":[-5.2605686E-3,-7.3713225E-1,2.2856705E-1,-9.5819086E-1,-3.848288E-1,4.773933E-1,-7.503576E-1,-1.0631919E0,-7.816062E-2,7.301977E-1,-6.705086E-1,-1.2525536E-1,6.8889517E-1,-1.243853E0,-5.402635E-1,-9.189763E-2,-1.152277E-1,-2.1222202E-2,1.5357922E-1,-4.7347184E-2,-1.0476841E-1,4.9045857E-2,-1.1805059E-1,8.409286E-2,3.0129174E-2,-1.0590129E-1,-1.8216254E-1,-7.4344776E-3,-8.7216504E-2],"categories":[],"categories_nodes":[],"categories_segments":[],"categories_sizes":[],"default_left":[0,0,0,0,0,0,0,0,0,0,0,0,0,0,0,0,0,0,0,0,0,0,0,0,0,0,0,0,0],"id":23,"left_children":[1,3,5,7,9,11,13,15,-1,17,19,21,23,25,27,-1,-1,-1,-1,-1,-1,-1,-1,-1,-1,-1,-1,-1,-1],"loss_changes":[4.2406198E2,4.635907E1,4.5780557E2,5.992279E0,7.470955E1,1.9102332E2,3.883026E1,1.8703308E0,0E0,3.676792E1,1.3326988E1,2.5397462E2,6.509857E1,1.0138779E1,4.153308E1,0E0,0E0,0E0,0E0,0E0,0E0,0E0,0E0,0E0,0E0,0E0,0E0,0E0,0E0],"parents":[2147483647,0,0,1,1,2,2,3,3,4,4,5,5,6,6,7,7,9,9,10,10,11,11,12,12,13,13,14,14],"right_children":[2,4,6,8,10,12,14,16,-1,18,20,22,24,26,28,-1,-1,-1,-1,-1,-1,-1,-1,-1,-1,-1,-1,-1,-1],"split_conditions":[6E0,3E0,2.1E1,5E0,2E0,2E0,2E0,2E0,-7.816062E-2,4E0,5E0,1.7E1,1.8E1,2.3E1,2.2E1,-9.189763E-2,-1.152277E-1,-2.1222202E-2,1.5357922E-1,-4.7347184E-2,-1.0476841E-1,4.9045857E-2,-1.1805059E-1,8.409286E-2,3.0129174E-2,-1.0590129E-1,-1.8216254E-1,-7.4344776E-3,-8.7216504E-2],"split_indices":[1,1,1,0,0,0,0,0,0,1,0,1,1,1,1,0,0,0,0,0,0,0,0,0,0,0,0,0,0],"split_type":[0,0,0,0,0,0,0,0,0,0,0,0,0,0,0,0,0,0,0,0,0,0,0,0,0,0,0,0,0],"sum_hessian":[2.476E3,5.99E2,1.877E3,3.67E2,2.32E2,1.497E3,3.8E2,2.27E2,1.4E2,4.7E1,1.85E2,3.89E2,1.108E3,1.12E2,2.68E2,9.1E1,1.36E2,2.2E1,2.5E1,1.23E2,6.2E1,2.46E2,1.43E2,7.95E2,3.13E2,8.7E1,2.5E1,1.12E2,1.56E2],"tree_param":{"num_deleted":"0","num_feature":"2","num_nodes":"29","size_leaf_vector":"1"}},{"base_weights":[-4.993916E-3,-6.6392726E-1,2.0553057E-1,-8.631469E-1,-3.464304E-1,4.2968407E-1,-6.7632633E-1,-9.5778114E-1,-7.039998E-2,6.599351E-1,-6.042751E-1,-1.1290649E-1,6.201085E-1,-8.726125E-1,-1.9709797E-1,-8.280774E-2,-1.0378903E-1,-1.9192256E-2,1.3881195E-1,-4.2650566E-2,-9.445789E-2,4.4161152E-2,-1.06327474E-1,-1.188743E-3,6.953733E-2,-7.869273E-2,-1.6464691E-1,4.218212E-2,-5.7447553E-2],"categories":[],"categories_nodes":[],"categories_segments":[],"categories_sizes":[],"default_left":[0,0,0,0,0,0,0,0,0,0,0,0,0,0,0,0,0,0,0,0,0,0,0,0,0,0,0,0,0],"id":24,"left_children":[1,3,5,7,9,11,13,15,-1,17,19,21,23,25,27,-1,-1,-1,-1,-1,-1,-1,-1,-1,-1,-1,-1,-1,-1],"loss_changes":[3.4374988E2,3.7651917E1,3.7151733E2,4.8680725E0,6.0859016E1,1.548471E2,3.5667114E1,1.5095673E0,0E0,3.004126E1,1.0849312E1,2.0599812E2,5.27601E1,1.6607529E1,2.640174E1,0E0,0E0,0E0,0E0,0E0,0E0,0E0,0E0,0E0,0E0,0E0,0E0,0E0,0E0],"parents":[2147483647,0,0,1,1,2,2,3,3,4,4,5,5,6,6,7,7,9,9,10,10,11,11,12,12,13,13,14,14],"right_children":[2,4,6,8,10,12,14,16,-1,18,20,22,24,26,28,-1,-1,-1,-1,-1,-1,-1,-1,-1,-1,-1,-1,-1,-1],"split_conditions":[6E0,3E0,2.1E1,5E0,2E0,2E0,4E0,2E0,-7.039998E-2,4E0,5E0,1.7E1,9E0,2.3E1,2.2E1,-8.280774E-2,-1.0378903E-1,-1.9192256E-2,1.3881195E-1,-4.2650566E-2,-9.445789E-2,4.4161152E-2,-1.06327474E-1,-1.188743E-3,6.953733E-2,-7.869273E-2,-1.6464691E-1,4.218212E-2,-5.7447553E-2],"split_indices":[1,1,1,0,0,0,0,0,0,1,0,1,1,1,1,0,0,0,0,0,0,0,0,0,0,0,0,0,0],"split_type":[0,0,0,0,0,0,0,0,0,0,0,0,0,0,0,0,0,0,0,0,0,0,0,0,0,0,0,0,0],"sum_hessian":[2.476E3,5.99E2,1.877E3,3.67E2,2.32E2,1.497E3,3.8E2,2.27E2,1.4E2,4.7E1,1.85E2,3.89E2,1.108E3,2.69E2,1.11E2,9.1E1,1.36E2,2.2E1,2.5E1,1.23E2,6.2E1,2.46E2,1.43E2,1.18E2,9.9E2,2.44E2,2.5E1,4.2E1,6.9E1],"tree_param":{"num_deleted":"0","num_feature":"2","num_nodes":"29","size_leaf_vector":"1"}},{"base_weights":[-4.707478E-3,-5.97992E-1,1.8484281E-1,-7.7753067E-1,-3.1186238E-1,5.286099E-1,-2.913434E-1,-8.9405954E-1,-6.648622E-1,5.9643435E-1,-5.445849E-1,2.114811E-1,4.662285E-1,-5.925715E-1,4.557118E-1,-7.897288E-2,-1.17627524E-1,-7.2376184E-2,-6.015824E-2,-1.735643E-2,1.2546472E-1,-3.841994E-2,-8.5162E-2,1.932536E-2,9.577959E-2,-1.4633022E-1,-4.256406E-2,2.1742637E-1,-5.1004573E-4],"categories":[],"categories_nodes":[],"categories_segments":[],"categories_sizes":[],"default_left":[0,0,0,0,0,0,0,0,0,0,0,0,0,0,0,0,0,0,0,0,0,0,0,0,0,0,0,0,0],"id":25,"left_children":[1,3,5,7,9,11,13,15,17,19,21,-1,23,25,27,-1,-1,-1,-1,-1,-1,-1,-1,-1,-1,-1,-1,-1,-1],"loss_changes":[2.7866714E2,3.0580307E1,3.0757724E2,4.237091E0,4.957659E1,1.06967865E2,1.7759685E2,4.3120575E0,2.7648163E-1,2.4545263E1,8.832188E0,0E0,1.4084392E2,8.1064926E1,1.7977916E2,0E0,0E0,0E0,0E0,0E0,0E0,0E0,0E0,0E0,0E0,0E0,0E0,0E0,0E0],"parents":[2147483647,0,0,1,1,2,2,3,3,4,4,5,5,6,6,7,7,8,8,9,9,10,10,12,12,13,13,14,14],"right_children":[2,4,6,8,10,12,14,16,18,20,22,-1,24,26,28,-1,-1,-1,-1,-1,-1,-1,-1,-1,-1,-1,-1,-1,-1],"split_conditions":[6E0,3E0,1.8E1,4E0,2E0,7E0,4E0,3E0,7E0,4E0,5E0,2.114811E-1,1.5E1,1.9E1,1.9E1,-7.897288E-2,-1.17627524E-1,-7.2376184E-2,-6.015824E-2,-1.735643E-2,1.2546472E-1,-3.841994E-2,-8.5162E-2,1.932536E-2,9.577959E-2,-1.4633022E-1,-4.256406E-2,2.1742637E-1,-5.1004573E-4],"split_indices":[1,1,1,0,0,1,0,0,0,1,0,0,1,1,1,0,0,0,0,0,0,0,0,0,0,0,0,0,0],"split_type":[0,0,0,0,0,0,0,0,0,0,0,0,0,0,0,0,0,0,0,0,0,0,0,0,0,0,0,0,0],"sum_hessian":[2.476E3,5.99E2,1.877E3,3.67E2,2.32E2,1.09E3,7.87E2,1.77E2,1.9E2,4.7E1,1.85E2,4E1,1.05E3,5.61E2,2.26E2,1.32E2,4.5E1,9.3E1,9.7E1,2.2E1,2.5E1,1.23E2,6.2E1,6.76E2,3.74E2,8.9E1,4.72E2,4.7E1,1.79E2],"tree_param":{"num_deleted":"0","num_feature":"2","num_nodes":"29","size_leaf_vector":"1"}},{"base_weights":[-4.23261E-3,-5.387672E-1,1.6654746E-1,-7.00672E-1,-2.8074265E-1,3.561019E-1,-5.7917196E-1,-8.057581E-1,-5.9906983E-1,5.39043E-1,-4.9079087E-1,-1.3430828E-1,5.2824247E-1,-9.828168E-1,-4.0745807E-1,-7.113498E-2,-1.0612049E-1,-6.521555E-2,-5.4203797E-2,-1.5696207E-2,1.13400735E-1,-3.460895E-2,-7.678097E-2,3.389811E-2,-9.4519846E-2,-5.893759E-3,5.9821844E-2,-8.344362E-2,-1.4472277E-1,-7.3494785E-4,-6.92839E-2],"categories":[],"categories_nodes":[],"categories_segments":[],"categories_sizes":[],"default_left":[0,0,0,0,0,0,0,0,0,0,0,0,0,0,0,0,0,0,0,0,0,0,0,0,0,0,0,0,0,0,0],"id":26,"left_children":[1,3,5,7,9,11,13,15,17,19,21,23,25,27,29,-1,-1,-1,-1,-1,-1,-1,-1,-1,-1,-1,-1,-1,-1,-1,-1],"loss_changes":[2.2620976E2,2.4868515E1,2.656699E2,3.4464264E0,4.038588E1,1.2653133E2,2.6007195E1,3.537819E0,2.2477722E-1,2.005471E1,7.190075E0,1.4999683E2,4.5602417E1,6.57917E0,3.071024E1,0E0,0E0,0E0,0E0,0E0,0E0,0E0,0E0,0E0,0E0,0E0,0E0,0E0,0E0,0E0,0E0],"parents":[2147483647,0,0,1,1,2,2,3,3,4,4,5,5,6,6,7,7,8,8,9,9,10,10,11,11,12,12,13,13,14,14],"right_children":[2,4,6,8,10,12,14,16,18,20,22,24,26,28,30,-1,-1,-1,-1,-1,-1,-1,-1,-1,-1,-1,-1,-1,-1,-1,-1],"split_conditions":[6E0,3E0,2.1E1,4E0,2E0,2E0,2E0,3E0,7E0,4E0,5E0,1.7E1,9E0,2.3E1,2.2E1,-7.113498E-2,-1.0612049E-1,-6.521555E-2,-5.4203797E-2,-1.5696207E-2,1.13400735E-1,-3.460895E-2,-7.678097E-2,3.389811E-2,-9.4519846E-2,-5.893759E-3,5.9821844E-2,-8.344362E-2,-1.4472277E-1,-7.3494785E-4,-6.92839E-2],"split_indices":[1,1,1,0,0,0,0,0,0,1,0,1,1,1,1,0,0,0,0,0,0,0,0,0,0,0,0,0,0,0,0],"split_type":[0,0,0,0,0,0,0,0,0,0,0,0,0,0,0,0,0,0,0,0,0,0,0,0,0,0,0,0,0,0,0],"sum_hessian":[2.476E3,5.99E2,1.877E3,3.67E2,2.32E2,1.497E3,3.8E2,1.77E2,1.9E2,4.7E1,1.85E2,3.89E2,1.108E3,1.12E2,2.68E2,1.32E2,4.5E1,9.3E1,9.7E1,2.2E1,2.5E1,1.23E2,6.2E1,2.46E2,1.43E2,1.18E2,9.9E2,8.7E1,2.5E1,1.12E2,1.56E2],"tree_param":{"num_deleted":"0","num_feature":"2","num_nodes":"31","size_leaf_vector":"1"}},{"base_weights":[-4.0577487E-3,-4.8540777E-1,1.4973035E-1,-6.314109E-1,-2.5272727E-1,3.2048723E-1,-5.220374E-1,-7.261781E-1,-5.3978795E-1,4.87174E-1,-4.4231078E-1,1.8928866E-1,2.7605042E-1,-6.810429E-1,-1.3405944E-1,-6.4074956E-2,-9.573915E-2,-5.8763366E-2,-4.883871E-2,-1.4194803E-2,1.0249676E-1,-8.255898E-3,-5.4030746E-2,-2.4743563E-2,4.5237195E-2,-6.1172135E-2,-1.3080713E-1,3.8183685E-2,-4.49052E-2],"categories":[],"categories_nodes":[],"categories_segments":[],"categories_sizes":[],"default_left":[0,0,0,0,0,0,0,0,0,0,0,0,0,0,0,0,0,0,0,0,0,0,0,0,0,0,0,0,0],"id":27,"left_children":[1,3,5,7,9,11,13,15,17,19,21,-1,23,25,27,-1,-1,-1,-1,-1,-1,-1,-1,-1,-1,-1,-1,-1,-1],"loss_changes":[1.8343486E2,2.0223663E1,2.1559071E2,2.8033142E0,3.289911E1,1.0414635E2,2.3412827E1,2.902443E0,1.8273544E-1,1.6385708E1,6.512726E0,0E0,1.3468808E2,1.0935806E1,1.8371855E1,0E0,0E0,0E0,0E0,0E0,0E0,0E0,0E0,0E0,0E0,0E0,0E0,0E0,0E0],"parents":[2147483647,0,0,1,1,2,2,3,3,4,4,5,5,6,6,7,7,8,8,9,9,10,10,12,12,13,13,14,14],"right_children":[2,4,6,8,10,12,14,16,18,20,22,-1,24,26,28,-1,-1,-1,-1,-1,-1,-1,-1,-1,-1,-1,-1,-1,-1],"split_conditions":[6E0,3E0,2.1E1,4E0,2E0,7E0,4E0,3E0,7E0,4E0,3E0,1.8928866E-1,2E0,2.3E1,2.2E1,-6.4074956E-2,-9.573915E-2,-5.8763366E-2,-4.883871E-2,-1.4194803E-2,1.0249676E-1,-8.255898E-3,-5.4030746E-2,-2.4743563E-2,4.5237195E-2,-6.1172135E-2,-1.3080713E-1,3.8183685E-2,-4.49052E-2],"split_indices":[1,1,1,0,0,1,0,0,0,1,0,0,0,1,1,0,0,0,0,0,0,0,0,0,0,0,0,0,0],"split_type":[0,0,0,0,0,0,0,0,0,0,0,0,0,0,0,0,0,0,0,0,0,0,0,0,0,0,0,0,0],"sum_hessian":[2.476E3,5.99E2,1.877E3,3.67E2,2.32E2,1.497E3,3.8E2,1.77E2,1.9E2,4.7E1,1.85E2,4E1,1.457E3,2.69E2,1.11E2,1.32E2,4.5E1,9.3E1,9.7E1,2.2E1,2.5E1,4E1,1.45E2,3.67E2,1.09E3,2.44E2,2.5E1,4.2E1,6.9E1],"tree_param":{"num_deleted":"0","num_feature":"2","num_nodes":"29","size_leaf_vector":"1"}},{"base_weights":[-3.7446965E-3,-4.372693E-1,1.3476355E-1,-5.689964E-1,-2.2734284E-1,4.032009E-1,-2.3706369E-1,-6.544581E-1,-4.8637256E-1,4.402959E-1,-3.9841443E-1,1.9237813E-1,8.0521876E-1,-4.8816636E-1,3.856533E-1,-5.7715636E-2,-8.637336E-2,-5.2949548E-2,-4.400468E-2,-1.283707E-2,9.2641264E-2,-2.729307E-2,-6.390743E-2,1.7082143E-1,1.0029296E-2,6.2752955E-2,1.6752431E-1,-1.362671E-1,-3.2073807E-2,1.8584973E-1,-9.2476263E-4],"categories":[],"categories_nodes":[],"categories_segments":[],"categories_sizes":[],"default_left":[0,0,0,0,0,0,0,0,0,0,0,0,0,0,0,0,0,0,0,0,0,0,0,0,0,0,0,0,0,0,0],"id":28,"left_children":[1,3,5,7,9,11,13,15,17,19,21,23,25,27,29,-1,-1,-1,-1,-1,-1,-1,-1,-1,-1,-1,-1,-1,-1,-1,-1],"loss_changes":[1.4879471E2,1.6462448E1,1.875431E2,2.2801895E0,2.6787287E1,9.231229E1,1.2340457E2,2.3810654E0,1.4855957E-1,1.3387965E1,5.4425755E0,9.991185E1,5.692148E1,8.184918E1,1.3204662E2,0E0,0E0,0E0,0E0,0E0,0E0,0E0,0E0,0E0,0E0,0E0,0E0,0E0,0E0,0E0,0E0],"parents":[2147483647,0,0,1,1,2,2,3,3,4,4,5,5,6,6,7,7,8,8,9,9,10,10,11,11,12,12,13,13,14,14],"right_children":[2,4,6,8,10,12,14,16,18,20,22,24,26,28,30,-1,-1,-1,-1,-1,-1,-1,-1,-1,-1,-1,-1,-1,-1,-1,-1],"split_conditions":[6E0,3E0,1.8E1,4E0,2E0,1.5E1,4E0,3E0,7E0,4E0,5E0,7E0,4E0,1.9E1,1.9E1,-5.7715636E-2,-8.637336E-2,-5.2949548E-2,-4.400468E-2,-1.283707E-2,9.2641264E-2,-2.729307E-2,-6.390743E-2,1.7082143E-1,1.0029296E-2,6.2752955E-2,1.6752431E-1,-1.362671E-1,-3.2073807E-2,1.8584973E-1,-9.2476263E-4],"split_indices":[1,1,1,0,0,1,0,0,0,1,0,1,0,1,1,0,0,0,0,0,0,0,0,0,0,0,0,0,0,0,0],"split_type":[0,0,0,0,0,0,0,0,0,0,0,0,0,0,0,0,0,0,0,0,0,0,0,0,0,0,0,0,0,0,0],"sum_hessian":[2.476E3,5.99E2,1.877E3,3.67E2,2.32E2,1.09E3,7.87E2,1.77E2,1.9E2,4.7E1,1.85E2,7.16E2,3.74E2,5.61E2,2.26E2,1.32E2,4.5E1,9.3E1,9.7E1,2.2E1,2.5E1,1.23E2,6.2E1,4E1,6.76E2,3.12E2,6.2E1,8.9E1,4.72E2,4.7E1,1.79E2],"tree_param":{"num_deleted":"0","num_feature":"2","num_nodes":"31","size_leaf_vector":"1"}},{"base_weights":[-3.2994694E-3,-3.939633E-1,1.2151501E-1,-5.127519E-1,-2.0465787E-1,2.6614144E-1,-4.4744012E-1,-5.8982176E-1,-4.3824306E-1,1.9474493E-1,-4.4399205E-1,-1.272975E-1,4.042614E-1,-7.7872753E-1,-3.0661142E-1,-5.198747E-2,-7.79238E-2,-4.771092E-2,-3.9649144E-2,3.9792877E-2,-4.787873E-3,-8.00897E-2,-2.921564E-2,2.7112205E-2,-8.098137E-2,-1.5400554E-2,4.708906E-2,-6.5975435E-2,-1.15145504E-1,3.7294475E-3,-5.521831E-2],"categories":[],"categories_nodes":[],"categories_segments":[],"categories_sizes":[],"default_left":[0,0,0,0,0,0,0,0,0,0,0,0,0,0,0,0,0,0,0,0,0,0,0,0,0,0,0,0,0,0,0],"id":29,"left_children":[1,3,5,7,9,11,13,15,17,19,21,23,25,27,29,-1,-1,-1,-1,-1,-1,-1,-1,-1,-1,-1,-1,-1,-1,-1,-1],"loss_changes":[1.2082765E2,1.3387459E1,1.5465208E2,1.8547134E0,2.2359104E1,8.145545E1,1.7536705E1,1.9532394E0,1.20773315E-1,4.3572073E0,7.677885E0,1.062714E2,4.1323837E1,4.251259E0,2.2738596E1,0E0,0E0,0E0,0E0,0E0,0E0,0E0,0E0,0E0,0E0,0E0,0E0,0E0,0E0,0E0,0E0],"parents":[2147483647,0,0,1,1,2,2,3,3,4,4,5,5,6,6,7,7,8,8,9,9,10,10,11,11,12,12,13,13,14,14],"right_children":[2,4,6,8,10,12,14,16,18,20,22,24,26,28,30,-1,-1,-1,-1,-1,-1,-1,-1,-1,-1,-1,-1,-1,-1,-1,-1],"split_conditions":[6E0,3E0,2.1E1,4E0,3E0,2E0,2E0,3E0,7E0,2E0,4E0,1.7E1,9E0,2.3E1,2.2E1,-5.198747E-2,-7.79238E-2,-4.771092E-2,-3.9649144E-2,3.9792877E-2,-4.787873E-3,-8.00897E-2,-2.921564E-2,2.7112205E-2,-8.098137E-2,-1.5400554E-2,4.708906E-2,-6.5975435E-2,-1.15145504E-1,3.7294475E-3,-5.521831E-2],"split_indices":[1,1,1,0,0,0,0,0,0,0,0,1,1,1,1,0,0,0,0,0,0,0,0,0,0,0,0,0,0,0,0],"split_type":[0,0,0,0,0,0,0,0,0,0,0,0,0,0,0,0,0,0,0,0,0,0,0,0,0,0,0,0,0,0,0],"sum_hessian":[2.476E3,5.99E2,1.877E3,3.67E2,2.32E2,1.497E3,3.8E2,1.77E2,1.9E2,8.7E1,1.45E2,3.89E2,1.108E3,1.12E2,2.68E2,1.32E2,4.5E1,9.3E1,9.7E1,4.7E1,4E1,4.2E1,1.03E2,2.46E2,1.43E2,1.18E2,9.9E2,8.7E1,2.5E1,1.12E2,1.56E2],"tree_param":{"num_deleted":"0","num_feature":"2","num_nodes":"31","size_leaf_vector":"1"}},{"base_weights":[-3.190055E-3,-3.5505304E-1,1.0922793E-1,-4.620672E-1,-1.8451118E-1,3.33227E-1,-2.0104137E-1,-5.1468974E-1,-3.7369832E-1,1.7566793E-1,-4.0034166E-1,1.4150168E-1,6.989172E-1,-4.1927537E-1,3.401417E-1,-4.2580422E-2,-5.706224E-2,-2.8111858E-2,-3.8581222E-2,3.5896476E-2,-4.3208054E-3,-7.2267E-2,-2.6322186E-2,3.6674004E-2,-4.5074813E-2,5.426826E-2,1.4640366E-1,-1.2403317E-1,-2.621626E-2,1.6304114E-1,-5.8198825E-4],"categories":[],"categories_nodes":[],"categories_segments":[],"categories_sizes":[],"default_left":[0,0,0,0,0,0,0,0,0,0,0,0,0,0,0,0,0,0,0,0,0,0,0,0,0,0,0,0,0,0,0],"id":30,"left_children":[1,3,5,7,9,11,13,15,17,19,21,23,25,27,29,-1,-1,-1,-1,-1,-1,-1,-1,-1,-1,-1,-1,-1,-1,-1,-1],"loss_changes":[9.801832E1,1.0864983E1,1.3058806E2,1.5189285E0,1.8183195E1,7.639338E1,9.3209E1,8.9055634E-1,4.967308E-2,3.5460062E0,6.2626286E0,9.581123E1,4.403232E1,7.217194E1,1.013386E2,0E0,0E0,0E0,0E0,0E0,0E0,0E0,0E0,0E0,0E0,0E0,0E0,0E0,0E0,0E0,0E0],"parents":[2147483647,0,0,1,1,2,2,3,3,4,4,5,5,6,6,7,7,8,8,9,9,10,10,11,11,12,12,13,13,14,14],"right_children":[2,4,6,8,10,12,14,16,18,20,22,24,26,28,30,-1,-1,-1,-1,-1,-1,-1,-1,-1,-1,-1,-1,-1,-1,-1,-1],"split_conditions":[6E0,3E0,1.8E1,5E0,3E0,1.5E1,4E0,2E0,1E0,2E0,4E0,1.2E1,4E0,1.9E1,1.9E1,-4.2580422E-2,-5.706224E-2,-2.8111858E-2,-3.8581222E-2,3.5896476E-2,-4.3208054E-3,-7.2267E-2,-2.6322186E-2,3.6674004E-2,-4.5074813E-2,5.426826E-2,1.4640366E-1,-1.2403317E-1,-2.621626E-2,1.6304114E-1,-5.8198825E-4],"split_indices":[1,1,1,0,0,1,0,0,1,0,0,1,0,1,1,0,0,0,0,0,0,0,0,0,0,0,0,0,0,0,0],"split_type":[0,0,0,0,0,0,0,0,0,0,0,0,0,0,0,0,0,0,0,0,0,0,0,0,0,0,0,0,0,0,0],"sum_hessian":[2.476E3,5.99E2,1.877E3,3.67E2,2.32E2,1.09E3,7.87E2,2.27E2,1.4E2,8.7E1,1.45E2,7.16E2,3.74E2,5.61E2,2.26E2,9.1E1,1.36E2,1.9E1,1.21E2,4.7E1,4E1,4.2E1,1.03E2,5.19E2,1.97E2,3.12E2,6.2E1,8.9E1,4.72E2,4.7E1,1.79E2],"tree_param":{"num_deleted":"0","num_feature":"2","num_nodes":"31","size_leaf_vector":"1"}},{"base_weights":[-2.8828264E-3,-3.1993666E-1,9.841386E-2,-4.163124E-1,-1.6634776E-1,2.2120449E-1,-3.8462755E-1,-4.8223147E-1,-3.5270035E-1,1.5845974E-1,-3.6098278E-1,1.4979911E-1,1.8514863E-1,-5.068294E-1,-8.65997E-2,-4.215536E-2,-6.471864E-2,-2.5441224E-2,-3.6207862E-2,-1.8848997E-2,2.7696555E-2,-6.520831E-2,-2.37153E-2,-2.2705702E-2,3.2401804E-2,-4.5077607E-2,-1.0155304E-1,3.4237035E-2,-3.4887273E-2],"categories":[],"categories_nodes":[],"categories_segments":[],"categories_sizes":[],"default_left":[0,0,0,0,0,0,0,0,0,0,0,0,0,0,0,0,0,0,0,0,0,0,0,0,0,0,0,0,0],"id":31,"left_children":[1,3,5,7,9,11,13,15,17,19,21,-1,23,25,27,-1,-1,-1,-1,-1,-1,-1,-1,-1,-1,-1,-1,-1,-1],"loss_changes":[7.958406E1,8.812099E0,1.11474815E2,1.3730316E0,1.4787209E1,6.8684044E1,1.38319435E1,1.5087967E0,8.3940506E-2,3.6703742E0,5.108202E0,0E0,8.353351E1,7.241104E0,1.2720259E1,0E0,0E0,0E0,0E0,0E0,0E0,0E0,0E0,0E0,0E0,0E0,0E0,0E0,0E0],"parents":[2147483647,0,0,1,1,2,2,3,3,4,4,5,5,6,6,7,7,8,8,9,9,10,10,12,12,13,13,14,14],"right_children":[2,4,6,8,10,12,14,16,18,20,22,-1,24,26,28,-1,-1,-1,-1,-1,-1,-1,-1,-1,-1,-1,-1,-1,-1],"split_conditions":[6E0,3E0,2.1E1,4E0,3E0,7E0,4E0,3E0,1E0,4E0,4E0,1.4979911E-1,2E0,2.3E1,2.2E1,-4.215536E-2,-6.471864E-2,-2.5441224E-2,-3.6207862E-2,-1.8848997E-2,2.7696555E-2,-6.520831E-2,-2.37153E-2,-2.2705702E-2,3.2401804E-2,-4.5077607E-2,-1.0155304E-1,3.4237035E-2,-3.4887273E-2],"split_indices":[1,1,1,0,0,1,0,0,1,1,0,0,0,1,1,0,0,0,0,0,0,0,0,0,0,0,0,0,0],"split_type":[0,0,0,0,0,0,0,0,0,0,0,0,0,0,0,0,0,0,0,0,0,0,0,0,0,0,0,0,0],"sum_hessian":[2.476E3,5.99E2,1.877E3,3.67E2,2.32E2,1.497E3,3.8E2,1.77E2,1.9E2,8.7E1,1.45E2,4E1,1.457E3,2.69E2,1.11E2,1.32E2,4.5E1,1.9E1,1.71E2,2.2E1,6.5E1,4.2E1,1.03E2,3.67E2,1.09E3,2.44E2,2.5E1,4.2E1,6.9E1],"tree_param":{"num_deleted":"0","num_feature":"2","num_nodes":"29","size_leaf_vector":"1"}},{"base_weights":[-2.6901334E-3,-2.883573E-1,8.857877E-2,-3.751392E-1,-1.5005644E-1,2.7719316E-1,-1.7267363E-1,-4.3460882E-1,-3.1775323E-1,3.1803027E-1,-2.7004623E-1,4.193152E-2,5.4023933E-1,-3.6114445E-1,2.9469764E-1,-3.419897E-2,-5.2755535E-2,-3.5037443E-2,-2.832211E-2,-1.7046008E-2,7.379245E-2,-1.5195906E-2,-4.9818538E-2,2.998932E-2,-2.2715512E-1,1.6019281E-2,6.887435E-2,-1.1350234E-1,-2.1313125E-2,1.439039E-1,-1.2097264E-3],"categories":[],"categories_nodes":[],"categories_segments":[],"categories_sizes":[],"default_left":[0,0,0,0,0,0,0,0,0,0,0,0,0,0,0,0,0,0,0,0,0,0,0,0,0,0,0,0,0,0,0],"id":32,"left_children":[1,3,5,7,9,11,13,15,17,19,21,23,25,27,29,-1,-1,-1,-1,-1,-1,-1,-1,-1,-1,-1,-1,-1,-1,-1,-1],"loss_changes":[6.460719E1,7.1449127E0,9.258813E1,1.1177826E0,1.3172478E1,6.749352E1,6.951808E1,1.3519173E0,1.15924835E-1,9.97127E0,4.935192E0,3.4502896E2,2.895549E1,6.4132E1,7.971214E1,0E0,0E0,0E0,0E0,0E0,0E0,0E0,0E0,0E0,0E0,0E0,0E0,0E0,0E0,0E0,0E0],"parents":[2147483647,0,0,1,1,2,2,3,3,4,4,5,5,6,6,7,7,8,8,9,9,10,10,11,11,12,12,13,13,14,14],"right_children":[2,4,6,8,10,12,14,16,18,20,22,24,26,28,30,-1,-1,-1,-1,-1,-1,-1,-1,-1,-1,-1,-1,-1,-1,-1,-1],"split_conditions":[6E0,3E0,1.8E1,4E0,2E0,1.3E1,4E0,2E0,7E0,4E0,5E0,1.2E1,2E0,1.9E1,1.9E1,-3.419897E-2,-5.2755535E-2,-3.5037443E-2,-2.832211E-2,-1.7046008E-2,7.379245E-2,-1.5195906E-2,-4.9818538E-2,2.998932E-2,-2.2715512E-1,1.6019281E-2,6.887435E-2,-1.1350234E-1,-2.1313125E-2,1.439039E-1,-1.2097264E-3],"split_indices":[1,1,1,0,0,1,0,0,0,1,0,1,0,1,1,0,0,0,0,0,0,0,0,0,0,0,0,0,0,0,0],"split_type":[0,0,0,0,0,0,0,0,0,0,0,0,0,0,0,0,0,0,0,0,0,0,0,0,0,0,0,0,0,0,0],"sum_hessian":[2.476E3,5.99E2,1.877E3,3.67E2,2.32E2,1.09E3,7.87E2,1.77E2,1.9E2,4.7E1,1.85E2,5.76E2,5.14E2,5.61E2,2.26E2,9.1E1,8.6E1,9.3E1,9.7E1,2.2E1,2.5E1,1.23E2,6.2E1,5.19E2,5.7E1,1.45E2,3.69E2,8.9E1,4.72E2,4.7E1,1.79E2],"tree_param":{"num_deleted":"0","num_feature":"2","num_nodes":"31","size_leaf_vector":"1"}},{"base_weights":[-2.527343E-3,4.451846E-2,-4.7591445E-1,-2.597858E-1,1.5481335E-1,-6.824225E-1,-2.7066606E-1,-3.3803368E-1,-1.3508622E-1,-1.5899506E-1,2.6648563E-1,-5.7520264E-1,-8.326165E-2,-4.572217E-1,3.783384E-2,-1.8123321E-2,-3.5607014E-2,2.8740993E-2,-2.4339123E-2,2.2477448E-2,-6.596939E-2,-2.547259E-2,3.224763E-2,-3.6701497E-2,-8.973898E-2,-1.9834442E-2,-7.059385E-2],"categories":[],"categories_nodes":[],"categories_segments":[],"categories_sizes":[],"default_left":[0,0,0,0,0,0,0,0,0,0,0,0,0,0,0,0,0,0,0,0,0,0,0,0,0,0,0],"id":33,"left_children":[1,3,5,7,9,11,13,15,17,19,21,23,-1,25,-1,-1,-1,-1,-1,-1,-1,-1,-1,-1,-1,-1,-1],"loss_changes":[5.5186142E1,7.569169E1,9.309631E0,5.8088264E0,5.803969E1,1.3085976E0,1.3975584E1,9.7621536E-1,1.073167E1,8.3734825E1,3.5714554E1,4.2317715E0,0E0,5.590437E0,0E0,0E0,0E0,0E0,0E0,0E0,0E0,0E0,0E0,0E0,0E0,0E0,0E0],"parents":[2147483647,0,0,1,1,2,2,3,3,4,4,5,5,6,6,7,7,8,8,9,9,10,10,11,11,13,13],"right_children":[2,4,6,8,10,12,14,16,18,20,22,24,-1,26,-1,-1,-1,-1,-1,-1,-1,-1,-1,-1,-1,-1,-1],"split_conditions":[2.2E1,6E0,3E0,3E0,2E0,2E0,2.3E1,1E0,2E0,1.7E1,9E0,2.3E1,-8.326165E-2,4E0,3.783384E-2,-1.8123321E-2,-3.5607014E-2,2.8740993E-2,-2.4339123E-2,2.2477448E-2,-6.596939E-2,-2.547259E-2,3.224763E-2,-3.6701497E-2,-8.973898E-2,-1.9834442E-2,-7.059385E-2],"split_indices":[1,1,0,1,0,0,1,1,0,1,1,1,0,0,0,0,0,0,0,0,0,0,0,0,0,0,0],"split_type":[0,0,0,0,0,0,0,0,0,0,0,0,0,0,0,0,0,0,0,0,0,0,0,0,0,0,0],"sum_hessian":[2.476E3,2.253E3,2.23E2,5.99E2,1.654E3,1.1E2,1.13E2,3.67E2,2.32E2,4.34E2,1.22E3,6.7E1,4.3E1,8.8E1,2.5E1,3.9E1,3.28E2,4.7E1,1.85E2,2.46E2,1.88E2,1.18E2,1.102E3,4.2E1,2.5E1,4.4E1,4.4E1],"tree_param":{"num_deleted":"0","num_feature":"2","num_nodes":"27","size_leaf_vector":"1"}},{"base_weights":[-2.415241E-3,4.0028438E-2,-4.2949396E-1,-2.3388939E-1,1.3930981E-1,-6.160695E-1,-2.4406086E-1,-3.043764E-1,-1.2155846E-1,1.3217093E-1,1.09205976E-1,-5.195418E-1,-7.51247E-2,-4.1251552E-1,3.419594E-2,-3.581938E-2,-2.5262833E-2,1.2863256E-2,-2.7152592E-2,-2.2365188E-2,2.233881E-2,-3.311671E-2,-8.111022E-2,-1.7895067E-2,-6.369134E-2],"categories":[],"categories_nodes":[],"categories_segments":[],"categories_sizes":[],"default_left":[0,0,0,0,0,0,0,0,0,0,0,0,0,0,0,0,0,0,0,0,0,0,0,0,0],"id":34,"left_children":[1,3,5,7,9,11,13,15,17,-1,19,21,-1,23,-1,-1,-1,-1,-1,-1,-1,-1,-1,-1,-1],"loss_changes":[4.491726E1,6.1329967E1,7.5994263E0,4.713722E0,5.8764973E1,1.0580673E0,1.1394897E1,9.3437195E-1,8.777207E0,0E0,6.143032E1,3.4661274E0,0E0,4.550643E0,0E0,0E0,0E0,0E0,0E0,0E0,0E0,0E0,0E0,0E0,0E0],"parents":[2147483647,0,0,1,1,2,2,3,3,4,4,5,5,6,6,7,7,8,8,10,10,11,11,13,13],"right_children":[2,4,6,8,10,12,14,16,18,-1,20,22,-1,24,-1,-1,-1,-1,-1,-1,-1,-1,-1,-1,-1],"split_conditions":[2.2E1,6E0,3E0,3E0,7E0,2E0,2.3E1,4E0,3E0,1.3217093E-1,2E0,2.3E1,-7.51247E-2,4E0,3.419594E-2,-3.581938E-2,-2.5262833E-2,1.2863256E-2,-2.7152592E-2,-2.2365188E-2,2.233881E-2,-3.311671E-2,-8.111022E-2,-1.7895067E-2,-6.369134E-2],"split_indices":[1,1,0,1,1,0,1,0,0,0,0,1,0,0,0,0,0,0,0,0,0,0,0,0,0],"split_type":[0,0,0,0,0,0,0,0,0,0,0,0,0,0,0,0,0,0,0,0,0,0,0,0,0],"sum_hessian":[2.476E3,2.253E3,2.23E2,5.99E2,1.654E3,1.1E2,1.13E2,3.67E2,2.32E2,4E1,1.614E3,6.7E1,4.3E1,8.8E1,2.5E1,1.77E2,1.9E2,8.7E1,1.45E2,4.12E2,1.202E3,4.2E1,2.5E1,4.4E1,4.4E1],"tree_param":{"num_deleted":"0","num_feature":"2","num_nodes":"25","size_leaf_vector":"1"}},{"base_weights":[-2.2463438E-3,3.605081E-2,-3.8760144E-1,-1.07682124E-1,1.9267164E-1,-5.561683E-1,-2.2007051E-1,-5.338298E-3,-2.0803556E0,4.5565236E-1,-4.737746E-2,-4.692673E-1,-6.778297E-2,-3.7218076E-1,3.0907882E-2,-1.2897915E-2,6.3191704E-2,-1.5114728E-1,-4.1351172E-1,1.738554E-2,5.6561645E-2,-2.4626955E-2,4.6651717E-2,-2.9882038E-2,-7.331116E-2,-1.6145319E-2,-5.7463765E-2],"categories":[],"categories_nodes":[],"categories_segments":[],"categories_sizes":[],"default_left":[0,0,0,0,0,0,0,0,0,0,0,0,0,0,0,0,0,0,0,0,0,0,0,0,0,0,0],"id":35,"left_children":[1,3,5,7,9,11,13,15,17,19,21,23,-1,25,-1,-1,-1,-1,-1,-1,-1,-1,-1,-1,-1,-1,-1],"loss_changes":[3.6569546E1,5.0761833E1,6.2034035E0,2.3741264E2,6.813701E1,8.554611E-1,9.290783E0,8.824839E1,6.1547165E1,1.5860245E1,5.7863297E1,2.8389893E0,0E0,3.7042513E0,0E0,0E0,0E0,0E0,0E0,0E0,0E0,0E0,0E0,0E0,0E0,0E0,0E0],"parents":[2147483647,0,0,1,1,2,2,3,3,4,4,5,5,6,6,7,7,8,8,9,9,10,10,11,11,13,13],"right_children":[2,4,6,8,10,12,14,16,18,20,22,24,-1,26,-1,-1,-1,-1,-1,-1,-1,-1,-1,-1,-1,-1,-1],"split_conditions":[2.2E1,1.3E1,3E0,1.2E1,1.8E1,2E0,2.3E1,1.1E1,4E0,2E0,4E0,2.3E1,-6.778297E-2,4E0,3.0907882E-2,-1.2897915E-2,6.3191704E-2,-1.5114728E-1,-4.1351172E-1,1.738554E-2,5.6561645E-2,-2.4626955E-2,4.6651717E-2,-2.9882038E-2,-7.331116E-2,-1.6145319E-2,-5.7463765E-2],"split_indices":[1,1,0,1,1,0,1,1,0,0,0,1,0,0,0,0,0,0,0,0,0,0,0,0,0,0,0],"split_type":[0,0,0,0,0,0,0,0,0,0,0,0,0,0,0,0,0,0,0,0,0,0,0,0,0,0,0],"sum_hessian":[2.476E3,2.253E3,2.23E2,1.175E3,1.078E3,1.1E2,1.13E2,1.118E3,5.7E1,5.14E2,5.64E2,6.7E1,4.3E1,8.8E1,2.5E1,9.37E2,1.81E2,4.6E1,1.1E1,1.45E2,3.69E2,4.07E2,1.57E2,4.2E1,2.5E1,4.4E1,4.4E1],"tree_param":{"num_deleted":"0","num_feature":"2","num_nodes":"27","size_leaf_vector":"1"}},{"base_weights":[-2.2771596E-3,-2.5275144E-1,4.7673315E-2,-2.814374E-1,-1.8060362E-2,1.172461E-1,-2.6032507E-1,-1.21078044E-1,-3.0558282E-1,-1.3531791E-2,2.2562769E-1,-4.6211645E-1,-1.7458993E-1,-9.396988E-3,-1.4348772E-2,-2.1802226E-2,-3.742092E-2,1.3955844E-2,-1.8820553E-1,4.102302E-2,-7.9406967E-4,-3.9762538E-2,-6.626202E-2,2.2717526E-3,-3.15489E-2],"categories":[],"categories_nodes":[],"categories_segments":[],"categories_sizes":[],"default_left":[0,0,0,0,0,0,0,0,0,0,0,0,0,0,0,0,0,0,0,0,0,0,0,0,0],"id":36,"left_children":[1,3,5,7,-1,9,11,13,15,17,19,21,23,-1,-1,-1,-1,-1,-1,-1,-1,-1,-1,-1,-1],"loss_changes":[3.100256E1,8.018589E-1,4.43014E1,1.0974789E0,0E0,2.3900278E1,6.510851E0,1.0815918E-2,1.4446907E0,2.1909296E2,3.9757412E1,1.1976948E0,7.485484E0,0E0,0E0,0E0,0E0,0E0,0E0,0E0,0E0,0E0,0E0,0E0,0E0],"parents":[2147483647,0,0,1,1,2,2,3,3,5,5,6,6,7,7,8,8,9,9,10,10,11,11,12,12],"right_children":[2,4,6,8,-1,10,12,14,16,18,20,22,24,-1,-1,-1,-1,-1,-1,-1,-1,-1,-1,-1,-1],"split_conditions":[4E0,7E0,2.1E1,1E0,-1.8060362E-2,1.3E1,2E0,3E0,2E0,1.2E1,1.8E1,2.3E1,2.2E1,-9.396988E-3,-1.4348772E-2,-2.1802226E-2,-3.742092E-2,1.3955844E-2,-1.8820553E-1,4.102302E-2,-7.9406967E-4,-3.9762538E-2,-6.626202E-2,2.2717526E-3,-3.15489E-2],"split_indices":[1,0,1,1,0,1,0,0,0,1,1,1,1,0,0,0,0,0,0,0,0,0,0,0,0],"split_type":[0,0,0,0,0,0,0,0,0,0,0,0,0,0,0,0,0,0,0,0,0,0,0,0,0],"sum_hessian":[2.476E3,4.11E2,2.065E3,2.92E2,1.19E2,1.685E3,3.8E2,3.9E1,2.53E2,7.64E2,9.21E2,1.12E2,2.68E2,2E1,1.9E1,1.13E2,1.4E2,7.07E2,5.7E1,5.14E2,4.07E2,8.7E1,2.5E1,1.12E2,1.56E2],"tree_param":{"num_deleted":"0","num_feature":"2","num_nodes":"25","size_leaf_vector":"1"}},{"base_weights":[-2.1990528E-3,-1.849354E-1,5.618434E-2,-4.400169E-2,-2.2693725E-1,1.1917285E-1,3.0823354E-2,-1.9641134E-1,6.259484E-2,-3.3151948E-1,-1.6604836E-1,-5.984027E-2,2.8817555E-1,-7.47814E-3,-2.280151E-2,-1.7654553E-2,-4.721598E-2,1.1959034E-3,-2.4590371E-2,7.938138E-3,-2.5766635E-2,4.6209622E-2,-1.5386037E-2],"categories":[],"categories_nodes":[],"categories_segments":[],"categories_sizes":[],"default_left":[0,0,0,0,0,0,0,0,0,0,0,0,0,0,0,0,0,0,0,0,0,0,0],"id":37,"left_children":[1,3,5,7,9,-1,11,13,-1,15,17,19,21,-1,-1,-1,-1,-1,-1,-1,-1,-1,-1],"loss_changes":[2.6436932E1,3.5417004E0,5.404689E1,1.4315798E1,2.886917E0,0E0,4.290235E1,4.2116022E-1,0E0,3.6000977E0,4.182105E0,3.747713E1,3.689622E1,0E0,0E0,0E0,0E0,0E0,0E0,0E0,0E0,0E0,0E0],"parents":[2147483647,0,0,1,1,2,2,3,3,4,4,6,6,7,7,9,9,10,10,11,11,12,12],"right_children":[2,4,6,8,10,-1,12,14,-1,16,18,20,22,-1,-1,-1,-1,-1,-1,-1,-1,-1,-1],"split_conditions":[6E0,2E0,7E0,4E0,4E0,1.1917285E-1,4E0,2E0,6.259484E-2,3E0,5E0,1.8E1,2E1,-7.47814E-3,-2.280151E-2,-1.7654553E-2,-4.721598E-2,1.1959034E-3,-2.4590371E-2,7.938138E-3,-2.5766635E-2,4.6209622E-2,-1.5386037E-2],"split_indices":[1,0,1,1,0,0,0,1,0,0,0,1,1,0,0,0,0,0,0,0,0,0,0],"split_type":[0,0,0,0,0,0,0,0,0,0,0,0,0,0,0,0,0,0,0,0,0,0,0],"sum_hessian":[2.476E3,5.99E2,1.877E3,1.38E2,4.61E2,4E1,1.837E3,1.13E2,2.5E1,1.68E2,2.93E2,1.359E3,4.78E2,2.4E1,8.9E1,8.1E1,8.7E1,9.1E1,2.02E2,7.98E2,5.61E2,3.43E2,1.35E2],"tree_param":{"num_deleted":"0","num_feature":"2","num_nodes":"23","size_leaf_vector":"1"}},{"base_weights":[-1.9484692E-3,-1.665351E-1,5.0636154E-2,-3.936922E-2,-2.044345E-1,1.0754621E-1,2.774796E-2,-1.7703593E-1,5.6576055E-2,-2.9875132E-1,-1.49523E-1,-2.177021E-1,1.1442072E-1,-6.760233E-3,-2.054671E-2,-1.5910633E-2,-4.2548016E-2,1.0776126E-3,-2.2143433E-2,9.6577555E-3,-4.9307406E-2,-5.5527803E-2,1.6805468E-2],"categories":[],"categories_nodes":[],"categories_segments":[],"categories_sizes":[],"default_left":[0,0,0,0,0,0,0,0,0,0,0,0,0,0,0,0,0,0,0,0,0,0,0],"id":38,"left_children":[1,3,5,7,9,-1,11,13,-1,15,17,19,21,-1,-1,-1,-1,-1,-1,-1,-1,-1,-1],"loss_changes":[2.144619E1,2.8836555E0,4.402131E1,1.1679726E1,2.3480644E0,0E0,3.912622E1,3.40801E-1,0E0,2.9231033E0,3.3914185E0,4.1588646E1,4.8906685E1,0E0,0E0,0E0,0E0,0E0,0E0,0E0,0E0,0E0,0E0],"parents":[2147483647,0,0,1,1,2,2,3,3,4,4,6,6,7,7,9,9,10,10,11,11,12,12],"right_children":[2,4,6,8,10,-1,12,14,-1,16,18,20,22,-1,-1,-1,-1,-1,-1,-1,-1,-1,-1],"split_conditions":[6E0,2E0,7E0,4E0,4E0,1.0754621E-1,2E0,2E0,5.6576055E-2,3E0,5E0,1.7E1,9E0,-6.760233E-3,-2.054671E-2,-1.5910633E-2,-4.2548016E-2,1.0776126E-3,-2.2143433E-2,9.6577555E-3,-4.9307406E-2,-5.5527803E-2,1.6805468E-2],"split_indices":[1,0,1,1,0,0,0,1,0,0,0,1,1,0,0,0,0,0,0,0,0,0,0],"split_type":[0,0,0,0,0,0,0,0,0,0,0,0,0,0,0,0,0,0,0,0,0,0,0],"sum_hessian":[2.476E3,5.99E2,1.877E3,1.38E2,4.61E2,4E1,1.837E3,1.13E2,2.5E1,1.68E2,2.93E2,4.79E2,1.358E3,2.4E1,8.9E1,8.1E1,8.7E1,9.1E1,2.02E2,2.24E2,2.55E2,1E2,1.258E3],"tree_param":{"num_deleted":"0","num_feature":"2","num_nodes":"23","size_leaf_vector":"1"}},{"base_weights":[-1.7621103E-3,2.6632477E-2,-2.8747478E-1,-8.662529E-2,1.5004721E-1,-4.111147E-1,-1.6456683E-1,-1.5843643E-3,-1.7258352E0,3.438905E-1,-2.6907356E-2,-3.0096805E-1,-5.7199784E-2,-3.0086732E-1,3.083297E-2,-1.0347625E-2,5.2355945E-2,-1.2000587E-1,-3.641307E-1,5.1758356E-2,1.1948835E-2,-1.856761E-2,3.8324803E-2,-1.5746754E-2,-5.2672017E-2,-1.0605672E-2,-4.88992E-2],"categories":[],"categories_nodes":[],"categories_segments":[],"categories_sizes":[],"default_left":[0,0,0,0,0,0,0,0,0,0,0,0,0,0,0,0,0,0,0,0,0,0,0,0,0,0,0],"id":39,"left_children":[1,3,5,7,9,11,13,15,17,19,21,23,-1,25,-1,-1,-1,-1,-1,-1,-1,-1,-1,-1,-1,-1,-1],"loss_changes":[2.0102798E1,3.1518682E1,3.3363209E0,1.6393158E2,3.702052E1,1.7948494E0,7.440753E0,5.9929504E1,5.4042603E1,2.0011368E1,3.686388E1,2.119956E0,0E0,3.2098722E0,0E0,0E0,0E0,0E0,0E0,0E0,0E0,0E0,0E0,0E0,0E0,0E0,0E0],"parents":[2147483647,0,0,1,1,2,2,3,3,4,4,5,5,6,6,7,7,8,8,9,9,10,10,11,11,13,13],"right_children":[2,4,6,8,10,12,14,16,18,20,22,24,-1,26,-1,-1,-1,-1,-1,-1,-1,-1,-1,-1,-1,-1,-1],"split_conditions":[2.2E1,1.3E1,3E0,1.2E1,1.8E1,2E0,2.3E1,1.1E1,4E0,3E0,4E0,2.3E1,-5.7199784E-2,4E0,3.083297E-2,-1.0347625E-2,5.2355945E-2,-1.2000587E-1,-3.641307E-1,5.1758356E-2,1.1948835E-2,-1.856761E-2,3.8324803E-2,-1.5746754E-2,-5.2672017E-2,-1.0605672E-2,-4.88992E-2],"split_indices":[1,1,0,1,1,0,1,1,0,0,0,1,0,0,0,0,0,0,0,0,0,0,0,0,0,0,0],"split_type":[0,0,0,0,0,0,0,0,0,0,0,0,0,0,0,0,0,0,0,0,0,0,0,0,0,0,0],"sum_hessian":[2.476E3,2.253E3,2.23E2,1.175E3,1.078E3,1.1E2,1.13E2,1.118E3,5.7E1,5.14E2,5.64E2,6.7E1,4.3E1,8.8E1,2.5E1,9.37E2,1.81E2,4.6E1,1.1E1,2.89E2,2.25E2,4.07E2,1.57E2,4.2E1,2.5E1,4.4E1,4.4E1],"tree_param":{"num_deleted":"0","num_feature":"2","num_nodes":"27","size_leaf_vector":"1"}},{"base_weights":[-1.792967E-3,2.381012E-2,-2.5941604E-1,-7.833889E-2,1.3512006E-1,-3.7113497E-1,-1.483615E-1,-1.3885843E-3,-1.5615984E0,3.0962515E-1,-2.4181245E-2,-2.718774E-1,-5.160981E-2,-2.7144888E-1,2.7868226E-2,-9.313974E-3,4.714904E-2,-1.0826055E-1,-3.307521E-1,4.6600424E-2,1.0759169E-2,-1.671536E-2,3.451663E-2,-1.4208689E-2,-4.7607414E-2,-9.56866E-3,-4.4117894E-2],"categories":[],"categories_nodes":[],"categories_segments":[],"categories_sizes":[],"default_left":[0,0,0,0,0,0,0,0,0,0,0,0,0,0,0,0,0,0,0,0,0,0,0,0,0,0,0],"id":40,"left_children":[1,3,5,7,9,11,13,15,17,19,21,23,-1,25,-1,-1,-1,-1,-1,-1,-1,-1,-1,-1,-1,-1,-1],"loss_changes":[1.6344336E1,2.5639017E1,2.724082E0,1.3422325E2,3.0002491E1,1.4568291E0,6.0679097E0,4.859418E1,4.4923782E1,1.6220676E1,2.9893362E1,1.7345467E0,0E0,2.6128464E0,0E0,0E0,0E0,0E0,0E0,0E0,0E0,0E0,0E0,0E0,0E0,0E0,0E0],"parents":[2147483647,0,0,1,1,2,2,3,3,4,4,5,5,6,6,7,7,8,8,9,9,10,10,11,11,13,13],"right_children":[2,4,6,8,10,12,14,16,18,20,22,24,-1,26,-1,-1,-1,-1,-1,-1,-1,-1,-1,-1,-1,-1,-1],"split_conditions":[2.2E1,1.3E1,3E0,1.2E1,1.8E1,2E0,2.3E1,1.1E1,4E0,3E0,4E0,2.3E1,-5.160981E-2,4E0,2.7868226E-2,-9.313974E-3,4.714904E-2,-1.0826055E-1,-3.307521E-1,4.6600424E-2,1.0759169E-2,-1.671536E-2,3.451663E-2,-1.4208689E-2,-4.7607414E-2,-9.56866E-3,-4.4117894E-2],"split_indices":[1,1,0,1,1,0,1,1,0,0,0,1,0,0,0,0,0,0,0,0,0,0,0,0,0,0,0],"split_type":[0,0,0,0,0,0,0,0,0,0,0,0,0,0,0,0,0,0,0,0,0,0,0,0,0,0,0],"sum_hessian":[2.476E3,2.253E3,2.23E2,1.175E3,1.078E3,1.1E2,1.13E2,1.118E3,5.7E1,5.14E2,5.64E2,6.7E1,4.3E1,8.8E1,2.5E1,9.37E2,1.81E2,4.6E1,1.1E1,2.89E2,2.25E2,4.07E2,1.57E2,4.2E1,2.5E1,4.4E1,4.4E1],"tree_param":{"num_deleted":"0","num_feature":"2","num_nodes":"27","size_leaf_vector":"1"}},{"base_weights":[-1.8016677E-3,2.9721234E-2,-1.75297E-1,-5.844517E-2,1.7805533E-1,-2.2701377E-1,-4.905751E-2,-1.2161752E-3,-3.815805E-1,5.597017E-2,5.920074E-1,-2.0451419E-1,-4.3029778E-2,-1.3843073E-1,2.5188586E-2,-8.383589E-3,4.245998E-2,-1.4130075E-1,4.5400634E-3,2.0707835E-2,-2.3988517E-2,1.030298E-1,-1.1529663E-2,-2.5175426E-2,-1.7690888E-2,1.3647424E-2,-3.9804146E-2],"categories":[],"categories_nodes":[],"categories_segments":[],"categories_sizes":[],"default_left":[0,0,0,0,0,0,0,0,0,0,0,0,0,0,0,0,0,0,0,0,0,0,0,0,0,0,0],"id":41,"left_children":[1,3,5,7,9,11,13,15,17,19,21,23,-1,25,-1,-1,-1,-1,-1,-1,-1,-1,-1,-1,-1,-1,-1],"loss_changes":[1.3552113E1,2.7435148E1,2.4762964E0,2.4335943E1,3.9487118E1,1.146925E0,3.0472517E0,3.9402905E1,8.726333E1,2.7096899E1,5.5299633E1,2.7496243E-1,0E0,6.2633624E0,0E0,0E0,0E0,0E0,0E0,0E0,0E0,0E0,0E0,0E0,0E0,0E0,0E0],"parents":[2147483647,0,0,1,1,2,2,3,3,4,4,5,5,6,6,7,7,8,8,9,9,10,10,11,11,13,13],"right_children":[2,4,6,8,10,12,14,16,18,20,22,24,-1,26,-1,-1,-1,-1,-1,-1,-1,-1,-1,-1,-1,-1,-1],"split_conditions":[2.1E1,1.5E1,4E0,1.2E1,4E0,2.3E1,2.3E1,1.1E1,1.3E1,3E0,1.9E1,2E0,-4.3029778E-2,2.2E1,2.5188586E-2,-8.383589E-3,4.245998E-2,-1.4130075E-1,4.5400634E-3,2.0707835E-2,-2.3988517E-2,1.030298E-1,-1.1529663E-2,-2.5175426E-2,-1.7690888E-2,1.3647424E-2,-3.9804146E-2],"split_indices":[1,1,0,1,0,1,1,1,1,0,1,0,0,1,0,0,0,0,0,0,0,0,0,0,0,0,0],"split_type":[0,0,0,0,0,0,0,0,0,0,0,0,0,0,0,0,0,0,0,0,0,0,0,0,0,0,0],"sum_hessian":[2.476E3,2.096E3,3.8E2,1.315E3,7.81E2,2.69E2,1.11E2,1.118E3,1.97E2,6.04E2,1.77E2,2.44E2,2.5E1,8.6E1,2.5E1,9.37E2,1.81E2,5.7E1,1.4E2,4E2,2.04E2,1.09E2,6.8E1,8.7E1,1.57E2,4.2E1,4.4E1],"tree_param":{"num_deleted":"0","num_feature":"2","num_nodes":"27","size_leaf_vector":"1"}},{"base_weights":[-1.6624861E-3,-1.5830633E-1,2.9576104E-2,-1.9384623E-1,-1.0282611E-1,7.194568E-2,-1.5799524E-1,-1.317728E-1,-2.4408361E-1,-1.3945772E-1,-8.853764E-3,1.4680846E-2,2.2967824E-1,-2.046306E-1,-4.4160068E-2,-3.4189243E-3,-1.5741521E-2,-2.634364E-3,-2.8107896E-2,-5.8815647E-3,-1.9839307E-2,1.2765844E-2,-2.0251593E-2,3.0126353E-3,5.3332116E-2,-1.842378E-2,-3.8892295E-2,-1.2488792E-2,2.276662E-2],"categories":[],"categories_nodes":[],"categories_segments":[],"categories_sizes":[],"default_left":[0,0,0,0,0,0,0,0,0,0,0,0,0,0,0,0,0,0,0,0,0,0,0,0,0,0,0,0,0],"id":42,"left_children":[1,3,5,7,9,11,13,15,17,19,-1,21,23,25,27,-1,-1,-1,-1,-1,-1,-1,-1,-1,-1,-1,-1,-1,-1],"loss_changes":[1.2125468E1,7.924328E-1,1.6430527E1,7.4743843E-1,7.296848E-2,1.5225473E1,2.0135946E0,2.7987778E-1,1.0961809E0,1.9744879E-1,0E0,3.0404354E1,2.7189972E1,9.430685E-1,2.486155E0,0E0,0E0,0E0,0E0,0E0,0E0,0E0,0E0,0E0,0E0,0E0,0E0,0E0,0E0],"parents":[2147483647,0,0,1,1,2,2,3,3,4,4,5,5,6,6,7,7,8,8,9,9,11,11,12,12,13,13,14,14],"right_children":[2,4,6,8,10,12,14,16,18,20,-1,22,24,26,28,-1,-1,-1,-1,-1,-1,-1,-1,-1,-1,-1,-1,-1,-1],"split_conditions":[4E0,5E0,2.1E1,2E0,7E0,4E0,4E0,2E0,1E0,1E0,-8.853764E-3,3E0,1.5E1,2.3E1,2.3E1,-3.4189243E-3,-1.5741521E-2,-2.634364E-3,-2.8107896E-2,-5.8815647E-3,-1.9839307E-2,1.2765844E-2,-2.0251593E-2,3.0126353E-3,5.3332116E-2,-1.842378E-2,-3.8892295E-2,-1.2488792E-2,2.276662E-2],"split_indices":[1,0,1,0,0,0,0,1,1,1,0,0,1,1,1,0,0,0,0,0,0,0,0,0,0,0,0,0,0],"split_type":[0,0,0,0,0,0,0,0,0,0,0,0,0,0,0,0,0,0,0,0,0,0,0,0,0,0,0,0,0],"sum_hessian":[2.476E3,4.11E2,2.065E3,2.49E2,1.62E2,1.685E3,3.8E2,1.13E2,1.36E2,4.3E1,1.19E2,1.237E3,4.48E2,2.69E2,1.11E2,2.4E1,8.9E1,2E1,1.16E2,1.9E1,2.4E1,8.14E2,4.23E2,2.71E2,1.77E2,2.44E2,2.5E1,8.6E1,2.5E1],"tree_param":{"num_deleted":"0","num_feature":"2","num_nodes":"29","size_leaf_vector":"1"}},{"base_weights":[-1.5294577E-3,-1.200415E-1,3.973781E-2,8.291608E-2,-4.2480177E-1,-1.6635787E-1,1.3465104E-1,-1.8107691E-1,1.2136954E0,-1.6068608E-1,-1.3722806E-1,-1.02491744E-1,-4.6823302E-1,3.019002E-1,-6.0416967E-2,1.769038E-2,-6.4827904E-2,9.448301E-2,1.7232607E-1,-4.579367E-2,-9.2665525E-3,-1.4524675E-2,9.425244E-2,-8.6629234E-2,-3.592518E-2,1.5427314E-2,1.5422852E-1,-1.7915396E-2,1.2606228E-2],"categories":[],"categories_nodes":[],"categories_segments":[],"categories_sizes":[],"default_left":[0,0,0,0,0,0,0,0,0,0,0,0,0,0,0,0,0,0,0,0,0,0,0,0,0,0,0,0,0],"id":43,"left_children":[1,3,5,7,9,11,13,15,17,-1,19,21,23,25,27,-1,-1,-1,-1,-1,-1,-1,-1,-1,-1,-1,-1,-1,-1],"loss_changes":[1.2118956E1,3.96214E1,3.59759E1,1.15149124E2,8.6801346E1,1.1134178E1,4.109307E1,5.2463722E1,8.373146E0,0E0,2.9159248E0,2.1583141E1,4.070263E0,1.2391362E2,1.2909221E1,0E0,0E0,0E0,0E0,0E0,0E0,0E0,0E0,0E0,0E0,0E0,0E0,0E0,0E0],"parents":[2147483647,0,0,1,1,2,2,3,3,4,4,5,5,6,6,7,7,8,8,10,10,11,11,12,12,13,13,14,14],"right_children":[2,4,6,8,10,12,14,16,18,-1,20,22,24,26,28,-1,-1,-1,-1,-1,-1,-1,-1,-1,-1,-1,-1,-1,-1],"split_conditions":[2E0,1.7E1,9E0,1.5E1,1.8E1,7E0,1.8E1,9E0,1.6E1,-1.6068608E-1,1.9E1,6E0,3E0,1.7E1,4E0,1.769038E-2,-6.4827904E-2,9.448301E-2,1.7232607E-1,-4.579367E-2,-9.2665525E-3,-1.4524675E-2,9.425244E-2,-8.6629234E-2,-3.592518E-2,1.5427314E-2,1.5422852E-1,-1.7915396E-2,1.2606228E-2],"split_indices":[0,1,1,1,1,1,1,1,1,0,1,1,0,1,0,0,0,0,0,0,0,0,0,0,0,0,0,0,0],"split_type":[0,0,0,0,0,0,0,0,0,0,0,0,0,0,0,0,0,0,0,0,0,0,0,0,0,0,0,0,0],"sum_hessian":[2.476E3,6.39E2,1.837E3,3.84E2,2.55E2,5.79E2,1.258E3,3.12E2,7.2E1,4.9E1,2.06E2,4.79E2,1E2,6.77E2,5.81E2,1.77E2,1.35E2,4.9E1,2.3E1,2.4E1,1.82E2,4.61E2,1.8E1,2E1,8E1,6.06E2,7.1E1,3.55E2,2.26E2],"tree_param":{"num_deleted":"0","num_feature":"2","num_nodes":"29","size_leaf_vector":"1"}},{"base_weights":[-1.3257174E-3,-1.08031325E-1,3.5830386E-2,7.519477E-2,-3.831642E-1,-1.4979602E-1,1.2131687E-1,-1.6312031E-1,1.0959815E0,-1.4493881E-1,-1.23771176E-1,-9.207656E-2,-4.2262322E-1,2.7196106E-1,-5.4384284E-2,1.5931262E-2,-5.839287E-2,8.5223734E-2,1.558116E-1,8.8679866E-4,-2.3418665E-2,-1.3075364E-2,8.5323334E-2,-7.837877E-2,-3.2377042E-2,1.3887192E-2,1.390199E-1,-1.6128862E-2,1.1351143E-2],"categories":[],"categories_nodes":[],"categories_segments":[],"categories_sizes":[],"default_left":[0,0,0,0,0,0,0,0,0,0,0,0,0,0,0,0,0,0,0,0,0,0,0,0,0,0,0,0,0],"id":44,"left_children":[1,3,5,7,9,11,13,15,17,-1,19,21,23,25,27,-1,-1,-1,-1,-1,-1,-1,-1,-1,-1,-1,-1,-1,-1],"loss_changes":[9.824592E0,3.2292187E1,2.9184566E1,9.383729E1,7.062279E1,9.094601E0,3.333845E1,4.2561646E1,6.8950195E0,0E0,3.0336778E0,1.766124E1,3.3521461E0,1.0071051E2,1.0464498E1,0E0,0E0,0E0,0E0,0E0,0E0,0E0,0E0,0E0,0E0,0E0,0E0,0E0,0E0],"parents":[2147483647,0,0,1,1,2,2,3,3,4,4,5,5,6,6,7,7,8,8,10,10,11,11,12,12,13,13,14,14],"right_children":[2,4,6,8,10,12,14,16,18,-1,20,22,24,26,28,-1,-1,-1,-1,-1,-1,-1,-1,-1,-1,-1,-1,-1,-1],"split_conditions":[2E0,1.7E1,9E0,1.5E1,1.8E1,7E0,1.8E1,9E0,1.6E1,-1.4493881E-1,2.1E1,6E0,3E0,1.7E1,4E0,1.5931262E-2,-5.839287E-2,8.5223734E-2,1.558116E-1,8.8679866E-4,-2.3418665E-2,-1.3075364E-2,8.5323334E-2,-7.837877E-2,-3.2377042E-2,1.3887192E-2,1.390199E-1,-1.6128862E-2,1.1351143E-2],"split_indices":[0,1,1,1,1,1,1,1,1,0,1,1,0,1,0,0,0,0,0,0,0,0,0,0,0,0,0,0,0],"split_type":[0,0,0,0,0,0,0,0,0,0,0,0,0,0,0,0,0,0,0,0,0,0,0,0,0,0,0,0,0],"sum_hessian":[2.476E3,6.39E2,1.837E3,3.84E2,2.55E2,5.79E2,1.258E3,3.12E2,7.2E1,4.9E1,2.06E2,4.79E2,1E2,6.77E2,5.81E2,1.77E2,1.35E2,4.9E1,2.3E1,9.4E1,1.12E2,4.61E2,1.8E1,2E1,8E1,6.06E2,7.1E1,3.55E2,2.26E2],"tree_param":{"num_deleted":"0","num_feature":"2","num_nodes":"29","size_leaf_vector":"1"}},{"base_weights":[-1.136425E-3,-1.3193913E-1,2.4948692E-2,-1.7484383E-1,-6.532494E-2,-2.0055152E-2,1.4601271E-1,2.4509203E-4,-1.9027142E-1,-9.9123724E-2,-5.2387677E-3,6.056344E-2,-1.8699823E-1,2.547067E-1,-1.947297E-1,-1.5209043E-2,-2.2584718E-2,-2.7008129E-3,-1.5285126E-2,2.6043925E-2,-1.6095646E-2,-4.097278E-2,1.3912188E-2,2.9223177E-3,6.513094E-2,-7.753109E-2,-6.3397014E-3],"categories":[],"categories_nodes":[],"categories_segments":[],"categories_sizes":[],"default_left":[0,0,0,0,0,0,0,0,0,0,0,0,0,0,0,0,0,0,0,0,0,0,0,0,0,0,0],"id":45,"left_children":[1,3,5,7,9,11,13,-1,15,17,-1,19,21,23,25,-1,-1,-1,-1,-1,-1,-1,-1,-1,-1,-1,-1],"loss_changes":[8.454826E0,1.1660995E0,1.1259212E1,6.842737E-1,6.6081166E-2,2.0293613E1,2.0790127E1,0E0,2.7806377E-1,1.6635385E-1,0E0,4.5071087E1,3.572156E1,3.7987602E1,1.0320751E1,0E0,0E0,0E0,0E0,0E0,0E0,0E0,0E0,0E0,0E0,0E0,0E0],"parents":[2147483647,0,0,1,1,2,2,3,3,4,4,5,5,6,6,8,8,9,9,11,11,12,12,13,13,14,14],"right_children":[2,4,6,8,10,12,14,-1,16,18,-1,20,22,24,26,-1,-1,-1,-1,-1,-1,-1,-1,-1,-1,-1,-1],"split_conditions":[4E0,5E0,4E0,1E0,7E0,3E0,2E1,2.4509203E-4,2E0,1E0,-5.2387677E-3,1.7E1,1.7E1,1.5E1,2.1E1,-1.5209043E-2,-2.2584718E-2,-2.7008129E-3,-1.5285126E-2,2.6043925E-2,-1.6095646E-2,-4.097278E-2,1.3912188E-2,2.9223177E-3,6.513094E-2,-7.753109E-2,-6.3397014E-3],"split_indices":[1,0,0,1,0,0,1,0,0,1,0,1,1,1,1,0,0,0,0,0,0,0,0,0,0,0,0],"split_type":[0,0,0,0,0,0,0,0,0,0,0,0,0,0,0,0,0,0,0,0,0,0,0,0,0,0,0],"sum_hessian":[2.476E3,4.11E2,2.065E3,2.49E2,1.62E2,1.506E3,5.59E2,2E1,2.29E2,4.3E1,1.19E2,1.016E3,4.9E2,4.24E2,1.35E2,1.13E2,1.16E2,1.9E1,2.4E1,5.34E2,4.82E2,2.91E2,1.99E2,2.71E2,1.53E2,2.4E1,1.11E2],"tree_param":{"num_deleted":"0","num_feature":"2","num_nodes":"27","size_leaf_vector":"1"}},{"base_weights":[-1.0606091E-3,-9.910938E-2,3.3081E-2,5.432218E-2,-3.294689E-1,-1.2689804E-1,1.06754355E-1,-1.5801193E-1,9.639969E-1,-1.2915732E-1,-9.5484935E-2,-7.5155914E-2,-3.7154478E-1,2.446238E-1,-5.4039855E-2,1.4376128E-2,-5.5181798E-2,7.431937E-2,1.383837E-1,-2.5300005E-2,-1.4894037E-3,-1.0883473E-2,7.477266E-2,-7.33946E-2,-2.7300198E-2,1.2380281E-2,1.2598144E-1,-2.8534193E-2,1.6860485E-4],"categories":[],"categories_nodes":[],"categories_segments":[],"categories_sizes":[],"default_left":[0,0,0,0,0,0,0,0,0,0,0,0,0,0,0,0,0,0,0,0,0,0,0,0,0,0,0,0,0],"id":46,"left_children":[1,3,5,7,9,11,13,15,17,-1,19,21,23,25,27,-1,-1,-1,-1,-1,-1,-1,-1,-1,-1,-1,-1,-1,-1],"loss_changes":[8.295141E0,2.2638329E1,2.167657E1,7.451699E1,5.7506622E1,7.3140326E0,2.7923492E1,3.727628E1,5.738785E0,0E0,2.6239486E0,1.3383958E1,3.4065466E0,8.3005005E1,7.5021796E0,0E0,0E0,0E0,0E0,0E0,0E0,0E0,0E0,0E0,0E0,0E0,0E0,0E0,0E0],"parents":[2147483647,0,0,1,1,2,2,3,3,4,4,5,5,6,6,7,7,8,8,10,10,11,11,12,12,13,13,14,14],"right_children":[2,4,6,8,10,12,14,16,18,-1,20,22,24,26,28,-1,-1,-1,-1,-1,-1,-1,-1,-1,-1,-1,-1,-1,-1],"split_conditions":[2E0,1.7E1,9E0,1.5E1,1.8E1,7E0,1.8E1,9E0,1.6E1,-1.2915732E-1,2E1,6E0,3E0,1.7E1,1.9E1,1.4376128E-2,-5.5181798E-2,7.431937E-2,1.383837E-1,-2.5300005E-2,-1.4894037E-3,-1.0883473E-2,7.477266E-2,-7.33946E-2,-2.7300198E-2,1.2380281E-2,1.2598144E-1,-2.8534193E-2,1.6860485E-4],"split_indices":[0,1,1,1,1,1,1,1,1,0,1,1,0,1,1,0,0,0,0,0,0,0,0,0,0,0,0,0,0],"split_type":[0,0,0,0,0,0,0,0,0,0,0,0,0,0,0,0,0,0,0,0,0,0,0,0,0,0,0,0,0],"sum_hessian":[2.476E3,6.39E2,1.837E3,3.84E2,2.55E2,5.79E2,1.258E3,3.12E2,7.2E1,4.9E1,2.06E2,4.79E2,1E2,6.77E2,5.81E2,1.77E2,1.35E2,4.9E1,2.3E1,6.9E1,1.37E2,4.61E2,1.8E1,2E1,8E1,6.06E2,7.1E1,1.12E2,4.69E2],"tree_param":{"num_deleted":"0","num_feature":"2","num_nodes":"29","size_leaf_vector":"1"}},{"base_weights":[-9.1871974E-4,1.6357904E-2,-1.7476064E-1,-1.149638E-1,4.5705806E-2,-2.0786737E-1,-5.8381606E-2,-1.7257036E-1,-6.03334E-2,-1.0988939E-3,1.7458779E-1,-3.6522106E-3,-2.6210964E-1,-3.031897E-2,1.8867193E-2,1.2582716E-3,-1.9321283E-2,-9.024463E-3,-3.6400163E-3,9.080792E-3,-1.8758297E-2,2.2721292E-2,-4.0854696E-2,-3.815318E-2,-2.0012442E-2],"categories":[],"categories_nodes":[],"categories_segments":[],"categories_sizes":[],"default_left":[0,0,0,0,0,0,0,0,0,0,0,0,0,0,0,0,0,0,0,0,0,0,0,0,0],"id":47,"left_children":[1,3,5,7,9,11,13,15,17,19,21,-1,23,-1,-1,-1,-1,-1,-1,-1,-1,-1,-1,-1,-1],"loss_changes":[7.4422836E0,8.692208E0,8.509207E-1,1.286181E0,1.1117689E1,1.6076093E0,3.141719E0,7.6683426E-1,1.4919585E-1,2.3206312E1,1.5160411E1,0E0,9.0076447E-1,0E0,0E0,0E0,0E0,0E0,0E0,0E0,0E0,0E0,0E0,0E0,0E0],"parents":[2147483647,0,0,1,1,2,2,3,3,4,4,5,5,6,6,7,7,8,8,9,9,10,10,12,12],"right_children":[2,4,6,8,10,12,14,16,18,20,22,-1,24,-1,-1,-1,-1,-1,-1,-1,-1,-1,-1,-1,-1],"split_conditions":[2.2E1,4E0,2.3E1,4E0,4E0,2E0,2E0,1E0,7E0,3E0,5E0,-3.6522106E-3,3E0,-3.031897E-2,1.8867193E-2,1.2582716E-3,-1.9321283E-2,-9.024463E-3,-3.6400163E-3,9.080792E-3,-1.8758297E-2,2.2721292E-2,-4.0854696E-2,-3.815318E-2,-2.0012442E-2],"split_indices":[1,1,1,0,0,0,0,1,0,0,0,0,0,0,0,0,0,0,0,0,0,0,0,0,0],"split_type":[0,0,0,0,0,0,0,0,0,0,0,0,0,0,0,0,0,0,0,0,0,0,0,0,0],"sum_hessian":[2.476E3,2.253E3,2.23E2,4.11E2,1.842E3,1.73E2,5E1,1.99E2,2.12E2,1.352E3,4.9E2,4.2E1,1.31E2,2.5E1,2.5E1,2E1,1.79E2,9.3E1,1.19E2,9.06E2,4.46E2,4.5E2,4E1,4.3E1,8.8E1],"tree_param":{"num_deleted":"0","num_feature":"2","num_nodes":"25","size_leaf_vector":"1"}},{"base_weights":[-8.80157E-4,-9.085077E-2,3.0448502E-2,4.8615277E-2,-3.0023974E-1,-1.0884745E-1,9.45956E-2,-1.411392E-1,8.615541E-1,-1.1738976E-1,-8.776084E-2,-6.024422E-2,-3.387554E-1,3.4862146E-1,2.3578646E-2,-2.61806E-4,-9.0583675E-2,6.61461E-2,1.2425166E-1,3.369961E-3,-1.8909698E-2,-9.007507E-3,6.682872E-2,-6.726947E-2,-2.479964E-2,1.151058E-2,8.27347E-2,-9.601652E-2,5.9758937E-3],"categories":[],"categories_nodes":[],"categories_segments":[],"categories_sizes":[],"default_left":[0,0,0,0,0,0,0,0,0,0,0,0,0,0,0,0,0,0,0,0,0,0,0,0,0,0,0,0,0],"id":48,"left_children":[1,3,5,7,9,11,13,15,17,-1,19,21,23,25,27,-1,-1,-1,-1,-1,-1,-1,-1,-1,-1,-1,-1,-1,-1],"loss_changes":[6.984584E0,1.8704294E1,1.6433619E1,5.9511223E1,4.7419247E1,6.4606676E0,2.2704323E1,3.3152702E1,4.742771E0,0E0,2.5541973E0,1.0491897E1,2.8942814E0,3.0646988E1,3.511563E1,0E0,0E0,0E0,0E0,0E0,0E0,0E0,0E0,0E0,0E0,0E0,0E0,0E0,0E0],"parents":[2147483647,0,0,1,1,2,2,3,3,4,4,5,5,6,6,7,7,8,8,10,10,11,11,12,12,13,13,14,14],"right_children":[2,4,6,8,10,12,14,16,18,-1,20,22,24,26,28,-1,-1,-1,-1,-1,-1,-1,-1,-1,-1,-1,-1,-1,-1],"split_conditions":[2E0,1.7E1,9E0,1.5E1,1.8E1,7E0,1.2E1,1.2E1,1.6E1,-1.1738976E-1,2.1E1,6E0,3E0,4E0,1.3E1,-2.61806E-4,-9.0583675E-2,6.61461E-2,1.2425166E-1,3.369961E-3,-1.8909698E-2,-9.007507E-3,6.682872E-2,-6.726947E-2,-2.479964E-2,1.151058E-2,8.27347E-2,-9.601652E-2,5.9758937E-3],"split_indices":[0,1,1,1,1,1,1,1,1,0,1,1,0,0,1,0,0,0,0,0,0,0,0,0,0,0,0,0,0],"split_type":[0,0,0,0,0,0,0,0,0,0,0,0,0,0,0,0,0,0,0,0,0,0,0,0,0,0,0,0,0],"sum_hessian":[2.476E3,6.39E2,1.837E3,3.84E2,2.55E2,5.79E2,1.258E3,3.12E2,7.2E1,4.9E1,2.06E2,4.79E2,1E2,2.74E2,9.84E2,2.65E2,4.7E1,4.9E1,2.3E1,9.4E1,1.12E2,4.61E2,1.8E1,2E1,8E1,1.85E2,8.9E1,3.4E1,9.5E2],"tree_param":{"num_deleted":"0","num_feature":"2","num_nodes":"29","size_leaf_vector":"1"}},{"base_weights":[-8.177432E-4,1.4616122E-2,-1.5611736E-1,-7.868845E-2,4.6393115E-2,-1.8737048E-1,-4.642795E-2,4.401204E-2,-3.2821757E-1,-9.802158E-2,1.2228988E-1,-1.4485004E-3,-2.4226975E-1,-2.5585443E-2,1.6478421E-2,-1.273157E-2,7.780062E-2,-1.0588558E-1,-6.493094E-3,-5.4099117E-3,-3.057915E-2,2.8918117E-2,3.799551E-3,-1.841322E-2,-3.5057724E-2],"categories":[],"categories_nodes":[],"categories_segments":[],"categories_sizes":[],"default_left":[0,0,0,0,0,0,0,0,0,0,0,0,0,0,0,0,0,0,0,0,0,0,0,0,0],"id":49,"left_children":[1,3,5,7,9,11,13,15,17,19,21,-1,23,-1,-1,-1,-1,-1,-1,-1,-1,-1,-1,-1,-1],"loss_changes":[5.9393373E0,6.6866226E0,7.5920343E-1,1.7558182E1,1.844773E1,1.6479745E0,2.298065E0,4.8514164E1,3.628866E1,5.276402E0,1.5506014E1,0E0,7.6661634E-1,0E0,0E0,0E0,0E0,0E0,0E0,0E0,0E0,0E0,0E0,0E0,0E0],"parents":[2147483647,0,0,1,1,2,2,3,3,4,4,5,5,6,6,7,7,8,8,9,9,10,10,12,12],"right_children":[2,4,6,8,10,12,14,16,18,20,22,-1,24,-1,-1,-1,-1,-1,-1,-1,-1,-1,-1,-1,-1],"split_conditions":[2.2E1,2E0,2.3E1,1.7E1,9E0,2E0,2E0,1.5E1,1.8E1,7E0,3E0,-1.4485004E-3,4E0,-2.5585443E-2,1.6478421E-2,-1.273157E-2,7.780062E-2,-1.0588558E-1,-6.493094E-3,-5.4099117E-3,-3.057915E-2,2.8918117E-2,3.799551E-3,-1.841322E-2,-3.5057724E-2],"split_indices":[1,0,1,1,1,0,0,1,1,1,0,0,0,0,0,0,0,0,0,0,0,0,0,0,0],"split_type":[0,0,0,0,0,0,0,0,0,0,0,0,0,0,0,0,0,0,0,0,0,0,0,0,0],"sum_hessian":[2.476E3,2.253E3,2.23E2,5.72E2,1.681E3,1.73E2,5E1,3.84E2,1.88E2,5.79E2,1.102E3,4.2E1,1.31E2,2.5E1,2.5E1,3.12E2,7.2E1,4.9E1,1.39E2,4.79E2,1E2,3.69E2,7.33E2,8.7E1,4.4E1],"tree_param":{"num_deleted":"0","num_feature":"2","num_nodes":"25","size_leaf_vector":"1"}}]},"name":"gbtree"},"learner_model_param":{"base_score":"[1.3331583E1]","boost_from_average":"1","num_class":"0","num_feature":"2","num_target":"1"},"objective":{"name":"reg:squarederror","reg_loss_param":{"scale_pos_weight":"1"}}},"version":[3,2,0]}